-0.09851563
0.00633605
0.04850334
-0.04592026
-0.02333657
-0.05932420
0.09659341
0.00388225
0.00750844
-0.04716104
-0.07716392
0.06451616
0.08152754
-0.00817564
-0.04950363
-0.04909974
-0.06259505
-0.03558511
-0.07955841
0.06122492
0.00663231
0.06864091
0.04557950
-0.08615775
0.00597758
-0.07404814
0.07225521
-0.00733059
-0.00620080
-0.01059441
-0.05390042
-0.09914541
-0.09700379
0.09709298
0.08147889
0.05555856
0.01255503
0.05227650
0.02314245
-0.03272675
-0.02341738
-0.04512161
-0.02819665
0.02696295
-0.02847003
-0.09066465
0.00450557
-0.06968618
-0.01046234
-0.03537025
-0.06266993
-0.08827924
0.09607918
0.00799140
-0.08340024
0.09739707
-0.01451740
0.03904939
-0.06391536
0.00747694
0.09782256
-0.06327110
0.03558908
-0.02138671
-0.01391369
0.04769672
-0.06609357
0.06044889
0.05951227
-0.08221520
-0.09576783
-0.07491339
0.02577969
-0.02903222
-0.05522062
-0.00375380
0.00225895
-0.08126720
0.09474714
-0.03225447
0.05169266
-0.04890351
0.03131602
0.08105186
-0.00869676
-0.01380796
0.08231325
-0.00851188
0.09347352
-0.03796607
0.05686431
0.07737509
0.05279979
0.01577081
0.06677273
0.00766374
-0.03710290
-0.02989200
-0.03631628
-0.00926660
0.01477203
0.03192453
-0.08599745
-0.00062865
-0.00733356
-0.09668096
0.04162674
-0.02092983
-0.00920270
0.08540870
-0.07679392
-0.01616604
-0.04331998
-0.01962946
-0.05309026
-0.02869156
0.04022289
0.08528842
-0.09826058
-0.00623530
0.06249452
0.00437061
-0.07697318
-0.02210642
-0.07483456
0.06188918
-0.02225808
-0.08802669
0.01624819
-0.03594534
-0.05088738
-0.02431598
-0.03879444
0.02169926
-0.06076543
-0.04471611
0.09621573
-0.06233171
0.03075869
0.00390865
0.05798543
-0.07349275
-0.02963585
-0.05679029
-0.04150060
-0.06762319
0.09002266
0.04388550
0.01663575
0.00229615
-0.00336962
-0.02882474
-0.04336515
-0.02406344
-0.02269222
-0.01852856
-0.04000734
-0.03385805
-0.08266366
0.04142369
-0.01983666
-0.09968028
-0.03146840
0.00559538
-0.06335591
0.07234996
0.07747954
0.08787794
0.05379022
-0.05561615
-0.00026199
-0.06279934
0.06915976
0.05736911
0.09183522
-0.03312482
0.02370919
0.03294603
0.07936703
-0.07453840
0.03688322
0.09734876
0.09316187
-0.07590770
-0.02814580
-0.09388624
0.00660322
-0.06702883
-0.00091768
-0.07075004
0.06002219
-0.04855202
-0.05527397
-0.03106491
0.05050430
-0.01572354
0.09290522
0.01642371
-0.00820668
0.02887668
0.08885830
-0.00004552
-0.01255159
-0.08748861
0.04609142
-0.07598619
0.00813393
0.01500890
-0.03739730
-0.02840304
-0.06182252
0.05690974
-0.00991756
0.02363822
-0.00477242
-0.09519221
0.01946292
0.03237437
-0.07211007
0.05785258
-0.05971554
-0.09248272
-0.01046595
0.04717983
0.09229879
0.00667383
-0.09209125
0.02861721
-0.02433552
-0.00087068
-0.02718098
-0.02443849
0.06755684
0.06762905
0.08130953
0.00903606
-0.09114029
0.04498784
-0.04945667
0.02153050
-0.09697434
-0.00870047
0.02487177
0.07346411
-0.03482694
0.07460460
0.09042525
-0.01267487
-0.00685103
0.07439057
-0.10015162
-0.09776638
-0.00899305
0.00522444
-0.02329774
0.00448974
0.03124412
0.01501323
0.02249236
-0.08006296
0.04894318
0.05515684
0.09196430
-0.01564973
-0.08460488
-0.01464008
0.09331478
0.09074961
-0.02030860
-0.03510410
0.09692192
0.05815922
-0.02644918
-0.03981546
-0.08387381
0.08780108
0.02757967
0.08637447
0.05056924
0.07201620
-0.06876646
-0.00303693
-0.08677300
-0.04176561
-0.05089064
-0.01524712
0.04764011
0.04582563
-0.05009646
-0.01278627
0.05959826
0.02636054
0.00008944
0.06163534
0.06365185
-0.05081982
-0.06152437
0.02705270
-0.05978094
-0.03017587
-0.05780268
0.01845717
-0.08226891
0.01456892
-0.03214073
-0.08122255
0.00062256
-0.03314766
-0.03227256
0.07558840
-0.10563331
-0.09179185
-0.05837207
0.02787949
0.05797028
-0.00611632
-0.10554563
0.05105094
-0.03039434
-0.07960120
-0.07406506
-0.02807647
-0.09272328
-0.04583315
0.03649582
-0.06300517
-0.09260414
0.03739001
0.05176832
-0.08101235
0.07414536
0.00971256
0.00115972
0.05348577
0.09482491
-0.04492113
0.04335824
-0.04532977
0.00309214
0.03020644
-0.06029955
-0.02289629
0.01377910
0.01309991
-0.05276065
0.02871337
-0.03731535
-0.00980278
-0.00606823
-0.03670507
0.03966854
0.05103405
0.07368897
-0.01433392
-0.01508499
-0.04258791
-0.07707002
-0.01782909
0.04732191
0.08854128
0.06256163
0.02436548
0.00214246
-0.10019665
0.08553029
0.00790369
-0.06246525
0.04750877
-0.02866087
-0.01182620
-0.06829444
-0.06977981
-0.03444205
0.08740985
0.05219762
0.04028635
0.04764769
-0.03033026
-0.00575585
0.01627155
0.03078424
-0.05438835
0.04931727
0.03386570
-0.06067837
-0.06284841
0.06522367
-0.02727954
0.07129950
0.08914857
0.07855150
-0.03246896
-0.03859811
-0.05130359
0.00395521
0.04696148
0.05328076
0.06153351
-0.03451342
-0.09531978
-0.07243359
-0.04726132
0.02315114
0.04740486
0.01387298
0.04354510
-0.05739719
0.01281399
0.05202635
-0.10612473
-0.03302463
-0.03964662
0.06531174
0.00664192
-0.05699760
-0.04240884
0.08658223
0.03955024
-0.02509073
-0.00972035
-0.07964428
-0.08662984
-0.06002618
0.06771718
0.04962923
-0.03826633
-0.09896717
-0.09797719
-0.05755297
-0.04758876
0.02075783
0.08084594
-0.01823141
-0.01259001
0.05369534
-0.08848482
0.08995641
-0.05547556
0.06936181
0.00402415
-0.06919728
-0.10179684
0.00078901
-0.00096060
-0.00666477
-0.07407865
0.07305084
0.07838014
0.05014369
0.05772060
0.00300256
-0.04363632
-0.05742999
-0.08763262
0.09615266
-0.06196338
0.08170247
0.07281084
0.00992344
0.06151297
-0.07241386
0.04046244
-0.04749289
0.08716812
-0.06522322
0.09353318
-0.08368315
0.09213579
0.08110355
0.06223014
0.05678239
0.09649539
-0.04702652
-0.01990946
-0.06347504
-0.07006366
-0.00503830
0.07618847
0.05790258
-0.07056684
-0.05614799
0.07752674
-0.04964491
-0.02361548
0.05307349
-0.03530738
-0.05272540
-0.00528448
-0.08546301
-0.04603069
0.09136751
-0.01454370
-0.06426810
0.01309572
0.04397266
-0.00740883
0.02390700
-0.05089137
0.01296037
-0.03087270
0.06663077
0.00741544
-0.02526610
0.04941244
-0.02829872
0.08363093
-0.05968486
0.03180429
-0.10941405
0.05116718
-0.06004104
0.06817253
-0.03763162
-0.08796416
-0.02354505
0.04937903
0.08442859
-0.04213339
0.06543368
-0.05482224
0.00738245
0.05873743
-0.01800055
0.04356632
0.01401249
-0.09711259
0.02764037
0.06268420
0.04442382
-0.06063638
0.02072941
-0.06455115
0.02554991
-0.00992274
0.00113437
0.03693258
0.08610551
-0.06438054
-0.08278992
0.04067078
0.04471284
-0.02460629
-0.03892016
-0.01223695
0.05092059
0.03895207
0.08403157
-0.05744598
0.02146432
0.06690123
-0.07391505
-0.02309159
-0.03323094
-0.04663386
-0.01560188
-0.06116086
0.02828473
-0.08094645
0.07065975
-0.08231715
-0.00409716
0.03924351
0.06989832
-0.06405493
-0.01635243
-0.08044958
0.03886342
-0.06760486
-0.08000228
-0.04349411
-0.05059058
0.07904812
-0.08332464
-0.08239261
-0.01710865
-0.03554775
0.05852763
-0.01761943
0.02870055
-0.07145961
-0.06519542
0.08278984
0.07100890
0.06273908
-0.01339391
0.01934002
-0.02140124
0.04018565
-0.06888481
-0.01784638
0.02769316
0.01067274
-0.05616564
-0.03176772
0.02412991
-0.10439174
-0.01071261
0.05441325
0.02432829
-0.00636880
0.06768172
0.03630104
-0.02378371
-0.06828450
0.00862864
0.05223206
-0.10505672
-0.05312912
0.01286892
0.04207877
-0.02395062
0.03291977
0.05354475
0.09730398
0.07556310
0.07664046
-0.01568064
0.05280923
-0.03788628
0.04067651
-0.06913638
-0.09430891
0.03361297
-0.01270630
0.09933429
-0.03334574
0.02754809
0.07022930
0.01129513
0.06747297
0.04846645
-0.00256261
-0.09220544
0.08068106
-0.01049996
0.01801330
0.04042912
-0.01422623
-0.08386215
-0.05486630
0.07503375
0.06720129
0.02703328
-0.07713260
-0.10272629
-0.05579944
0.04912786
-0.08818838
0.03765220
0.03876544
-0.00213382
0.00413973
0.04645106
-0.01222463
0.02558621
-0.08676426
0.06000973
0.09051656
0.02270140
0.10399754
0.04826624
-0.02775409
0.09850727
-0.02669505
0.09342296
-0.08542968
-0.06176877
0.00722936
0.05874511
0.08387484
0.04268498
-0.03278768
0.09826067
0.02395123
-0.09315379
-0.07732799
-0.09513411
-0.09690770
0.09444438
-0.05549007
0.04938408
0.06921125
-0.09712749
-0.09084234
-0.05644403
0.07429295
0.01332622
-0.05450109
-0.03267059
0.04953090
0.00996602
0.03704271
0.08049039
-0.09425402
-0.01828681
-0.04960686
-0.04570757
-0.10965334
-0.09443403
-0.10348259
0.02411701
-0.09516971
0.05297346
-0.09327631
0.05208934
0.01246080
-0.02401473
-0.07512889
0.04921945
-0.02778487
-0.06011951
0.09163322
0.00433495
0.00543954
-0.02986473
0.00532574
-0.07805509
-0.05962343
-0.07960384
0.03750943
-0.03970667
-0.01753776
0.00785509
-0.01447055
-0.03445723
-0.04076600
-0.07221324
-0.00826903
-0.06762896
0.06997558
-0.01761952
0.01894636
-0.01836748
0.04742579
0.00285792
-0.04933312
-0.02318420
0.07286482
-0.03116651
-0.09194886
0.06647043
0.01937067
0.02656747
-0.00006831
-0.06768871
0.03473431
-0.09258472
0.05644580
0.01494248
-0.02428120
-0.05655219
-0.03112411
0.01997963
-0.07935223
0.05081181
-0.09176826
-0.03490055
-0.05941024
0.00620541
0.00857144
-0.02566201
0.01281784
-0.05631984
-0.05149944
0.01625731
0.00407197
-0.00324228
0.06543621
-0.05510077
0.07777380
-0.03350437
-0.08585984
-0.02419360
0.00025221
0.06099017
0.07829598
-0.04350632
0.02523614
-0.02452753
0.05061980
0.05186797
0.02825180
-0.02734594
-0.05850686
0.01352535
0.07858313
-0.09540750
0.04384127
-0.05599761
-0.04800575
0.07154860
-0.01320562
-0.07730396
0.02745056
0.01086500
0.05736338
-0.03878401
-0.07248581
-0.09866209
-0.04095170
0.04270625
0.08185964
-0.06249527
0.02834636
0.00363201
0.03428282
-0.02631391
-0.07543655
-0.07629286
0.00299752
0.03639685
-0.02099165
0.00098168
0.10674959
-0.04420898
0.10808769
-0.04186194
-0.04830026
0.09773575
-0.07512360
0.07022594
0.08937479
-0.07594109
0.05989114
0.05776991
0.00621454
-0.08874328
-0.03132324
0.02719426
-0.07183140
0.07538618
-0.03879999
0.02618465
0.02126098
0.06912840
-0.02322386
0.04021525
0.06129237
-0.08907449
0.07257524
-0.08046679
-0.05330129
-0.09486680
-0.08642151
0.05508943
0.10231289
-0.01292997
0.10456448
-0.01119441
0.02923583
-0.05918737
-0.04802695
-0.07479826
-0.02025369
-0.08965246
-0.07469613
0.09969987
-0.02426505
0.09737540
0.10729836
-0.06744945
-0.05393811
0.02244130
-0.07053804
0.02557373
-0.02387626
0.07021905
-0.06989078
-0.10357897
-0.01568043
-0.10504423
-0.04235465
-0.01858114
-0.05724363
-0.05762519
-0.07052085
-0.00797421
0.01344047
-0.07005708
-0.01332366
-0.09476415
-0.06511184
-0.09865487
-0.06140511
-0.08156744
0.05014568
-0.04890926
0.07034766
0.02126990
-0.02813086
-0.04774891
0.03153573
-0.02201595
-0.07258191
0.06536434
-0.06418739
-0.07760473
0.01714496
0.07544457
-0.08997060
-0.02260959
-0.07646181
-0.05849364
-0.06749991
-0.03582544
-0.08304534
0.09202854
-0.04246499
-0.07513899
-0.02704070
-0.03906508
0.04896214
-0.07758451
0.04531134
-0.00012656
-0.07483200
-0.04137033
-0.08312423
-0.04088671
0.03469156
-0.08705304
-0.04852638
0.06795998
0.01203327
0.05188839
0.09607790
-0.00123988
-0.02109858
0.00481001
-0.08217362
-0.01616527
-0.01097942
0.01844394
-0.06321059
-0.02624603
0.04850605
0.00664433
0.04310520
-0.07275129
-0.07277031
0.00588993
0.06124954
0.09011636
0.05910659
-0.03812615
-0.02876931
0.03157520
-0.08725367
-0.04394406
0.06129834
0.01011667
-0.00013001
-0.01604840
0.04357409
-0.08121823
-0.06863055
0.04406470
-0.08688788
-0.00686330
-0.03363538
0.00791742
-0.02011474
0.09000674
-0.09820755
-0.02343131
0.02595983
-0.05715377
0.05266842
0.03414607
-0.07092362
0.02264839
0.08758253
0.03565800
-0.05995016
0.05362583
-0.07473855
-0.09481759
0.03682951
0.02953883
-0.10515573
0.02946419
-0.01361989
0.06803359
0.00599898
-0.00962459
0.00957274
0.00458750
0.01766959
0.09720880
0.08727899
-0.00305652
-0.07190251
-0.01215887
0.09914138
-0.07259431
0.00951255
-0.02041909
-0.07835159
0.07887307
-0.04630900
0.01958355
-0.07594532
-0.02973744
-0.00819263
-0.03427704
-0.03487673
0.08566022
-0.06081222
-0.02298423
-0.05427885
-0.04461639
-0.04767183
-0.00313687
0.02658211
-0.08647999
0.07622051
-0.09453699
-0.01592674
-0.01577247
-0.07910285
-0.07279318
-0.02882743
0.05180749
0.08280245
0.01141668
0.05235712
-0.06160363
-0.00021615
-0.05034441
0.04386456
0.01667929
-0.01943131
0.06976758
0.03586950
0.03533726
0.08995060
-0.01950985
-0.09291446
-0.00416038
0.08913272
0.03075976
-0.04349892
0.09086904
0.01320735
-0.04687226
-0.00415628
0.06313094
-0.04055471
-0.08527423
-0.08628208
-0.02514038
-0.01661274
-0.09256763
-0.06643372
-0.03380958
0.08011024
-0.06937264
-0.03412087
0.08896052
-0.08201972
0.04737356
-0.02025047
0.02265360
-0.09065465
0.00323081
-0.06373059
-0.08400950
0.08831103
0.07944764
-0.09270096
0.02022321
-0.06315632
-0.02295327
0.06971407
-0.07028737
-0.07415065
0.00669222
-0.06725040
-0.02121645
0.01760431
0.07803730
-0.01523712
0.07706091
-0.06983520
0.05323684
-0.05457799
0.10156426
-0.00695055
0.06275673
0.03300326
-0.03658539
-0.06962766
-0.01109489
-0.04543424
-0.08476032
-0.03810000
-0.01992404
-0.01504505
-0.01374772
-0.00747597
-0.07646837
-0.03179178
0.04278855
0.08126374
-0.06622216
-0.06189928
-0.00790195
-0.07482796
0.09949541
0.01155141
-0.06322957
0.08746532
0.07572759
-0.00027056
0.10004756
-0.04892413
-0.01607303
-0.09056073
-0.00609913
-0.06005211
-0.04854045
-0.03839563
0.06545596
0.09502831
0.07083747
0.09540765
0.04913148
0.10052783
-0.08097029
0.07605145
-0.06591582
0.09012825
-0.07276323
-0.03632031
0.05981148
-0.04735899
-0.02837352
0.06037103
-0.00999971
0.06910755
0.02475586
0.00594266
0.01254151
-0.08067000
-0.08587994
0.09055646
0.05710202
-0.01198385
0.10527129
0.01231162
0.03485315
0.08802079
0.07648483
-0.00986329
-0.01381232
0.01480248
-0.06180277
0.05309698
-0.02670748
-0.10032456
0.01749359
-0.01291919
0.03218353
-0.04603783
0.08746953
-0.05434625
0.04794289
0.02142013
0.05347556
0.00909757
-0.05181783
-0.05661001
0.01225407
0.01082577
0.00735641
0.03221733
0.06959842
-0.06232849
0.00590182
-0.04728548
0.04479572
0.02570129
0.10568338
-0.03849851
0.00650659
0.00724983
0.09917611
-0.04192960
-0.00555904
0.07262088
-0.03950586
0.04649034
-0.00633566
0.08610832
-0.00795202
-0.07969072
0.10746550
0.04204342
0.08086072
0.00469385
0.06815647
0.09005439
0.03395759
0.01505133
0.06181297
-0.05835895
0.01214427
-0.03758931
-0.00344057
-0.06553073
-0.01502550
-0.02165130
0.01851517
0.09328060
-0.00844171
-0.05517392
-0.09268490
-0.10035901
-0.07909815
0.04647534
-0.03773696
0.00613166
-0.08588595
0.06253318
-0.05707203
-0.06185864
0.08957378
0.01428665
0.06591648
-0.07680687
-0.02816934
0.02825337
0.09587130
-0.04963647
0.00125425
-0.07840519
0.08532669
-0.07287687
-0.00013016
0.05381465
0.10323911
0.01443442
0.07394816
-0.07849078
0.08020407
0.06451798
0.02371332
0.06083502
-0.03475699
-0.05114367
-0.01318565
-0.05280004
-0.05741436
0.00916246
-0.03420047
-0.04026516
0.04510379
0.04102698
-0.07793116
-0.00735627
-0.05519854
0.05976691
0.08411602
-0.08050448
-0.05710467
0.02347447
-0.08296055
0.06357627
-0.09200729
0.01507038
0.06986647
0.03873452
0.00408471
0.04881391
-0.02391355
0.04571818
-0.05083078
0.08665688
0.04165743
-0.05901422
-0.08152585
-0.03440914
0.05107391
-0.08372632
-0.07116738
0.00426891
-0.07543578
-0.07216559
0.09304035
-0.03431254
-0.05427628
0.01812993
0.00965097
-0.09624115
-0.01672374
0.01982374
0.07339493
0.03982180
-0.04591468
-0.01890625
-0.08815402
0.06449628
0.05807617
-0.04266980
0.01732672
-0.02120685
-0.05128635
-0.05860316
-0.03211282
-0.01103713
0.10882914
0.10120358
-0.07033430
0.03826052
-0.00860208
-0.02914560
-0.05458063
0.05897649
0.01347042
-0.00716731
-0.06550727
0.01986923
-0.01501941
0.01166028
0.02274025
0.01678756
-0.03006363
-0.05445531
0.01239189
0.11329444
-0.01757170
-0.08482898
-0.07782639
0.01530990
0.09683024
0.00913259
0.07474982
0.10356115
-0.06448616
-0.03995400
0.06970408
0.09320208
0.01760583
-0.03082133
0.05395354
0.06323029
0.06998869
0.05839808
0.05504112
0.03459017
-0.08458212
-0.02417374
-0.10648250
-0.06977813
0.02059078
0.05081715
0.06539204
0.02564707
0.03189030
-0.03807523
0.05124272
0.01800482
-0.01131543
0.00310821
0.02129119
0.02272055
0.04631614
0.02839422
0.01464661
-0.03177606
0.08671742
0.00662501
0.09348954
0.02570881
0.03490032
-0.08242863
-0.02923653
-0.02956252
0.08507307
-0.00627932
0.03410696
0.00621268
-0.01290319
-0.09330035
0.07149038
-0.09065457
-0.06080599
0.01019019
0.09922347
0.08156013
0.01982069
0.08195368
-0.04889094
0.04486351
0.07550615
0.08634645
0.07718271
-0.07287764
0.06283782
0.03184444
0.07883674
0.07851218
0.02065827
0.07139281
-0.03324497
-0.07491092
-0.01826828
-0.02533893
-0.06244935
0.08276765
-0.05499569
-0.04974326
-0.03943333
0.03951575
-0.05907837
-0.08130933
0.08298866
0.04312802
0.09969014
-0.06065680
-0.00333945
0.01216404
-0.02067050
-0.07732859
-0.02542870
0.05602366
0.02577471
0.03169917
0.00409708
0.09642678
0.02149534
0.04883528
-0.04887188
-0.01299186
0.02246355
-0.07843845
0.06160802
0.02269079
-0.06250224
0.04161238
0.09606153
0.01771744
-0.06456497
0.01493659
-0.00233206
-0.03642867
-0.09814986
-0.05151590
-0.06001227
-0.05849947
-0.04389611
0.08319685
-0.06533402
-0.02377099
-0.07385569
-0.04746013
-0.01723980
-0.10415883
0.04775200
0.01305595
0.07644960
-0.06632066
-0.00044892
0.08623882
0.04724118
0.02330010
-0.05968369
0.03185476
-0.08371641
-0.02226548
-0.01639785
0.00284594
0.06470632
-0.04787174
0.05082326
0.04917265
-0.09270802
-0.08690026
-0.09311468
0.06106049
0.08397807
0.06289485
-0.08277292
0.08528208
0.05299803
0.05492925
-0.08529248
-0.07803785
0.05048872
-0.00520568
0.04782432
-0.07708465
-0.02549165
0.06018766
0.07225761
-0.06757347
-0.04168288
-0.09846034
0.04548741
-0.02340648
0.07714828
-0.08783890
0.10676929
0.08651533
0.07678105
0.01475228
0.09718216
0.08535884
-0.04278675
0.01433816
-0.07824872
-0.03611670
0.07672649
0.03269342
-0.07461278
0.03010355
0.00234402
0.04440998
0.04691364
-0.07144916
0.08521631
-0.03812354
-0.01585134
-0.06388445
0.04364548
0.09765945
-0.01364537
0.08635902
0.06007951
-0.01972508
0.10460734
-0.04047501
-0.03948221
0.04657341
-0.01666416
-0.05046362
0.08203116
-0.08506252
-0.08724360
0.05527309
-0.06664920
-0.01465409
0.06721721
0.06742594
0.05904925
0.07211427
0.05583655
0.07629286
0.08542927
0.04099335
0.00648074
-0.04695718
0.02663467
-0.06774486
-0.10445637
0.08520901
-0.00884914
-0.04404477
0.02301803
-0.05254715
-0.07657333
-0.08511697
0.03819488
-0.05951209
-0.01949089
0.08908153
0.06573457
0.07705945
-0.04015764
0.09226336
0.09000262
-0.07470975
0.00450515
-0.03659079
0.04663636
0.04543398
0.03696591
-0.08579856
0.01176165
-0.08761070
0.02866734
-0.08635042
0.01160618
0.02618050
-0.02333022
0.05185106
-0.06243550
-0.07675217
-0.09694891
0.05645813
-0.03139034
0.09391162
0.06928577
-0.01733003
0.03595590
0.09445923
-0.04018828
-0.05151759
-0.04103821
0.08592508
-0.03897698
-0.03558223
0.01999268
0.06377619
-0.07554873
0.09053586
0.07578820
-0.08248365
0.04257610
-0.07634547
0.08946667
0.09417625
0.04770838
-0.06806678
0.09874575
-0.07992726
0.01356391
-0.08046958
0.09261864
-0.00889334
0.07923551
0.06087378
0.05526441
-0.02143013
-0.02661193
0.08285639
-0.08309771
-0.07505589
-0.04025802
0.00739456
0.10432785
0.06213503
-0.07254085
0.02312283
-0.01613166
0.03370771
0.08398637
-0.08253230
0.03814615
0.07528148
0.07784004
0.07954575
-0.05326022
-0.06113015
0.06904852
-0.01805741
-0.00751659
-0.04792336
0.03555276
0.01861070
0.07335190
-0.09125444
-0.03003319
-0.08437819
-0.06076661
-0.02094100
-0.07192787
-0.00620461
0.00233747
-0.03087006
0.05866537
-0.00067409
0.08092755
-0.04292826
-0.03227275
0.05485192
-0.04627224
-0.04634792
0.08170429
0.05120821
0.06976082
0.08340051
-0.07630003
-0.09842942
-0.02709229
-0.06396950
-0.05928319
-0.09648581
0.04305162
0.07873004
-0.07409242
0.04285441
0.01515767
-0.08402332
-0.01953266
0.06508576
0.04679255
-0.00918528
0.03625705
-0.01437394
0.03984761
-0.04362475
0.03639628
-0.03759451
-0.04521234
-0.07810032
-0.02438318
0.11925521
0.04962736
0.00819206
-0.06230064
-0.03304002
-0.04807309
0.06290888
-0.06325506
0.09943972
0.11071282
-0.02232444
0.02320332
-0.03535243
0.01818521
0.02211883
0.10213502
-0.06571050
-0.05083536
0.03886286
-0.00310362
0.06548291
-0.07901334
-0.02764732
0.08117165
0.00156007
-0.03028877
0.08629395
0.09199289
0.07417722
0.04459199
0.08162750
-0.06266146
0.06603942
0.08307466
-0.00574937
-0.07110821
0.04286703
0.02463756
0.04105211
0.03693724
0.07823446
-0.03937661
0.07141319
-0.08443507
-0.03143244
-0.00165360
0.09131868
0.07776020
-0.01134000
0.08155825
0.02245609
0.09256491
0.01143017
-0.01801614
0.07566992
0.05721928
-0.03741882
-0.03446399
0.02721899
-0.06314122
0.06983800
0.05163909
-0.02192919
0.09914818
0.04644084
-0.00560554
-0.00553988
0.09796566
-0.08833125
0.05312974
-0.01210927
-0.08983211
0.00510546
0.02072031
0.06109923
-0.03255206
-0.02973304
-0.04414310
0.03325229
0.01750958
0.02546532
0.03046799
-0.08979207
-0.09868610
-0.06674742
-0.07345602
-0.02033880
0.03408219
0.08768868
0.05875683
-0.08418494
0.09350975
0.01484874
-0.08269827
0.04471553
0.08185817
0.03376991
0.01435562
-0.08156559
-0.02938373
-0.00889417
-0.04084309
0.05986649
0.08571692
-0.04341591
0.04228457
0.01031501
0.09998498
-0.08173929
0.07851343
0.04425874
-0.07913073
-0.08593238
-0.00437577
0.08522196
-0.04580024
0.06413832
0.00142721
0.01592205
0.02999375
0.05462559
0.04188380
0.09073087
0.06330778
-0.03653826
0.04901749
-0.07770123
-0.03912677
0.07547199
0.01627846
-0.04947039
-0.09030324
0.03191665
-0.01839614
-0.02082398
0.02199756
-0.07639601
0.01734822
0.04559184
-0.06389842
-0.06536527
0.06954983
-0.01224538
0.05567642
0.01724556
-0.09020915
-0.08144406
0.03338413
-0.04924094
0.07330908
-0.03075135
0.02563079
0.03849403
-0.08294756
0.04817410
0.01546924
0.07587888
-0.01937381
0.06596280
0.05431116
0.02508937
0.09045377
-0.06314121
0.06617716
-0.08007711
0.02440175
0.00056649
-0.00062360
-0.00033296
0.08450794
0.00115161
0.07196815
0.08564838
0.00740093
-0.06611769
-0.09363604
0.00748671
-0.05393612
0.01257398
0.05673517
0.01642758
-0.03325183
0.01061964
-0.02432871
-0.00113826
-0.04241450
-0.00717372
0.08470999
-0.02650362
-0.08756822
-0.00031208
-0.08024118
-0.05335841
-0.03478046
0.00483599
0.03854614
0.00513531
0.07085242
0.10227997
0.10514342
0.03170847
0.08762875
-0.06019740
0.02579757
-0.05678859
-0.08241987
-0.07112809
0.09871281
0.01458808
-0.06935253
0.06386848
0.10926919
-0.04095626
-0.08009411
-0.06995429
-0.05067374
-0.08084200
0.08124982
-0.04809842
0.09390464
-0.06059686
0.03262288
-0.02315081
-0.01149283
-0.07748158
-0.07444668
-0.06694437
0.02442958
-0.05362867
0.02139792
-0.00204423
0.05313044
-0.02619051
0.02665285
-0.03505239
0.08496198
-0.03220440
-0.05916916
-0.05587682
0.07297826
0.00929342
0.05827412
0.07679517
-0.03983452
-0.03507795
-0.08926961
-0.09070085
0.05446487
0.05464887
-0.05288967
-0.05312462
0.00171328
0.07948067
-0.08403860
0.04477515
-0.04665941
0.01282975
0.04581346
0.01468099
-0.02883297
0.03216118
-0.03915419
-0.03666188
0.04692751
-0.00875927
0.06350895
0.07702406
0.08340319
0.09734595
0.03338297
0.00759974
0.06880767
-0.00679030
-0.03714284
0.02768838
0.04600356
-0.00031503
-0.07684482
0.08702422
0.03393059
0.08926445
0.08991600
-0.08591045
-0.00095945
-0.02954547
-0.07471722
-0.07632548
0.09419310
0.07837613
0.04258341
0.07229370
0.07802959
0.08118779
-0.03832447
-0.00372578
0.09632257
0.01052182
0.08144523
0.09124121
-0.06779537
0.00434528
0.07231276
0.00178647
0.06641368
0.05593977
0.01651772
-0.02341383
0.04693785
0.04771331
0.08083925
0.02852190
-0.06987085
-0.03531087
0.01432237
0.00017572
0.03743492
0.05282732
-0.04713474
0.09045060
0.08736081
-0.04431924
0.08492307
0.06051626
0.05527742
0.00609534
0.00277915
0.07213265
-0.05599877
0.03929665
0.06928845
-0.05853556
0.00339230
0.02499133
0.03985163
-0.00308032
0.04098859
0.09541769
0.08519204
0.02283302
-0.04535001
0.00252996
-0.07680080
0.00895144
0.04682491
-0.01379517
-0.05543684
0.07296818
-0.02549771
-0.05562479
-0.00146436
0.07012025
-0.07156669
-0.00393250
-0.07731789
-0.05395479
0.00961687
0.05651921
-0.05372986
-0.00976387
-0.07338206
0.09562564
0.00808519
-0.08276434
0.06718172
0.01061698
-0.07303436
-0.00106896
-0.07857276
-0.08325978
0.05602762
0.05937403
0.10066468
0.08924834
0.01478955
-0.01413076
-0.07779352
-0.05782258
-0.00306516
-0.06284897
-0.04934888
0.04800294
0.08129754
0.06358782
0.01639964
-0.07533159
-0.00209742
0.04525701
0.00954298
-0.03606067
0.10192868
0.03099549
0.05686924
-0.08303181
-0.00012260
0.05508992
0.01347186
0.06280932
0.07747657
-0.00999571
0.04330249
0.02621474
0.02788398
0.00919373
0.08213876
0.06928884
0.10077783
-0.06381487
0.02607639
-0.04999869
-0.04380998
-0.03030910
0.07909987
-0.08445177
-0.09842097
-0.00274308
0.05546372
-0.06284042
-0.00046957
0.06639523
0.06311262
0.09233249
-0.00944072
0.08832821
0.09064425
0.01632206
0.08795909
-0.06094726
0.06997475
0.07757547
0.01116232
0.00531874
-0.00912476
0.05069863
0.10238358
-0.02869403
-0.04996037
-0.07331811
-0.04555243
0.00051055
-0.01906663
-0.05267529
0.08660073
0.09857050
0.07196090
-0.00527802
0.04031729
-0.04109610
-0.06995031
-0.02257073
0.08441111
-0.07452534
0.08052888
0.07692614
-0.07444217
0.07843270
0.04634021
0.06793957
0.08828615
0.05334369
-0.02457812
-0.05640654
0.00647536
0.03450595
-0.05540111
0.07481182
-0.01979724
0.08567505
-0.04149516
0.00876158
0.07382754
0.03728204
0.01721241
-0.09307914
0.03679953
-0.09245420
-0.05976995
0.06562687
0.05123114
0.10226560
0.04154403
-0.07351203
-0.02077085
0.00026823
0.00403846
-0.02976127
0.09740133
-0.06032552
0.02452271
0.06878379
-0.03531899
-0.09072948
0.02516780
-0.08911678
-0.07019329
-0.02155664
-0.06122517
0.02976667
-0.07486757
0.06396276
-0.01475906
-0.09298571
0.07321248
-0.03376738
-0.04432991
0.03136492
0.03434622
-0.05896813
0.00668298
0.00491902
-0.04350839
-0.08709684
-0.07806037
-0.00211652
-0.01395765
-0.02783397
-0.04708097
0.06861158
-0.08666147
0.03910026
-0.08339087
0.00803834
0.06339281
0.05357670
0.07417447
0.06084602
0.04968873
-0.07089979
-0.00228131
0.06851454
-0.06565448
-0.04422034
-0.00076818
0.09968003
-0.07175033
0.05062314
-0.01847011
-0.06863447
0.01886340
-0.00433042
-0.02154345
0.06731855
-0.02907124
-0.05359207
0.03650985
-0.02045938
0.09774059
0.08463129
-0.04344289
0.01204843
-0.05919236
-0.00323344
0.10010002
-0.06054720
-0.05834020
0.03477447
0.01306039
0.06450930
-0.03371888
0.04527884
-0.04011508
-0.05575237
-0.07160433
-0.09551896
-0.02719748
-0.09012432
0.09849034
-0.05497644
0.02881459
-0.09527603
-0.08640310
0.04094803
0.03144706
-0.05140499
0.05415697
0.03403242
0.00212814
0.02803596
0.06089365
0.10165620
-0.02771601
0.01346091
0.07408736
0.02267949
0.01076456
-0.04358972
0.02405015
0.04729585
-0.06215705
-0.03697169
0.05329601
-0.02197010
-0.09303301
-0.04731494
-0.06378522
-0.07969539
-0.08194218
-0.04369645
-0.04768215
-0.03534853
0.05577888
0.03406664
-0.08345603
-0.08696933
0.06488876
-0.05619214
-0.06283998
0.00689817
0.09606899
-0.00946444
0.06613930
-0.06179080
0.01707884
-0.02098143
0.10013914
-0.02639853
0.05495090
0.09483643
0.05083249
0.07662350
-0.05381206
-0.08433561
-0.09353344
-0.08158033
0.01438440
0.09331468
0.04774572
-0.02979622
-0.07719818
0.03800481
0.05470070
0.06339491
-0.05539483
0.04550041
-0.00899915
0.05907959
0.05848736
-0.09591364
-0.09132932
-0.04278699
0.00886727
0.02831444
0.07692602
0.09180504
-0.03643642
0.00923436
-0.00223953
0.05068933
0.02617941
0.08814920
-0.04699746
-0.05698646
0.05846931
-0.03700433
-0.06259062
-0.09132781
-0.07732095
-0.06400455
-0.05524813
-0.08601388
0.03388822
0.02857065
0.05610605
0.04357061
-0.03921619
0.06834677
0.07914054
0.08990798
0.05837443
0.07397420
0.05927437
-0.00071100
0.02509506
-0.05304335
-0.01933494
-0.08200856
-0.03762092
-0.01449306
0.09552713
0.00481300
-0.02766440
-0.07531057
-0.06669979
-0.03854737
-0.08091658
0.02005430
0.09208003
0.02852619
0.07911464
-0.08071779
0.01566005
0.03788753
0.01523144
0.03425308
-0.06895452
-0.07918128
0.03973902
-0.06683325
-0.02688397
0.00061091
-0.09220880
-0.00470903
0.00394891
-0.08054764
-0.02914537
0.08877174
-0.07832469
-0.06812625
-0.06291641
0.09890827
0.08631144
-0.02861484
0.00542155
0.05493179
-0.02634368
-0.02322489
-0.00570980
-0.02965596
-0.09217887
0.01618529
0.09264964
0.02895972
-0.00762372
-0.06543288
-0.06392906
0.01066522
-0.08323842
0.07833806
0.09412362
0.00213104
0.08209577
0.07136808
-0.02900662
-0.02737538
0.03116937
-0.00725372
0.01646937
-0.03031517
0.06200387
0.06836568
0.01822516
-0.09359504
-0.05557196
-0.00178934
-0.07731334
-0.00910968
0.08977799
0.09486948
0.06696968
-0.08431858
0.01394986
0.01290793
-0.08145971
0.08154520
-0.09489647
0.04989929
0.03223013
0.06646098
0.07899620
-0.04169558
0.09170772
-0.02757773
-0.05808892
-0.05958211
-0.07626071
0.00648056
0.03903475
-0.02279462
0.01103998
0.06860647
-0.05071089
-0.01755377
0.05407456
-0.08860768
0.05097303
-0.01813977
-0.09025717
0.03248178
-0.09538767
0.01775867
0.06838844
0.00439675
0.08103634
-0.03739361
-0.08937126
-0.02318430
-0.01905437
-0.00883538
-0.04315226
-0.00696995
-0.08928809
-0.02549493
-0.05377569
0.03150840
0.00123545
0.00375910
0.01871252
-0.05921011
0.09518862
0.07680464
-0.00941077
-0.03181999
-0.06355790
-0.08254306
0.03381362
0.04051466
0.06495641
0.05746409
-0.06603737
0.04496144
0.00185379
0.09330911
0.08227003
-0.05144596
-0.01631385
0.02202233
-0.06180541
0.04542331
0.03854940
-0.09132863
0.04861435
0.07024115
-0.04805249
-0.01005758
-0.00759919
-0.08934081
0.08013497
0.02082408
-0.01718390
-0.01886931
0.00206785
0.09294012
-0.01932295
-0.08558263
0.08805744
0.05815674
-0.03060400
-0.03231856
-0.04893817
0.02526634
-0.01948681
0.01509801
-0.05159502
0.03876947
-0.00532180
-0.04727555
0.03596097
-0.00771851
0.07118294
-0.03214065
0.00829600
0.01539731
-0.03298959
-0.07024300
0.07215892
0.02135279
-0.07727725
0.01912799
0.10204531
0.09240947
-0.08800426
0.09842365
-0.00741589
0.08125658
-0.00043576
-0.00408694
-0.00881817
0.07339026
-0.05117375
-0.02107368
0.07082238
-0.03407863
0.03883141
0.03797542
0.05131380
0.00101714
0.06502473
0.03818641
-0.06583658
0.01978565
0.07260570
0.01906858
0.02079689
0.06866531
0.04765572
-0.06045332
-0.04914735
-0.02976974
0.04984211
0.08622712
0.00894641
-0.04790779
0.00507222
0.02500866
0.09671755
-0.08740929
0.04705273
-0.04978568
-0.01295917
-0.06979622
0.06995780
-0.08429813
-0.06364064
-0.07316209
0.10134950
0.01714358
-0.03177749
-0.04844255
0.03504321
-0.01986484
-0.05937303
-0.07363078
0.09646177
0.04189326
-0.09108510
-0.05834323
0.03636389
-0.01890377
0.09747871
-0.06286830
0.00702608
-0.07817361
-0.02942445
0.09769589
0.00927413
-0.09463326
-0.01006824
0.07412305
0.07537406
-0.08856441
-0.00248418
-0.05745421
-0.03007997
0.04862497
0.04245241
0.00988749
0.09120165
-0.06247816
0.04267767
-0.00329779
0.08814046
-0.07712052
-0.01851127
0.02971529
-0.07498034
-0.09450781
-0.09236095
0.09533889
-0.03351554
-0.08856855
0.08435871
0.07275985
-0.06950370
0.02398424
0.07581262
-0.04482880
0.02940347
0.05110975
0.06888918
0.03500430
-0.06811844
-0.05231083
0.09219976
0.08160728
0.05173555
0.07572127
0.00368865
-0.05004330
0.09224963
0.00945637
-0.09914470
0.01016752
0.02058436
-0.10360530
0.01239631
0.05151428
-0.09291527
-0.09176534
0.03509197
-0.07395904
-0.03976429
0.07138457
-0.04967244
-0.05494963
0.05133077
-0.09391283
-0.00319327
-0.07947919
-0.01691396
-0.08312854
0.04849696
0.08428554
-0.07789954
0.07739271
0.07426991
-0.01053786
0.02519829
0.04263900
-0.03128946
0.05298547
0.06337626
0.00094056
0.04414114
-0.08104050
-0.03209266
0.03424830
0.02682151
0.00479700
0.03886885
0.08646451
0.02898987
0.05273040
0.05682755
-0.08616552
0.02933093
-0.02252748
0.01512164
-0.01616802
0.09995861
0.03794117
-0.08925408
-0.06365497
-0.04345922
-0.01360531
-0.05800263
-0.07745502
-0.01373133
-0.01296142
0.02894507
-0.04858341
-0.07181739
0.06961584
-0.06202938
-0.02382317
-0.02357756
-0.09565458
-0.09634104
-0.08753420
-0.07098278
-0.09026131
0.06126536
-0.02985662
0.08621768
0.08806005
0.05277070
-0.05443162
-0.02586411
-0.09183437
-0.05225153
0.03492075
-0.06044697
0.09429935
0.00869855
-0.08398172
0.03710748
-0.07899364
0.00951382
-0.04407512
-0.06625616
-0.06309348
0.08835757
0.04801598
0.02686917
0.01014625
0.03466080
0.05078844
-0.09144047
-0.06185882
-0.08317079
-0.07390031
0.06421443
-0.04134381
0.04126334
0.01960717
0.04434962
0.09083491
0.05218506
0.06411724
0.00833833
-0.06793452
0.01425897
0.04037794
0.02191807
-0.03317375
0.03851776
-0.04212773
-0.05100355
-0.02459992
0.03445466
-0.03524300
-0.03990699
0.01825074
0.07518659
-0.00394022
-0.08826004
-0.05147503
-0.00134150
0.09611983
-0.07126609
0.07345950
0.04943816
-0.07719012
0.08341491
-0.02566761
0.02431445
0.07283527
-0.03772490
-0.02256091
0.03863977
0.03852578
-0.07734281
-0.07976673
0.10641802
-0.08646639
0.09870561
0.03435373
0.07225612
0.09550759
0.04496656
0.00199610
-0.00594007
0.03219336
-0.05925277
0.00613542
-0.02035392
-0.02670171
0.08518159
-0.00462906
-0.05232065
-0.00416091
0.04874413
0.02378551
-0.05763857
0.05193614
0.07410707
-0.10105496
0.00636822
0.06772193
0.04329367
-0.03017835
-0.07439139
0.03915242
0.03864361
0.08706732
-0.05416343
-0.07672370
-0.04717144
0.03715879
0.05470716
-0.00973499
-0.08863051
-0.05802476
-0.06708926
-0.01625747
0.05180602
-0.00520781
-0.03693864
0.06599034
-0.00665965
-0.03728109
0.04717707
-0.06460808
-0.03834450
-0.09816752
0.05639923
0.06041708
0.05921479
0.05229791
0.00003284
0.05856790
0.05738451
-0.03172124
0.05097173
0.07168724
0.03724844
0.02428536
-0.04619148
0.04963371
-0.01635801
0.06077685
0.06637620
-0.02537620
0.09199139
0.09292916
-0.06790614
-0.02673837
0.08221326
0.09328590
-0.00894855
-0.06039523
0.07908132
0.06137683
0.10363205
-0.01335170
0.04083476
-0.04741763
0.09464277
0.10382403
0.01297915
-0.04377776
0.04284432
0.10222782
-0.03703898
0.10578275
-0.08932670
0.10109565
-0.07046045
-0.01461316
0.03282008
0.04326892
0.05290121
0.07201158
0.05999185
0.04190020
-0.08584146
-0.03990784
-0.03475521
-0.08144432
0.01457291
-0.02617681
-0.09198848
0.01126371
-0.03228823
0.06078120
0.07874787
0.04562437
-0.10068654
0.05183502
0.08250331
-0.06775105
0.00720314
-0.04018805
0.06769662
0.08543777
0.05898842
0.03604143
-0.03399780
0.02264908
-0.08078395
-0.07969502
0.02372043
0.07439506
-0.03704878
-0.07284628
-0.00054571
-0.04480737
0.04903816
0.07144020
-0.01747790
-0.06409469
-0.04546152
-0.07778638
0.03848156
0.03978194
0.09525307
-0.00646411
-0.00432669
-0.08070481
0.03326603
-0.06745961
0.03682892
0.01211100
-0.10070409
0.01606662
-0.01920911
0.03081138
-0.07485303
0.02363100
-0.07234918
-0.01129247
-0.03106313
0.08341387
-0.10166324
-0.09054729
-0.03847416
-0.04533538
0.03804263
-0.02774795
0.02994015
-0.00389098
0.08964683
-0.02040203
-0.00775848
-0.06181448
0.01905944
0.06986053
0.08765586
-0.02633433
-0.05857190
0.06632117
-0.05592216
0.00128958
-0.08320649
-0.00871007
0.05236890
-0.02022591
0.07880502
0.09376919
-0.00123651
0.03785341
0.02845723
-0.04953086
0.00464470
-0.07212143
0.00107431
0.00176942
0.08089168
-0.00154830
0.02970557
-0.08791195
-0.07290631
-0.07301710
0.05757131
-0.06559883
0.01390240
-0.01065985
-0.00489185
-0.06208670
0.06342039
-0.10156281
0.02584199
-0.08397925
-0.05165647
-0.00266543
-0.01004029
-0.02040583
-0.03400028
0.08335542
-0.04656399
-0.00210662
-0.00671149
0.06140120
0.03136381
-0.00596199
0.03557886
0.01257862
0.05138879
-0.05414603
0.02225898
-0.03730730
0.02931097
0.08260447
-0.01088457
-0.07336576
0.00540047
0.02798888
-0.06842442
-0.08679897
0.09029670
0.00491494
-0.00626627
0.06614399
0.07566638
-0.08144979
0.06799311
-0.05360860
-0.01352139
-0.06905522
-0.05383976
0.07224672
0.00749038
0.03129331
0.08714310
-0.04550502
-0.03387566
0.02071662
-0.04686592
-0.10659165
0.08303512
-0.05972416
-0.01495049
-0.10398635
0.07369119
-0.01523548
-0.00574211
-0.04485428
0.06919758
-0.06128422
-0.06599716
-0.07264020
0.07790365
0.06842949
0.03615404
-0.01736014
-0.02541344
-0.03673680
0.05145643
-0.08424113
-0.01124782
-0.01268638
0.01027242
0.03642680
0.01322336
0.03483191
-0.01500213
0.02435618
-0.07889394
0.09930378
0.06836947
-0.04617663
-0.06452949
0.07896913
0.05279873
0.04021539
-0.04800288
0.06629337
0.08629270
0.01511868
-0.01107492
0.04098237
-0.03215699
-0.08932214
-0.06611083
0.04640882
-0.03710055
-0.03575102
0.04581373
-0.09759788
0.01087106
0.04840780
-0.07150102
-0.06081584
-0.07496987
0.03604910
0.02504072
0.00717951
0.01445704
0.01303187
0.06015953
-0.06318059
0.05541843
-0.05089783
0.09328172
-0.02867141
-0.09493064
0.08971435
0.07185504
-0.08960749
0.00882051
-0.06581666
-0.09280146
-0.02272968
0.00413630
-0.05925261
-0.03645670
-0.00017352
0.01119274
0.03789114
0.05154550
-0.05961510
0.06194549
-0.03718443
0.08627305
0.03631090
-0.07544485
0.04562720
-0.09711743
-0.03237159
-0.04912176
0.03107316
0.01558099
0.03859943
-0.09039089
-0.03071931
0.06949413
-0.04107310
-0.05118611
-0.02059217
-0.02579307
0.02351875
0.00742734
-0.03637661
-0.04664883
-0.09180757
-0.07479090
-0.07572114
0.08977421
-0.02216601
-0.05727643
0.04195403
0.00823941
-0.03330446
-0.06118658
-0.07590585
-0.06281276
-0.00718545
-0.07902504
-0.08689730
0.00394134
-0.07101047
0.01381780
-0.07734209
0.00211632
-0.03507174
-0.05479840
-0.00261189
0.10729579
-0.07435995
0.03563411
-0.02287612
-0.00427176
0.07150019
-0.05021245
-0.07441179
0.00215437
0.04711209
0.05160365
-0.06048940
0.01516690
-0.02942437
-0.07823596
-0.01039604
-0.02483566
0.08841166
0.03624439
0.06082819
0.03711226
0.01034083
0.06299142
-0.03627244
-0.07780408
-0.10013130
0.04743554
-0.01904710
0.00710509
-0.05225687
-0.02847574
0.06098100
-0.03511119
-0.03776146
0.01917480
-0.05121372
0.07096076
0.05747053
-0.07275639
-0.02508125
0.05102085
-0.09956582
0.03016588
0.03078792
0.08561272
-0.01747237
0.03155481
0.03040875
0.03163860
-0.09819076
0.05820659
-0.06346030
0.08114182
0.00906891
0.02715756
0.04313825
0.02809301
-0.05366747
-0.00210985
-0.07130375
-0.02306640
-0.09801339
0.06827520
0.02905218
0.00770836
0.08217896
-0.09056645
-0.02258412
-0.04205319
-0.07381730
0.06674356
0.07315156
-0.02759095
-0.00700362
0.00742072
0.05503925
-0.02028219
0.05990861
-0.02919979
-0.07397520
-0.01430858
0.00257750
0.00697210
0.06699368
0.04963304
0.06933857
0.06019356
-0.03992669
0.03902380
-0.04008136
0.03949682
-0.09010555
0.08448684
-0.03805786
-0.04686616
-0.08739170
0.09388032
-0.06732657
-0.07586883
0.06981547
-0.01420667
0.01645233
0.00301113
0.09685505
-0.06855901
0.08339638
-0.00225039
-0.07116769
-0.03751918
0.09300896
0.07874328
0.07313439
0.00461371
-0.02381956
0.03984726
0.08809095
-0.08409319
0.03167887
0.01272862
-0.08249915
-0.06752571
-0.00894107
0.02356570
0.06277020
-0.02718295
-0.06705217
0.00176080
-0.05867884
-0.06602064
-0.02347640
0.01753496
-0.10072626
-0.08624446
-0.09064500
-0.05110317
-0.09268726
0.00360642
0.01261659
0.04380643
0.05151186
-0.04267130
-0.05799320
0.02673716
0.08910311
0.03483530
-0.04421345
-0.01632054
0.00004731
0.09456009
-0.02912298
-0.04901699
-0.00770764
0.07781868
0.06399311
0.09764036
0.00687139
0.05279518
0.09398354
-0.05301127
-0.04633358
-0.01440460
0.01602945
-0.07895393
-0.06456143
0.03017989
-0.05242979
-0.07328802
-0.03760322
-0.08316998
0.07623324
-0.03082883
-0.00514188
-0.08463323
-0.09103774
0.00890751
-0.01138195
-0.01337214
-0.05868001
0.05201234
0.05826935
0.01977964
-0.07666517
-0.02316701
-0.03272544
-0.08138120
-0.03871970
-0.02690334
-0.02931161
0.09345542
-0.06932469
0.08543136
0.07194771
-0.04468194
-0.03924760
0.09236108
-0.07364926
-0.00938211
-0.07872303
-0.02439603
0.04943278
0.08392721
-0.01123665
-0.03035114
-0.08700889
0.00301438
0.02410251
0.04915667
0.04780179
0.07632458
0.05645700
0.05180455
0.05809222
-0.06476435
0.03383425
-0.01938063
-0.00134002
-0.01916046
0.07283503
0.04201544
-0.01960826
0.07098181
0.02040233
-0.08684473
0.01177041
0.03917792
-0.07871142
-0.04481432
0.06540177
0.03739212
0.07922596
-0.01949274
0.02851840
-0.04820171
-0.08083275
-0.03714971
-0.05636727
-0.04535134
-0.03965974
0.01914501
-0.05149817
-0.03012494
-0.01028362
0.06293651
0.07598296
-0.05239784
0.05184636
-0.07029786
0.05184532
-0.09028826
-0.08574223
-0.08074034
-0.01384503
0.09565295
0.02813684
0.08483172
-0.04421578
0.05438861
-0.10136417
-0.08985731
-0.09406034
0.06786843
-0.02118754
0.01511561
-0.03579903
0.06817019
0.07884649
-0.08346551
-0.06975587
-0.05183722
-0.08840971
-0.02189441
0.10083389
-0.00469120
0.03510491
0.08843025
-0.06825200
0.02384567
0.10934269
0.05779448
0.08701341
-0.03037966
-0.05572831
0.10948569
0.06123022
0.02991949
0.08226906
-0.07845397
0.04671993
0.04054001
-0.02538530
-0.03311153
-0.02448351
-0.01343634
0.04960865
-0.07038891
-0.06939251
0.07554026
-0.04243680
-0.08296976
0.07804790
-0.00118390
-0.05019347
0.04516869
0.00277360
0.06848883
-0.05729098
-0.02967415
-0.07375953
-0.01759534
-0.01272018
-0.07597945
-0.07434341
-0.02939647
-0.00619806
0.09277514
0.02450598
0.02479877
-0.05459969
-0.04493555
-0.01968301
0.00042544
0.05459480
0.07905987
0.06542562
0.07004506
-0.09096783
-0.03413030
-0.08236077
-0.09184648
0.08381819
0.09347088
-0.07387727
-0.09263379
-0.08095939
-0.06932085
-0.06342410
-0.06921284
0.03940492
-0.02192603
-0.01126702
-0.06516752
0.02586361
0.01413280
0.05438910
0.04240137
0.00600663
-0.08035265
0.07919683
0.02720398
-0.01661082
-0.01193332
0.00288307
0.02194955
0.07312583
-0.03639103
-0.08637663
0.00563153
-0.01315284
0.07796087
0.03035023
0.03878057
-0.07241591
0.04932296
-0.09407233
0.06128341
-0.07008041
0.03868504
0.05965458
0.09621656
0.04020411
0.03890220
-0.04226446
-0.01033762
-0.01586887
0.02039612
-0.07390899
-0.05998391
-0.02115639
-0.04705948
-0.00020403
0.09930931
0.02000914
0.02215588
0.10086730
0.09537975
0.06611975
0.09223022
-0.00565692
0.00518112
-0.04472121
0.08972622
-0.05229825
-0.06148477
-0.07297660
-0.01628551
-0.00979304
0.01368333
-0.01898381
-0.05471927
-0.07258652
0.03250979
-0.01423023
0.08926810
-0.01419602
0.06367590
-0.00737685
0.00911886
0.05339867
-0.04989695
0.06065494
-0.09466158
-0.03403426
-0.07053915
-0.00819790
-0.03889766
-0.00967658
-0.08842964
-0.05579993
-0.04825638
-0.06433802
-0.01895389
-0.04780435
0.06320768
-0.08060691
0.02769499
0.05975607
0.09964725
-0.04923030
-0.03410153
-0.08408794
-0.00571801
-0.04225199
-0.06897274
0.03548423
0.03777169
-0.03170289
-0.09097183
-0.02390363
-0.01046470
0.05762705
0.07433481
-0.03966562
-0.04480047
0.05382728
0.09028014
-0.04644343
0.04083159
0.02044104
-0.08340697
-0.05699519
0.04587080
-0.08543024
-0.06003357
0.00818617
-0.02272389
0.07444830
0.01857640
-0.02036725
0.05694044
-0.06704944
0.03513988
-0.06905122
-0.00879994
0.03435101
0.07869502
-0.04429190
-0.08556830
-0.01797296
0.05697010
0.02497947
-0.04150620
-0.06630210
-0.01100465
-0.02674995
-0.05792200
0.03343380
0.05027237
0.05616599
-0.08972332
-0.05282019
0.06987559
0.01779913
-0.03708663
0.02080534
0.01123226
-0.08358786
0.07471562
0.08121192
0.06309457
-0.04708154
0.02305894
0.07252127
-0.01031102
0.02734727
-0.04981300
-0.08243471
0.04452103
-0.01043617
-0.07611626
0.03871136
-0.05231614
-0.00730083
-0.03505524
0.09554165
0.03610333
0.05627478
0.07679653
-0.09509652
-0.10160738
0.07049304
0.05679668
0.06204225
0.02704179
-0.00707431
0.00351911
0.04756165
0.09758817
0.09326742
0.07557971
-0.08708337
0.03453163
0.01745335
0.03443411
0.03009237
0.05869338
-0.08007431
0.05137400
-0.09765540
-0.04084407
-0.01288916
0.02325350
-0.00849650
-0.03074187
0.08843852
-0.08180422
0.04833132
0.03704630
0.08072487
-0.01341295
0.01214468
-0.04079203
0.05202984
-0.09057619
0.07829816
-0.05056262
-0.01358729
0.03082537
0.07429031
-0.01047147
-0.00166222
0.05541570
-0.03427232
-0.00726626
0.08372488
-0.02409370
-0.00779269
-0.03665034
-0.04732678
-0.08611057
0.07467294
-0.03546675
0.09356338
0.10295089
0.08777347
0.03721126
0.03807211
0.10651661
0.05316333
-0.05540648
0.01182763
0.01551952
0.06514135
0.05920013
0.00511554
0.00536116
-0.07116781
-0.03405593
0.10524228
0.08496306
0.01968086
0.02169333
0.04386845
0.01607498
0.09126162
-0.04707969
-0.00626612
-0.05249143
0.03859640
-0.01026368
-0.00162674
-0.04035399
-0.07473477
0.08754602
-0.05946084
0.01556307
-0.05748967
-0.05516481
0.05464288
-0.00748304
0.04104797
-0.03663865
0.08428924
-0.07862881
-0.09787062
-0.09501892
0.03330219
0.03329508
-0.08613688
0.02168616
-0.06665160
0.04060522
-0.09424735
-0.05522256
0.03452509
0.02275254
0.02374019
0.02320956
-0.09537417
-0.09309520
0.00953005
0.03229121
-0.00295190
0.06615777
-0.00828408
-0.08414530
-0.08365895
0.08821317
-0.03125425
0.07980059
-0.02345984
-0.07045669
0.05356077
0.01476762
0.01214168
0.07799321
0.04499860
-0.06371075
0.05835181
-0.03537249
0.07945360
-0.03851848
0.00470637
0.08476878
0.09369510
-0.08160262
0.08968666
-0.05149635
0.08570161
-0.02817607
0.02957601
0.07363806
-0.03011639
-0.03122737
0.09664746
0.08892398
0.08028916
-0.03935184
0.09703882
0.01475849
-0.07065433
-0.00401873
-0.05945594
0.00736428
0.05479604
0.04033198
-0.05405069
-0.07780193
-0.06492160
0.01480003
0.09617645
-0.01031227
0.03372991
0.05072174
0.03231261
0.02594207
-0.04606517
-0.07170272
0.03487716
-0.05113008
0.02518117
-0.01311574
-0.06429299
-0.00047091
0.05721163
-0.03439663
-0.09434043
0.03052945
-0.02703590
0.07225938
-0.07203559
-0.03762284
-0.06250286
-0.02123251
0.04543422
-0.08674446
-0.01368863
-0.00338343
-0.00386730
0.06252025
0.09963220
0.04028125
-0.07121085
0.08098555
0.04601080
0.02622962
-0.00920829
-0.01412089
0.01956768
-0.09305909
-0.01129057
0.07156852
0.07397426
-0.09277006
0.03500354
0.02810097
0.01663514
-0.09069071
-0.08695986
0.01752872
-0.04357736
-0.07569048
-0.00084624
-0.09675693
0.01889544
-0.01177137
-0.02998818
0.02391015
0.09317474
0.02328525
0.04877475
0.05071813
-0.08549529
-0.07444634
0.02518554
-0.06167753
0.03057469
-0.08626085
0.05883667
-0.08712293
-0.03019900
0.09111065
0.08156902
-0.08462055
-0.03272450
-0.01586161
-0.00116854
-0.05007202
-0.02548285
0.04474376
-0.05656060
-0.07902936
0.08852811
0.03123687
0.03316066
-0.03368645
0.07149936
0.04177373
0.04310031
-0.06096676
0.08372683
-0.05108687
-0.06496045
-0.03814144
0.10897213
0.04662551
-0.01293625
-0.06746798
0.01773196
-0.02686922
-0.03896185
-0.07817932
0.11087774
-0.00705144
-0.05160805
0.07903765
0.04127607
-0.01771998
0.01905213
0.04777896
0.05830108
0.07595775
0.03174126
0.08650982
-0.01946960
-0.01545186
-0.08941955
0.03036338
0.02201025
0.03096746
-0.02521971
0.03709664
-0.01353187
0.05307637
-0.06237135
0.00815018
0.04155928
-0.05170884
-0.00925834
0.00289561
0.07436871
-0.07735487
-0.00082430
0.04834226
-0.00966278
0.07122800
0.00267043
-0.04495276
-0.03148301
-0.04538422
-0.08604409
-0.04834227
0.00626456
-0.01659427
-0.04089224
-0.01678457
-0.04085996
0.00168116
-0.00958606
0.02222938
-0.05572002
0.04872822
-0.09195766
0.06288542
-0.08944829
0.03825857
-0.09468329
-0.04858417
-0.06051349
-0.07331754
-0.07090613
0.05878780
0.09149022
-0.07890997
0.00501899
-0.00095741
-0.04630855
-0.06288157
-0.00558776
-0.06864244
-0.02779533
0.02868161
0.03673364
-0.02810878
-0.08926227
-0.09595828
-0.03572184
-0.04197692
0.02886856
-0.06386602
0.10764353
0.06857736
0.08354603
0.06195265
-0.05801136
0.10839407
-0.06870058
0.10144992
0.02320425
0.00948934
0.10305289
0.02563789
0.11180750
-0.03564288
-0.03258636
0.05542832
-0.08191533
-0.01805048
0.11164256
0.06255387
0.02590397
0.09363367
0.02676915
0.02815270
0.00115402
0.03428283
0.03153895
-0.08883630
-0.03580645
0.03547549
-0.00821290
-0.07901894
0.08421745
0.05274677
-0.07506544
-0.01464909
-0.03595897
0.00879724
0.02610408
-0.06178014
0.06809581
0.09309389
-0.02352324
-0.00765661
0.06149232
-0.09085697
-0.02530273
-0.05506636
0.08627895
0.07693069
-0.03991274
-0.08503503
-0.05544062
-0.06395147
0.08571741
-0.02935432
-0.04117624
0.01252731
0.00796841
-0.01332146
-0.03222234
-0.09928343
0.00393515
-0.10157941
-0.08481344
-0.09950637
0.08696885
-0.02415043
-0.00589922
0.04767382
0.04975460
0.01902572
0.04400584
0.08498286
-0.01394524
-0.00072213
0.04003373
0.02387395
0.02644280
0.00103457
-0.03378437
0.03103406
0.03435695
0.08207889
-0.05516246
-0.07058813
0.07313652
0.04965867
0.05740978
-0.06690838
0.00585513
-0.05780118
0.07064638
0.08868245
0.02090639
-0.08821497
-0.02519984
0.07000093
-0.08630337
0.00303013
0.03120236
-0.07592696
0.06298438
-0.05404623
0.01243338
-0.06481249
0.06390069
-0.05366586
0.00535615
-0.01179447
-0.06075622
-0.04376497
-0.07182714
0.08854806
0.05293643
-0.07177384
-0.08149922
-0.03176688
0.01971473
0.06907666
-0.02628756
-0.01268333
0.03133038
0.09156881
-0.08103288
0.00230161
0.00515561
-0.02776758
0.03074712
-0.02978300
0.04047334
0.03926694
-0.02126722
-0.01890933
0.01014832
0.02008093
-0.04264570
-0.08898082
-0.08136513
-0.08436418
-0.09204349
0.01167373
-0.01301335
0.07097008
-0.07399021
-0.02163402
-0.07124567
-0.02796695
-0.04260806
0.08261877
-0.06048681
-0.03594760
-0.00694388
-0.09136947
-0.03217362
0.07242689
0.09314764
-0.05313181
0.02736497
-0.00252053
-0.08814930
-0.05107091
0.06992243
0.00489666
-0.08313905
-0.09933755
0.05250157
0.01192882
-0.03312189
-0.00044235
0.04483861
-0.04415404
0.05635376
0.09095230
-0.01130343
-0.02336860
-0.00141843
-0.01822129
-0.02393257
-0.01081620
0.00721627
0.07891733
-0.04131733
-0.02537981
0.03662078
0.08131020
-0.08453601
-0.06178990
0.03223069
0.03617642
-0.04795709
-0.07665308
0.09541257
0.00291120
-0.06770048
-0.03819460
0.06711968
0.08642259
-0.02819977
-0.08617236
-0.02718705
0.03466364
-0.04078586
0.07952105
0.07775237
-0.04856371
-0.04131645
0.08042612
0.00791110
0.04793092
0.06106440
-0.00458364
0.04586908
0.04723247
-0.03826812
-0.04861143
-0.01005906
-0.06037591
0.06215104
-0.08869293
0.07665651
0.10463009
0.05668935
-0.08344855
0.01729625
0.10146967
0.00400059
0.04148055
-0.07196893
-0.01737099
0.01022451
0.00784795
0.06491900
0.05815497
-0.00814375
-0.09072283
0.00034657
-0.07898532
-0.01004129
-0.06776965
0.09174698
0.08764917
0.01377845
0.04548596
-0.04633408
-0.06581706
0.08379713
0.04946510
0.02988619
-0.09961827
-0.08099246
-0.03711544
0.09862698
-0.07851190
-0.05178684
0.06061753
0.04084356
-0.10098182
-0.09943732
0.05897815
-0.05222427
-0.03122633
0.08118592
-0.00620501
0.01445695
0.08002638
-0.09255507
-0.04593666
0.06969802
-0.05820646
0.05108844
-0.02954488
-0.03240700
-0.06936930
-0.09481736
-0.00035319
0.05899190
0.07184357
0.06998052
-0.04228354
-0.06442608
-0.01334072
-0.08242892
-0.04782588
-0.07454462
0.06350625
0.08455051
-0.02154904
0.02900829
-0.05395275
0.01989757
0.02229996
-0.00074413
0.09714786
-0.03220045
0.01074470
-0.00774536
0.09118273
-0.02447989
0.03385183
0.01511369
0.08314169
0.03124218
0.07328044
0.01029983
0.09531633
-0.03240319
-0.01444938
-0.06350576
-0.01568859
0.04742952
0.07156858
0.05551167
-0.01304008
0.03549718
-0.06021907
0.03680183
0.06550490
-0.03909286
-0.01361612
-0.02608082
0.07971735
0.02960157
-0.06613985
-0.03113217
-0.05716492
0.01051158
0.04937166
-0.02920368
-0.04618533
0.00480933
0.07210508
-0.08944234
0.03874254
0.04203641
0.00211294
0.00836796
-0.06347303
-0.09539941
0.02009406
-0.08113656
-0.06576825
-0.09578337
0.04010546
-0.07640727
0.09418456
0.03109769
-0.07113288
0.07281950
0.08046392
-0.03987436
0.07363606
0.04322184
0.07150367
0.00427971
-0.02884742
0.00266952
-0.03123947
0.06036021
-0.02382014
-0.04307198
-0.00863592
-0.03981900
0.08924558
0.07762476
-0.03351173
0.09541991
0.04958042
0.02637538
0.08604298
-0.08063713
-0.07319499
0.00688213
0.06306851
-0.01177994
-0.05042549
0.03373938
-0.00717765
0.10031017
0.04803124
-0.00390882
0.03954561
-0.02196533
-0.03625594
-0.01865341
0.02708457
-0.05155559
-0.09103665
-0.04916890
0.02436092
0.10133313
-0.02676665
-0.00198967
-0.03666968
0.09652241
0.05592281
0.09843680
0.03112235
0.07932162
0.02588472
-0.08804430
0.10687875
-0.02144102
-0.09178831
-0.02035340
0.03755879
-0.03220430
0.06078940
-0.05566486
0.09744936
0.08564626
0.07679766
-0.04168829
-0.03505915
-0.01896498
0.07566500
-0.07819356
0.02087700
0.09980945
-0.08250960
0.08115766
0.03679961
-0.08986982
-0.00038669
-0.05736722
0.06962400
0.06671627
-0.00342338
-0.04054612
0.03755082
0.01279220
0.09469695
0.06780643
-0.08109152
-0.00903346
0.07079438
-0.06260150
-0.04882648
-0.05724925
-0.01883513
0.00688068
-0.08521175
-0.08267307
-0.01516115
0.05764716
-0.05308582
0.05639516
0.07548449
-0.09019009
0.01724617
0.09844729
0.04567960
-0.02092877
0.09225400
-0.04502842
0.04858133
0.00850128
-0.01695115
0.00612797
-0.08005705
0.00823563
-0.05544117
-0.00473182
0.06733339
0.06734453
0.05453093
0.09642507
0.01115814
-0.07017660
-0.06305252
0.07219147
0.05709532
-0.06392545
-0.06006850
-0.03619912
-0.06361096
0.02552633
-0.04390456
0.03109177
0.09440178
-0.05419414
0.09408459
0.01777352
-0.07674112
0.01579051
-0.00516400
0.01250662
0.00246448
0.02428348
-0.06372947
0.10261557
0.06369378
-0.09491734
-0.07189979
-0.01906626
0.08836489
0.08375927
0.07698993
-0.09524992
0.06961646
-0.01888188
0.05080171
0.02295840
0.05830157
0.00942478
-0.06273276
-0.01451726
-0.05664775
0.05619989
0.08776525
-0.05489792
0.00530880
0.09838024
0.01173933
0.03789285
0.00009322
0.10180955
0.04804962
-0.09508811
-0.01087205
0.00844317
0.03929962
0.04376763
-0.06238211
0.07904639
0.02891704
-0.09520021
0.06621101
-0.09532204
0.01872794
0.05669335
-0.05866960
0.03627041
0.09294240
-0.02092612
-0.00905717
0.07068350
-0.05306629
0.08422057
0.06400253
0.00057622
-0.00547610
0.07319596
-0.08558966
0.00463689
0.04213399
0.05596836
-0.02987321
0.03094752
0.04489657
0.08663967
0.06485981
0.03379144
0.06766643
0.00472927
0.01991472
0.04167780
0.01377112
-0.01378288
0.08621590
-0.03441833
0.06620323
0.01277127
-0.01830155
-0.05912299
0.05498226
0.02185161
-0.00497441
-0.06994840
-0.08824882
0.00852388
0.06725892
0.02712389
0.07775449
0.02615369
-0.02840604
-0.01375716
-0.01002510
-0.08538832
0.08505247
0.08328081
-0.09297533
-0.02989422
-0.02571257
0.05528060
-0.09599686
-0.06143134
0.08122456
-0.10107978
-0.09008203
-0.05095162
0.01444545
0.05712766
0.01693727
-0.06348015
0.04698266
-0.00460157
0.01535447
0.04528751
-0.07011786
-0.08578004
0.02039035
0.02624371
0.00358477
-0.02513756
0.03853204
-0.06481976
-0.09516425
-0.09499163
0.01133077
0.04784890
0.00805047
-0.08543958
-0.07732404
-0.07944198
-0.07567588
0.02124381
-0.04955569
0.02328433
0.04543475
-0.07244320
-0.04705519
0.04918267
-0.08116671
-0.06467751
0.06579253
0.07579924
0.05852189
0.07807687
-0.06135993
0.02438466
-0.06638860
-0.09255506
-0.07176571
-0.05076919
0.03781333
0.04416506
-0.00225800
-0.03461025
0.02110224
-0.01920989
0.05497735
-0.08257303
-0.09497462
0.07146250
-0.01903825
0.02502977
0.07629587
-0.09440209
-0.01504339
-0.03334038
0.04915193
0.09745049
0.05133453
-0.01962581
-0.05000904
0.09903941
-0.04376151
-0.09874978
-0.08665375
0.01267417
0.04853212
-0.08688532
-0.04678027
-0.02949984
0.00259139
-0.04010786
-0.08633128
0.03666254
-0.00617132
0.08518505
-0.08838908
0.05129502
-0.07807459
0.00676878
-0.03066962
-0.05774282
-0.07711170
-0.01296822
-0.08444415
0.01953326
-0.03211834
0.05943374
-0.02475495
0.01590434
-0.02345226
-0.08968209
-0.01451889
0.05341751
0.06042941
-0.09424908
0.05302537
0.09464081
-0.07518048
0.02435318
0.08650185
0.01807404
0.04731082
0.02977882
-0.02689200
-0.04824235
-0.08361328
0.03709228
-0.06450134
0.05161020
-0.06177754
0.03039504
-0.02497661
-0.05505176
-0.02366106
-0.04014987
0.03511359
0.05489346
0.09503734
-0.00672789
0.02514118
0.04853438
0.01962728
-0.01848195
0.07956441
-0.05544885
0.03210236
-0.09470609
0.03370100
0.02253529
-0.03964478
-0.10007427
0.06147455
0.01257884
0.02345626
-0.05510695
-0.06703744
0.01718719
-0.01929517
0.02161538
0.00290993
0.01717090
-0.09867864
0.01689546
-0.10075911
0.07883336
0.09053360
-0.09187014
0.04857344
0.08446964
0.08210483
-0.06317229
0.06318075
-0.09294806
0.05009453
-0.03193821
0.01539694
-0.02269438
-0.02354412
0.09498335
-0.01390463
-0.09418758
-0.00977004
-0.00416016
0.08353536
-0.01464205
-0.08247147
-0.09158166
-0.00647263
0.02104673
-0.06112278
-0.08408982
-0.09108711
-0.09463838
0.01926574
0.00584482
0.03848910
-0.02343628
-0.00319554
-0.02059578
0.08838862
-0.01075345
-0.09153133
0.07450442
0.03738173
-0.08365887
-0.01295323
-0.06334198
0.04921430
0.01126591
0.01262630
0.08256936
-0.03993472
0.03397465
0.02755401
-0.07210293
-0.00635174
0.06997613
0.08236138
0.04134548
0.08827010
-0.06180075
-0.10256522
-0.03107118
-0.03073118
0.08365946
0.04957318
-0.09796847
-0.03047512
-0.06970102
0.06056786
0.08950947
-0.08870093
-0.07102424
0.02123680
0.05240654
-0.06507681
-0.00766732
0.07933499
0.06762388
0.03904674
-0.05721417
-0.05888449
0.06816847
0.04611215
0.07692142
0.08840605
-0.09087891
0.00791333
0.00911723
0.04416656
0.02290065
0.00676352
-0.01047996
-0.04294673
0.08808781
-0.01746913
-0.06644781
-0.05111512
0.04515347
0.08677858
0.08003968
0.01632002
0.00101069
-0.10298141
-0.09822359
0.06654445
-0.07700295
-0.07746343
0.07351487
-0.03433088
0.00222497
-0.00361564
0.03323537
-0.01185639
-0.06906817
-0.02732341
-0.02212896
0.05270984
0.06843740
0.00717704
0.03101041
-0.00151909
0.07522212
0.06461081
-0.07956289
-0.00696166
0.00186574
-0.03608308
-0.04372774
-0.04188957
0.05225228
0.09081547
-0.02268619
-0.04516597
-0.06287431
-0.08689331
0.02584348
-0.00692652
0.02764053
-0.00394386
-0.04148517
-0.03112996
0.00904467
0.02020052
-0.05485140
-0.05239198
0.08304841
0.02970139
0.02631485
-0.08381253
-0.04683247
0.07710236
0.04827874
-0.08192528
-0.02085558
-0.02761095
0.08147681
-0.08058069
0.01914654
-0.09786162
-0.05398353
0.00494005
0.08013693
-0.08595809
-0.04395631
0.05740067
-0.03584476
-0.01276761
-0.01712537
-0.05794339
-0.08805803
-0.02812426
0.07869821
0.04970394
0.09607368
0.03230665
-0.10108624
-0.07016545
0.01554208
-0.09636474
0.08920229
-0.08579140
-0.00254060
-0.08507692
-0.07292824
-0.09048968
0.05554984
-0.05828303
-0.05000421
-0.05551537
-0.08153628
-0.01614926
-0.02808720
-0.06914708
0.03434491
-0.05474224
0.05759645
-0.06629657
-0.08080085
-0.05434664
-0.03817135
-0.03544351
0.01128204
-0.07165763
0.05150188
-0.00658301
-0.03929314
0.00157595
0.08833055
-0.02713857
0.08333915
0.08247266
-0.08073039
-0.03430083
-0.09273003
0.09448157
-0.04181402
0.03831977
0.04686571
0.07850435
0.02909542
0.01321353
0.08634824
0.06138358
0.07843566
-0.04156756
0.06432750
0.04278474
0.06229555
-0.01945046
0.07539456
-0.06449400
0.02854697
-0.03057197
-0.07531294
-0.03685344
-0.05186354
-0.06035027
-0.09674240
0.05692825
0.02809132
-0.03409724
-0.03215866
0.06904835
0.05530818
-0.07564819
0.01701262
-0.03263156
0.00069680
-0.09566109
0.01723812
-0.08788658
0.06410923
0.05769582
0.06487433
0.02210444
-0.01144807
0.06889699
0.04935932
0.07958173
0.02253646
-0.07318625
-0.08482823
0.04867925
-0.03133292
0.00398216
-0.05253381
-0.01987045
-0.04684668
-0.03247312
-0.08462336
0.02623808
0.08094004
0.03900706
0.07137323
0.04826624
0.02722762
0.03109906
0.09491695
-0.06005516
-0.07633950
0.03772769
-0.01478386
0.02368220
-0.08085020
0.06826317
0.01669135
0.04364783
-0.04530355
-0.05107107
0.01605086
-0.08380870
-0.02337025
-0.03629487
-0.04219712
-0.04135391
-0.06961334
-0.02574536
0.06343617
-0.06181303
-0.09030523
0.04139555
-0.06358205
-0.02217489
-0.09211166
0.08062390
0.04717647
-0.10372351
-0.07968124
-0.00133123
0.02732740
0.09530854
0.05744519
0.08823402
-0.03956970
-0.04145424
0.08503997
0.07321010
0.04863800
0.06541061
-0.03541317
0.03870474
-0.06159500
-0.00284259
0.00376362
0.03432301
0.04725840
0.01962318
-0.04545494
-0.01340465
0.05579859
-0.04537349
-0.04454919
0.00955819
-0.00770562
0.03910901
-0.00268231
0.01049512
0.07858676
0.06786009
-0.01526685
0.07075177
-0.06769443
0.06704322
0.00267581
-0.10185390
0.06739036
-0.04194815
-0.05866950
-0.09428561
-0.09856967
0.04501371
0.05091948
-0.08998822
0.02765076
-0.01397168
0.03546416
0.04943867
-0.08088175
0.01961985
-0.01915728
0.05355113
0.06906614
-0.09019101
0.07473313
-0.04209452
0.04266695
0.02858429
-0.05672190
-0.09217531
0.04235973
-0.02686405
-0.04963521
0.03540137
0.04611477
-0.05312705
-0.01041654
0.02584488
-0.04528224
-0.07876258
0.01704750
0.01868602
-0.04274204
-0.06738843
0.07712920
-0.01498300
0.04996221
0.08067851
-0.07046697
0.02935430
-0.09281463
0.01401914
-0.03153991
0.07434170
0.02663303
-0.01209381
-0.05940201
0.03170461
0.06065299
-0.00388880
0.04231533
-0.00484514
-0.03088861
0.05643077
0.03327065
-0.01883361
0.06483013
0.00484452
0.00148317
-0.09271409
-0.06282596
0.09065469
0.03988285
-0.07874939
0.00299858
-0.05878472
-0.05250159
0.03358052
0.01560388
0.08226258
0.01498980
-0.03851144
-0.03747013
0.01865881
-0.02213996
0.07416024
-0.04112904
0.09195510
0.03987362
0.09694487
0.09352432
0.00052386
-0.02961413
0.04122925
-0.09557450
0.01927679
-0.07512905
0.04252492
-0.01513334
-0.07760727
-0.07296051
0.05707652
-0.01065911
-0.04385842
0.03546633
0.04662390
-0.03628907
0.08177934
0.05758611
0.04496061
0.00231039
-0.01998105
-0.07052844
0.09477924
0.02088403
0.06078694
0.03535459
-0.00618058
-0.08952970
-0.04682868
0.02928834
-0.06668299
0.08623952
0.05492705
-0.01040287
-0.01357887
0.00740684
-0.08521816
-0.00722804
-0.02716949
0.01793023
-0.08646516
-0.05975322
0.08913664
-0.05715055
0.09415584
0.10073124
0.06406400
-0.00215978
-0.03131966
-0.07705482
0.05206091
-0.09819281
-0.05207680
0.01970374
0.02895616
0.06734548
0.07668022
-0.03623008
-0.10140338
-0.06919602
0.04090637
-0.03341285
0.08339406
0.05713136
0.05987592
-0.01225656
0.06119710
-0.05901737
-0.10360325
-0.05850416
-0.07816012
-0.03588402
-0.09909194
-0.03140519
-0.02018654
-0.06393415
0.06517938
0.07629936
-0.02630073
-0.09235759
0.09000126
-0.00718460
-0.03822161
-0.07725786
0.04098200
0.01228557
-0.08859660
-0.01870685
-0.02677186
0.02463081
-0.04953759
-0.03043502
0.02635025
0.02686155
-0.06401712
-0.06197497
0.04974441
-0.05357696
0.02412975
0.04022983
-0.00709216
0.05220679
0.09134368
-0.09611513
0.08356158
-0.09529891
-0.02969040
0.05255025
0.07054574
0.07405628
0.07577373
-0.05924022
0.04775743
-0.04283327
-0.00199009
0.08201449
-0.05284371
-0.01781408
0.05289614
0.07963626
-0.09937982
-0.04687799
-0.04846749
0.03310264
-0.04662018
0.05198198
0.06283184
0.02925442
-0.10650489
-0.00851106
0.05222092
-0.02530904
-0.06767181
0.04667071
0.00131155
0.05309230
-0.08094258
-0.00531375
0.08571593
0.06245257
0.07502623
-0.00088690
-0.01896249
-0.01531491
0.08364233
0.01531744
0.07895193
-0.01464269
-0.09881778
-0.02962381
-0.09103752
-0.02849607
-0.09429062
-0.10454598
0.04208222
0.02222170
0.02676503
-0.06899125
-0.04490663
-0.05460902
0.07725386
-0.10329260
0.05231484
-0.05339687
0.04984245
-0.00287412
-0.04658878
0.04116822
-0.01848444
-0.06142715
0.00044966
-0.03223227
0.01630403
-0.03406380
0.03378969
0.04728994
-0.05399818
0.00353895
0.02975497
0.04243255
-0.08798712
-0.07970713
0.08208228
0.07718077
0.01157066
0.10254035
0.02785940
-0.01266901
0.02621196
0.10216124
0.09786880
-0.04526181
-0.04135319
0.04304504
-0.07587957
-0.05296222
-0.08591404
0.09296610
-0.06627896
0.08204244
-0.08012985
0.08574081
0.01457222
0.08419753
0.07577803
0.05486488
-0.03237022
0.00651896
0.06166552
-0.09007072
0.07736707
-0.03279651
0.04795470
0.03271307
-0.00865683
0.08751157
-0.01530290
0.03136316
-0.05224093
0.01891032
0.09122986
-0.03423560
0.06823473
0.01558893
-0.00231545
0.07990188
0.09444726
-0.04129856
0.08300631
0.07238347
-0.06559931
0.05589799
-0.04323132
0.09041296
0.05490445
0.03903606
-0.06088017
0.04535327
-0.09262397
-0.07610167
0.00884374
-0.03444660
-0.01515480
0.01759450
-0.05038404
0.03432390
-0.08088951
-0.10533835
-0.01697276
-0.05874223
0.01052877
0.04824838
0.00289768
-0.00763019
0.05057348
0.07958849
-0.06520021
0.07111983
0.00442519
0.07081658
-0.08903163
-0.05465283
-0.02651897
0.01919188
0.08818371
-0.08990664
-0.05446829
-0.04212690
-0.02033043
-0.08713183
-0.00746945
0.01161984
0.04527377
0.06676780
-0.08296772
0.11208327
-0.06595407
0.06053051
0.08682002
-0.06536203
0.01092629
-0.01117660
0.10540267
0.05329292
0.04475891
0.01828067
0.08198174
0.10577036
-0.08199204
0.04468999
-0.01047871
-0.03177732
0.06659134
-0.05138330
-0.06228093
0.09117167
-0.03096831
-0.03818616
0.09509559
-0.03856322
-0.04273915
-0.07432305
0.09514602
-0.04195144
0.09098578
-0.03319077
-0.06841758
0.07457118
0.08671368
-0.04412695
-0.05746402
-0.01356410
0.01684658
0.02601907
-0.01189827
-0.08802503
0.05307014
0.03963893
-0.09429079
-0.09473127
-0.09785205
0.05212237
-0.08536942
0.09011152
0.00240109
0.08507778
0.03229925
-0.01667127
-0.00873951
0.10019356
-0.06096882
0.10048139
-0.00590629
-0.06422169
0.09526466
-0.01755497
0.02197620
-0.04786429
-0.05690949
-0.08192185
-0.09837818
-0.07980876
0.01416683
-0.06101341
-0.01531666
0.00628773
-0.04157064
0.00282784
0.00942098
0.06208582
0.00004488
0.07910795
0.09085054
0.04855129
-0.07493207
-0.05975986
-0.06042376
-0.01748055
-0.09941240
0.07210708
0.00003216
0.03678644
-0.03404727
0.06949976
0.08896517
0.04402919
0.01588155
0.07187809
0.00557451
0.04145875
-0.05212884
0.02117158
-0.01868880
0.04795004
0.04687166
-0.07744679
0.10231080
0.08820303
-0.02114551
-0.04197219
-0.07600548
-0.07007424
-0.06758144
0.02890789
-0.07446371
0.00088195
-0.06461922
0.05706141
0.10818653
-0.03178819
-0.00012624
-0.01761133
-0.08955621
-0.06634436
-0.02693742
0.08543563
-0.06412315
0.08398637
-0.03920271
-0.07520858
0.01857132
-0.02258886
-0.00880869
0.01499684
-0.08552293
0.07588245
0.03606198
-0.02659029
-0.02264738
-0.02870117
0.02525208
0.01555136
0.00192829
0.03884872
-0.03735372
-0.08388938
-0.00878451
0.08060028
0.03257519
0.07473119
-0.00357139
-0.09436593
-0.07825225
-0.05925306
-0.09071811
0.07628459
0.08832787
0.07437531
-0.02625026
-0.04005517
-0.08118887
-0.01519640
-0.07755683
-0.05407653
-0.02071416
-0.09917886
-0.02606381
0.01846551
0.02185314
0.04021469
0.04276864
-0.03539685
-0.01853284
0.01498734
-0.01138805
-0.10263581
-0.10365184
0.02111207
-0.07313806
0.06494819
0.08041301
-0.00222932
0.02815405
0.08136273
-0.04033825
-0.06877506
-0.00617305
-0.05417019
0.05780119
-0.03346786
-0.08789210
0.00391092
-0.05581152
-0.01111312
0.03479200
-0.03400792
-0.02057739
0.10640179
0.04551167
0.06530994
0.01483647
0.11121039
0.02595009
0.05597833
-0.05940255
-0.06570888
-0.05634787
0.07347562
0.09138667
-0.07749091
0.00035864
-0.06608613
-0.00336210
-0.00361864
-0.06086720
-0.03736022
0.03653296
0.07342922
-0.01109441
-0.00558859
-0.08751186
0.02813648
-0.07165800
0.04158876
-0.02014547
0.00824353
-0.06370749
0.05559982
0.04879250
0.09153964
-0.05733086
0.07714357
0.05158070
0.01650206
0.04846813
0.05388562
-0.09437234
-0.06467099
0.08334423
-0.02482237
0.01894520
-0.06367307
-0.02879007
0.05492675
-0.01018084
-0.07346929
0.03613765
-0.08148148
0.09384326
-0.02704760
0.00982670
-0.04379790
0.09172387
-0.04392050
-0.01887383
-0.05920650
0.07606200
-0.06622645
0.08558895
-0.02001700
0.06068626
0.04179220
-0.01486703
-0.08661861
-0.01276570
0.04680877
-0.08502779
-0.06381366
0.08590429
-0.00454205
0.06383473
0.07231135
-0.06109743
-0.06241737
-0.04665079
-0.05772444
0.02857065
-0.01114293
-0.07739615
0.00637845
-0.10110340
0.05147045
-0.03576137
0.00298813
0.06593967
0.09395084
0.03832111
0.06933991
0.00935439
0.03227624
0.07986997
-0.01231520
0.03152065
-0.01946914
0.00306038
-0.05140653
-0.07662102
-0.05666447
-0.04692217
0.09195671
0.02925285
-0.03454758
0.07169034
0.01171518
0.08371489
-0.01723595
0.09827580
-0.02956134
0.01170361
-0.04851336
0.02540871
0.03373721
0.00101452
-0.05502307
-0.07879396
0.00376558
-0.09072072
0.07789677
0.02870067
0.07372573
0.00985862
-0.00619781
0.01205276
-0.05055326
-0.07109273
0.04995960
-0.02346988
0.04661894
-0.02862064
0.01974309
0.06271420
0.01519575
-0.02747710
-0.02675502
-0.06870601
0.06090175
-0.01903251
0.02140294
0.02011100
-0.09508947
0.04519082
-0.06384501
-0.02984015
-0.05623364
-0.05163132
-0.10010450
-0.06169475
0.09089828
-0.07542176
-0.09564785
-0.03557443
0.02036259
-0.07921163
-0.02317325
0.00831329
0.00798072
0.01850989
-0.01779246
0.04853887
0.07926120
0.02608973
-0.00902249
0.05997314
0.07516621
-0.02085837
-0.10593013
0.09295902
0.02292349
-0.06421056
0.07377565
0.00802836
-0.00672860
-0.02574833
0.04975138
-0.02673362
0.08996953
-0.08020703
-0.03772059
0.03764881
0.00792351
0.01492578
-0.09636420
0.01330904
0.09157101
0.04743562
0.06345655
-0.07267420
-0.01818452
-0.05199277
-0.06723637
-0.06632983
-0.03017799
-0.02620162
0.00473546
-0.03582974
-0.01517872
0.06653208
-0.02009759
-0.00482925
0.01017626
0.00777704
0.08407489
0.02117822
-0.00861913
-0.01260663
-0.03069157
-0.04373221
-0.01768301
-0.01655137
0.00665064
-0.03703621
-0.08664858
-0.01192474
0.07165695
0.02576467
-0.07216631
0.00187541
0.02225253
-0.04402638
0.00630951
0.00284170
-0.03953678
-0.09474105
0.08646139
0.04426237
0.00523124
0.00859987
0.07910030
-0.02018938
0.01632216
0.09180482
-0.07102041
-0.07475694
-0.07461453
-0.08104471
0.04431432
0.04242252
0.04686920
-0.01818138
-0.05438992
-0.01123457
-0.09680451
0.04017812
-0.09268471
0.08231742
0.06905245
-0.07528462
0.05216506
0.03785727
-0.03321427
0.06751561
0.03459731
-0.02326971
-0.00406267
0.00144966
0.04716172
-0.07147534
0.04345325
0.04824505
-0.00830415
-0.01790420
0.03401150
-0.01868533
-0.09442396
-0.03355199
0.04291914
0.09178343
-0.04613131
0.02095897
0.00727323
-0.00895545
0.03967808
-0.03255450
-0.04553180
0.04487291
-0.07089308
0.05011772
0.08171637
0.01350755
0.02783327
0.00020906
-0.07983021
0.10014515
-0.04293773
-0.07904074
-0.06242230
0.04372744
0.10232479
-0.05199406
0.11113781
0.06845397
0.08119572
0.03175385
0.06230504
-0.06385340
-0.00886225
0.02754643
-0.05192619
0.05103037
-0.08349458
-0.04427258
-0.04722428
0.08439794
0.05906645
-0.08730532
0.04239274
0.07770205
-0.08365841
0.08074478
0.00517288
0.06460197
0.04967681
0.00253796
-0.06010997
0.01609604
0.01037714
0.09292837
-0.06848691
0.02480646
0.00847438
0.09658369
-0.05028363
-0.04870899
-0.05431841
0.06813240
-0.10098816
0.09637898
0.04583048
0.07722421
0.00167892
-0.08794059
0.07374719
0.05238686
0.04924674
0.07161954
-0.08790278
0.02052080
-0.09933127
0.09613951
-0.02644315
-0.07453261
0.08738402
0.02010067
-0.01244181
-0.00978014
-0.07518166
-0.07909539
-0.07221979
0.08594900
0.02597966
-0.03352848
0.01326204
0.02004806
-0.08874360
0.04987671
0.04719040
0.02714910
-0.00696267
0.07655999
0.04192458
-0.07541456
0.00685597
-0.07376600
-0.08714720
0.01501953
-0.06881622
-0.09620731
-0.05826752
-0.00417156
-0.01341777
-0.01295923
-0.00442507
0.02928626
0.01702191
0.09366277
-0.00330884
-0.00515421
-0.02029486
-0.08923322
0.06788880
-0.02413100
-0.00101995
0.03652765
-0.00479367
0.10790766
0.07918782
-0.01527620
-0.07196658
-0.06720052
0.03598782
-0.07762337
0.05916611
0.07983765
0.10645967
-0.06416901
-0.02010941
0.08967002
-0.05085171
0.04437128
0.05725935
0.06567147
-0.07399225
-0.00208906
0.07103528
-0.01563195
-0.03169490
-0.00252994
0.02942427
0.08380022
-0.02098154
-0.07525425
-0.03670684
0.02856543
0.07649589
0.04376965
0.01500204
-0.02616482
0.08238041
0.00155936
0.07587674
-0.07197738
-0.05328737
0.05765492
0.06471406
-0.09106346
0.01805885
0.03665220
-0.06966853
-0.01885453
0.01215117
-0.07600142
-0.06843616
0.08081716
-0.01538046
-0.02680022
0.04141284
0.09702755
0.02437971
0.03213432
-0.03737107
0.02680526
0.03849158
0.04794516
0.03506700
-0.00810548
-0.00960032
-0.02625695
0.02581695
0.03191373
-0.01027700
0.09020318
0.06969698
0.00954980
-0.08421823
-0.04417574
-0.04602942
-0.00093494
-0.09965834
-0.09764476
-0.05545048
-0.09621859
-0.08574518
-0.05923178
-0.04841722
-0.08821178
0.08464992
-0.02884070
-0.06553030
0.09231410
-0.01550626
-0.00728774
-0.07860882
0.02808248
-0.01135760
-0.08067230
-0.04560001
0.06923136
0.04000248
-0.00979291
0.07901787
-0.07820993
-0.00580263
-0.05629958
0.04142067
0.03026818
0.05833628
-0.00116456
-0.03182093
-0.07333250
0.04161609
-0.01734781
-0.02359152
0.03826589
0.07098758
0.09711168
-0.03510474
0.00018217
-0.05971785
0.00063039
0.06937083
-0.06378369
0.00812372
-0.04471678
-0.07857172
-0.07857788
0.01652945
0.09805628
-0.08053552
-0.07292135
0.09856564
0.08027744
-0.08808574
0.08779711
-0.04911917
0.00013994
0.08704727
-0.06145413
0.07509926
-0.03838262
0.07172386
0.03124534
-0.09124379
0.03403917
0.06109142
-0.10234301
0.05526541
-0.01871494
-0.10001585
0.07558752
0.04218509
0.07751403
0.05093570
-0.04975677
-0.01884559
-0.09469624
0.07861704
0.05463905
0.05670210
-0.06964239
-0.08287024
-0.00332515
-0.08900939
0.07718373
0.08483852
-0.05845783
-0.07225431
0.05027805
0.05546664
0.04568880
-0.09052206
0.01298246
0.01177700
-0.04847972
0.01690411
-0.07707371
0.03763378
-0.07345158
-0.08519712
-0.09235895
-0.06304592
0.04726666
0.07082683
0.04659310
-0.04974081
0.06617415
0.05046646
-0.00371342
-0.00504349
0.04062635
0.01357275
-0.07628564
0.07695888
-0.04587881
0.02114292
0.06414980
0.10674018
-0.07678988
-0.06650217
0.03899761
-0.02611158
0.08361934
-0.06869763
-0.06010450
-0.03524455
-0.01413448
-0.01715912
-0.05239366
-0.03920523
0.01872092
-0.01297076
0.06125422
-0.03947834
-0.06340945
-0.08919688
0.10155652
0.09313479
-0.04744921
-0.04283559
0.09388094
-0.06682482
-0.04839869
0.04021213
0.02501388
-0.01204010
0.02176987
-0.04412121
-0.07540898
0.07095161
-0.04655114
0.08476015
0.03164423
-0.08478465
0.09505141
0.00206940
-0.08443397
0.05341302
0.04762201
-0.09319214
0.04327447
0.03768719
0.02227102
-0.07721541
0.05325179
0.06742314
0.04521038
-0.08265645
-0.07236881
0.03211199
0.03661299
-0.03346904
-0.10203319
-0.06100431
0.05536957
-0.04872939
-0.03940607
0.08096736
-0.00285926
-0.07690360
0.05984195
-0.05762113
-0.05307398
-0.02600149
-0.01875409
-0.01293752
-0.02298460
-0.08428633
0.01559939
0.00005952
0.02154662
-0.04351246
0.10157077
-0.08455663
0.07226255
-0.06775090
-0.07389087
-0.06829491
-0.01694971
-0.05822459
0.03324512
0.01076066
-0.08554790
0.05788183
0.02636781
-0.02967710
0.02352462
-0.01516806
0.07692286
0.05674685
-0.07688234
0.01731732
0.03090117
-0.06526409
0.08520530
0.02829587
0.10970858
0.01315856
0.09913513
0.11018584
0.03942801
0.01263259
0.06206081
0.00213439
0.02234906
0.08657501
-0.06790007
0.06523485
0.10571506
0.05662799
0.04753101
0.02429599
-0.08672047
0.05197282
-0.05668798
0.08125010
0.00845355
-0.08869750
0.09363304
-0.08127157
0.03708799
-0.09387918
-0.06035915
-0.07665063
-0.08751050
-0.00807362
0.07658766
-0.02122408
0.05813901
-0.03054696
0.02439668
0.06037217
-0.03453336
0.08817607
0.06513585
0.06190581
-0.02542907
-0.06129867
0.01860282
-0.07699954
-0.06329901
0.04809955
-0.07630174
-0.08984833
0.10229950
-0.06920411
0.06315403
0.08176096
0.00843272
-0.01930273
0.03106048
0.08543793
0.00773445
0.01005698
0.04482656
0.02103286
0.05471259
-0.09017652
-0.04136972
-0.03568465
-0.08662282
-0.00492796
-0.03250361
-0.09654215
0.00655137
-0.06990471
-0.06730299
0.05978975
-0.09241638
-0.02099866
0.09793102
-0.05777537
-0.01504973
0.07479735
-0.06544360
-0.09501070
-0.02766428
0.09778153
0.06544790
0.03246062
-0.02786356
-0.09639385
-0.08496145
0.05936621
-0.02570273
0.02530494
-0.02081702
0.00738614
0.02102822
-0.00001556
-0.08284621
-0.01521395
0.08293360
0.04875778
0.05583066
-0.07033887
-0.00154016
0.09827347
0.06594370
0.09953207
0.02287332
-0.06453110
-0.07059593
-0.00169159
0.03976350
-0.02447986
0.03419859
-0.05375015
-0.00816914
0.06928839
-0.07996587
0.00375358
0.07358218
0.08351410
0.00916845
0.08180699
-0.08223865
0.00277644
0.04788581
0.08479501
0.01767070
0.05923492
0.03083052
0.03811339
0.04062790
-0.04163935
0.09256670
0.09446734
-0.01778162
0.01385055
0.05532676
-0.05782608
-0.01750534
0.05443098
0.07547405
-0.05357417
0.03301659
0.07711101
-0.02788341
-0.07197068
-0.08205417
0.04482864
-0.03525736
-0.03901238
0.05052179
0.05127846
-0.03148665
-0.06462415
-0.00497873
0.00949650
0.09478642
-0.03878395
-0.03514224
-0.02899797
0.03778903
-0.07316875
0.05948898
0.03614810
0.00970449
-0.02805627
-0.07149445
-0.09176001
-0.09497608
0.05253960
-0.05145385
-0.06928606
0.02608398
-0.09666541
0.05441281
0.02590303
-0.08573813
-0.03876252
0.08027810
-0.00401670
0.05331670
0.05405164
0.05238006
-0.04189698
0.04400200
-0.05193384
-0.04551876
-0.02264260
-0.07521678
-0.08940991
-0.03345559
-0.00914597
-0.03730170
-0.04839545
0.10175735
-0.08016241
-0.00235256
0.04432861
0.01475438
-0.03929090
0.02169752
0.05394405
0.02505444
-0.00652969
-0.04087206
-0.03305667
-0.07991136
0.03329784
-0.06232659
0.04753843
-0.05104717
0.01825415
-0.01243256
0.03602703
0.09413711
-0.05246359
0.02949550
-0.08397476
0.02130415
0.04387878
0.05156388
0.10210672
-0.02443597
-0.02630676
-0.07946811
0.03770191
-0.08568952
0.07441424
-0.06163997
0.07597081
0.09700076
-0.05260081
-0.00858712
0.07304359
0.04041146
-0.00773842
-0.06285998
-0.09089779
0.07599910
-0.04390951
0.05206273
0.05747407
0.00581099
-0.09555224
0.09143033
-0.08573930
0.02434227
-0.03463479
0.02796094
0.07433442
0.07223288
0.07252611
0.00073135
-0.05210527
0.07668049
-0.02098831
0.05937912
-0.00507989
0.03221129
-0.01494858
-0.03084595
-0.01793802
-0.07274936
0.06917741
0.03228773
0.02753883
0.01281795
-0.00116037
0.06653144
-0.04411762
0.07720379
-0.07383177
0.07139090
0.02889169
-0.05532385
-0.06591110
-0.00582622
0.03910427
0.03188113
0.03265661
0.06607056
0.05434381
-0.03713517
0.08037466
-0.06415777
-0.02060636
-0.05210528
-0.05449130
0.04365437
-0.02206172
0.08772494
0.07210697
-0.01686518
0.03098168
-0.00686899
0.03691604
-0.06810282
0.07997724
0.06509290
0.02018265
0.01365831
-0.04092988
0.09533844
-0.04299952
0.11124464
0.05929171
0.08634702
0.00238655
0.10093724
0.04239209
0.07175483
-0.03147734
-0.05459673
-0.02570151
0.09998531
-0.08161525
-0.04215762
-0.07784671
0.09565328
-0.08884389
0.05634753
0.08851580
-0.05926838
-0.06813946
0.03568027
-0.06655844
0.04117085
0.04735432
-0.02918558
0.07472013
0.01810977
-0.03235358
0.03020513
0.05444330
0.02662761
0.09752784
-0.08228380
0.02053684
0.00189118
0.02418133
0.05470253
0.02449146
0.06715993
-0.00511786
0.02885307
-0.02172524
-0.09243696
0.06650452
-0.00409379
0.05008837
0.08960954
-0.07796171
-0.04640005
-0.03562790
0.01188801
0.01176314
-0.08694039
0.00286672
-0.00751337
0.09041030
0.09356033
0.03607296
0.04587812
0.04113214
0.07680950
0.09921980
-0.05087573
0.09362327
0.08834047
0.10032565
-0.06646144
-0.01090581
-0.08744119
-0.01765920
0.00826567
-0.07246284
-0.07640149
-0.07340266
-0.07199786
-0.06155108
-0.08257608
-0.04971603
0.03373319
0.03264105
0.07710660
0.01194233
-0.00132012
0.09675390
0.02461811
0.03555129
-0.01045535
-0.04406593
0.06284648
-0.06024528
-0.06121452
0.05152103
-0.00196380
0.07838559
-0.08936558
-0.08336320
-0.00240583
0.09659443
-0.00614218
0.10011559
-0.05915196
-0.06886854
0.02069142
0.02605130
-0.09053515
0.04098277
0.06266196
0.02481294
0.09641915
-0.01807042
-0.04419102
-0.05313752
-0.01707222
-0.06748100
-0.08714294
0.07742090
0.10194640
0.10003715
-0.07873072
-0.03035598
0.00390329
-0.00060752
-0.01373241
-0.00386161
0.09473674
0.03712969
0.03553134
-0.02799591
0.06954554
0.04574496
-0.09577410
-0.00662265
-0.03693726
0.03467272
-0.01636533
-0.01302234
-0.02737969
0.06876518
-0.02698353
-0.05766276
-0.08357742
-0.03124638
0.09654266
0.04695934
-0.09992288
0.05063129
0.01456756
0.09302837
-0.06224087
-0.07229508
-0.05177656
-0.04110003
-0.00058035
0.01499125
-0.08012391
-0.08055478
0.07783097
0.06706671
-0.04787520
-0.07654186
-0.07704354
0.09119406
0.05886783
-0.00181495
-0.09739307
-0.07892079
-0.01518891
-0.07360144
-0.01291367
-0.03363097
-0.02915150
0.05715856
0.07046204
0.06193184
0.09956373
0.04666361
-0.04572661
-0.04811038
0.08788048
0.08629275
0.00117541
0.03413537
-0.00784435
0.03904392
0.09013942
0.05214933
-0.05179444
0.09725323
-0.05853633
-0.01363781
-0.00413449
-0.08182501
-0.02421347
0.05570345
0.01946697
-0.00939752
0.06237858
0.00334924
0.09707801
-0.00333925
0.08373849
-0.00033748
0.10115887
-0.04959789
-0.01892762
0.09000592
-0.06404647
-0.02249706
0.09841085
-0.00241245
0.06047513
0.01204589
0.06182281
0.06237560
-0.04674579
-0.04999633
-0.08071873
-0.04285910
0.06385382
-0.01207645
0.02794717
-0.09504052
0.05073827
-0.04516798
0.05857217
0.01926334
-0.04423302
-0.02752311
0.01308303
-0.04490397
-0.03233127
0.07709482
-0.01850277
0.07271145
-0.08986033
-0.03369937
0.06345204
0.08725581
-0.04284920
0.08224278
-0.09681666
0.05130237
0.08780409
-0.02615676
-0.01026173
-0.06240012
0.04770346
-0.04146134
-0.03422294
0.02147170
0.08137520
0.07951028
-0.06418761
0.00529755
0.04236594
0.05088788
0.07915858
0.02476387
0.01281818
0.04161360
0.00633961
0.09504409
-0.09943176
0.12481108
0.19401945
0.11829547
0.16220759
-0.00755278
0.10961088
