-0.07077663
0.07138376
0.06853261
-0.07526239
-0.05699996
0.09557352
0.03373578
0.05155202
0.01639764
-0.07043887
0.03395006
0.05154867
0.07318266
0.06380521
0.00885882
-0.05613812
-0.05684343
-0.04087129
0.00214241
-0.05483173
0.07776412
-0.08237845
-0.08033468
0.07577513
0.03971004
0.02167202
-0.01602780
0.04666154
0.02330524
-0.09841059
-0.05766531
0.03691866
-0.02465302
-0.06721373
0.01938388
0.01882685
-0.00725350
0.07715011
0.04249359
-0.09547128
-0.03190373
0.08890060
0.04514982
0.00778610
-0.06896198
-0.09140209
-0.00126706
-0.09233573
-0.00603023
-0.00078513
0.03874386
0.06605930
0.08545783
0.03224487
-0.07055941
0.00393067
-0.06261725
-0.01367129
0.04053906
-0.00642014
0.01153830
-0.07945929
0.05347191
-0.09701263
-0.07500352
0.08002742
-0.01150043
0.01805259
-0.08919412
0.06314079
-0.01019597
-0.02573222
-0.01684944
0.02351359
-0.04667127
0.07367818
0.03735712
-0.01389242
0.05869975
-0.09759771
-0.09237378
-0.08478824
-0.08549787
-0.06526253
0.01775012
-0.01273502
-0.08097853
0.00574105
0.06958830
0.02019562
-0.08831944
0.03556067
-0.05788647
0.09984341
-0.07844214
0.05474817
-0.03054394
-0.07231726
0.08983430
0.03759673
0.05637286
-0.02094226
0.00572351
-0.05206623
-0.08774167
0.07185264
-0.05268388
-0.09037879
0.08734238
0.04513311
-0.04743836
0.06129319
-0.04957197
0.03282508
0.08412320
0.10031306
-0.05495298
0.05174892
-0.04303096
-0.07514780
0.00998638
-0.02992068
0.05522913
0.06653053
0.00733731
0.06172547
0.06011957
-0.00303924
-0.03106404
0.07993797
-0.04016180
0.01010176
-0.05594142
-0.06328636
0.03601075
-0.08783310
0.03984947
-0.00801749
0.00750472
0.03668050
-0.04174847
0.00776336
-0.04955779
0.05280631
0.03907630
0.05964175
-0.06426679
0.01928725
-0.01420311
-0.01691457
-0.02763644
0.00724916
0.07274372
0.08153661
0.05548449
0.03983560
0.01179728
0.03070103
0.04604519
-0.02461865
0.09197507
-0.02310461
-0.00134203
-0.09820349
0.01353142
0.03736875
0.06848947
0.03137284
0.03386201
0.03551784
-0.00021352
-0.01738746
-0.06753189
0.02324728
-0.09842246
-0.01698642
-0.08698071
-0.02959472
-0.07143639
-0.05226662
-0.04786177
-0.00404087
-0.05404767
-0.00860190
-0.06828918
-0.03984989
-0.07642845
0.09981449
-0.00910151
-0.01839753
0.07601449
0.03258906
-0.08402940
0.01122113
0.05542054
-0.09467859
0.01298191
0.01718598
0.02200093
-0.01600479
0.07969808
-0.01840171
-0.05393085
0.06279295
0.01971568
-0.00042339
0.07042057
0.05671968
-0.08912702
0.06121596
0.09478765
0.00705385
0.06668642
0.09546835
-0.05134012
-0.04850664
0.07265343
-0.06143755
-0.09567139
0.02092626
-0.07173568
0.05098150
0.07298102
0.07488754
-0.02770811
0.01703818
0.05014996
0.00045893
0.03776292
0.03356573
-0.09103537
-0.00447139
-0.03139494
-0.05201060
-0.02889897
-0.09156984
-0.01979505
-0.06052689
0.01343562
0.01891093
-0.11081914
-0.00479520
-0.05054527
-0.05803519
0.06870237
-0.06313852
0.07565253
0.07286432
-0.07777926
-0.05977307
0.04638076
0.09205456
0.09241672
0.00986378
0.07650127
-0.08244812
-0.02272251
0.07150323
-0.09451693
0.02286055
0.00252306
-0.00145279
0.07265931
-0.02202062
0.04623605
-0.00677797
0.04963223
0.05305547
-0.04574707
0.00462150
0.00967991
0.08573030
0.06531540
-0.03678675
-0.01010545
0.04046663
0.02218049
0.02773140
0.07654666
0.04086594
0.04262559
-0.00781082
-0.05735192
-0.09161055
0.09137733
0.00026332
-0.01283418
0.03417853
0.06621217
-0.05385513
0.04239083
-0.09846381
-0.07911745
-0.03502287
-0.06243970
0.07683205
0.01934496
0.06832918
0.05885502
-0.09699064
0.05398260
-0.01617979
-0.00138514
-0.05050979
0.04332856
-0.02775860
-0.09393494
-0.06078684
-0.09004412
-0.04309052
0.00795579
-0.02225575
0.05101214
-0.09000316
0.05121610
-0.05331114
0.01770451
-0.07890988
-0.03949769
0.07915721
0.07805501
0.09078220
0.03654776
0.06590551
0.00372008
0.03127173
-0.02328732
-0.05894548
0.04543628
0.08093239
0.04154721
-0.08831063
-0.05802518
0.03176682
-0.06542198
0.07054809
0.06174599
0.03331128
-0.08764589
-0.10421292
0.00118597
-0.09418760
-0.01918355
0.05219017
-0.05595465
-0.10244134
-0.02201931
-0.04319277
0.05382566
-0.06342748
-0.04695184
0.03406250
0.03590798
-0.08978725
-0.05105475
-0.06691248
-0.03271450
0.00031374
0.06461022
0.08228654
-0.08656065
0.03447625
-0.05606940
0.03644045
0.00627385
-0.08034204
0.04510074
0.02581759
-0.06236293
-0.05570086
0.07464356
-0.02467346
-0.05244759
0.10081910
0.03946013
0.06234491
0.02064173
0.04490900
0.03801907
0.03843826
-0.08987356
-0.07787654
-0.07113585
0.08531050
0.04775306
0.03104973
0.01979489
0.07815787
0.06171511
-0.01009297
0.02910580
-0.08628733
-0.02122762
0.01908175
0.07839748
-0.01070780
-0.06645603
0.00799218
0.10093240
-0.08701787
0.00050686
-0.05482089
-0.08404046
-0.04366776
0.04046863
-0.01025798
0.07595149
-0.01713854
-0.01893251
-0.08061260
0.07824427
0.02187967
-0.03593401
0.05025929
-0.08697149
-0.07651280
-0.02507877
-0.09376309
0.00138152
-0.09235192
-0.07489616
0.02340575
-0.01178210
-0.07641323
-0.01368632
-0.09382515
0.02688997
-0.04594090
-0.04488318
-0.07139354
-0.04198126
-0.10466294
-0.03174046
-0.05541765
0.05738325
0.05668358
-0.09404165
0.04985898
0.02140181
0.10537734
0.03865841
-0.00446187
-0.01364261
-0.00685596
-0.04640737
0.04772459
-0.08894412
-0.06000116
0.05844549
-0.08117324
-0.02070153
-0.03390677
0.01593548
0.00402325
0.06999878
0.08871508
-0.07880135
-0.09772881
0.07953198
0.05808925
0.09764257
0.02462255
-0.00681631
0.06623750
0.09525686
0.05335902
-0.00731077
0.09607252
0.08771037
0.07644378
0.02776403
-0.00929997
-0.06293172
0.01325282
0.05104493
0.08890331
-0.01868611
-0.07045632
-0.00365505
-0.07254252
0.08934080
0.09233606
0.08774151
-0.02219185
-0.07213491
0.00307734
-0.08526012
-0.09127267
-0.07016970
-0.07670723
-0.06470337
0.09381170
0.09714169
-0.01352764
0.01911994
-0.09189945
0.01599168
-0.02229531
0.03867556
-0.01511843
-0.03906530
-0.00104187
0.04690253
-0.09320760
0.03797841
-0.00208059
0.04368613
-0.01212578
0.09491973
-0.01114106
-0.02510722
0.09337297
0.06333580
-0.00450680
-0.00405477
0.08507761
0.04336660
-0.03957215
-0.07119605
0.03174105
0.09548664
0.06995236
-0.08598212
-0.03546270
0.09442578
-0.00841985
0.01202558
-0.01511239
-0.06840399
0.01578093
-0.02168013
0.02313086
-0.01172865
0.06509791
0.10011269
-0.07744562
-0.03821192
0.09488173
-0.09785895
-0.06151905
0.04100453
-0.01663231
0.07409012
-0.04225793
0.00955159
0.02847770
-0.08089914
0.03742263
-0.08949441
-0.05436188
0.09696964
-0.06235553
-0.00809548
-0.08741881
0.04520785
-0.07255438
-0.00758316
-0.07047091
-0.06773773
-0.09245983
-0.00155863
-0.03342762
-0.03923615
0.07662044
0.00287329
0.00201689
-0.00441771
0.09181571
0.08065199
0.00542895
-0.09082368
-0.05064771
0.02344767
-0.05337302
-0.06248396
-0.03729768
0.04162637
0.08395404
-0.06281262
-0.06594826
-0.09324287
-0.09458612
-0.04048297
-0.02809679
0.08539465
0.02518495
-0.07753086
-0.06654644
0.06949716
-0.02454252
-0.07775006
0.03401495
0.03111090
-0.00373596
-0.03995792
0.10038495
-0.07148229
-0.08165117
-0.07453648
-0.06789825
0.05173610
0.09740573
0.01138940
0.02250296
-0.03310644
0.03058915
0.00920909
0.08334243
0.03011050
0.00667853
-0.12109249
0.00504265
0.02266918
0.05075835
-0.04427478
0.03561777
-0.06509813
-0.01268246
-0.00718873
0.05818360
-0.05818581
0.05757679
0.01827709
-0.04974909
0.07086634
0.10069304
0.03103991
0.06889701
-0.00201543
0.05265261
-0.07414058
0.00237225
0.09211132
-0.04396939
0.09168267
0.09152663
-0.00003646
-0.07987946
0.08827069
-0.05182829
0.01844673
-0.04810106
0.03248582
0.00631624
-0.06293477
-0.06029159
0.04234883
0.08209466
0.07836608
0.04250156
0.06656978
0.01893976
0.08482376
0.06338792
0.04510518
-0.06562433
0.03202673
-0.03285789
-0.00461979
-0.00747027
0.06469818
0.02521325
-0.05755672
-0.09588090
-0.03584387
-0.06547070
-0.02565384
0.01620422
0.05634636
0.07420830
-0.08154671
0.06377627
0.02103193
0.05408046
0.03807741
0.07813783
-0.05472810
0.03363921
0.07568850
-0.04817253
0.07905466
-0.05943464
0.02048695
0.06202521
0.02344104
-0.08084728
-0.07802757
-0.07364077
0.02486064
0.01056772
0.00454690
0.07846452
-0.07217965
0.04108300
-0.03753918
0.07166778
0.01819990
-0.06513561
0.07543823
0.01101856
0.01284505
0.02786250
-0.05341436
-0.07442754
-0.04958410
0.09307472
0.06855757
0.05821725
-0.01028774
-0.02377163
-0.08215965
-0.06928580
-0.06627609
0.01257271
0.02621011
0.04002111
-0.06861439
-0.07889938
-0.05435655
0.07290253
-0.00883020
-0.02842423
0.05556971
-0.09186734
0.06908709
-0.09965887
-0.02461527
0.09466920
-0.08276772
0.07201577
-0.03806912
-0.02753277
0.09547675
0.08500952
-0.05528802
-0.06092867
0.06824369
-0.00114312
0.00353583
-0.06225772
0.06842890
0.00434004
0.01590590
-0.04415712
0.02232675
-0.06692577
-0.09846404
0.03641591
0.00001676
-0.06223876
-0.07942479
-0.06686401
-0.09776841
-0.04899214
0.05806584
0.05501890
-0.00101114
0.05289711
-0.05442400
-0.08331931
0.06612826
0.02352932
0.09660505
-0.04962929
-0.07119733
-0.02259729
-0.00789778
-0.09820467
0.06788918
-0.08912483
-0.00208530
0.06700942
0.09036927
-0.09219094
0.10096609
-0.04074951
0.08137257
-0.07652466
-0.07690062
-0.05862774
-0.04370170
0.08667269
0.04003480
-0.07973870
0.05220887
0.08255467
-0.03345828
-0.05056692
0.04964613
-0.06489899
0.03371074
0.02942241
0.08576823
-0.06774417
0.01041125
-0.08884687
-0.06453433
0.06746547
0.07787516
0.08089580
-0.05938773
0.02267027
-0.09263483
-0.00276012
0.03816903
0.04512766
-0.03676964
0.01320844
0.02480121
-0.00282449
-0.03235186
-0.06816281
-0.07249814
0.00600850
-0.09591932
0.00316233
0.04919731
-0.01254941
0.08699599
-0.03657429
0.07727436
-0.05592849
-0.01481335
-0.04286681
-0.03819041
0.06717779
0.02518104
0.08453826
0.03144607
-0.05029016
-0.04140440
-0.01213771
0.07036268
0.07705669
-0.08728459
0.05487129
0.02433967
-0.07647437
0.05394600
0.02883268
-0.05372988
0.01592936
-0.05911425
-0.00310722
0.08700548
0.03648775
0.03670832
0.08611531
-0.00731684
-0.01597165
0.08136126
-0.03652473
-0.06930602
0.04309589
-0.04260101
0.03457734
0.05647479
0.08225535
0.15182198
0.04761250
-0.02179379
0.01097499
0.09151750
0.03049442
-0.04915022
0.08297646
0.05678534
-0.09195747
0.01923924
0.09395531
-0.02621078
-0.05693427
-0.07117391
-0.04088837
0.01639696
-0.04067113
-0.06597469
-0.02555137
0.02436032
-0.02469925
-0.09426128
0.02262880
0.00916706
0.02885627
-0.02344906
-0.01425527
-0.04537880
-0.01941884
0.07738587
0.02323686
0.01903457
0.09118455
-0.06738597
-0.04832162
0.00668713
-0.06351636
-0.07771223
-0.06000492
0.07508087
0.02762758
0.02423771
-0.02588954
0.00710780
-0.00160910
0.04996032
-0.00655354
0.06042452
0.03199072
-0.07943728
0.05877759
-0.02427131
-0.06441435
0.04234337
-0.02385816
0.04300473
0.04031725
-0.10404160
-0.05439435
-0.10317545
-0.06630956
0.07155856
-0.08771636
-0.03663654
-0.13720042
0.02443868
-0.03232032
-0.10086320
0.04722409
-0.03837700
0.02709328
0.04754506
-0.00446590
-0.06581626
-0.04730436
0.05623254
0.08763573
-0.04809429
0.08254417
-0.04281100
0.09371529
0.05466561
0.06381285
-0.09164632
0.01377015
-0.09012161
0.08101438
0.07063325
0.02854609
-0.07904163
0.04380799
-0.03776205
0.04932056
-0.08948894
0.02183120
-0.07036092
-0.02228008
-0.04572231
-0.01336946
0.04455523
-0.09636350
0.06392665
0.07884537
-0.04268343
0.04085984
-0.07283648
0.04872172
0.09797124
0.01704582
-0.04594290
0.01517281
-0.06428364
0.03326631
-0.02997041
-0.03709829
-0.05315487
0.08479355
-0.07654844
0.03221899
-0.04445324
-0.01690345
0.04532813
0.01348586
0.00416176
0.00839440
0.07538082
0.01641371
-0.08376838
-0.06312820
-0.00982591
-0.07733605
-0.04246920
0.06912431
-0.05615694
-0.00482574
0.07710177
-0.05472560
0.01387642
0.06688748
-0.06764491
-0.07451682
-0.02866513
0.01758603
0.07141722
0.05637622
0.02018982
0.07887683
0.05516148
-0.05046351
-0.01016785
0.00829508
-0.10141898
0.04771584
-0.11065480
0.02038226
-0.02595986
0.06442535
-0.08172223
-0.01940276
-0.01989523
0.05079248
-0.05167328
-0.09331080
0.07487717
-0.09183467
-0.01960307
-0.07883000
-0.05749986
0.07876545
-0.04517443
0.07344482
0.06891069
-0.02944960
0.09075751
-0.08339045
0.01592689
-0.00526126
0.03118865
-0.03648645
-0.05692282
-0.01415868
-0.09916558
0.03722320
-0.09582436
-0.02678671
0.09005527
-0.07687076
0.09500347
-0.03761660
0.08965052
0.04846964
0.09682563
-0.09673226
-0.02418949
-0.06757998
-0.03578380
0.00070359
0.00896975
0.02157098
-0.06841812
-0.08618404
0.00231474
0.05371581
0.01887416
0.07292138
-0.09546991
0.07381889
-0.05410310
0.03532398
0.00016650
-0.03089503
-0.03876472
-0.09375037
0.09309202
-0.02540609
0.05680195
0.02780972
0.04352027
0.07020727
-0.04160606
-0.07222065
0.09465647
-0.01800374
0.08128479
-0.06193878
0.01538882
-0.08010937
0.00561837
0.01459470
-0.09438630
-0.05667957
-0.03046996
-0.07117437
-0.01073620
0.14642342
0.02745015
0.08198352
0.01196346
0.05874482
0.04713323
-0.00750990
0.07070998
-0.04933115
0.06625402
-0.06843539
0.03093952
0.08262278
0.09682525
0.11475494
0.03891904
-0.02098429
-0.02288130
0.09237858
0.10826765
-0.05141953
-0.06653909
0.05253815
0.02192072
-0.03640636
0.03775051
0.07581768
0.00323755
0.08502248
0.06541436
-0.14809083
-0.08333337
0.03301640
0.03989058
-0.01629266
0.01036745
-0.07716272
-0.06996349
0.05674975
-0.05039385
0.06236005
0.02754777
0.06976713
0.02405731
0.06135135
0.01698116
-0.07462587
0.02245197
0.03775012
-0.08695913
-0.03116732
-0.04664739
0.05959728
-0.09349659
-0.06117400
0.07484803
0.04370197
0.00757912
0.07923175
-0.02265910
-0.09342244
-0.04478318
-0.04005676
0.01780555
0.07296124
0.01519314
0.06763346
0.09224346
0.06124978
-0.01527541
0.07253187
0.01124993
0.01269157
0.03889010
-0.05681541
-0.09620665
0.05936753
0.09585176
-0.05793217
0.06869901
-0.08082162
0.02004538
0.01661561
0.05692264
0.05346551
-0.08363069
0.09332657
-0.04851096
0.07186902
0.00365718
0.01827881
-0.00707358
0.04802941
0.04013779
0.02528905
-0.02256306
0.07404110
0.05559986
0.05937520
-0.02018468
-0.04466217
-0.08526778
-0.05337051
-0.06027633
0.12661880
0.02064730
0.06720588
0.03385258
0.00899171
0.04742417
-0.03409073
-0.03273356
-0.00499332
0.02841118
0.04876498
0.00064033
0.06902317
0.19007203
0.01987860
0.12864325
-0.00761474
-0.01439800
0.06874328
-0.07407392
0.05627270
0.00768670
-0.09698522
0.02624917
-0.01435544
-0.07751658
-0.04474105
0.02810096
0.01983856
0.02072838
-0.03008703
-0.09570151
-0.08744915
-0.02013280
-0.08252574
-0.05420575
-0.00076656
-0.11649219
0.00014880
-0.03060249
0.04596860
0.04054638
0.06313065
-0.00477025
0.06417998
0.06454278
0.02058279
-0.07741122
0.03055655
-0.09855555
-0.01345631
-0.07765052
-0.01680772
0.03950889
-0.05107994
0.04471939
-0.02838198
-0.07479809
-0.09707070
0.05206878
0.04297816
-0.00392768
-0.08462121
0.05274030
0.01933031
-0.02790579
0.08157367
-0.09301401
0.09695863
0.03528729
0.00077475
0.04402832
-0.07435111
0.01116318
-0.02902694
-0.04146963
-0.06447862
-0.10824072
-0.02932269
-0.06924526
0.07742568
-0.02067166
0.05412702
0.05560461
0.00820822
-0.01999776
-0.13616917
-0.13390434
-0.04637237
0.06006767
-0.01439287
-0.01905417
-0.08451061
-0.04727494
-0.04712146
-0.07471126
-0.06009478
0.09688416
-0.03801558
-0.01688305
0.04034678
-0.05727568
-0.11878325
0.02921833
-0.03973509
0.01804243
0.05599551
-0.06068262
0.05332854
0.03395058
0.02305017
0.08209090
-0.06200457
0.01034587
0.03521517
-0.08751643
0.01756869
0.04117796
-0.02961959
0.09002221
-0.03378315
0.02243183
0.04441367
0.00557162
0.00014951
0.04843301
-0.03230073
-0.01689337
0.08596235
-0.08977170
-0.01412438
-0.02760739
0.05174435
0.05075877
-0.02163738
0.02539192
-0.02978732
-0.00645356
-0.06129988
0.03288808
0.00335955
0.06556078
0.08153125
0.04696268
0.02895154
-0.10173354
0.05571830
0.04618422
-0.05188441
0.09745228
0.00254072
0.02325889
0.10110685
-0.01030329
-0.07378326
0.08003951
0.02535124
-0.02534540
0.05370759
0.05788712
0.02860145
0.02379570
-0.03129488
0.00219884
-0.02930480
-0.07240126
0.04293280
-0.08462569
0.02343011
0.02452541
-0.04525437
-0.07767606
0.00020415
-0.07445304
0.07730655
-0.08104363
0.02348240
0.04260478
-0.08811171
0.03095573
-0.06802941
0.05631896
-0.08747470
-0.05733152
0.09839873
-0.01505774
0.10745459
0.03444421
0.01025125
-0.14447525
-0.01661001
-0.05836566
-0.01879117
-0.04978351
-0.00438929
-0.07747039
0.08771368
0.05577414
0.14370593
-0.05050363
-0.09024705
-0.04363326
0.01775607
0.05274585
0.00547828
0.03110931
-0.04198764
-0.07795701
0.01697444
-0.06851326
-0.03229992
-0.04701658
0.06381217
0.02615317
-0.08549067
0.03831854
0.03189190
-0.00839391
0.03029971
0.04316256
-0.02685690
-0.07730684
-0.01686943
0.02799955
0.02011700
0.04638048
-0.07957045
-0.04681047
0.06896770
-0.06129713
0.07492170
0.03496738
-0.05017892
0.07358608
0.00960590
-0.06722358
-0.06574554
-0.10284576
-0.03256399
0.07269281
0.06817658
-0.01282476
0.02008669
-0.07939862
-0.07529291
-0.05376508
-0.03326109
0.09389775
-0.03330452
0.06093159
0.03995811
0.05399105
0.01476640
-0.08671890
-0.02363766
0.07521126
0.06942672
0.02154832
0.01424985
-0.07689949
0.00029699
-0.09514958
-0.09327362
0.03868961
-0.03966389
0.08592744
0.07376919
-0.08376836
-0.01798835
-0.04897439
-0.05425756
0.01802939
0.02073195
0.03995187
-0.01115345
-0.04120547
0.00805743
0.01223603
0.07802003
-0.07604884
0.04216295
0.05041345
0.08025161
0.03630508
0.03847573
0.03534267
-0.05939196
-0.16945278
-0.12525130
-0.03546820
-0.00693654
-0.01719599
0.07196018
-0.06308564
0.01816529
0.01299492
0.02905360
0.07693882
-0.05085401
-0.06580890
-0.04918198
0.07817421
-0.10237401
-0.04800935
-0.01517823
-0.04051635
0.03193576
-0.09712533
-0.06432981
-0.07534735
-0.01840404
-0.00071979
-0.08181269
-0.09545030
0.08081993
-0.08158396
-0.04530060
0.01331790
-0.01287464
-0.00127419
0.00151425
0.08239964
0.00321348
0.05678674
-0.07411005
0.07997955
0.00212071
-0.07374149
-0.02509686
-0.08702400
-0.03475992
0.06334106
0.08371059
-0.07023858
0.02126666
-0.01592410
-0.09723276
0.01822192
0.01039213
0.02925088
-0.01754581
-0.08378023
-0.02704986
-0.03379638
0.05705785
-0.06935070
0.02557792
0.08117347
-0.07584555
-0.04668448
0.00299552
0.00008086
0.06529883
-0.01653385
-0.05176079
-0.00705626
0.04055958
-0.08735910
0.03792799
-0.08386505
0.01423376
0.08631388
0.02892922
0.09378523
-0.02656419
-0.09512958
-0.01521109
-0.07508411
0.01640100
-0.07291507
0.06980425
-0.08121328
0.05685002
0.08398211
-0.10214323
0.07476033
-0.05165444
-0.01783333
0.01495221
0.01985932
0.05511059
-0.01207177
0.04895723
0.10069814
0.13036548
-0.02185129
0.06872424
0.01314522
0.02101424
0.02942069
0.08384780
0.03301391
-0.13917771
-0.01775206
0.03200834
-0.06758184
0.01321829
0.10524523
0.01318322
-0.02307912
-0.01945471
-0.06189690
-0.08945738
-0.06404908
0.05458899
-0.11114583
0.09329194
-0.04118554
-0.00503390
-0.07711720
-0.09651562
-0.07314056
0.06129835
-0.05627244
0.07690430
0.01428185
-0.03884638
0.01743565
0.00742605
0.04695017
0.07713101
0.09022499
0.02677873
-0.01692886
0.07289642
-0.02093110
0.06429613
0.05761478
-0.03184818
0.06057874
0.03114333
0.00319257
0.05559280
0.03024111
0.05602339
0.02288965
0.08569141
0.03983930
0.09387801
0.02593668
0.08961570
-0.00089706
0.04747963
-0.09716048
0.08431558
0.00050321
-0.05234265
0.08764521
0.03396498
0.02345841
-0.05966360
0.01598739
0.00046564
-0.04306065
0.01288414
-0.05679569
0.01516536
-0.02650790
-0.00866147
-0.03016224
0.07234163
0.07611175
-0.09161118
-0.08229189
-0.05878521
0.03685309
-0.01745085
-0.09254316
-0.06757347
-0.01533592
0.08956839
0.00694040
-0.01119386
0.02472295
-0.01971494
0.10998875
-0.00371881
-0.05195314
-0.06830547
-0.03331407
-0.05471241
0.03275134
-0.01974038
0.08837606
0.04173033
-0.01219455
0.12918115
-0.05050545
-0.06431195
0.06581338
-0.01518745
0.01542924
0.07002173
-0.05376880
0.10588203
0.01207850
0.01824238
0.05518495
0.01566890
-0.01853332
0.06995403
-0.08038109
-0.01377018
0.04186278
-0.06178557
-0.07731393
0.00441568
0.07002251
-0.01451947
-0.04121971
0.09597388
0.07403911
0.02213065
0.03159855
0.03543792
0.04390811
0.09439819
-0.00649463
0.08786449
0.01767908
-0.04926483
0.03870433
0.06934855
0.06201599
-0.00447500
-0.05600541
0.03757935
0.07579098
0.06495902
-0.03040835
0.00134685
0.01999148
0.05611093
0.08414795
-0.09303122
-0.02703291
-0.08874868
-0.07942982
0.02721420
0.08769888
-0.07697491
-0.10525583
0.07511644
0.00117901
-0.01374077
0.04708929
-0.02943521
0.06960255
0.00681165
-0.02272607
0.07825730
-0.01909987
0.00473393
-0.03685233
0.04738762
0.00909812
-0.06519873
0.01226521
0.01532260
-0.01443427
0.00943381
0.05902383
-0.00318720
0.06711379
0.01778561
-0.00059531
-0.09038082
0.04104964
0.07368770
0.09426016
-0.04909814
-0.07339055
-0.04956950
0.02633485
0.11933316
0.07067432
0.03612041
0.12936892
0.13369262
0.04466739
-0.04301168
-0.07882139
-0.09251892
-0.14753484
-0.01140751
-0.04847882
-0.05914337
-0.00954137
-0.04650557
-0.04003444
-0.08147197
-0.01844610
-0.00786950
0.08338885
-0.01163832
-0.06932510
0.04459835
-0.03601732
0.08695554
-0.10618047
0.05572599
0.06617792
0.07523402
0.03435314
-0.09179084
-0.02356998
0.03770865
0.04361438
-0.04107281
0.08242146
-0.07211710
-0.00946250
0.06778550
0.03457906
0.07536260
0.08532877
0.07208853
0.05918111
0.07480043
-0.04437539
0.03984614
-0.09807418
-0.06021021
0.02704047
-0.07200425
-0.00904313
-0.04313413
0.00035778
0.07726784
0.00530568
0.05486988
-0.03198214
-0.09701824
-0.01261358
0.05217974
0.06864403
-0.09408836
-0.00692223
0.04974298
-0.03503653
0.06945828
-0.07317988
0.09101257
0.09286903
-0.06535273
0.00512199
-0.05815492
0.03450149
-0.08527684
0.02073593
0.02868501
0.00072862
0.00941637
-0.09777332
-0.08851665
-0.03176697
-0.04583573
0.03180907
-0.00523754
0.05265276
-0.09259462
-0.04746750
-0.03545839
0.07346422
0.05540313
0.02868528
-0.02942711
0.07165307
-0.01701679
-0.06873315
0.03118748
-0.06614572
0.11614812
-0.07151049
0.06538910
0.06830979
0.06695924
-0.06240310
0.04254478
0.03618135
-0.04036901
0.00272456
-0.06277955
0.02104981
-0.07667251
-0.06494110
0.06214156
-0.07203002
-0.05501387
-0.06849544
-0.04347313
-0.01182024
0.00389383
-0.04444797
-0.04464213
-0.02012774
-0.00505148
0.02447292
-0.09371849
-0.00241427
0.06468039
0.07480369
-0.09530369
-0.01919904
-0.04760708
-0.05026141
0.06439805
0.00008120
-0.06116567
0.05247746
0.09878059
-0.05369528
-0.02553072
-0.08436186
-0.07713383
0.02491741
0.02203452
0.04199028
-0.03247368
0.06789413
0.08055071
0.00824535
-0.02281607
0.05633450
0.04748018
0.02146652
0.06083971
-0.08177592
0.09372057
-0.09533224
0.03335196
0.01986002
-0.04389091
-0.03826212
0.00687578
-0.06441469
-0.00700171
0.01641753
0.03135692
0.00574153
0.08983538
-0.06057391
-0.00838911
0.01943764
0.09898859
-0.06792005
0.02722425
-0.01457607
0.07325776
0.03175163
0.03521129
0.03332051
-0.08517154
0.03929415
0.06595473
-0.07004090
0.02822769
0.09157894
0.00013229
-0.03464201
0.07630596
-0.02287335
-0.06211891
0.00122057
0.05855758
-0.00470160
-0.07563573
-0.01146506
0.00773714
-0.02821476
0.06837477
0.04486261
-0.06214402
-0.01777272
-0.03398450
-0.06563399
0.03756852
0.05704751
-0.03563102
0.09954834
0.06381458
-0.02341505
-0.07062025
-0.01110272
-0.09060455
-0.08707568
-0.09555377
0.06204466
-0.02893936
0.05549215
-0.06548444
-0.03181599
-0.07610662
-0.06837660
-0.10963031
0.03681156
-0.05953617
-0.05014448
-0.08579527
0.02440502
-0.08765435
-0.00321685
0.08146927
-0.03635510
-0.05326813
-0.02451059
-0.01177641
0.02386532
0.03166005
-0.03109909
-0.05363481
0.06846573
-0.07894637
-0.11725562
-0.01737301
-0.03352441
-0.05461295
0.07204416
-0.09772312
0.06213578
0.00608310
-0.08554954
0.07960754
0.01146236
0.09176611
0.09435257
0.06853903
0.08967983
0.04391044
-0.08632643
0.02647236
-0.06904563
0.09328717
-0.08206217
-0.05426925
0.01225564
0.02128847
0.02781578
0.00485781
0.06264588
-0.04544512
-0.04517084
0.03984938
0.00637552
-0.02322305
0.07073426
-0.07199674
0.02499207
0.05770528
0.00027316
-0.04778229
-0.01243737
0.05582572
-0.03305531
-0.09432945
-0.06899253
-0.08352469
0.07645902
-0.03127535
-0.03253269
-0.01196851
-0.01505903
0.07182997
-0.02416352
0.05551981
-0.05899728
-0.03532205
-0.03750289
0.05498227
0.00984202
0.03350243
0.07055714
0.06348793
-0.04022768
0.06440270
-0.03598306
0.06544360
-0.03464449
-0.04065980
-0.03441997
0.08871993
-0.01133288
-0.00905498
-0.04877775
-0.04734585
-0.07970841
-0.10169609
0.03553668
0.01282994
-0.09076711
-0.07090859
0.07749437
-0.04891797
-0.09502577
0.04936591
0.04883224
0.05566386
-0.04889107
-0.06652688
-0.05687663
-0.06793094
0.05613122
-0.04629256
-0.04093549
-0.04459575
-0.02363515
-0.07193666
-0.12463903
-0.02412686
-0.05381765
0.01990495
0.00328896
-0.00122118
0.02904188
-0.08014341
0.05832509
-0.06225219
0.09563137
-0.08089014
-0.09058819
-0.01960103
-0.02945427
0.00040070
0.03831405
0.04591421
0.03200783
-0.03548594
0.01756220
-0.01287184
-0.07697933
-0.08236432
0.02044418
-0.06648599
0.06132687
-0.07917613
0.02858080
0.07150139
0.04208483
-0.02078433
0.07744030
-0.04234658
-0.01257831
0.05830637
-0.09229594
-0.00830796
-0.00393018
-0.01766498
-0.08825277
-0.09684984
0.08207924
0.08612748
-0.04009325
0.04828072
0.03228359
-0.03611915
0.01465386
0.02573968
-0.00078242
0.06546691
-0.06016391
-0.05662160
-0.00671956
-0.09444974
-0.02475818
0.07010617
-0.10055877
-0.06538047
0.05566989
-0.01781282
-0.02800451
0.06663201
0.08448619
-0.06516707
-0.06919204
0.07180836
-0.09381092
-0.01085456
0.09930263
0.05885662
-0.07156846
0.04224784
0.00387500
-0.01047699
0.05314935
0.02751159
-0.06126685
0.04134790
0.05993166
0.00736619
-0.00242327
-0.08518726
0.01554476
0.00088112
-0.01626887
-0.05762154
0.05091958
-0.06986962
0.05012668
-0.01998693
-0.09307636
-0.00347880
0.05976569
-0.05279342
-0.00385482
-0.01164979
-0.07809408
-0.02709292
-0.03702575
0.06297963
0.05282302
-0.04838919
-0.09463200
-0.06036365
0.02738152
0.09330988
-0.01772997
-0.00004815
0.07151748
-0.07612943
0.04434598
-0.08480420
-0.09724792
0.01884125
0.04574576
0.08974889
0.06403240
0.03451424
-0.02609191
0.02152302
-0.03047802
0.00223855
0.07391698
-0.08920317
0.05594412
-0.02824522
0.08836644
0.09944005
0.08727795
0.05328444
-0.07469401
-0.03232540
-0.04143378
-0.03189988
0.00164244
-0.08183489
0.07701523
0.04596965
-0.04814537
-0.04303087
0.01390905
0.04716014
-0.03074914
0.00632659
0.04895956
0.00971998
0.07091290
0.10797082
-0.04359980
-0.01819868
0.08171888
0.04308506
0.04766615
-0.05134341
-0.01740483
0.04134068
-0.07726489
0.08842001
-0.05852979
-0.04121782
0.11478940
-0.06055352
-0.04821930
-0.05781793
-0.05030369
-0.06188641
0.09754612
-0.06674451
-0.01270726
0.07226756
0.07182522
0.05958708
0.07535890
0.05551225
-0.07477237
0.02996091
0.02215451
0.04944562
-0.09541111
0.06754119
0.09013816
-0.04226873
0.06066790
0.06392988
-0.07342541
0.06491856
0.08588396
-0.09313108
-0.06191770
-0.02858542
-0.03511389
-0.08400241
-0.09579305
0.00258425
-0.02809879
0.08561503
0.02156377
-0.01726415
-0.03549263
-0.01971868
0.03506258
0.09210303
0.07122689
-0.09617561
0.03198968
-0.07391168
0.07593103
0.02227429
0.05554746
-0.01838311
-0.08716744
-0.03583433
0.08883639
-0.05163330
-0.07003299
-0.05562687
0.03637649
-0.02366525
0.03185811
-0.00191047
0.06685561
-0.06063014
0.01302615
0.17642091
0.09945584
0.17144338
-0.07868282
-0.05399194
0.09712555
0.05843775
0.09315747
-0.02439994
-0.08303007
-0.05829930
0.01744138
-0.06467390
-0.02891914
-0.02142650
-0.02832150
-0.00471637
-0.08578544
0.01599752
0.07606315
0.04164782
-0.03775099
0.01077772
0.02425230
-0.03184895
0.00882087
-0.06517541
0.00071389
-0.02208668
-0.03175182
0.02703892
0.04587738
0.00232641
0.01271933
0.08414662
0.00417374
-0.02312851
-0.10427666
-0.10169825
0.07184073
0.06759595
0.08357338
0.01678957
0.05034267
0.06563199
-0.02515269
-0.00081677
-0.07092686
0.04983969
-0.07615234
0.04458007
-0.07648327
-0.03451296
0.06463066
-0.05516566
-0.01176411
-0.00875442
-0.03384270
-0.03547841
0.01187916
0.07528494
-0.07770907
-0.07078435
-0.08048978
0.03732521
-0.06352463
0.00271994
0.05121843
-0.07294380
-0.03690360
-0.04076937
-0.09973387
-0.01015487
-0.03549281
-0.04512933
0.04409143
-0.09543425
0.09076392
-0.04522223
-0.07411295
-0.03951464
-0.04026893
0.06890932
0.07842167
0.04616460
0.04796611
-0.00665123
0.06999796
-0.02931112
0.05472439
-0.03694204
-0.05436694
-0.03559866
-0.00392751
-0.09633196
-0.07995062
0.07865961
0.01148878
0.10991387
0.10376062
0.00127435
0.04085145
0.02561395
-0.02893734
-0.09029632
-0.08092464
-0.00955463
-0.03942539
-0.00109846
0.05805845
0.08167898
0.04800757
-0.04161984
-0.00904004
0.03427521
0.02100536
0.01633528
0.05570473
0.05535229
-0.03953200
0.03281802
-0.07732768
0.06864731
0.07874421
0.06363717
-0.09578918
0.00658559
0.01766803
-0.04694930
-0.08463568
0.05782090
0.01002041
0.03958693
0.03694412
0.01630468
0.07500755
0.02220070
0.17817494
0.05514862
-0.04058402
0.05979727
-0.03596734
0.09504875
0.00669564
-0.05394325
-0.02561562
-0.00694825
-0.04680527
0.03954068
0.06386836
-0.09373577
0.08197202
-0.00051621
-0.04310559
-0.03739860
0.05962808
0.04138450
0.05411734
0.09599198
0.09925297
0.00291497
0.04428859
0.03052835
0.04248377
-0.03001017
0.01793249
0.08022067
-0.02971483
-0.06994196
0.04076997
-0.06219790
-0.07169917
-0.06107313
0.02885801
-0.06502564
-0.09334238
-0.04084645
0.03468212
0.03973131
0.10345550
0.07664893
0.07434870
-0.06885107
-0.03137352
0.02071372
-0.06566830
0.06530063
0.05004562
0.09929935
-0.07295037
-0.02902463
0.06005435
-0.01144416
0.06286168
0.05568775
0.05350276
-0.05756905
0.03979995
-0.07823673
0.05715689
0.06521848
-0.04292975
0.06553626
-0.09907185
-0.11750504
-0.06799531
0.01854810
-0.05830282
0.05086387
0.05714044
0.06157515
-0.00938426
-0.08993937
0.00577777
0.00036366
0.00797615
0.07787839
-0.00408654
0.08205454
-0.01246234
0.05553040
0.02542144
0.08829889
0.05931035
-0.07452512
0.19842595
0.16124267
0.03979767
0.05478615
0.01005586
0.04586165
-0.02056103
-0.07422309
0.01338740
0.03934368
0.01119982
-0.06303327
0.07821037
0.04512639
-0.05660921
0.08832847
-0.01010374
0.06649431
-0.05317451
-0.07896806
0.05178018
0.08804187
0.04780563
-0.06605752
-0.04128996
-0.01128321
-0.07426997
-0.04688628
0.06532696
-0.02964859
-0.04174365
-0.07528652
-0.00374923
-0.04709850
0.02424461
0.07344502
-0.02558322
-0.06163247
0.02649860
0.01656504
-0.05123809
-0.05673270
0.10199021
0.04008271
-0.01026024
-0.06465976
-0.03307946
0.08949760
0.03034294
0.04469014
0.08059762
0.01664385
0.00421219
-0.08293922
-0.06888081
-0.04383960
0.04052816
-0.01087597
0.08122265
0.08954779
0.05084481
0.08397445
-0.07743447
0.06554692
-0.04366141
0.00311761
0.03621795
-0.12759475
-0.03101969
0.09275187
-0.02670461
-0.04440698
0.05276079
0.01197842
0.03362220
0.00898511
0.00581502
0.17492739
0.10662796
0.08622711
0.00427230
-0.01373096
-0.06581979
-0.10745590
0.02445518
0.05708420
0.04849658
-0.06419750
0.02859147
0.05206808
-0.10571764
0.03892230
-0.05794134
0.04054309
-0.00368242
-0.05296773
-0.05707535
-0.08933221
0.07353135
-0.04128844
-0.03575989
-0.00847400
0.04637703
-0.02842333
-0.03744831
0.10080532
0.01078249
-0.01836561
-0.06123611
0.03982222
0.07551859
-0.05097726
-0.03331550
0.03643054
-0.04499919
0.07318921
0.07597821
0.03814312
-0.07613489
0.00126507
-0.01240630
0.09719602
-0.00843195
0.06835933
0.07188029
-0.05152257
0.04369098
-0.08631256
0.00012456
-0.06820629
-0.01278882
-0.06549394
-0.09022083
0.05498160
-0.01295731
-0.07895522
0.09124064
-0.03848365
-0.03919679
0.02428555
-0.09704997
-0.01301678
0.03768528
-0.08010100
0.01538055
-0.00301151
0.07818036
0.03318783
0.04039378
0.05205154
0.08644282
-0.01619974
-0.05618639
0.00106653
0.08568901
0.06936419
-0.04332150
0.05707584
-0.07585694
0.03419176
-0.05105791
0.05197712
-0.04053302
0.00062339
-0.07157955
-0.04419239
-0.07240361
0.08540112
0.00440723
0.02436322
-0.00716967
-0.07209614
-0.04827334
0.07356052
-0.11648746
0.04515850
-0.03284583
-0.05153391
-0.03049988
0.08361051
-0.09121001
-0.01305749
0.04919880
-0.06923829
-0.03463061
0.05178958
-0.09053837
-0.04617066
-0.05090989
-0.04535643
-0.07178668
-0.12177352
-0.08867654
0.01332682
-0.06697523
-0.03656814
0.05296778
0.04138464
-0.00940604
0.04450322
0.04479470
0.00371153
-0.01684054
0.08486972
0.05209222
-0.03671059
0.08690846
0.05517089
-0.05783969
-0.01474626
-0.06387969
-0.06232052
0.01337928
-0.06385040
-0.05826994
-0.05110695
-0.08379501
0.02799897
0.02940574
0.03355235
0.08770545
0.09608170
-0.04349814
0.06397109
-0.12440930
-0.01631162
-0.05463901
0.05759665
0.03964629
0.00247525
-0.01587958
-0.05650033
-0.08052238
0.09036241
0.00339557
-0.06580380
0.04942542
-0.00337865
0.07135878
0.00022625
0.11477601
0.07970859
0.11360657
-0.07896516
-0.09376001
-0.09261592
-0.14601483
-0.17400419
-0.11854011
0.01120315
0.06441802
-0.06686004
0.00583516
0.04042364
0.07998356
0.04911229
-0.07051135
0.08711919
0.03277031
-0.08502206
-0.00136564
0.02283224
-0.09178305
-0.09389586
-0.08684250
0.09157556
-0.07505426
-0.06019691
-0.04178789
0.03261020
-0.00683505
0.01756857
-0.01505307
0.07860671
0.05392973
-0.05181657
0.00611129
-0.03396282
0.06929440
0.08755541
0.11651856
0.03664740
0.09072697
0.09722493
-0.04515702
0.06623102
-0.11021901
-0.03537834
-0.09487518
-0.05172392
-0.06331890
0.08091850
-0.09428113
-0.05477954
-0.04818118
0.09561600
0.03365139
0.09551315
0.02104768
0.03350745
-0.00281915
-0.00436027
-0.00511844
-0.05556834
0.06116507
-0.01928392
0.04925290
-0.03714474
0.04627625
0.07393055
-0.02798187
-0.01372871
0.05758788
-0.06680930
-0.03086214
0.04928489
0.08807139
-0.02592043
-0.00909005
0.10198612
-0.02443704
0.05252209
-0.01488432
0.05188859
0.03397529
0.00446953
-0.04107676
-0.08366497
0.05040527
-0.06677528
-0.01855754
0.04012720
0.05705051
-0.04983765
-0.05255878
0.08143186
-0.07918352
0.03071583
0.09448640
0.01842800
0.04496149
0.06042909
-0.05505156
-0.02931673
0.04236197
-0.12938027
0.06495761
0.04100087
0.08208926
0.07067810
0.14910243
0.06963543
-0.03158556
-0.02002279
0.03111231
0.04626018
-0.02964316
-0.01281560
-0.06355278
-0.05930912
-0.04508618
0.02842487
-0.00792222
0.02327487
-0.09681428
0.01968093
0.05303839
-0.07773416
-0.04547219
-0.08777294
0.05540344
0.07092061
-0.04116937
0.01457123
0.00800702
-0.05183278
0.00093193
-0.00657181
-0.06163172
-0.06444274
0.02851361
-0.02873685
-0.03706998
-0.02768609
-0.08530118
0.08937822
-0.07019263
0.00801672
0.03267470
-0.00121443
0.01779478
-0.06535139
-0.07488878
-0.04233737
-0.03614512
-0.07838096
-0.03927959
-0.05063549
-0.05312831
-0.11280893
0.00146930
0.02268441
-0.06408925
0.01022874
-0.08391827
-0.00626135
-0.04689052
-0.09391724
0.08286044
0.07174595
0.05256636
0.08238974
-0.01956631
-0.02493883
0.09284981
-0.06581292
-0.01039135
0.09508903
-0.06681402
0.01348727
-0.00896833
0.03722805
-0.05647855
-0.05408865
-0.04455832
-0.02743380
0.06078348
0.06777605
0.09245810
0.04449649
0.05864399
-0.03356830
0.01560897
-0.04878447
0.00321941
-0.03348332
0.07083170
-0.09719951
0.16373435
0.16562834
-0.00623802
0.05735954
0.01515260
0.10042467
-0.06890283
-0.06079272
0.08489209
-0.05681721
-0.06483678
0.04855290
-0.02403987
-0.00307432
0.09617683
0.02238887
-0.07791324
-0.01871043
0.02775320
0.11994426
0.04783904
0.03584097
0.02015563
-0.08861326
-0.02251644
-0.07790653
0.09889923
0.07103476
0.05119488
-0.06273490
0.00632745
0.05617369
-0.04868003
-0.01594803
0.04209334
-0.00428345
-0.05393443
-0.03233966
0.06728974
-0.08364809
-0.07077157
0.04241440
0.00853470
0.03283286
0.02735110
0.02946348
-0.07204272
0.05786791
0.08760863
0.01780916
-0.03094109
0.01959966
0.04979216
-0.06942775
-0.00601743
0.09864061
-0.05797433
-0.00661401
-0.06986621
-0.11274282
-0.12465941
-0.10076259
0.07011305
-0.01505570
-0.05410496
0.04506240
-0.08021920
0.09609108
0.09990221
-0.04804548
0.04781838
-0.07798135
0.06548041
0.07972298
0.08124573
-0.02065943
-0.05692058
-0.06502695
0.06432868
-0.00745946
0.01944031
-0.05408007
0.08588284
0.06398109
0.06390910
-0.06389366
0.00009614
-0.05329599
0.02085003
0.05293986
-0.10294987
0.09145023
-0.01338014
0.00603135
-0.03606081
0.03410898
0.06326836
0.12055063
0.07842965
0.05638812
-0.06604206
-0.01079167
0.14024478
-0.01012835
0.07717180
0.04248446
-0.04839474
-0.01671472
0.00309237
0.02705425
-0.07490221
-0.05651085
-0.06883339
0.05990219
-0.03941117
0.00919461
0.06433527
0.01734191
0.01199229
-0.02641626
0.01189335
-0.04283504
0.05308875
0.05179934
-0.03233801
-0.08090279
-0.05999478
-0.06790950
-0.00132962
-0.02911937
0.04445537
-0.03176748
0.04593516
0.09064705
0.00035030
0.10598009
-0.00749265
0.06329335
0.07394508
-0.03772378
0.04612105
-0.07919203
0.07441182
0.07339942
0.09420817
-0.00490938
-0.02574872
0.06465668
-0.04020007
0.01305512
0.06033709
-0.01663440
0.09144929
-0.01254535
0.05907398
0.08482517
0.05330360
0.04277468
0.06522164
0.00161011
0.04976820
0.02005398
-0.04074541
-0.10161348
-0.00725853
0.07446175
-0.00838199
0.04800695
0.09045527
0.06852246
-0.00810877
0.02126853
-0.01282746
-0.03938598
-0.01872916
0.03054749
0.04147629
0.09990245
0.03542676
0.00509150
-0.07770558
-0.04871185
-0.01243524
-0.01998971
0.01083628
-0.09905823
-0.00330328
-0.09444046
-0.04244899
-0.09803704
0.04658352
0.04270708
0.09616432
-0.06361573
-0.04765714
0.00540721
-0.00018240
-0.02649319
0.01124921
-0.05539178
0.05490596
0.02810531
0.07021908
0.00991303
0.02445412
0.00311681
0.01080896
0.09459542
-0.06929285
-0.07449653
0.00353093
0.02858366
0.02887836
0.02335021
0.07321067
0.02757231
-0.04243219
0.01855116
0.03624893
0.06316834
-0.02950498
-0.02076810
0.06444039
-0.01651779
-0.02129158
0.03338840
0.00178290
-0.03574143
-0.08267335
-0.07985798
-0.01835244
0.06139763
-0.04757795
0.03083018
-0.00730656
0.09086523
0.05167333
0.06171398
0.01920836
0.07728315
0.04974338
-0.09132761
0.06468624
0.04122607
0.06532808
0.03947819
0.06393783
0.05189732
-0.09308774
-0.01604394
0.04869901
-0.04728108
-0.09718950
0.04266238
0.06805894
0.07839207
-0.00268279
0.02866199
0.02009765
-0.08230815
-0.01330149
-0.05571286
0.02740811
0.05562959
-0.04563415
0.03236981
-0.05919622
0.08335306
-0.06177841
0.02441821
-0.01800056
-0.03930165
0.09824181
-0.00090477
-0.09232941
0.08369662
-0.09188216
0.07228761
-0.08463324
-0.00696987
-0.03098395
-0.01020190
-0.06545191
-0.02694676
-0.08540507
0.03979814
-0.00015418
0.04558670
-0.03125715
-0.01907782
-0.04609426
-0.08210899
0.07544395
0.05579647
0.05772846
0.02734809
-0.10345353
-0.02026891
0.03929721
-0.09740436
-0.05108851
-0.06716107
-0.05796583
0.02204984
-0.05899724
-0.05391321
-0.01737382
0.05170144
0.07138007
-0.05405995
-0.08548064
0.08168101
0.03287990
-0.09810544
0.07404723
-0.03544454
0.07197753
-0.03382926
0.10011580
-0.05540249
0.08101658
-0.05154306
-0.03890711
0.06255319
-0.08898856
0.03906301
0.03865695
0.05438623
0.06785618
-0.02900577
-0.01235207
-0.03654571
-0.01124487
-0.03356344
-0.03616200
0.07143272
-0.04115744
0.00902691
-0.05319199
0.03932537
-0.07685305
-0.05385000
0.08320819
-0.05483412
-0.09384914
0.08609655
-0.00913906
0.01670915
-0.09717597
0.03572686
0.08560289
0.04320659
0.01236554
0.02612686
-0.03916757
0.09357061
0.03517191
-0.08070377
0.00350909
-0.00368981
-0.07691367
0.00626759
0.06312325
-0.09220530
-0.02255533
-0.09536418
0.06675346
0.09279373
-0.08937951
0.04710610
0.01084894
0.01284405
-0.05821855
0.07244004
-0.05791714
-0.03101429
0.07976465
0.03855832
0.09250401
0.06557976
-0.04880431
0.04096893
-0.04121535
-0.03537501
-0.03034162
0.02952085
0.00304701
-0.00466949
0.08066483
0.11844400
0.07852369
-0.04405841
0.00962628
0.00150714
0.01760302
0.05484146
-0.10754948
0.02572326
0.06629459
0.07061988
0.01043244
0.10295544
-0.04694655
-0.01421340
0.03364993
-0.05361168
-0.06107538
0.07989687
0.06655580
-0.02722521
-0.03964093
0.06387322
-0.07195449
0.07913077
0.05131330
0.06278761
-0.05393943
0.00926268
-0.03027972
0.05239751
-0.06403472
0.00707555
0.09739006
0.09277325
-0.01819564
0.00215403
-0.09405354
-0.07700068
-0.02939327
0.00417045
0.05243497
-0.08805247
-0.08559112
0.08114872
-0.02370404
-0.02018297
0.08463720
0.00393986
-0.08006383
-0.00321554
-0.09551639
0.06129449
0.08257134
-0.07270476
-0.09067234
-0.01113735
-0.08927686
-0.03187403
-0.01316446
0.01083843
0.06733617
-0.08461053
0.08200902
0.01628190
0.09065615
0.00212008
-0.03086455
-0.07195445
0.02527902
-0.00684048
-0.08140579
-0.01444521
-0.00100256
0.08682831
-0.02256913
0.08347843
0.00923961
-0.05203838
0.00686565
-0.05493814
0.06886612
0.02847207
0.07971225
0.00532197
-0.04425471
-0.03546431
0.02178700
-0.07015561
0.03327276
-0.00682229
0.03675732
0.04161123
-0.06920236
0.02732039
0.06341651
0.11094145
0.12732367
0.07351223
0.04417833
0.07803788
-0.02444109
0.09272426
-0.06271779
-0.01672156
-0.03533100
0.03788203
0.02816040
-0.06283215
0.07290025
0.08076287
-0.06742430
0.06615426
0.02697940
-0.10956539
-0.09308035
0.06021734
0.09827611
0.10244340
-0.00177961
-0.04369910
0.08156381
-0.00236805
-0.08756381
0.05437221
0.00183337
-0.08898805
-0.06117525
0.05109806
0.05793278
-0.05666595
0.08028475
0.05007578
0.04850429
0.06346988
-0.07370088
0.10107178
0.08447529
-0.01300789
0.06415412
0.07929111
0.02264845
0.03068752
-0.00136025
-0.00315632
-0.00642430
0.06685321
-0.06134635
0.09502854
-0.08244696
-0.07797435
0.04833055
-0.02504308
0.08086865
0.09418627
0.03149638
0.09413847
0.03916502
-0.01196089
-0.04775409
0.05472917
0.08929105
0.05903201
-0.10190621
-0.01380630
-0.10870933
-0.09055319
-0.07882025
0.02178053
0.05214444
-0.03296177
0.09904297
-0.04544633
-0.05703742
-0.09677886
0.04740332
-0.06472760
-0.00826681
-0.08548692
0.08207603
-0.09181522
0.00620103
0.06793130
0.07806665
0.04695984
-0.01828814
0.05822629
0.05018704
0.04269389
0.05962742
-0.03300899
-0.06458116
-0.09522207
-0.07955936
0.05055873
-0.03051584
0.05188996
0.00959145
0.02973400
0.00963365
0.07234014
-0.03786963
0.07161906
-0.06703412
-0.06471390
-0.04961943
-0.01663130
-0.07390170
0.01081669
0.02449990
-0.01561396
-0.04573808
0.06918518
-0.09793262
-0.10701199
0.04317080
0.07721264
-0.04754251
-0.06895351
-0.07789826
0.07221669
0.03267289
0.05045536
-0.04671569
-0.07551035
-0.00630795
0.09231592
-0.04192620
-0.05209998
0.04816491
0.01727550
-0.01792739
0.05590589
-0.08050553
-0.01894502
0.05101078
0.08965060
-0.05233813
0.00538440
-0.05710165
0.02009541
0.07111434
0.07463315
0.03443338
0.07613493
-0.02017980
0.00645076
0.09731935
-0.04632351
0.03247449
0.04438370
0.03868408
-0.02469736
0.06972391
0.07218389
-0.08892177
-0.07560801
0.02675010
0.07351684
-0.11232586
-0.04926170
-0.03771580
-0.04456160
0.06627846
0.01475163
-0.05351051
-0.12424977
0.05376074
-0.05731879
0.02363787
-0.03649726
0.07098997
-0.00607718
-0.05979770
-0.08227881
0.05489667
-0.02268341
-0.05125323
0.07965929
-0.04622466
-0.02063964
-0.00501264
0.09063583
0.06828070
-0.08011935
-0.06503396
0.08895256
-0.07375367
0.10099983
0.05827276
0.11764603
0.02865442
-0.04787485
-0.01190291
0.03659578
0.01668754
0.00253631
-0.09171626
-0.06042662
-0.00437671
-0.06123857
-0.05414188
0.03491299
0.02958696
-0.05260098
-0.07960607
-0.05820409
-0.02339208
-0.03357773
-0.04437897
0.01921366
-0.00276699
-0.07054691
0.02786205
0.03580301
-0.09017550
0.00560263
0.02770431
0.03892127
-0.08721731
0.10047999
-0.07411293
0.05483778
-0.00498354
-0.07839152
0.07026387
0.03204573
0.05565413
-0.01702817
-0.05056751
0.02983193
0.03580027
-0.05443687
-0.07140965
0.09136226
-0.08933683
0.05786438
0.00257331
0.05618940
0.06910509
-0.02843182
-0.05162197
-0.07543532
0.07298849
0.03475120
-0.06911803
-0.01986233
0.06709699
0.05749711
0.05033528
0.06444585
-0.02169187
0.10535758
0.04960758
-0.00472631
0.06317694
-0.05334040
0.05937735
-0.01487284
-0.10199192
0.03908388
-0.08717981
-0.08353211
-0.10487097
0.05528450
0.09624194
0.04982600
0.04093636
-0.07473720
-0.08484962
-0.07669111
0.09316693
-0.02154929
-0.08365616
-0.01623054
0.07239445
0.07969677
-0.10191915
0.03187494
0.00939411
-0.03812893
-0.06543224
-0.09773607
0.07565565
0.03927014
-0.02745735
-0.06787125
-0.01723964
0.04938451
-0.05598765
0.05339266
-0.02771380
0.09197044
-0.00358265
0.06020605
-0.04167783
-0.03904894
0.03881525
0.05767205
0.07840450
-0.09484382
-0.07047492
0.05066604
0.07536790
0.06618040
-0.04675270
-0.01688299
0.07020718
0.04316482
-0.06100261
0.06443613
-0.10199776
0.06344163
0.06891500
-0.00654231
0.03125542
0.06232418
0.06967439
0.08455751
0.00459233
-0.06874359
-0.06162898
-0.04409287
0.08614824
-0.06225191
-0.06737110
-0.09727822
0.09916995
0.10044471
-0.02419978
-0.08685529
0.07513999
-0.03305303
0.08947960
-0.07209403
0.09722549
-0.00807369
0.07599228
-0.03123944
-0.04380380
-0.01037947
-0.01141309
0.07052848
0.09696739
0.05795478
-0.02522817
-0.03179197
-0.04116529
-0.01264732
-0.09319906
-0.02237930
0.08724565
-0.03409032
0.09929134
-0.09772556
0.07314450
0.07567980
-0.01690743
-0.08901295
0.00152653
0.00495229
-0.06996632
0.03861302
-0.03197994
0.08252262
0.03805200
0.09115465
0.06761863
-0.02539293
-0.07674778
0.00901051
0.05517134
0.05487789
0.06985143
0.00172997
-0.04847314
0.02246579
-0.01272918
0.03623194
-0.00966885
-0.11435716
-0.05680457
-0.04242138
0.09762402
0.00085008
-0.06327811
0.05817452
-0.00828272
-0.07159220
-0.00854031
0.00399680
-0.02181510
0.09646687
0.09883473
-0.08054326
0.02237777
-0.03922610
0.07419158
0.05138319
-0.09220029
0.05091299
-0.07640367
0.07722297
-0.07429729
-0.06115573
0.05196690
-0.00163716
-0.09055080
-0.03854069
-0.03014504
0.03716819
-0.00657117
-0.01417187
-0.06402269
-0.03882506
-0.06537550
-0.09775409
-0.10813423
-0.03723014
0.05667664
-0.03357976
-0.11435503
-0.06135275
-0.02575673
-0.04330016
0.01627750
-0.07000942
0.03255709
-0.08170015
-0.06253397
0.08400395
-0.09429577
0.06194041
-0.03439045
-0.02532152
-0.02317976
0.05401710
0.04398941
-0.03598237
-0.02884624
0.00937412
-0.04902392
0.00087639
0.09158615
-0.03524954
0.07870508
-0.04531117
0.07760247
0.04235195
-0.00589840
0.03522361
0.08385789
0.07480731
-0.08220306
-0.09527189
0.08786650
-0.06702360
-0.04941948
-0.06933117
0.03847442
0.07738772
0.07882870
-0.04011130
0.03213632
-0.04220830
-0.01728892
0.05540000
-0.03176924
0.05974008
-0.09608533
0.02881556
0.05411331
-0.02064654
-0.05969336
0.05207358
-0.10606947
-0.03799026
0.00478071
-0.05657936
0.01681241
-0.07959577
-0.04939431
-0.09796617
0.00677511
-0.06531060
0.02197253
0.03424047
0.08285855
-0.05660326
0.09553071
-0.05439460
0.08867164
-0.09221242
0.04286153
-0.01472296
0.03603140
-0.03457256
-0.07721519
0.05135757
0.09094962
0.08886072
0.08029009
0.07101964
-0.08438964
-0.05073059
0.00636796
0.08648408
0.08629395
-0.01980896
-0.06377306
-0.06735432
0.05057561
-0.06105035
0.04131639
0.08056401
-0.06064238
-0.06191364
-0.04327329
-0.02471077
-0.08040920
-0.00546527
-0.02521526
-0.01286226
-0.04293480
-0.01128230
0.05738380
0.03768728
0.09332447
-0.07502818
-0.09231929
0.08350297
-0.06920663
-0.01917729
-0.06341423
0.05438457
0.00248605
0.00342493
0.06965709
0.04889904
0.04138028
0.02231168
0.02354175
-0.03116756
0.09601247
-0.07348847
0.01340279
0.05164834
0.01079352
-0.05384446
-0.01772606
-0.07354903
-0.00561156
0.07088169
-0.07650871
-0.01437178
0.07450060
0.07707401
-0.06528350
-0.07548671
0.01521879
-0.05582512
0.05838357
0.04680103
0.06474338
-0.09418096
0.00098116
0.05918787
0.01399167
-0.08058941
0.02748632
0.04998611
0.05315336
-0.00536770
0.04793378
-0.04175644
0.00466618
0.01339435
-0.01047755
0.09703569
-0.04910659
-0.01098310
-0.07720249
0.05620627
-0.02668924
-0.09388980
-0.04202954
-0.03125229
0.03135936
-0.03729603
0.01360167
0.06089181
0.01393580
-0.07450106
-0.01111607
-0.08167667
0.08325039
0.00249276
0.07025581
-0.01697161
-0.08129984
0.06760048
-0.04065741
-0.06813702
0.00851371
-0.07952015
-0.09653405
0.02328721
-0.05233987
0.05938274
-0.07139868
-0.02217317
0.03405726
-0.00024491
0.04343814
-0.05836489
0.08009952
-0.04493239
-0.02958588
-0.07518959
0.08425660
0.04128765
-0.07842284
-0.01686595
0.05208770
0.01705273
-0.04367832
0.06600209
0.08352068
-0.08888500
-0.00855828
0.06239795
0.01920702
-0.08666850
0.01887589
0.00184776
0.08813870
0.06631353
0.08171885
-0.08077696
-0.00505269
-0.08055829
0.07487447
-0.07328288
-0.09745682
-0.01974439
-0.08647438
-0.02824536
-0.07347527
-0.07567801
0.08151515
-0.04260652
0.06706619
0.08846547
0.07366712
-0.05624598
-0.07971312
-0.08907479
0.07498336
-0.03485431
-0.01712361
0.09782396
-0.02571768
0.07328538
-0.00249863
-0.00283542
-0.09981384
0.02297225
0.07653453
0.04165086
-0.03015565
-0.10607388
-0.08305797
-0.02205920
0.06726926
0.01904449
-0.07206033
-0.03749841
0.00945619
-0.02980815
0.05086115
0.08418637
0.02222086
0.06955868
0.08574478
-0.04129035
0.02994921
-0.09008011
0.04727692
-0.00237721
-0.03232453
-0.08660607
-0.02767456
0.07086377
0.03846862
-0.03819030
0.03852478
0.06881974
-0.07995680
0.09320644
-0.06578888
-0.07598711
-0.05539557
-0.03386626
-0.03472381
0.02715948
-0.04134073
-0.06839073
-0.00885296
0.01857873
0.02649336
-0.00505605
-0.02778249
-0.00947618
-0.09456049
0.08639019
0.08044231
0.01916681
-0.09744620
0.05702951
-0.00276579
-0.02869281
-0.03565974
0.09964354
-0.01296481
-0.05882076
0.04586033
-0.03866421
0.03860930
-0.08332801
0.01154544
-0.03767896
0.07562973
0.08060295
0.01191754
0.09773353
-0.09027265
-0.07305529
-0.05126573
-0.05718122
-0.00032245
0.08805483
-0.00819133
-0.04093016
-0.07770607
-0.09553808
-0.03068620
0.00560416
-0.09850639
0.00070672
-0.03685431
0.07699480
0.06266827
-0.06073440
0.00882524
0.02232651
-0.08643938
0.06316022
-0.08936733
-0.05055353
0.09176747
0.09868042
-0.06617844
-0.01213604
-0.04904590
-0.04741007
-0.08317285
-0.11072417
0.03904621
0.05939672
0.01599468
0.05658275
0.02455796
-0.05137772
0.06068437
0.08524047
-0.06958354
-0.07005448
-0.09858862
-0.01288428
-0.08536188
0.00131972
0.02509427
0.04081057
0.04661769
-0.06375580
0.06243462
0.09253881
0.01754241
-0.02074908
-0.00809615
0.00664081
0.04944203
0.05325498
0.05146741
0.02317494
0.01233910
0.03709788
-0.06202373
0.09826720
-0.06371212
0.09943833
-0.05232229
0.03820478
0.05317432
0.02929233
-0.09180098
-0.07890150
-0.05102326
0.02706728
0.07638365
-0.08890046
-0.04786919
-0.08921469
-0.09048048
0.09026058
-0.04492622
0.09716823
0.03594245
-0.01091306
-0.01717770
-0.06596848
0.01612911
0.05024017
-0.03211573
-0.06673958
-0.01883208
0.00080983
0.02304549
0.03736453
0.08790964
0.05098786
0.05276330
0.03232073
0.03741360
-0.05487841
0.08511321
0.03081960
-0.08889465
0.02598688
-0.07264393
-0.09078168
-0.06387132
0.03572994
0.03294305
0.02439370
0.08003525
0.06302935
-0.01208923
0.05133888
-0.01568960
0.01150556
-0.05480290
0.07908994
0.03942638
0.07011477
0.03257986
0.07439717
-0.05546720
0.03728858
-0.06788167
0.03994852
-0.02645215
-0.10445707
0.07074230
-0.02009304
-0.02574025
0.05161391
0.07120195
-0.06543551
0.08611478
0.01637909
0.00779327
0.08678563
-0.05842113
0.02387618
-0.07625241
-0.09752956
-0.01697163
-0.03096810
0.00999947
-0.09243650
-0.07078696
-0.08791164
-0.00316928
-0.03891886
0.01935530
-0.06888539
0.07099689
0.03033795
0.05240841
-0.03492662
-0.06478438
-0.03100182
0.02668187
-0.09364266
-0.04782516
-0.05811016
0.00479812
0.07491040
-0.04279642
0.09729107
-0.06837441
-0.05081004
0.01966777
-0.05512833
-0.08876537
0.02425283
-0.00981370
0.02738384
0.01695674
-0.00269849
0.03844743
-0.00999606
0.07746644
0.09098465
-0.08520826
-0.00271364
-0.03572133
-0.00129835
-0.04263908
-0.06949865
-0.02661600
0.06419595
0.08579670
0.00481109
-0.04745520
-0.03444698
-0.07209141
0.01615583
0.01005024
0.00743137
0.04383869
0.03266870
-0.00109366
0.05605031
-0.05023982
-0.06337880
-0.00263878
-0.08844070
-0.05920268
-0.01612576
-0.09461592
0.09765094
-0.08133622
-0.00584727
-0.04170477
-0.07490415
-0.00229188
0.07471270
0.05692800
-0.02818658
-0.00729835
0.01655489
0.06313214
0.10397679
-0.06196620
-0.04649076
0.04142242
0.07465910
-0.10495147
0.01793187
0.02031164
0.03529939
0.08785646
-0.06815691
-0.04169099
0.02925011
0.02785518
0.00173467
-0.06004480
-0.08419889
-0.08724504
-0.05187201
0.00946916
0.06593990
0.04620850
0.02960632
0.07535652
0.02153958
0.09551944
-0.03562346
0.04033985
0.09962333
0.07324591
-0.07589661
0.07821029
-0.02174892
-0.03251116
0.04896260
0.01455641
0.00359877
0.03316263
0.08467665
0.04685065
-0.09223673
-0.01778991
0.02926331
-0.00495219
0.09857094
0.09709183
-0.08374635
0.05012378
0.08777784
0.08465666
0.04726628
-0.02778099
-0.01732463
-0.07290922
-0.00076973
-0.09489722
0.04094035
-0.03597981
-0.04132622
-0.03646181
0.00936607
0.00292497
0.01691029
0.00927950
-0.03847662
0.05964384
-0.00939748
0.05538034
0.04975329
-0.02726008
0.06392006
-0.04023555
0.05047392
-0.03452385
0.00000038
0.01374639
0.02363454
0.09957816
0.02746242
0.09145794
0.09548435
-0.06839026
0.04910685
-0.05705237
0.00160748
-0.06342027
-0.05676553
-0.05419681
0.09155733
0.07894235
-0.04687559
-0.04352941
-0.07902257
-0.06617929
0.01414962
-0.05005870
0.00273572
-0.01455605
-0.02811808
-0.03205179
-0.03895340
0.03201160
0.06721894
0.05854836
-0.09682677
0.02548626
-0.12472846
0.03940543
-0.09129923
0.09654140
0.03434794
-0.09075208
-0.02934833
-0.00797753
0.07051830
-0.06290518
-0.04032008
-0.04459493
0.00050339
-0.02224967
0.07708861
0.08142751
0.05083688
0.02339065
0.05956389
-0.03535249
0.05787331
0.07886030
-0.04203601
0.01805421
-0.09450461
-0.07285244
0.04201927
-0.04302076
-0.09374368
0.03237751
0.03595685
-0.01418723
-0.07154839
-0.05496634
0.06657275
0.02487471
-0.09192701
-0.06818934
0.03230058
-0.00628640
-0.04986810
-0.08123925
0.06538604
0.08418286
-0.09072266
-0.00167529
0.01917489
0.03590914
-0.00888393
0.09644677
0.00020243
0.08199696
0.04714001
-0.02466857
-0.00616391
0.08437936
0.06895828
-0.02778699
-0.05126108
-0.01998271
0.07993206
0.04261629
0.07710858
-0.08528462
-0.02707515
-0.07807721
0.01102901
0.00481974
-0.09087393
-0.00115362
0.07950415
-0.08297930
0.05368031
-0.04384811
0.04914002
0.08679174
0.04702980
-0.01416413
0.05066923
0.03037770
0.03292790
0.02618152
-0.05785636
-0.06148365
0.08435937
-0.07174479
0.05939100
0.09502278
0.03354154
-0.08269613
0.06694898
0.00463747
0.05863543
0.09358926
0.07270000
0.09253215
-0.05692010
0.06518071
0.07102738
-0.05611247
-0.09127939
-0.00922683
0.03687375
0.07488788
-0.05757857
-0.08608983
0.04169371
0.06610472
0.04589954
0.00430232
0.08493029
0.10750014
0.00255980
0.05157203
-0.04887347
-0.04001345
0.09651647
0.07161779
0.03531979
-0.07405282
-0.06361173
-0.01391960
-0.04545715
0.10925117
0.03845476
0.07311458
0.01260806
-0.03056869
-0.00314451
-0.02024850
-0.04561843
-0.03926831
0.06772755
0.07281104
-0.03568628
0.06183814
-0.03368007
0.05914062
0.08827810
-0.02951626
0.06341737
0.04487770
0.04793033
-0.03882596
-0.08692214
-0.03789344
0.01867977
-0.07277727
-0.07412979
0.01604644
0.08924354
-0.01537158
-0.02183792
0.01453796
0.04584613
-0.05815031
0.02247180
0.07971768
0.06719194
-0.07987766
-0.04595331
-0.07990509
0.07492744
0.00449842
-0.10005193
0.01571798
0.09699289
-0.05979496
-0.08931019
0.07535891
0.04698653
-0.02513753
-0.02221535
0.07926611
-0.00607441
0.05566870
0.01528758
0.00414207
-0.04452445
0.00661654
0.09578259
-0.05689973
-0.08946124
0.01360972
0.05728197
-0.00401742
0.03064402
0.04295713
0.09311295
-0.02488869
0.08799365
0.03056641
-0.02980102
0.07194312
0.08159739
-0.02848441
-0.04129245
-0.03063450
0.05265542
0.03224933
0.04457978
-0.00189616
0.08459155
0.04103635
0.00196778
-0.09807565
-0.01619467
-0.05895755
-0.01449257
-0.06927109
-0.05045558
-0.01702054
0.02265090
0.07911184
-0.05180623
0.04093355
-0.03156706
-0.00301573
-0.00541211
0.10143608
0.06861739
0.05073774
-0.02029624
-0.03111402
-0.07113095
0.04422510
-0.06644707
0.08629570
0.07698341
-0.06726486
0.09639633
-0.05411043
0.07452018
-0.09152900
-0.04558079
-0.06471266
-0.02920328
0.00032021
0.06330952
0.02096963
0.04341733
-0.03101349
0.06568499
-0.03876707
-0.03275872
0.05345866
0.02050540
0.00687994
0.03926165
-0.06288103
0.07280976
0.07983406
-0.08432838
0.09480138
-0.08099212
0.03413372
0.08291465
0.04469346
0.02742258
-0.02372160
-0.03010065
-0.05234636
0.00713922
0.09103708
0.03894270
0.09679590
0.02159805
0.05944473
-0.06238393
-0.02562020
0.03612180
0.01313549
0.01338099
-0.06387075
0.01048836
-0.06030707
0.09413731
-0.09139463
-0.05208436
0.00606261
0.05060161
-0.01140856
-0.02137820
0.00082496
-0.06187381
0.07103441
-0.09704111
-0.04042250
-0.00960387
0.09808221
0.04391591
0.08690773
-0.03816438
0.01258264
-0.07770642
-0.03476681
-0.06669839
-0.00875107
0.02051778
-0.09862551
-0.00286071
-0.09025581
-0.05310355
0.05842260
-0.02277729
-0.00272990
0.09810166
-0.07850473
-0.05175953
-0.00709161
0.07147857
-0.01167796
-0.03376451
-0.08347532
-0.02242182
-0.08381110
0.04953338
0.07964721
0.00535646
0.04496005
-0.06837240
0.03248314
0.00877090
-0.05351001
-0.04520452
0.00673115
-0.09409584
0.06916023
0.05701742
0.03485370
0.03697323
-0.04854787
-0.05871885
-0.06533881
0.02080162
-0.04474672
-0.01907773
-0.07450764
-0.05780259
-0.07887025
0.00782331
-0.02302701
0.00973211
-0.02543981
0.03941786
-0.06647260
-0.02839132
0.08577514
0.06021739
-0.02442618
-0.06170715
-0.04659631
0.03070521
0.07763217
-0.05205763
0.09044722
0.07987184
-0.09119786
-0.08539502
-0.02936234
-0.07495465
0.02252719
0.02791765
-0.03180996
-0.01727767
0.06046552
0.02824172
-0.06974942
-0.06242205
-0.08174397
-0.02805154
-0.06605552
0.07512982
-0.08682769
0.08739751
0.00749324
0.08045681
0.02964826
-0.03504277
-0.00046051
0.01300879
-0.03106845
0.04091939
0.05171541
0.01162086
0.01353518
0.01426951
0.04715670
-0.07748837
0.02846129
-0.08979524
-0.07414450
-0.02466490
0.03590865
0.06196837
-0.04466036
-0.10049083
0.08256140
-0.06409167
0.01523554
0.02276539
-0.04303138
-0.04259914
0.00639547
0.06951337
0.06215379
-0.06496982
0.09293665
-0.06778205
-0.01142211
-0.01842446
-0.04020227
-0.03028704
0.06786857
0.04731935
-0.01502365
-0.02634955
0.05821908
-0.03567340
-0.02771520
-0.04264119
-0.00239269
-0.02522885
0.05388624
0.01934697
-0.07508666
-0.02344232
0.06248248
0.04786320
0.09425362
0.09352880
-0.09344465
0.09652000
-0.05662626
0.06005445
-0.03183909
-0.08174103
0.08764770
-0.01369653
-0.03490866
-0.03460994
-0.08135272
0.05844688
0.08283935
-0.02245934
0.03760795
0.03842142
0.08380981
-0.05303215
-0.01900636
0.07178499
0.06552168
0.03766848
-0.09520333
-0.05530978
0.05133312
0.09777510
0.01933167
0.03320810
0.02085224
0.07930661
-0.04114385
0.07835072
0.08595251
-0.07446713
-0.02353254
0.02287493
-0.05738752
-0.02932541
0.07724883
-0.01605988
-0.07209595
0.00830280
0.04611564
-0.03142727
0.00455689
0.05324705
-0.00398473
-0.09662181
-0.01638381
-0.09100709
-0.04009527
-0.07792183
-0.09873578
-0.04693976
-0.02426370
0.07111772
0.09321337
0.07212359
0.03234066
0.03024627
-0.02527020
0.02590576
-0.06731837
-0.00838376
-0.07668184
-0.09961470
-0.05918375
-0.07448755
0.03447416
0.04269649
-0.00491488
0.03979486
0.08050913
0.04152481
-0.02064562
0.09976561
0.04284154
0.09780163
-0.02466799
0.05549480
-0.08126373
-0.02178036
0.05414680
0.06317212
-0.09254373
-0.05472290
-0.02671418
-0.07865549
-0.01914957
0.07951797
0.07077107
-0.05791504
-0.09303262
0.05828790
-0.08160992
-0.05944492
-0.04746264
-0.06941116
0.08312564
0.09019725
-0.09430950
0.03404549
0.05706304
-0.02012807
-0.05711237
0.00011188
0.04260562
0.08207449
-0.05255870
-0.04141472
-0.00791672
-0.03596786
0.04993631
-0.00546879
0.09258182
0.02159148
0.02974942
0.00281023
-0.05594784
-0.07639949
0.07362102
0.08057741
-0.02725995
0.08510280
0.03225166
-0.09012355
0.03354687
-0.01750651
-0.05475967
-0.08758542
0.09284752
0.00081722
0.09790542
0.02409969
-0.06533092
0.07202585
-0.04343392
0.08151042
-0.05879492
-0.05715115
-0.08815650
-0.04484253
0.00550044
0.00674331
-0.02395110
-0.03214568
0.00420150
0.07488160
-0.02859261
-0.06331054
-0.09388193
-0.11310554
-0.06521576
-0.10221503
-0.03714189
0.05989649
-0.07625379
0.09586565
-0.05865514
-0.04953247
0.03039151
0.06611296
-0.06052045
0.07984424
-0.02802078
0.10007463
0.03399538
0.02592669
-0.03579280
0.08045603
-0.09554579
-0.00216222
-0.04545439
-0.04468010
0.06027749
0.03152602
-0.00369472
-0.09000683
0.00767623
-0.02048377
-0.08213715
-0.01451829
0.07659897
-0.01995827
0.01403044
-0.08050802
-0.00815499
0.02071828
0.04250102
-0.00872797
0.00397237
0.06029155
0.03057145
-0.00354376
0.04205546
-0.02153506
0.07956500
0.05603737
0.03390578
0.00995763
0.01175637
-0.05668573
-0.05015048
0.00351225
-0.00131911
-0.03005241
0.09626483
-0.02159597
0.01587721
-0.06305131
0.01156119
0.08400559
-0.01013658
0.06628466
0.06755534
-0.03973156
0.05951235
-0.08088032
-0.05687830
0.05475532
0.02914485
0.07989844
-0.06458628
-0.00914027
0.00596502
0.09080595
-0.03418371
-0.09335351
-0.05874186
-0.06719564
0.06160016
0.07916354
0.02183834
0.04916349
-0.05933331
0.02498820
-0.00631752
0.08815562
-0.04987909
0.07365517
0.05919266
0.03194205
-0.03614777
0.02917459
-0.01176866
-0.08089934
0.09806377
-0.03655200
0.11681750
-0.03419397
-0.05239846
-0.07424725
0.07984183
-0.05227035
0.09790339
0.03099739
-0.05626201
-0.07698608
-0.05498067
-0.04918459
0.03472612
0.01834969
-0.06115555
0.07877336
-0.05699056
-0.08236910
-0.07669371
-0.08984214
0.04240343
-0.11309029
-0.02155824
0.06177521
0.03920113
-0.06173824
-0.07788539
0.02159828
-0.02193580
0.08607552
0.01752371
0.04106902
0.00892465
-0.09271814
-0.06880304
0.00881361
0.01693959
-0.04939231
-0.00370028
-0.08897853
-0.00684006
0.07943100
0.00729206
-0.07060350
-0.07708398
-0.05571591
0.02840994
0.00719514
-0.10079416
0.03420252
0.01109888
0.09623843
-0.01834065
0.02402147
0.08589543
0.08790743
-0.00366832
0.06516591
0.07084116
0.09642967
-0.06029308
-0.06434227
-0.01781386
0.01907019
-0.08555608
0.03678595
0.02622026
-0.05140218
0.01628403
-0.07635382
-0.06598735
-0.02392727
-0.09029655
0.02559198
0.05166448
0.04254364
-0.02841377
0.08472477
0.06365251
0.07172836
0.00508024
-0.07146937
-0.06600353
-0.06896212
-0.02771014
-0.06239481
-0.08223203
-0.05777669
0.04090687
-0.06135401
-0.06299121
-0.08321065
-0.05173300
0.09206533
-0.04118803
-0.10095080
-0.09068787
-0.05408484
-0.07789706
-0.00521826
-0.03443500
-0.05031265
-0.03855755
-0.03478583
0.00871864
-0.02805681
0.11214314
0.09017355
-0.06645819
0.05157453
-0.01845901
0.06769999
0.09318684
-0.07230194
0.01439841
0.07221325
-0.01959024
-0.00182740
0.04429216
0.02851131
-0.08715538
-0.06620303
0.01106748
0.03043999
0.02804353
0.02779987
0.04364032
0.08276854
0.08643301
-0.06356133
-0.00505323
-0.01758014
-0.09677888
0.09757870
0.05116840
-0.01241590
-0.08507538
-0.05100337
0.02045113
-0.02526792
0.06847353
0.05831368
0.04107115
-0.03552732
-0.04537885
0.05772041
0.09374927
-0.05221456
-0.09564825
0.06965089
-0.09069277
0.09309847
-0.06750416
0.03848981
0.05931244
-0.08608360
-0.07400976
0.06538399
-0.06904588
0.00440434
0.07922803
0.08836417
-0.00123738
-0.01102344
-0.02510383
0.08077348
-0.09806558
-0.01669107
0.09552809
-0.04258035
-0.04021477
-0.08310125
0.08370924
-0.07359475
-0.05167041
-0.08126654
-0.02625398
0.05452988
0.09470307
0.02832240
-0.04564188
-0.04147039
0.07562603
0.03379521
0.00266889
0.02341388
-0.05591705
-0.10024349
-0.03700058
0.01772807
-0.03347458
-0.06154700
0.06265385
-0.04119497
-0.08748123
0.06467189
0.04623342
0.08595639
-0.01923996
-0.08570048
0.03963241
-0.02427863
0.03676678
-0.05936272
0.00595628
-0.08421579
0.04610376
-0.09430392
0.05999977
-0.03531652
0.02447204
0.04651893
0.00283108
-0.00101529
-0.07768582
-0.00211522
0.01454137
0.09416359
-0.07156831
0.07144312
-0.04332135
0.03749222
-0.05630994
0.05984348
0.07381080
-0.07126533
-0.05276135
-0.07766233
0.04281869
0.01393111
-0.00250294
-0.06045240
0.04975527
-0.04689179
-0.09843110
0.00869931
-0.00799371
0.07783172
0.01635665
0.09071793
-0.01917912
0.02569865
-0.03547211
0.05677302
-0.00670266
-0.07723609
0.01657940
0.02293997
0.07533214
-0.03621540
-0.09145502
-0.01346999
-0.02833181
-0.01574486
0.03727173
0.04321570
-0.07724297
0.00583910
-0.04115592
-0.07267751
-0.04237431
0.03205131
0.04107442
0.03566591
0.09231517
0.01538468
0.01005929
0.07579815
-0.06837212
0.00268732
-0.02572948
-0.07718341
0.03929160
-0.05638011
0.06364936
-0.02959204
0.07950752
0.07627258
-0.00618485
-0.03401141
-0.00930836
0.09596667
-0.08956444
0.04249002
-0.06743072
-0.05744849
-0.05076177
-0.04857190
0.00411981
0.03054021
-0.07353772
-0.08724938
0.00785460
-0.06492800
-0.09346084
0.00679235
-0.08005825
-0.05046038
-0.07305652
-0.02517299
0.09082058
-0.03219575
-0.04503774
-0.08056656
-0.04903234
-0.08392569
-0.06270368
0.07337784
0.07849667
0.02788821
0.09433029
-0.01293289
0.00995927
-0.12177912
-0.00183320
-0.00206183
0.10099926
0.04977327
0.00863567
-0.05823919
-0.00642149
0.07809394
0.00766044
-0.04780379
-0.05427667
-0.06882489
-0.02824895
-0.07246089
-0.07507638
0.03755494
-0.02470815
-0.02701003
0.10221049
-0.00663538
0.07587860
-0.02039100
0.02063769
-0.00615107
-0.06722545
-0.01481741
-0.01731219
0.01142990
-0.03104311
0.09604522
-0.00942430
-0.00294655
-0.04857554
0.09168356
0.07056365
0.06717027
0.00601877
0.07148688
-0.01669552
0.08923487
-0.08212637
0.05452635
-0.05892403
0.08966477
0.06144657
0.03687438
-0.04115033
-0.06076215
-0.05896040
0.07798509
-0.02289398
-0.09759078
-0.04339986
-0.07366414
-0.04436164
0.08186934
-0.09116639
-0.00136618
-0.06342940
-0.02267097
-0.08280080
-0.04316398
0.05631451
-0.09218451
0.06495400
0.07215206
0.03958360
0.03754325
-0.03889368
-0.09867357
0.07871964
0.07297229
-0.05420815
0.05990464
-0.03615252
0.06007445
0.00336632
-0.05582510
0.05038520
0.06565935
0.01827034
-0.06529191
0.09562277
-0.05530957
-0.04555731
-0.00976611
0.09909456
0.07621419
0.01596342
0.14394841
-0.04788830
0.04961019
0.05301985
0.07722271
-0.07439516
-0.01644870
-0.02258637
-0.08750134
-0.01332296
-0.01677634
-0.04387152
0.05184125
0.06295120
0.00530125
0.03901257
0.03386170
0.09258264
0.01336944
-0.09130616
-0.06481124
0.02588625
0.06036555
0.04488753
-0.02918636
-0.09232864
-0.00326851
0.08301577
-0.06811298
0.04768934
0.01087120
0.08507782
-0.02476413
0.02975060
0.00828808
0.08127681
0.00034784
0.07281487
-0.10088013
0.03518505
0.03355893
0.07724830
0.00659767
-0.00464052
-0.05130132
-0.04315106
-0.04423096
0.05356769
0.06993743
0.04159124
0.08912834
-0.07396326
-0.05883811
-0.05787088
0.05031400
-0.00082912
-0.06662770
-0.01056782
0.04950994
0.05180198
-0.07763806
0.04986479
0.09707073
0.02561053
-0.02107302
0.03944542
-0.05667867
0.06304541
0.00539800
0.04681976
0.08452635
0.04649666
0.07267807
0.00561087
-0.03807230
-0.10109451
-0.06584251
0.01499802
-0.00064067
0.00421905
0.02041815
-0.03714531
-0.07316755
-0.01887965
0.02506023
0.09436280
-0.06406684
0.00460992
0.07228508
-0.05275558
-0.05859114
-0.00256993
0.09827549
0.04266869
-0.03726134
-0.03251162
0.08440338
0.06287698
0.11037167
0.04805860
0.11643032
0.04763250
0.06047270
-0.02975988
-0.07515530
-0.08030943
0.06549631
0.02485594
0.07114592
-0.07710308
0.10165258
-0.00784761
0.09291096
0.02119578
0.09775962
-0.02191170
-0.02438028
0.04503534
0.08251007
-0.06276139
0.04727068
0.02803396
-0.01674520
-0.01585585
0.05428442
0.01501789
0.00219584
-0.08182493
-0.07015677
0.02283137
0.04934950
-0.09653037
0.05481752
-0.09939242
0.02278395
-0.04895319
0.03418835
-0.10007794
0.02050123
-0.09901005
-0.01896608
0.01798223
-0.09007736
-0.08848251
0.00312394
-0.03240095
-0.01215249
0.07709248
-0.08182195
0.09513858
-0.07053026
-0.04087367
0.07782982
-0.04458555
-0.09323030
0.04203138
0.03252179
-0.01403631
0.07623842
0.08305395
-0.04529287
-0.08951249
-0.04919342
0.04670481
0.07103707
-0.00839639
-0.07172392
-0.04545388
-0.08185868
0.04736155
-0.05013401
0.06571776
0.03136606
0.06858136
0.01814120
-0.08796329
-0.02979217
0.02222581
0.02119370
0.02798870
-0.03051538
-0.06680120
0.06696403
0.01348455
0.06714893
-0.02269352
0.00831921
0.05572511
-0.00997418
-0.03089741
0.13035687
-0.03940569
-0.00997174
-0.00493004
-0.03588743
0.07446191
0.01600805
-0.02510025
-0.01754667
-0.03725013
-0.04352660
-0.08801009
0.09151476
0.02715169
0.04234731
-0.12081433
-0.12049887
0.03791609
0.03083186
0.08911372
-0.05527187
0.07862835
0.03385893
-0.02072293
-0.00327728
0.09417990
0.08000704
0.04181232
0.01594993
-0.03152923
0.02110192
0.00626315
-0.03066319
0.07886815
-0.05234754
-0.07844264
0.07835905
-0.07509702
0.02248518
-0.01305542
0.00155730
0.01592656
0.02878657
0.09170329
-0.02030430
-0.03543856
0.07793348
-0.04861821
0.05078395
0.03605718
-0.07953660
-0.01530891
-0.02812351
-0.01404869
0.03950272
0.02328839
0.05819751
-0.06350934
0.03927421
0.06058635
-0.03457984
0.03563247
-0.07449017
0.07319735
0.03585247
0.03290759
0.07155020
-0.00390252
0.07182934
0.06209314
-0.04758959
-0.07219895
0.04688801
-0.05467459
0.02343271
-0.03050086
0.00328569
0.01227363
0.04930885
-0.04357101
0.02142690
-0.02883600
-0.09100300
0.05073094
-0.10571774
-0.03199611
-0.01219537
-0.04142351
-0.14314105
-0.08401472
0.02572273
-0.03422127
-0.05971595
-0.11040018
-0.05116030
-0.00881618
-0.08733811
0.01253081
-0.12068244
-0.09977888
-0.10910245
0.07648186
-0.11698445
-0.12016107
-0.02261025
-0.01997953
-0.02600573
-0.04772182
0.02116986
-0.01332898
-0.01232999
-0.04674511
-0.02697492
-0.02366192
-0.04443600
0.00435882
-0.01403195
0.05661503
-0.04258067
0.06539489
-0.07483465
0.02123025
0.05903935
-0.10382910
0.08732425
-0.04799261
-0.01264246
0.02518021
0.04659338
0.04910164
0.01965430
0.01752822
0.03460290
-0.05147989
-0.03539984
-0.05223936
-0.04633329
0.04051040
-0.08255082
0.01060710
-0.02878120
0.03064800
-0.06750669
-0.04613152
-0.03588802
-0.04527949
0.08453008
-0.02321702
0.07602584
-0.06983051
0.07185025
-0.08449573
-0.03916732
-0.04351053
-0.01370432
0.07883664
0.00793756
-0.07382193
0.00404133
0.02353459
-0.05193710
0.04184604
0.05049336
0.06174218
-0.04956500
0.08314013
-0.08025333
-0.05689934
-0.04828812
-0.07942330
-0.08952271
-0.04158682
-0.07516101
0.08162893
-0.00447309
0.05551454
0.07197900
0.05468678
-0.00807012
0.05665525
-0.06060840
-0.07182508
0.03999357
-0.12052534
-0.10767741
0.02083931
-0.00773324
-0.06712558
0.05891089
0.04461616
0.03671137
0.10634286
0.08725290
0.11960804
-0.04240269
0.10955274
-0.01719729
-0.04323525
0.06987181
-0.07063125
-0.00786988
0.11558821
0.12369354
-0.03865923
0.16056626
0.05951431
0.12461258
-0.03736146
0.02409500
0.01162622
-0.01591193
-0.09212784
-0.10629107
-0.04006744
0.04779209
0.01928528
0.04040005
-0.04167555
-0.03128277
-0.05586118
-0.05889083
0.02481897
0.06385563
-0.10637060
-0.01868141
-0.07251223
0.04592909
-0.06897275
0.05795147
-0.10064535
-0.04401667
-0.05098891
-0.00000246
0.09576588
0.00740132
-0.04989041
-0.09955865
0.00404916
0.02219186
0.03281108
-0.00853898
-0.09703228
-0.07075485
0.02789886
0.07950603
0.03081844
-0.03252035
-0.02623028
-0.07241480
-0.09318285
0.01457688
-0.05087280
0.00227066
0.04347710
0.07298949
0.00228347
-0.09182442
0.02098510
0.03447326
0.09081913
-0.04279144
-0.07830561
-0.06055948
-0.05493088
0.07184860
0.09378857
-0.07702771
-0.00400184
-0.08830895
0.07320632
-0.09706166
-0.06546001
-0.10082946
0.08470701
-0.04911781
0.04084000
-0.03971726
0.04240059
-0.01489097
-0.06550609
-0.05762233
0.03651841
0.02324817
-0.04501129
0.12439145
-0.04699684
0.03787704
0.02232424
0.04233196
-0.05948566
-0.05249202
-0.04187567
0.01125928
0.05996790
-0.17385580
-0.04784456
-0.14086873
0.01283099
-0.04497889
0.05753202
-0.03007410
-0.03576551
-0.00749940
-0.11226193
-0.09319180
-0.02149450
-0.02504777
0.14881759
0.02649579
0.08486077
0.08598900
0.06788723
0.03664824
-0.09801642
-0.05731605
-0.10645384
-0.10068684
-0.08300061
-0.09898363
-0.07254919
-0.08860778
0.08177911
0.07221704
0.07466966
0.05779587
0.00858385
-0.01523965
0.08063777
0.01563713
0.06098780
0.00893961
0.01365113
-0.02727366
-0.04038880
-0.04232316
0.02490945
0.03620866
0.02324142
0.07471939
-0.05997587
-0.06549244
-0.08414970
0.02589154
-0.00240624
0.01095390
-0.07054186
-0.03238452
-0.09166384
-0.05536725
0.02411090
0.09486120
-0.00499178
0.01940622
-0.03404332
-0.06798317
0.06793242
0.10286679
-0.09700483
-0.07548815
-0.08549221
0.06990330
0.06011209
-0.07511444
0.00859533
0.05683311
0.08674907
0.09576704
0.08725391
-0.09458809
-0.05370087
-0.02238687
0.00419324
-0.01333951
0.05469229
-0.07924579
0.09501205
0.10452472
0.12351671
0.06504221
-0.03195694
0.05145992
0.06832847
-0.04448755
0.11204040
0.05652608
0.03195387
0.03291680
-0.00778192
-0.01997669
-0.01222504
-0.01430726
0.09938411
0.03829170
-0.05119945
0.02291297
0.01394051
0.04136891
-0.00861706
0.08639694
0.01543461
0.05245321
0.05314878
-0.03618756
-0.06551290
-0.00085520
-0.04609216
-0.05841377
0.04310620
-0.05243670
0.02141201
-0.04644126
0.06157938
-0.05651670
-0.00715723
0.06330887
-0.07799067
-0.07146852
0.02214011
0.06289907
0.07706870
-0.01635677
-0.02039583
-0.00123155
0.07783115
-0.09046365
0.00018925
-0.08570294
0.03712803
-0.04160873
0.06742756
0.03106492
0.05975288
-0.03025924
0.02301967
-0.02485825
0.00633304
0.04000681
-0.09187759
0.07362444
0.09328330
0.06917644
0.06567364
0.08169891
0.05008765
0.03934798
-0.03481464
0.01882299
-0.00165267
0.08946057
-0.06129962
-0.06373687
0.08122793
-0.08229037
0.01298792
-0.02255083
0.05819598
0.04399379
-0.07921428
-0.08626921
-0.08796141
0.03564343
0.10116421
0.05768283
-0.01551345
0.05578591
0.07331879
-0.07282523
0.05953313
-0.04675626
0.07017513
-0.00410040
0.00576086
-0.09382541
0.06418048
0.11957046
0.09132714
0.00423035
-0.10894025
-0.02434389
-0.12290573
-0.12031585
0.03376643
-0.14974523
0.05849378
0.03328635
-0.03065379
-0.03458923
0.01682719
0.06092749
-0.06814585
0.02569581
0.07940722
0.09920934
0.10602338
0.02368478
-0.05643033
-0.03321709
-0.05104287
-0.10274651
-0.07322372
-0.01907348
0.08385720
-0.06707984
-0.05444713
0.08777546
0.06240087
-0.01061652
-0.08244147
0.07615995
0.06296006
0.09672670
-0.00952738
-0.01577403
0.05788200
-0.04434993
-0.00693441
-0.04530719
0.04057143
-0.03093397
0.04808737
0.07096412
0.01825909
-0.02109929
0.08844609
0.04869688
-0.09168360
-0.07343180
0.07630782
-0.09010427
0.05294807
0.07494780
0.00529270
-0.02877346
-0.10110944
-0.01848005
-0.10174753
0.03180875
0.07514899
0.04599327
-0.10137571
-0.08646461
-0.01319972
-0.05358878
-0.07500462
0.04310723
0.01779990
0.07739731
0.09834771
-0.03336252
-0.02779641
-0.09125495
0.09423752
-0.07292171
0.07792479
-0.06267484
0.04118753
-0.00995765
-0.06871424
0.00305780
-0.02194880
-0.07018855
-0.07879079
0.08242368
0.05947958
-0.01596350
-0.05563977
0.06878664
-0.06053365
0.13041903
-0.01716618
-0.03924932
0.02925137
-0.01788476
0.11527983
0.06150756
0.04699156
0.07265321
-0.03524014
0.10717598
-0.08211274
-0.02136494
-0.07867101
0.01265340
-0.02791607
0.04790949
0.03798830
0.01702449
0.09540175
-0.00177650
-0.09026536
0.00214091
-0.02910276
-0.06606414
0.09590148
-0.11918997
-0.11320500
0.00170142
-0.01610961
-0.02821603
0.08186524
-0.06054630
0.00184382
-0.03006143
-0.02011875
0.01565493
-0.07716495
0.02222204
0.07111138
-0.02732463
0.04394512
-0.09108650
0.02280066
0.03474514
-0.05397980
-0.08073552
-0.10095718
-0.07893565
0.07645940
0.06405805
0.09658825
0.06511256
0.09258224
0.02446053
0.05010160
0.09246355
0.03065113
0.01970225
0.00110870
-0.08358598
0.07306456
0.07430423
0.04651509
-0.04274607
0.03730098
-0.08221157
-0.09971331
-0.01098219
-0.04414791
0.02454527
0.04483811
-0.07894370
0.00674648
-0.03674356
-0.03653024
0.10040233
0.02825762
0.09110180
0.06800732
0.05974781
0.00617545
-0.01768875
-0.01884851
-0.05653704
-0.02924707
0.03511372
0.07233866
-0.06535791
0.02524689
-0.02149403
0.08347342
-0.07486688
0.05070165
0.05393447
0.09160411
0.01253136
0.02497698
-0.07539991
-0.00392039
0.08414295
0.13078708
-0.06209505
-0.00307032
0.06347988
0.08145314
-0.04480525
0.03479673
-0.04512109
0.13588851
-0.01113399
0.06717515
0.04540929
0.00219050
0.01746004
-0.03252989
-0.05520646
0.05124510
-0.02933924
0.05844591
0.07172631
0.05843433
-0.11571498
0.04129621
-0.00864501
0.05133417
-0.00635493
-0.00111889
-0.02625836
-0.08018865
-0.09161416
-0.01005995
0.01673446
0.04058376
0.04068791
0.05734937
-0.00457278
0.05927738
0.08427363
-0.03420914
-0.05895472
-0.11172036
0.08483920
0.06674444
-0.05142170
0.06767940
0.03159086
-0.01775220
0.06597386
0.05131435
0.03967946
-0.01495699
0.04413420
0.01356195
0.00303824
-0.03734704
0.00361516
-0.05829934
-0.05523894
-0.02248407
-0.00141718
-0.06147230
-0.05437860
0.03190905
-0.05010480
-0.08487028
-0.01375854
0.05623280
-0.05954061
-0.04677897
-0.08034512
0.00994447
0.07203697
0.09516473
-0.09846059
0.04813054
0.06975140
-0.02618715
0.06875791
-0.03385733
0.08748664
0.08774890
0.03213885
0.08833650
0.03672638
-0.06087365
0.03249093
0.03232736
-0.02088757
0.04223369
0.04508252
0.11006756
0.02658210
-0.04205726
0.03287182
0.01300590
0.04416804
-0.09239922
0.05603091
-0.01534586
0.02923269
-0.04604990
-0.06276112
0.00353012
-0.03707759
-0.01441912
-0.08271693
-0.06048161
0.05060765
0.06126018
-0.02901404
0.07974480
0.02728693
0.05880870
0.09920027
-0.03819807
0.02732216
0.03470719
-0.03758485
0.01134251
0.05988712
-0.05639377
-0.01036710
0.00682828
0.02708420
0.04526801
-0.01370896
-0.09406999
0.03184198
-0.02547400
0.00455930
0.02798433
0.05857389
0.06451955
0.07164613
-0.08616255
0.05768570
-0.09754693
0.03891104
-0.03402195
-0.09067394
0.07429211
0.09812656
0.01952513
-0.03195335
0.09065758
0.02077638
0.01580362
-0.10016721
-0.03501371
0.03563553
-0.01252639
-0.09905762
0.05465249
-0.03636555
-0.02704510
0.00201495
-0.07062619
0.03307405
-0.05130075
0.03248953
0.04720613
-0.04829849
0.09713371
-0.05874028
0.05577489
0.06573491
0.00057469
0.00533572
0.03688954
-0.02249596
-0.10251611
-0.01160692
-0.00070301
-0.06231793
-0.02490391
0.01708432
-0.08516415
-0.09565292
0.06982628
-0.09245570
0.06546978
-0.08835077
0.02003938
0.07508398
0.09715656
-0.04517269
-0.06476859
-0.02744273
0.01032596
-0.00812264
0.10141268
0.04805544
-0.03530908
0.09241444
-0.04704147
0.07814377
0.06589586
-0.08231591
-0.05813721
-0.04159933
0.03634635
0.08346044
-0.01586838
0.05703047
-0.03225069
-0.01968348
0.06495678
0.04425486
-0.08981307
-0.00726370
-0.03815544
0.03302554
0.00081370
0.04522685
0.00731180
0.01585296
0.00368064
0.06979446
0.06091547
-0.02454389
-0.00551150
-0.06027332
-0.06537756
-0.07355275
-0.06340859
-0.04849807
-0.08501538
-0.04870092
0.03328025
-0.08191032
-0.08528988
-0.05401204
0.05400881
0.04091217
-0.10336618
0.03165705
0.02981465
-0.04122875
0.08168180
-0.07819467
-0.02056311
-0.07164400
-0.06864794
-0.06379790
0.01737793
0.01406537
-0.01346054
-0.00380531
-0.06789831
0.00749194
0.03977586
0.01983389
-0.08513421
0.06037235
-0.04523469
0.05736942
0.02189349
-0.02731157
-0.06118675
0.00949799
-0.02411257
0.05641542
0.01437444
0.07577266
0.01767678
-0.06697195
0.09174836
-0.08129831
-0.09518222
0.08202880
0.05146881
0.08237977
-0.00856447
-0.04220715
-0.00356425
0.00475802
-0.09404711
0.04229443
-0.00251011
-0.06061152
0.05871698
-0.09824093
-0.00883936
-0.08590502
0.04955516
-0.00748704
-0.08862936
0.01735512
-0.02515537
0.00918213
0.05083909
0.05888530
0.03501012
-0.05680658
-0.04991987
0.02527102
0.00297066
-0.00775597
-0.01414447
0.02270758
0.01943623
0.03120706
0.05516600
0.00083594
-0.08854744
-0.02098681
-0.03485748
-0.06698981
0.03926040
-0.06005185
-0.01393894
-0.07668540
0.05544013
-0.07585394
-0.09030990
-0.08727386
0.06091853
0.02104655
0.00681722
0.05727215
-0.04670007
-0.06891062
-0.06836871
-0.08245086
0.08592042
0.03609173
0.05502857
-0.03383363
-0.04386934
0.02699724
-0.09880743
-0.03988599
-0.04938890
0.04838609
-0.02507201
-0.02803082
-0.07989925
0.05316764
-0.08882459
0.06441990
0.04272248
0.04627283
-0.05539867
-0.02522382
-0.05215228
0.00611426
-0.08313487
-0.09900286
0.06157885
0.04453716
-0.06713969
-0.07476980
-0.01064385
0.00781290
0.07527798
-0.02540432
0.01432402
-0.01052755
0.01930160
-0.08853582
0.02560094
0.01717890
0.08823778
-0.04551390
0.04364612
-0.04082375
0.10060658
0.04640009
0.04283393
0.04687083
0.06394991
0.07279615
-0.02243850
-0.03308771
0.01794263
-0.00338151
-0.07155981
0.06083039
-0.03894278
0.03054809
0.06300959
-0.05364083
0.06289367
-0.02264526
0.05871125
0.05308415
-0.00062367
0.05710180
-0.00710896
-0.01094260
-0.04674546
-0.03200565
-0.06965443
-0.05643439
-0.04476939
0.05647438
0.04350939
-0.06471308
0.06444134
-0.09048233
0.07692180
0.08108662
0.05281156
0.01840409
-0.06797639
0.00891992
0.04631659
-0.04733945
0.00498911
0.00287238
0.08455162
0.07735929
0.01675546
0.00405415
0.04146350
0.09742112
-0.07854917
-0.00892460
-0.06173657
-0.09639223
-0.00203985
0.00125254
0.01684950
0.09277254
0.02338110
0.05812426
0.08545713
-0.00435045
-0.01616900
0.07430433
0.09345013
-0.07263272
0.04004105
-0.05118448
0.02765246
-0.03770247
0.02851617
-0.09740618
0.01842530
0.02484173
0.01593977
0.03814820
0.08710586
0.02875294
-0.01558335
-0.07485382
0.05113658
0.00757794
-0.06885023
0.03169589
-0.08993013
0.09117179
-0.05731054
0.09414070
0.04113380
-0.01761327
-0.06739870
-0.01922207
-0.12464463
0.08059850
0.06030764
0.09188733
0.01527954
-0.05051421
-0.03785901
-0.03444769
0.01566355
-0.01071292
0.07766788
0.00795048
-0.06330596
0.05258984
-0.01598759
0.05603789
-0.07769033
0.04529852
0.02685488
-0.02888322
-0.00689287
0.06034814
-0.03341734
-0.09574929
0.04888732
0.05038637
0.04104842
-0.00082576
-0.01085434
0.00712735
0.04603785
0.07655526
-0.04497877
0.05089127
-0.00072465
-0.05775128
0.07767707
-0.08027125
-0.02236200
0.11040226
-0.08245756
0.04439743
0.01205914
-0.01253040
0.00134094
0.06101734
-0.09240374
-0.04042630
-0.09080468
-0.00239058
-0.00732141
-0.10059128
0.08265042
-0.06740230
-0.08363841
0.05764614
-0.03371715
-0.09500949
-0.03401396
-0.00439979
-0.02055374
0.06022330
-0.02331331
-0.00641452
-0.03396235
0.08012168
0.08549311
-0.12539903
-0.09729009
-0.11371278
-0.02087419
-0.07574135
-0.03661627
0.09668396
0.08854057
-0.07886771
-0.02343745
0.01025773
0.10410133
0.02662909
-0.01448468
0.05956401
0.00736121
0.08544414
-0.06832469
-0.09230332
0.01991163
0.00471339
-0.03286602
-0.09317910
-0.05478466
0.04233274
0.00062799
-0.07802914
-0.05829140
0.00164846
0.03217030
-0.03084056
0.08234963
0.05463924
-0.05439959
-0.09785081
0.04171243
-0.04848486
0.06732830
0.02950743
-0.09545672
-0.04525808
-0.05508322
-0.08474644
-0.05263181
-0.08396860
-0.08461539
0.08896771
-0.00093670
0.08128371
-0.04208038
0.03762575
0.02439616
0.00571282
0.00724064
-0.09402203
0.00192034
-0.07670713
-0.06401379
-0.00150786
-0.02493805
-0.05807636
0.00965151
0.02669237
0.03568403
0.01788289
-0.06908749
0.04583538
0.12111545
-0.01969633
-0.08789741
-0.06624575
0.04203627
-0.05104486
-0.06363250
-0.01442673
0.02769619
-0.06973548
0.07278179
-0.00424517
0.01220058
0.08746380
0.03487495
-0.04422085
-0.02398389
-0.02363966
0.09362936
0.02110412
0.00129195
0.00214572
-0.01086921
-0.00338130
0.04382910
0.01028887
-0.00225384
-0.06753607
-0.07328538
-0.09511341
-0.01772342
-0.10364159
-0.06249366
0.07290131
0.09180528
0.02834792
0.02016672
0.09288440
0.00873391
-0.11075373
-0.01170682
-0.07029442
-0.00865166
0.00392594
-0.01231643
-0.07226084
-0.03083804
0.06478213
0.09516320
0.07251663
0.02666521
0.03566761
0.04306445
-0.02495888
0.03507906
-0.01463902
-0.09011530
-0.03174249
-0.00401719
0.08702150
0.10312506
-0.01615631
-0.07281099
0.08776459
-0.02098657
-0.04252945
-0.05434110
-0.02292422
0.01465081
-0.07537924
0.05976483
0.10900255
0.07357881
-0.03610164
-0.06487402
-0.07977825
0.03061639
-0.09106246
-0.08604141
0.05705933
0.03952696
0.05489368
0.02805471
-0.00254056
-0.04860841
-0.08990517
0.09146711
0.08101272
-0.09168764
-0.07864743
-0.01809120
0.05575397
0.02550483
0.04346993
0.03136138
-0.00057025
-0.09871003
-0.02932654
0.01436607
0.00036949
-0.03514094
-0.10268178
0.05480396
-0.01534135
-0.01140661
0.03838132
0.02182045
-0.05204037
0.03582600
-0.07861916
-0.02841011
-0.07878139
0.02320350
0.09166992
0.01512559
-0.00346026
-0.17917899
-0.01127839
-0.06537784
0.06636635
-0.08862471
0.03858777
0.06740558
-0.06881826
0.04243269
-0.07611279
-0.15585550
-0.13695588
0.06052972
0.09339809
-0.05445645
-0.03318911
0.08743395
-0.02652775
-0.02209407
-0.05196080
0.10063146
0.08827958
0.02171865
0.11878741
0.09542142
-0.04356682
0.00272904
-0.02890486
0.03869927
0.00776577
0.07326886
-0.02513841
0.09555367
0.00075639
0.01056163
0.01077259
0.01399368
-0.05044940
-0.03537943
0.02647893
0.02645367
-0.03653214
0.04119663
-0.06391338
0.01241264
-0.00799980
-0.03715417
-0.07019074
-0.06495364
0.05533617
-0.07294604
0.03965876
-0.03736490
-0.05187482
0.02753025
-0.02941508
-0.00744894
-0.08695361
-0.09105570
-0.02303230
0.08464626
-0.01113728
-0.03974097
-0.02169671
-0.05836172
-0.04555694
-0.03608101
0.06568872
-0.07247370
-0.01344018
0.04556196
0.09327876
-0.08292725
0.03550404
0.02949195
-0.08936851
-0.05891815
0.05825680
0.09020360
0.07652234
-0.01558582
0.05994173
-0.05277537
-0.10393356
0.08038506
-0.07842070
-0.05667119
-0.04946538
-0.05690969
0.01765450
-0.07660407
0.05289506
-0.08604905
-0.06075441
0.02550613
-0.06389491
0.00937052
-0.01389876
-0.04575705
-0.03370560
-0.00328219
-0.05455543
-0.12363901
-0.12228477
0.06271576
-0.18503350
-0.16785299
-0.01718833
0.05164283
-0.06665662
0.05728739
-0.04120922
0.10635062
0.02028946
0.04421034
-0.00617582
-0.04024372
0.04081884
-0.07452509
-0.08289979
-0.07832105
0.03194297
-0.03593414
0.09711476
-0.01634510
-0.07209238
0.06502892
0.11509592
-0.05614294
-0.08718092
0.09088700
0.08976625
0.03921647
0.04809446
-0.04215002
-0.02118974
0.09458809
-0.02027367
-0.06511012
-0.01110022
0.01302745
-0.04997409
-0.04969387
-0.02294935
0.02523828
0.01506898
-0.12321000
0.03538298
0.01898336
0.00030352
-0.03551000
0.08336134
-0.06330671
0.08525364
-0.00520553
-0.06388114
-0.03597159
0.01521648
0.07940932
0.06008390
-0.05186640
-0.10403673
-0.01653674
-0.02980593
0.04132305
-0.01707493
-0.04659823
-0.08313853
-0.02665922
0.00345885
-0.07427706
0.04692747
-0.10001036
-0.00116809
-0.00244813
-0.02112903
0.02313971
-0.06820230
0.02287049
0.08833046
-0.05074629
-0.01965445
0.05162342
0.02598519
0.03103459
-0.08249866
-0.08165010
-0.09094804
0.09738193
-0.09084325
0.03067031
0.07428524
-0.03372475
-0.08250484
0.09716258
-0.03467904
0.00062276
-0.10851417
0.01863504
0.05008688
-0.00516815
-0.09605898
-0.02971619
-0.11934659
0.05091746
-0.08769299
-0.02709513
-0.07861589
0.08747593
-0.05506898
0.00809277
-0.08000218
-0.00443432
0.09840496
-0.07962286
0.04376992
-0.02829583
-0.08528316
-0.05662643
0.01242081
-0.00479114
-0.02002985
0.08425319
0.06672275
0.07624514
-0.07643952
0.05202665
-0.06429364
-0.05966479
0.02579969
-0.07777337
0.03451255
0.09819314
0.11164316
0.07179275
0.13266045
0.02267315
-0.00914042
0.06320512
0.11573079
-0.03939793
-0.03902233
-0.03031151
-0.00712404
-0.05552557
0.07260725
-0.04418591
0.00979407
-0.06819505
-0.03562951
0.03884984
0.08289485
0.06043186
0.04407677
0.04957805
0.04126487
0.05251272
0.03894331
0.04606936
0.05051328
0.09755727
-0.11513202
-0.07187701
0.05133277
-0.02285685
-0.00308689
-0.09987437
0.03342753
0.03272309
-0.00644065
0.10729219
-0.03381599
-0.02246254
0.03632313
-0.06527446
-0.00774783
0.04592499
-0.01570975
0.07818609
0.04546626
-0.03972526
0.01686900
0.00277034
-0.03936826
-0.08639559
-0.06855812
-0.01193278
-0.04805892
-0.01686686
0.06780675
0.00721868
-0.09591622
-0.03864913
-0.03274384
0.04851792
-0.05106521
0.00128100
0.02954752
-0.07378199
0.02974042
0.09482376
0.01329462
-0.04021650
-0.04469276
0.06986642
-0.10005833
0.03058535
0.09646560
0.07724560
0.01460721
0.09286416
0.08480414
0.01854661
-0.03317988
-0.06923653
0.00041299
-0.07424585
0.02966592
0.00479084
0.04165041
0.00063033
0.09143064
0.10412316
-0.01816880
-0.07377522
0.10516292
0.04061883
-0.04765466
-0.05734340
0.03518524
0.05598992
-0.08386051
0.03938435
-0.05102449
0.04931849
-0.03630148
-0.04315503
-0.18152720
-0.04650791
0.01503508
-0.07918771
-0.05225631
0.05216725
0.01750854
0.01470820
-0.00164338
0.03057720
0.10593284
0.03948593
0.05593040
-0.05929989
0.00766069
-0.03723320
0.08017169
0.07169073
0.01686720
-0.06810860
0.09363957
-0.06970160
0.02295759
0.16226081
-0.01092077
0.01445164
-0.03761378
-0.07527116
-0.17022512
0.08330661
-0.04365887
0.09869656
-0.03268316
-0.09135279
0.01176813
-0.04817142
0.02613932
-0.01166182
-0.09606412
-0.03358430
0.03758724
0.01752326
-0.03708120
-0.01506115
0.08730835
0.08621517
-0.06529577
-0.02363265
0.00102786
-0.09493736
0.00738181
-0.03718968
0.03317906
-0.16159232
-0.06607952
-0.04236195
0.10257434
-0.07490613
-0.00180499
-0.01591856
-0.03980489
-0.02790696
0.03995257
-0.03593381
-0.00471906
0.10025642
0.07725373
0.06540392
0.03487876
-0.02569257
0.00343500
-0.05920508
-0.03667009
0.06267591
0.03530888
0.06752249
0.10972243
0.00052474
0.02863004
-0.00379333
0.04497851
-0.04834794
0.07624050
-0.07914044
-0.06397492
0.07636793
0.00962044
-0.02232260
0.09179168
-0.05836329
-0.03587766
-0.01426510
0.06913308
0.12427263
0.05191377
0.04108741
0.01769502
-0.06102843
0.01816267
0.07684711
0.05127033
0.07421116
0.02541107
0.00757088
-0.06153809
0.10428595
0.02771708
-0.07384629
0.02741919
-0.02722518
-0.02394559
-0.08078422
-0.00935246
-0.04395103
-0.02815050
0.08843129
0.03405748
0.01308505
0.08128371
-0.00053800
-0.01532930
-0.00739982
-0.04818594
0.03218747
-0.11326223
0.00753550
0.05281873
-0.07615134
-0.03256515
-0.04482604
-0.07215764
0.10014945
0.02049086
-0.00664164
-0.01211744
0.02176945
-0.07135041
0.01083124
-0.09003558
0.01571573
0.00779933
0.05474027
-0.09163501
-0.04849460
-0.06458149
0.01946262
-0.03814097
-0.06331367
-0.07047417
-0.15153182
0.00737528
-0.03648696
-0.00817158
0.04853203
-0.04705536
-0.07181006
0.08483387
-0.01786456
-0.02778368
-0.00878398
0.06772925
-0.05077929
-0.07864807
0.05516888
0.01643850
0.09890570
0.01484333
0.06383294
0.02081738
-0.03555917
-0.01010883
-0.06703363
0.00565509
-0.03710065
0.07879717
0.07221448
-0.04940650
0.02945099
0.08311974
0.08834227
0.08151558
-0.07231852
0.02548482
-0.04729547
-0.02953938
-0.04156162
0.05358639
-0.08757249
0.06838231
-0.01420045
-0.06523610
-0.08252244
0.00638501
0.07394331
0.08461184
0.06450281
0.05559138
-0.01547483
0.08804950
0.05983015
0.06081553
0.03801452
0.04611779
0.04269310
0.01340789
-0.06409856
0.08424292
-0.04302500
-0.06058206
-0.09306136
-0.02932639
0.07088923
0.02476563
0.00633993
-0.01366886
0.04359600
0.06362042
0.04812944
0.01981661
-0.04894989
0.10432271
0.02394411
0.09652888
-0.04352913
-0.06253022
0.07753295
0.04022675
0.00230268
-0.09173371
-0.09141463
0.05586505
0.09637330
-0.03759131
0.09829206
0.09127980
0.08441974
0.00818168
-0.00156826
0.02213479
-0.06938658
-0.02412080
-0.09522439
-0.06629952
-0.09110287
-0.03205498
-0.07788978
0.07089515
0.10179620
-0.08519996
-0.09247809
-0.01206513
-0.08753399
0.06955282
0.02473608
0.05434337
-0.04811041
0.05289465
-0.02620061
0.06620684
0.06931752
0.06971678
-0.07285587
-0.05211947
-0.00953839
0.02826189
0.07699201
0.08576554
0.06240017
0.07848761
-0.06904191
-0.01355874
-0.01905115
-0.08249364
0.08224221
0.05635877
0.01793599
0.02407786
0.06034083
0.05232006
0.03624868
-0.08181550
-0.08275168
0.04701585
-0.01113604
0.06092722
-0.07771278
0.07531614
0.03996319
0.04479203
0.00093167
0.03519817
-0.01757784
0.02888745
-0.07781537
-0.03830920
0.00246485
-0.09836594
0.03743895
0.00434071
0.01086891
0.01711305
-0.05430251
-0.04442286
0.07341437
-0.00294941
-0.03811824
0.00933040
0.01471992
-0.01005414
-0.03685022
0.06487353
-0.07562479
-0.06767830
-0.00461412
-0.07826111
-0.05838776
0.06644882
-0.06146271
0.02094787
-0.03817957
0.05511426
0.09016820
-0.07368506
0.00138326
-0.06386066
-0.00114162
-0.01193936
0.07859134
-0.08138161
0.07398914
0.04875633
0.06049516
0.03308246
0.09886962
0.09378480
0.08587295
-0.09993259
0.01850373
0.07883560
0.09141244
-0.05893950
-0.01311057
-0.03774024
0.06883428
-0.07350570
-0.08079981
0.01206275
0.04546194
0.07159015
-0.05893046
-0.01143262
-0.01013802
0.02113328
-0.09059027
-0.09532755
-0.01143141
0.00172856
-0.04223848
0.04902328
-0.06076421
0.06062845
0.02763619
-0.08690500
0.01096121
-0.05427465
-0.02747267
-0.03525538
-0.05042666
0.02060651
0.01758208
0.03476844
-0.00766574
-0.07978685
-0.02307779
0.00741259
0.07580405
0.02019389
-0.09535440
-0.05356428
-0.00624613
-0.00881008
-0.06088757
0.07796955
-0.02087356
0.09151411
-0.02266549
0.06438289
-0.00614943
-0.03624675
-0.06440826
-0.02170322
0.08364664
0.09825170
-0.09774707
0.09767384
-0.03219289
-0.05977802
-0.01657282
0.01578634
-0.02140269
-0.04609530
-0.07862535
-0.08924262
-0.04796864
0.05078908
0.02817251
0.05947996
-0.04875499
0.07720878
0.02173432
-0.08106905
-0.03275620
0.05418903
-0.00659360
-0.01721492
-0.00490588
-0.06805300
0.05490794
-0.07047343
0.07660517
0.05186354
0.08269239
0.01543701
-0.08662925
-0.02026036
0.02520179
0.07961442
-0.03385264
-0.03740758
0.09314547
-0.01379247
0.06368574
0.02930424
0.03731858
-0.03612681
-0.00869615
-0.03549244
-0.04247895
-0.03544560
0.06615087
-0.02268297
0.03626024
0.05059537
-0.03586948
-0.00992640
-0.07805705
-0.02714541
-0.04821361
0.03856758
-0.00525308
0.05636269
-0.09832523
-0.03309384
0.05095332
-0.00212994
0.01676610
-0.05443303
-0.09583585
-0.09956649
0.00891833
0.06306341
0.12188573
0.13577905
0.09029102
0.14966048
0.11220533
-0.00920569
-0.01746247
-0.09403301
-0.02767946
-0.07105080
0.04387049
-0.07387786
0.10141235
-0.06887330
-0.03481286
0.10126243
0.04728521
0.08638784
0.00042172
-0.04193020
0.07863833
0.05532695
0.07780872
0.00692841
-0.03083987
-0.08709113
0.00285997
0.07453936
-0.07674253
0.09189903
-0.07021223
-0.05930270
0.09693944
0.04119134
-0.00857088
-0.09259593
0.09204243
0.03788942
0.05476535
0.09412300
-0.09850425
0.03919139
-0.05522438
-0.07354498
-0.04590204
-0.07797595
-0.08153597
0.05824288
0.03678775
-0.05063659
0.06918260
0.01915822
0.00842401
-0.09208889
0.02838793
0.02842439
-0.09693102
-0.07802752
0.06646340
-0.02421301
-0.05485794
-0.00306186
0.01338393
-0.02909162
0.00283313
-0.02247842
-0.09817671
-0.09011652
0.08408059
-0.09588650
-0.09391636
-0.09088719
-0.03639371
-0.05558347
-0.04903044
0.00194787
-0.02459990
-0.06736753
0.07396318
-0.05791804
0.04291066
0.04287581
-0.09335269
0.08478112
-0.01803123
-0.02418525
0.09838815
0.06302230
0.00338271
0.02607166
-0.05333518
0.06718854
-0.01032933
0.03219458
0.01196836
-0.03215311
0.04937311
0.11677257
0.06851683
0.00450127
-0.00445986
-0.01922362
0.03459516
0.07058265
0.06857377
0.03409900
0.09279650
0.12392808
-0.06469748
-0.05614504
0.03199138
0.08642277
0.03357516
0.05176100
-0.08356067
0.10470993
-0.00365693
0.05050220
-0.07519534
-0.02143073
-0.07393627
0.05001462
0.10917801
0.09486141
0.05214214
-0.03298840
0.08572580
0.06533652
0.02982486
0.07948107
0.05710227
-0.07182312
0.06732367
-0.00219644
0.07562652
0.06354616
-0.00976856
-0.03870412
-0.03455971
0.02810665
0.02843428
0.09022799
0.09758065
-0.09557409
0.01714926
-0.00982758
0.00362826
0.07874482
0.05384116
0.00386326
-0.00340337
-0.03408966
-0.06298531
-0.05641273
-0.04708613
0.01132398
0.04058862
0.01169041
0.03727599
0.09848536
0.02529927
0.04889979
0.00052948
0.08192996
-0.08176179
-0.00614314
0.08906750
0.05386714
0.03981025
0.03533454
0.03265867
0.04351593
0.06356524
0.06721887
0.03541224
0.02402542
0.08960819
-0.03937236
-0.02384792
0.11277935
0.07321643
-0.09621693
-0.08647500
0.07273412
-0.02670369
-0.08177749
-0.09404910
0.08319839
0.06129239
0.00660144
0.06923009
0.07109101
-0.05378581
-0.08713293
-0.06906575
-0.10582814
-0.01111498
-0.03137178
-0.00086538
0.08815153
0.02404782
-0.03528194
0.07275470
-0.02289497
-0.04647828
0.00943823
0.00551580
0.09828182
-0.07029178
-0.01394326
0.08707231
0.06076781
0.06700045
-0.01369148
0.10157448
-0.04733377
-0.08328170
0.03886837
-0.01995112
0.00503293
-0.04963964
0.01591386
-0.00219424
-0.01484522
0.05527107
-0.09865677
-0.05048962
0.03425709
0.00568066
-0.00173632
0.00761505
-0.04045732
0.00131208
-0.05363508
0.06227523
-0.00451460
0.04294781
-0.00979569
0.00960605
0.00501572
-0.05247453
-0.05551734
-0.00447472
0.07061400
0.01138568
-0.02623724
0.05166916
0.09014011
0.06983907
0.09833881
0.09278811
0.05067851
0.00885610
0.01535328
-0.03654540
-0.09828285
0.04667284
-0.05625583
-0.04887628
0.08391479
0.09251261
-0.08614897
0.03317632
0.08520966
0.03514035
-0.07586230
-0.08738798
-0.10302552
-0.01779768
0.00483904
0.09512963
-0.06634418
0.04253284
-0.01953688
-0.08715865
0.03205707
-0.00801433
-0.09970060
0.01188806
-0.03269224
0.01403071
0.08253506
-0.02579508
0.01718177
-0.01900787
0.05716396
0.09752666
0.03769726
0.01865627
0.01508459
0.09727252
0.12222772
0.00886745
-0.07320013
0.01936415
-0.00024419
-0.08283083
-0.08055601
0.07966980
-0.02329327
0.06177371
0.09252545
0.01537504
-0.02628545
-0.08102910
0.00441231
0.02932083
-0.04525841
0.05784243
-0.05446180
-0.04466563
0.01896153
0.01494586
-0.01393711
0.00906481
0.03691102
-0.09942076
-0.02025478
0.03245624
-0.10454203
0.01888458
-0.00928373
0.01916431
0.03598590
-0.08951561
0.09358766
-0.07432587
-0.02317098
0.04455057
0.03088608
0.05945336
-0.03616843
0.03723509
-0.05283031
-0.06852289
0.06999726
-0.02247627
-0.03215858
-0.02145728
-0.09837959
0.02728502
-0.09879505
-0.00166487
0.04151927
0.01047465
-0.03052721
-0.08459778
-0.01476007
0.02583622
-0.04889018
0.00596668
0.03709619
-0.00660019
0.07677021
-0.05576904
-0.04596332
-0.03560048
-0.09015882
0.00289874
0.05017267
0.09114555
0.08071040
-0.05834004
-0.07015702
0.03687541
-0.00543308
0.01847382
-0.00976810
0.07760588
0.06939766
-0.05618560
-0.01564747
-0.09560597
-0.09142447
0.07312778
-0.05085737
-0.02853042
0.09171767
0.02182724
0.00304286
0.08031709
-0.01391447
0.06630572
-0.02042440
0.07816355
0.07288905
-0.05844707
0.05637759
0.01990677
-0.01469829
0.05735475
0.06745262
0.02246187
0.06612382
-0.00079348
0.03836180
-0.06501610
-0.02738888
-0.04363688
0.01983801
-0.05393405
-0.00355719
0.01194008
-0.02005346
-0.00384625
-0.03970715
-0.05413699
0.07939105
-0.10050228
0.02410474
-0.07693623
0.02536151
0.07441612
0.02003379
-0.08448638
-0.09364264
0.09539415
-0.03825533
-0.06554209
0.06941252
0.01008067
0.03530181
0.07851893
0.06905638
-0.00159339
-0.03931156
-0.00066910
-0.03887030
-0.08773652
0.00139150
0.02615718
-0.07367071
0.07516427
-0.07016862
-0.07026539
-0.06441519
-0.03243329
-0.07920522
-0.04247580
0.05429416
0.01077252
0.04156645
0.00422060
0.03219780
0.02406161
-0.01707056
0.09795874
0.04214810
-0.07560436
-0.01312807
0.08837947
0.05527893
-0.07698254
-0.01048255
0.09596176
0.04158196
-0.02149600
-0.00846811
0.00243412
-0.00960401
-0.08714080
0.00996446
0.08505081
-0.07191138
0.02097889
-0.03482475
0.00960929
-0.00812905
0.08808690
-0.08169429
0.07302996
-0.01196973
-0.07245677
-0.04732245
0.09086989
-0.04881584
0.03378528
0.07011671
-0.05919999
0.01883068
0.07248876
0.01790269
-0.07841581
-0.06241115
0.07583409
0.01883481
-0.06076220
-0.06327237
-0.00879952
0.04429678
0.00178033
-0.08494547
0.02615504
0.00552315
-0.02932183
-0.03266616
-0.03853817
-0.04492045
-0.02117593
-0.01018654
0.04921008
0.04169678
-0.05337080
-0.06452441
-0.06154479
-0.06255978
0.00767674
0.05960464
-0.06377650
-0.03529036
0.09852898
0.00424138
-0.06226328
0.01027508
0.06542254
0.02261206
-0.08083593
0.08592150
-0.10098321
0.09414160
-0.02077379
0.07046990
0.10578952
0.11595503
-0.07477473
-0.04685698
0.10069182
0.02244084
0.00355779
0.03901224
-0.08243413
0.04352867
-0.09357057
0.02290832
0.08446839
0.05162729
0.07323655
0.06967810
-0.08257105
-0.01796085
0.09630899
0.03313102
0.00279447
-0.09306603
-0.01855668
-0.05961742
0.01299656
0.04817477
-0.09288547
-0.08324480
0.06111410
-0.08248088
0.05517557
0.05150870
-0.06161013
0.06517629
0.01737326
0.02422775
-0.01360130
0.05869625
0.00305593
0.09161974
-0.09254560
-0.07411516
-0.09870788
-0.03294981
0.05712118
0.07715772
-0.04030485
-0.09371980
-0.04097597
0.00140639
0.01062885
0.04060237
-0.04825350
0.09194308
-0.04106289
0.04871425
0.05590769
0.02088039
-0.05778085
0.03766076
0.08585520
0.08173029
-0.06544360
-0.07878325
-0.02333151
-0.05568525
-0.06842497
0.05566478
-0.07899346
0.03667220
0.04188291
-0.04378414
0.03780421
0.02569155
0.00322131
0.03175050
-0.00907790
0.09630536
0.01861577
0.04219287
-0.06594638
0.08745462
0.07912494
-0.08467383
0.02297758
0.07818383
-0.01010250
-0.00559028
-0.07718829
0.01810165
0.02793751
0.07629789
-0.02129260
0.08418017
-0.08104023
0.06325052
0.12356658
0.01208713
-0.00769830
-0.05155540
0.13114406
-0.00709006
0.07596065
0.04678614
0.03033222
-0.09856306
0.06209732
-0.04361036
0.05327121
0.04165403
0.08641910
0.09611508
-0.06077787
0.04898911
0.09335781
0.03498229
0.01481948
-0.02139815
0.09805330
-0.06966818
0.04445044
-0.08183202
0.01872409
-0.06643539
-0.06873240
-0.08729206
-0.09436604
0.05869184
0.08808078
-0.06991373
-0.08661902
-0.06157047
-0.03947609
-0.02997487
-0.09453327
-0.01646546
0.03488734
0.03216005
-0.05310416
0.03418314
-0.00088937
-0.09540618
0.03685375
-0.00606364
0.08100426
0.07066655
-0.04921382
-0.08382935
0.09203278
-0.07918887
0.07486082
-0.09332637
-0.05674301
-0.05474929
-0.07824125
-0.05328648
-0.02911683
-0.04426008
-0.06924586
-0.08246884
0.05905935
-0.09031338
-0.08930023
0.08583764
0.04604348
0.06153756
-0.00526345
-0.09120779
0.01756720
0.05518590
0.06054451
0.07101438
-0.08742436
0.02417543
-0.08780981
0.04122737
-0.05218495
0.04132639
0.01007391
0.04552612
0.01321036
-0.07705112
0.07308648
-0.05818211
-0.04318313
0.00426235
0.04003036
-0.02417977
