-0.07161544
0.07054495
0.06769380
-0.07610120
-0.05783877
0.09473471
0.03289696
0.05071321
0.01555883
-0.07127768
0.03311125
0.05070985
0.07234385
0.06296640
0.00802001
-0.05697693
-0.05768225
-0.04171010
0.00130360
-0.05567054
0.07692531
-0.08321726
-0.08117349
0.07493632
0.03887123
0.02083321
-0.01686661
0.04582273
0.02246643
-0.09924940
-0.05850413
0.03607985
-0.02549183
-0.06805254
0.01854507
0.01798804
-0.00809231
0.07631130
0.04165478
-0.09631009
-0.03274255
0.08806179
0.04431101
0.00846993
-0.06827814
-0.09071826
-0.00058322
-0.09165189
-0.00534639
0.00014242
0.03967140
0.06698685
0.08614167
0.03292871
-0.06987557
0.00461450
-0.06193341
-0.01298746
0.03994395
-0.00701524
0.01094320
-0.08029810
0.05263310
-0.09785144
-0.07584234
0.07918861
-0.01233924
0.01721378
-0.09003293
0.06230197
-0.01103478
-0.02657103
-0.01768825
0.02267478
-0.04751008
0.07283937
0.03651831
-0.01473123
0.05786094
-0.09843652
-0.09321259
-0.08562705
-0.08633668
-0.06610134
0.01691131
-0.01357383
-0.08181734
0.00490224
0.06874949
0.01935681
-0.08915825
0.03472186
-0.05872528
0.09900460
-0.07928095
0.05390936
-0.03138275
-0.07315607
0.08899549
0.03675792
0.05553405
-0.02178107
0.00488470
-0.05290504
-0.08858048
0.07101383
-0.05352269
-0.09121760
0.08650357
0.04429430
-0.04827717
0.06045438
-0.05041079
0.03198627
0.08328439
0.09947425
-0.05579179
0.05091010
-0.04386977
-0.07598661
0.00914757
-0.03075949
0.05439032
0.06569172
0.00649850
0.06088666
0.05928076
-0.00387805
-0.03190285
0.07909916
-0.04100061
0.00926295
-0.05678023
-0.06412517
0.03517194
-0.08867191
0.03901066
-0.00885631
0.00666591
0.03584168
-0.04258728
0.00692455
-0.04863024
0.05373386
0.04000385
0.06139897
-0.06250957
0.02104447
-0.01244589
-0.01515735
-0.02587921
0.00724002
0.07273459
0.08152748
0.05464567
0.03899679
0.01095847
0.02986222
0.04520638
-0.02545746
0.09113626
-0.02394342
-0.00218084
-0.09904230
0.01269261
0.03652993
0.06765066
0.03053403
0.03302320
0.03467903
-0.00105233
-0.01822627
-0.06837071
0.02240847
-0.09926127
-0.01782523
-0.08781952
-0.03043353
-0.07227520
-0.05310543
-0.04870058
-0.00487968
-0.05488648
-0.00944071
-0.06912799
-0.04068870
-0.07726726
0.09897568
-0.00994032
-0.01923634
0.07517567
0.03175025
-0.08486821
0.00254621
0.04674562
-0.10335351
0.01214310
0.01634717
0.02116212
-0.01684360
0.07885927
-0.01924052
-0.05476966
0.06195414
0.01887687
-0.00126220
0.06958176
0.05588087
-0.08996583
0.06037715
0.09394883
0.00621504
0.06584761
0.09462954
-0.05217893
-0.04934545
0.07181462
-0.06227636
-0.09651020
0.02008745
-0.07257449
0.05014269
0.07214221
0.07404873
-0.02854692
0.01619936
0.04931115
-0.00037988
0.03692411
0.03272692
-0.09187418
-0.00531020
-0.03223375
-0.05284941
-0.02973779
-0.09216494
-0.02039016
-0.06112199
0.01367020
0.01914550
-0.11058457
-0.00147084
-0.04722091
-0.05471083
0.06893694
-0.06290394
0.07588710
0.07309889
-0.07754469
-0.05953849
0.04772161
0.09339541
0.09375756
0.00902497
0.07566246
-0.08328693
-0.02356132
0.07066442
-0.09535574
0.02202174
0.00168425
-0.00229160
0.07182050
-0.02285943
0.04539724
-0.00761678
0.04879342
0.05221666
-0.04658588
0.00378269
0.00884110
0.08489149
0.06447659
-0.03762557
-0.01094426
0.03962782
0.02134168
0.02689258
0.07570785
0.04002713
0.04178678
-0.00864963
-0.05819073
-0.09244936
0.09053852
-0.00057549
-0.01367299
0.03333972
0.06537336
-0.05469394
0.04155202
-0.09930263
-0.07995626
-0.03586168
-0.06327851
0.07599324
0.01850615
0.06749037
0.05801621
-0.09782945
0.05314379
-0.01701860
-0.00222395
-0.05134860
0.04248975
-0.02859741
-0.09477375
-0.06162565
-0.09088293
-0.04392933
0.00711698
-0.02309456
0.05017333
-0.09084197
0.05037729
-0.05414995
0.01686570
-0.07974870
-0.04033650
0.07831840
0.07721620
0.08994339
0.03570895
0.06506670
0.00288127
0.03043292
-0.02412613
-0.05978429
0.04459747
0.08009357
0.04070840
-0.08914944
-0.05886399
0.03092801
-0.06383742
0.07213265
0.06333055
0.03563810
-0.08531907
-0.10188610
0.00351280
-0.09186077
-0.01685673
0.05451700
-0.05362782
-0.10011452
-0.01820193
-0.03937539
0.05764303
-0.06208663
-0.04561099
0.03540335
0.03506917
-0.09062606
-0.05189356
-0.06775129
-0.03355331
-0.00052508
0.06401511
0.08169143
-0.08715575
0.03363744
-0.05690821
0.03560164
0.00543504
-0.08118085
0.04426193
0.02497878
-0.06320174
-0.05653967
0.07380475
-0.02551227
-0.05328640
0.09998029
0.03862132
0.06150610
0.01980292
0.04407019
0.03718026
0.03759945
-0.09071238
-0.07871535
-0.07197466
0.08447169
0.04691425
0.03021092
0.01895608
0.07731906
0.06087630
-0.01093179
0.02826699
-0.08712614
-0.02206643
0.01824293
0.07755867
-0.01154661
-0.06729484
0.00715337
0.10009359
-0.08785668
-0.00033196
-0.05565970
-0.08487927
-0.04450657
0.03962982
-0.01109679
0.07511267
-0.01797735
-0.01977132
-0.08145141
0.07740546
0.02104086
-0.03677282
0.04942048
-0.08781030
-0.07735161
-0.02591758
-0.09460190
0.00054271
-0.09319073
-0.07573498
0.02256694
-0.01262091
-0.07725205
-0.01452514
-0.09466396
0.02605115
-0.04677971
-0.04572199
-0.07223235
-0.04039671
-0.10307839
-0.03015590
-0.05309082
0.05971007
0.05901041
-0.09171482
0.05218580
0.02372864
0.10663078
0.03991185
-0.00320843
-0.01373915
-0.00695250
-0.04650391
0.04762805
-0.08904065
-0.06009770
0.05760668
-0.08201205
-0.02154034
-0.03474558
0.01509667
0.00318444
0.06940367
0.08811997
-0.07939646
-0.09704498
0.08021582
0.05877308
0.09680376
0.02378374
-0.00765512
0.06539869
0.09441805
0.05252021
-0.00814958
0.09523371
0.08687156
0.07560497
0.02692522
-0.01013878
-0.06377053
0.01241401
0.05020612
0.08806450
-0.01952492
-0.07129513
-0.00449386
-0.07338134
0.08850199
0.09149724
0.08690270
-0.02303066
-0.07297372
0.00223852
-0.08609893
-0.09211148
-0.07100851
-0.07754604
-0.06554218
0.09297289
0.09630288
-0.01436646
0.01828113
-0.09273826
0.01515287
-0.02313412
0.03783674
-0.01595724
-0.03990411
-0.00188068
0.04606372
-0.09404641
0.03713960
-0.00515025
0.04061647
-0.01519544
0.09408092
-0.01197987
-0.02594603
0.09253416
0.06249699
-0.00534561
-0.00339436
0.08573802
0.04402701
-0.04041096
-0.07203486
0.03090224
0.09464783
0.06911355
-0.08682093
-0.03630151
0.09358697
-0.00925866
0.01327902
-0.01385895
-0.06715055
0.01665686
-0.02080420
0.02400679
-0.01085272
0.06597384
0.10098862
-0.07540390
-0.03617020
0.09692345
-0.09795549
-0.06161559
0.04090799
-0.01672885
0.07399358
-0.04235447
0.00871278
0.02763889
-0.08173796
0.03658381
-0.09033322
-0.05520069
0.09613083
-0.06319434
-0.00893429
-0.08825762
0.04436904
-0.07339319
-0.00689932
-0.06978707
-0.06705390
-0.09329864
-0.00239744
-0.03426643
-0.04007496
0.07578163
0.00203448
0.00117808
-0.00525652
0.09097690
0.07981318
0.00459014
-0.09166249
-0.05148652
0.02260886
-0.05421183
-0.06332277
-0.03813649
0.04078755
0.08311523
-0.06365143
-0.06678707
-0.09408168
-0.09542493
-0.04132178
-0.02893560
0.08455584
0.02434614
-0.07836967
-0.06738525
0.06865835
-0.02538133
-0.07858887
0.03317614
0.03027209
-0.00457478
-0.04079673
0.09954614
-0.07232110
-0.08248999
-0.07388986
-0.06725164
0.05238271
0.09656692
0.01055059
0.02166415
-0.03394526
0.02975034
0.00837028
0.08250362
0.02927169
0.00583972
-0.06859208
0.05754306
0.07516959
0.04991954
-0.04511359
0.03477896
-0.06593694
-0.01352127
-0.00802754
0.05734479
-0.05902462
0.05673798
0.01701476
-0.05101142
0.06960401
0.10073929
0.03108617
0.06894326
-0.00196918
0.05269886
-0.07409433
0.00106852
0.09080759
-0.04527312
0.09154473
0.09138869
-0.00017441
-0.08075967
0.08739047
-0.05270850
0.01760791
-0.04893987
0.03164700
0.00547742
-0.06377358
-0.06113040
0.04151002
0.08125585
0.07752727
0.04190645
0.06597468
0.01834465
0.08550759
0.06407175
0.04578902
-0.06511316
0.03253790
-0.03234672
-0.00545860
-0.00830908
0.06385936
0.02437444
-0.05839553
-0.09671971
-0.03668268
-0.06630951
-0.02649265
0.01536541
0.05550755
0.07336949
-0.08238552
0.06293746
0.02019312
0.05324165
0.03723860
0.07729902
-0.05556691
0.03280040
0.07484969
-0.04901134
0.07821585
-0.06027345
0.01964814
0.06118640
0.02260223
-0.08168609
-0.07886638
-0.07447958
0.02402183
0.00972891
0.00370809
0.07762570
-0.07301846
0.04024419
-0.03837799
0.07082897
0.01736108
-0.06597442
0.07459941
0.01017975
0.01200623
0.02702369
-0.05425317
-0.07526635
-0.05042291
0.09223591
0.06771876
0.05737844
-0.01112655
-0.02461045
-0.08299846
-0.07012461
-0.06711490
0.01173390
0.02537130
0.03695144
-0.07168405
-0.08196904
-0.05726813
0.06999095
-0.01174178
0.01136507
0.09535901
-0.05207804
0.06421502
-0.10453094
-0.02948733
0.09289356
-0.08454336
0.07024013
-0.03894933
-0.02841299
0.09459653
0.08412930
-0.05616823
-0.06180888
0.06736347
-0.00202334
0.00265561
-0.06309653
0.06759009
0.00350123
0.01506709
-0.04499593
0.02148793
-0.06752088
-0.09905914
0.03582081
0.00094431
-0.06131121
-0.07849725
-0.06770283
-0.09860722
-0.04983095
0.05722703
0.05418009
-0.00184995
0.05205830
-0.05526281
-0.08415812
0.06528945
0.02269051
0.09576624
-0.05046810
-0.07203614
-0.02343610
-0.00873659
-0.09904349
0.06705037
-0.08996364
-0.00292411
0.06617061
0.08953046
-0.09302976
0.10012728
-0.04158832
0.08053376
-0.07736347
-0.07773943
-0.05946655
-0.04454052
0.08583387
0.03919599
-0.08057751
0.05137006
0.08171586
-0.03429709
-0.05140573
0.04880732
-0.06573780
0.03287193
0.02858360
0.08492941
-0.06858299
0.00957244
-0.08968568
-0.06537314
0.06662666
0.07703635
0.07803212
-0.06225141
0.01980659
-0.09347364
-0.00359893
0.03733022
0.04428885
-0.03760845
0.01236963
0.02396240
-0.00366330
-0.03319067
-0.06900162
-0.07333695
0.00516969
-0.09878949
0.00029216
0.04632714
-0.01593290
0.08361251
-0.03995777
0.07956794
-0.05363490
-0.01251977
-0.04731536
-0.04263896
0.06272924
0.02407263
0.08342984
0.03033765
-0.05160088
-0.04271512
-0.01344843
0.06952387
0.07621788
-0.08812340
0.05403248
0.02350086
-0.07731318
0.05310719
0.02799387
-0.05456869
0.01392476
-0.06111885
-0.00511182
0.08616667
0.03564894
0.03586951
0.08527650
-0.00815565
-0.01681047
0.08052245
-0.03736354
-0.07014483
0.04225708
-0.04343982
0.03373853
0.05525563
0.08103619
0.15060282
0.04677369
-0.02263260
0.01013617
0.09067869
0.02965561
-0.04998903
0.08213765
0.05594653
-0.09279628
0.01840043
0.09311650
-0.02704959
-0.05777308
-0.07201272
-0.04172718
0.01555815
-0.04150994
-0.06681350
-0.02639018
0.02352151
-0.02553806
-0.09510009
0.02178999
0.00832825
0.02801746
-0.02428787
-0.01509408
-0.04621761
-0.02025765
0.07654706
0.02239805
0.01819576
0.09034574
-0.06822478
-0.04916043
0.00584832
-0.06435517
-0.07855104
-0.06084373
0.07472928
0.02727600
0.02388613
-0.02672835
0.00626899
-0.00244791
0.04912151
-0.00739236
0.05958570
0.03115191
-0.08027609
0.05793878
-0.02521899
-0.06536202
0.04139570
-0.02603445
0.04082843
0.03814095
-0.10625930
-0.05661205
-0.10539315
-0.06852725
0.06934086
-0.08993406
-0.00356839
-0.10413227
0.05750683
-0.02795397
-0.09649685
0.05159044
-0.03921581
0.02625446
0.04670625
-0.00530471
-0.06665507
-0.04814317
0.05539373
0.08679692
-0.04893310
0.08170535
-0.04364981
0.09287648
0.05407051
0.06321775
-0.09224142
0.01469770
-0.08919407
0.08194192
0.07131709
0.02922992
-0.07835780
0.04296917
-0.03860086
0.04848175
-0.09032775
0.02099239
-0.07119973
-0.02311890
-0.04656112
-0.01420827
0.04371642
-0.09720231
0.06308784
0.07800655
-0.04352224
0.04002103
-0.07367529
0.04788291
0.09713243
0.01620701
-0.04678171
0.01433400
-0.06512245
0.03242750
-0.03080922
-0.03793710
-0.05399369
0.08395474
-0.07738725
0.03138018
-0.04529205
-0.01774226
0.04448932
0.01264705
0.00332295
0.00755558
0.07454200
0.01557490
-0.08460719
-0.06396701
-0.01066473
-0.07817486
-0.04330801
0.06877272
-0.05650853
-0.00517733
0.07626295
-0.05556442
0.01303761
0.06644115
-0.06809124
-0.07496314
-0.02835474
0.01789642
0.07172761
0.05844520
0.02225880
0.08094581
0.05345709
-0.05216789
-0.01187224
0.00611878
-0.10359528
0.04553954
-0.07259670
0.05844036
0.01209824
0.06311463
-0.08303296
-0.02071348
-0.01842559
0.05226212
-0.05020364
-0.09414961
0.07403836
-0.09267348
-0.02044188
-0.07966881
-0.05833867
0.07792664
-0.04601324
0.07260601
0.06807188
-0.03028841
0.08991870
-0.08422926
0.01508808
-0.00610008
0.03059355
-0.03708155
-0.05751792
-0.01475379
-0.09976068
0.03662810
-0.09666317
-0.02762552
0.08921646
-0.07770957
0.09416466
-0.03845541
0.08881171
0.04763083
0.09598682
-0.09757107
-0.02502831
-0.06841879
-0.03662262
-0.00013522
0.00813094
0.02073217
-0.06925693
-0.08702285
0.00147593
0.05287700
0.01803535
0.07208257
-0.09630872
0.07298008
-0.05494191
0.03448517
-0.00067231
-0.03173384
-0.03960353
-0.09458918
0.09225321
-0.02624490
0.05596314
0.02697091
0.04268145
0.06936846
-0.04244487
-0.07305946
0.09381766
-0.01884255
0.08044598
-0.06277759
0.01361112
-0.08188707
0.00384067
0.01364067
-0.09534033
-0.05763360
-0.03128000
-0.07198441
-0.01154624
0.14572562
0.02675235
0.08128572
0.00964031
0.05642167
0.04481007
-0.00946741
0.06875247
-0.05128866
0.06353838
-0.07115104
0.02822388
0.08346541
0.09766787
0.11559757
0.03558344
-0.02431989
-0.02621690
0.09350479
0.10939385
-0.05029332
-0.07174018
0.04733706
0.01671963
-0.03724517
0.03691170
0.07497887
0.00239874
0.08418367
0.06457555
-0.14831066
-0.08355319
0.03279657
0.03905177
-0.01713147
0.00952864
-0.07800153
-0.07080230
0.05591094
-0.05123266
0.06152123
0.02670896
0.06892831
0.02321850
0.06051254
0.01614235
-0.07546468
0.02161316
0.03691131
-0.08779794
-0.03200613
-0.04748620
0.05875847
-0.09433540
-0.06201281
0.07400922
0.04286316
0.00674031
0.07839294
-0.02349791
-0.09426125
-0.04562199
-0.04089557
0.01696674
0.07212243
0.01435433
0.06679465
0.09140465
0.06041097
-0.01611422
0.07169306
0.01041112
0.01185276
0.03805129
-0.05765422
-0.09704546
0.05852872
0.09501295
-0.05877098
0.06786020
-0.08166043
0.01920657
0.01577680
0.05608383
0.05262669
-0.08446950
0.09248776
-0.04934977
0.07103021
0.00281837
0.01701819
-0.00833419
0.04676879
0.03887718
0.02402844
-0.02382367
0.07360416
0.05516293
0.05893826
-0.00970334
-0.03418083
-0.07478645
-0.05566786
-0.06257369
0.12432145
0.01737694
0.06393552
0.03058222
0.00532886
0.04376132
-0.03775358
0.00376804
0.03150828
0.06491278
0.04087243
-0.00725222
0.06113062
0.18748749
0.01729406
0.12605871
-0.01079096
-0.01757422
0.06556706
-0.07491274
0.05543388
0.00684789
-0.09607429
0.02716010
-0.01344451
-0.07835539
-0.04557986
0.02726215
0.01899975
0.01988957
-0.03092584
-0.09654032
-0.08828796
-0.02097161
-0.08336455
-0.05504456
-0.00160537
-0.11699429
-0.00035330
-0.03110459
0.04522279
0.03980057
0.06238484
-0.00560906
0.06334117
0.06370397
0.01974398
-0.07825003
0.02971774
-0.09939436
-0.01429512
-0.07848933
-0.01764653
0.03867008
-0.05191875
0.04388058
-0.02922079
-0.07563690
-0.09790951
0.05122996
0.04213935
-0.00476649
-0.08546002
0.05190149
0.01849150
-0.02874461
0.08073486
-0.09385283
0.09611982
0.03444848
-0.00006406
0.04318950
-0.07518992
0.01032437
-0.02986576
-0.04230844
-0.06356481
-0.10732691
-0.02840888
-0.07008407
0.07658687
-0.02151047
0.05442014
0.05589773
0.00850134
-0.01889091
-0.13506232
-0.13279749
-0.04526552
0.06117452
-0.01328602
-0.01856217
-0.08401860
-0.04678294
-0.05019780
-0.07778759
-0.06317112
0.09783490
-0.03706484
-0.01593230
0.05013365
-0.04748882
-0.10899638
0.02534367
-0.04360975
0.01416777
0.05553730
-0.06114083
0.05287033
0.03170947
0.02080906
0.07984979
-0.06344651
0.00890394
0.03377323
-0.08660549
0.01847962
0.04208889
-0.02813478
0.09150703
-0.03229833
0.02277574
0.04475758
0.00591552
0.00049342
0.04877692
-0.03195683
-0.01773218
0.08512354
-0.09061051
-0.01487019
-0.02835320
0.05099854
0.05001296
-0.02238319
0.02464611
-0.03053313
-0.00719937
-0.06204569
0.03214227
0.00261373
0.06481496
0.08069244
0.04612387
0.02811273
-0.09979199
0.05765985
0.04812577
-0.05272322
0.09661347
0.00170191
0.02242008
0.10026803
-0.01114210
-0.07462207
0.07920070
0.02451242
-0.02618421
0.05286878
0.05704831
0.02776264
0.02295689
-0.03213370
0.00136003
-0.03014361
-0.07324007
0.04209399
-0.08546450
0.02259130
0.02368660
-0.04609318
-0.07851487
-0.00063466
-0.07529185
0.07646774
-0.08188244
0.02264358
0.04176597
-0.08895052
0.03011691
-0.06886822
0.05599724
-0.08779642
-0.05765324
0.09804714
-0.01540932
0.10710301
0.03318360
0.00899063
-0.14573586
-0.01772729
-0.05948294
-0.01990845
-0.04786330
-0.00246908
-0.07555018
0.08787614
0.05593660
0.14386839
-0.05195346
-0.09169688
-0.04508309
0.01837207
0.05336185
0.00609428
0.02969127
-0.04340568
-0.07937505
0.01691622
-0.06857149
-0.03235815
-0.04882455
0.06200420
0.02434520
-0.08526198
0.03854724
0.03212060
-0.00729436
0.03139926
0.04426211
-0.02651299
-0.07696293
-0.01652552
0.02716074
0.01927819
0.04554167
-0.08031626
-0.04755628
0.06822189
-0.06204294
0.07417589
0.03422156
-0.05092473
0.07284027
0.00886009
-0.06796939
-0.06649135
-0.10359157
-0.03340280
0.07185400
0.06733777
-0.01088321
0.02202824
-0.07745707
-0.07613172
-0.05460390
-0.03409990
0.09305894
-0.03414333
0.06009278
0.03911930
0.05315224
0.01392759
-0.08755771
-0.02447647
0.07437245
0.06858791
0.02070951
0.01341104
-0.07773830
-0.00054182
-0.09598839
-0.09411243
0.03785080
-0.04050270
0.08508863
0.07293038
-0.08460717
-0.01882717
-0.04981320
-0.05509638
0.01719057
0.01989314
0.03911306
-0.01199226
-0.04204428
0.00721862
0.01139722
0.07718122
-0.07688765
0.04132414
0.04957464
0.07941280
0.03909885
0.04126950
0.03813644
-0.05796116
-0.16802197
-0.12382050
-0.03620390
-0.00767223
-0.01793169
0.07449319
-0.06055263
0.02069830
0.01276572
0.02882440
0.07670963
-0.05587081
-0.07082570
-0.05419878
0.07924305
-0.10130517
-0.04694050
-0.01200922
-0.03734734
0.03510476
-0.09715502
-0.06435950
-0.07537703
-0.01817534
-0.00049110
-0.08158399
-0.09118854
0.08508169
-0.07732221
-0.04613941
0.01247909
-0.01371345
-0.00211300
0.00067544
0.08156083
0.00246767
0.05604092
-0.07485586
0.07923374
0.00137490
-0.07448730
-0.02584267
-0.08776982
-0.03550573
0.06259525
0.08296478
-0.07098440
0.02042784
-0.01676291
-0.09807157
0.02016347
0.01233368
0.03119244
-0.01838462
-0.08461904
-0.02788867
-0.03463519
0.05621904
-0.07018951
0.02473911
0.08033466
-0.07668436
-0.04752329
0.00215670
-0.00075795
0.06446002
-0.01737266
-0.05259960
-0.00677996
0.04083589
-0.08708279
0.03820430
-0.08358874
0.01451006
0.08549183
0.02810717
0.09296318
-0.02850136
-0.09706674
-0.01714826
-0.07504933
0.01643578
-0.07288029
0.06983904
-0.08117850
0.05688480
0.08401689
-0.10210845
0.07479511
-0.05095152
-0.01713041
0.01565513
0.01989954
0.05515080
-0.01203156
0.05464994
0.10639085
0.13605819
-0.01942894
0.07114660
0.01556758
0.02396456
0.03237101
0.08679813
0.03521038
-0.13698124
-0.01555559
0.02957443
-0.07001575
0.01078437
0.11051287
0.01845086
-0.01781148
-0.01922512
-0.06166731
-0.08922779
-0.06062837
0.05800970
-0.10772511
0.09562356
-0.03885392
-0.00270227
-0.07621243
-0.09561085
-0.07223579
0.06034433
-0.05722647
0.07595028
0.01332783
-0.03980040
0.01648163
0.00658724
0.04611136
0.07629220
0.08938618
0.02593992
-0.01776768
0.07205761
-0.02176991
0.06345732
0.05677597
-0.03268699
0.05973992
0.03030451
0.00235376
0.05475399
0.02940230
0.05518458
0.02205084
0.08485260
0.03900049
0.09303920
0.02509787
0.08877689
-0.00173587
0.04539883
-0.09924128
0.08223478
-0.00157759
-0.05442345
0.08556441
0.03188419
0.02137761
-0.06174440
0.01626370
0.00074194
-0.04278435
0.01206209
-0.05761774
0.01434331
-0.02732995
-0.00948352
-0.03098430
0.07040446
0.07417458
-0.09354835
-0.08335547
-0.05984879
0.03578952
-0.01741607
-0.09250838
-0.06753869
-0.01530114
0.08960318
0.00697518
-0.01115908
0.02475773
-0.01968016
0.11203449
-0.00167308
-0.04990740
-0.06713332
-0.03214192
-0.05354027
0.03598650
-0.01650522
0.09161122
0.04216335
-0.01176153
0.12961417
-0.05120436
-0.06501086
0.06511447
-0.01756582
0.01305087
0.06764337
-0.05036116
0.10928967
0.01548614
0.01919184
0.05613442
0.01661837
-0.01582621
0.07266113
-0.07767399
-0.01255424
0.04307873
-0.06056962
-0.07826796
0.00346165
0.06906849
-0.01547349
-0.04217373
0.09501986
0.07308508
0.02117663
0.03064453
0.03448389
0.04295409
0.09344417
-0.00733344
0.08702568
0.01684027
-0.05010365
0.03786552
0.06850974
0.06117718
-0.00531381
-0.05684422
0.03674054
0.07495217
0.06412021
-0.03124716
0.00050804
0.01915266
0.05527212
0.08330914
-0.09387003
-0.02787172
-0.08958749
-0.08026863
0.02513341
0.08561808
-0.07905571
-0.10733662
0.07303565
-0.00090179
-0.01582156
0.04500850
-0.03151601
0.06863687
0.00584597
-0.02369175
0.07743525
-0.01992192
0.00391188
-0.03767438
0.04656557
0.00827607
-0.06713590
0.01032805
0.01338543
-0.01549784
0.00837024
0.05796025
-0.00315242
0.06714858
0.01782039
-0.00056053
-0.09034604
0.04108442
0.07284889
0.09342135
-0.04993695
-0.07181404
-0.04799299
0.02791136
0.12116800
0.07250917
0.03795526
0.13102546
0.13534916
0.04632393
-0.04124063
-0.07705034
-0.09074787
-0.14438562
-0.00825828
-0.04532960
-0.05950976
-0.00990777
-0.04687197
-0.03762447
-0.07906200
-0.01603613
-0.00595661
0.08530174
-0.00972543
-0.06844238
0.04548108
-0.03513459
0.08831546
-0.10482055
0.05708592
0.06561638
0.07467249
0.03379160
-0.09274486
-0.02452401
0.03675463
0.04266036
-0.04202683
0.08146743
-0.07295591
-0.01030132
0.06694669
0.03374025
0.07452379
0.08448996
0.07124972
0.05834230
0.07396162
-0.04521420
0.03900733
-0.09891299
-0.06104902
0.02620165
-0.07284307
-0.00988194
-0.04397294
-0.00048103
0.07642903
0.00446687
0.05403107
-0.03406293
-0.09909904
-0.01469438
0.05009895
0.06656323
-0.09616916
-0.00900302
0.04766219
-0.03711733
0.06861947
-0.07401869
0.09017376
0.09314534
-0.06507643
0.00539830
-0.05897697
0.03367944
-0.08609889
0.01991387
0.02786296
-0.00009343
0.00747920
-0.09971049
-0.09045382
-0.03370414
-0.04777290
0.02987190
-0.00520276
0.05268754
-0.09255984
-0.04489370
-0.03288459
0.07603802
0.05710333
0.03038549
-0.02772690
0.07081426
-0.01785561
-0.06957196
0.03495913
-0.06237407
0.11991976
-0.07006592
0.06683367
0.06975436
0.06985934
-0.05950300
0.04544488
0.03697089
-0.03957948
0.00351410
-0.06105113
0.02277823
-0.07494408
-0.06456553
0.06251713
-0.07165445
-0.05488926
-0.06837083
-0.04334852
-0.01157170
0.00414238
-0.04419942
-0.04505968
-0.02054530
-0.00546903
0.02402659
-0.09416481
-0.00286059
0.06423407
0.07435737
-0.09575001
-0.02003785
-0.04844589
-0.05110022
0.06355924
-0.00075761
-0.06200448
0.05163865
0.09794178
-0.05453409
-0.02524287
-0.08407401
-0.07684598
0.02520526
0.02232237
0.04227814
-0.03331250
0.06705532
0.07971190
0.00740654
-0.02365488
0.05549569
0.04664137
0.02062770
0.06000090
-0.08261473
0.09288176
-0.09617105
0.03127117
0.01777923
-0.04597170
-0.04034292
0.00479499
-0.06649548
-0.00908250
0.01433673
0.02927612
0.00490272
0.08899657
-0.06141272
-0.00922792
0.01859883
0.09814978
-0.06875886
0.02638544
-0.01541488
0.07241895
0.03091282
0.03437248
0.03248170
-0.08601036
0.03845534
0.06765494
-0.06834069
0.02992790
0.09327915
0.00183250
-0.03294180
0.07800617
-0.02117314
-0.06041870
0.00292078
0.06025779
-0.00300139
-0.07409439
-0.00992371
0.00927848
-0.02721960
0.06936992
0.04585776
-0.06131266
-0.01694136
-0.03315314
-0.06386798
0.03933453
0.05881352
-0.03525544
0.09992391
0.06419015
-0.02303948
-0.07024468
-0.01072715
-0.09144336
-0.08791449
-0.09639258
0.06123462
-0.02974940
0.05468211
-0.06590199
-0.03223354
-0.07652417
-0.06882292
-0.11007663
0.03636524
-0.05998249
-0.05059081
-0.08624159
0.02356621
-0.08849316
-0.00405567
0.08063046
-0.03719391
-0.05410694
-0.02422274
-0.01148856
0.02415317
0.03194790
-0.03081124
-0.05334696
0.06875358
-0.07865852
-0.11696777
-0.01708516
-0.03323656
-0.05432510
0.07120535
-0.09856193
0.06129697
0.00524429
-0.08638835
0.07876872
0.01062355
0.09092730
0.09351376
0.06770022
0.08884102
0.04307162
-0.08716524
0.02563355
-0.06988444
0.09244836
-0.08290098
-0.05510806
0.01141683
0.02044965
0.02697696
0.00401900
0.06180707
-0.04628393
-0.04600965
0.03901057
0.00553671
-0.02108174
0.07287557
-0.06985543
0.02713337
0.05984658
0.00241447
-0.04862110
-0.01327618
0.05498691
-0.03135510
-0.09262924
-0.06729232
-0.08182448
0.07815923
-0.02957514
-0.03337150
-0.01280732
-0.01589784
0.07054175
-0.02545174
0.05423159
-0.05627218
-0.03259695
-0.03477779
0.05716119
0.01202093
0.03568134
0.07104701
0.06397780
-0.03973781
0.06509287
-0.03529289
0.06613378
-0.03471245
-0.04072776
-0.03448792
0.08788111
-0.01217169
-0.00989379
-0.04961656
-0.04818467
-0.08054722
-0.10214241
0.03509036
0.01238362
-0.09121343
-0.07135491
0.07704805
-0.04936429
-0.09547210
0.04891959
0.04799343
0.05482505
-0.04972988
-0.06736569
-0.05771544
-0.06876975
0.05641907
-0.04600471
-0.04064764
-0.04430790
-0.02334730
-0.07164881
-0.12435118
-0.02383901
-0.05352980
0.02019280
0.00357681
-0.00093332
0.02820307
-0.08098222
0.05748628
-0.06309100
0.09479256
-0.08172895
-0.09142700
-0.02043985
-0.03029308
-0.00043811
0.03747524
0.04507540
0.03116902
-0.03632475
0.01672339
-0.01371066
-0.07781814
-0.08320314
0.01960537
-0.06732480
0.06048806
-0.08001494
0.02774199
0.07066258
0.04391989
-0.01894928
0.07927535
-0.04051153
-0.01074325
0.06014142
-0.09046089
-0.00647290
-0.00209513
-0.01552367
-0.08611146
-0.09470853
0.08124043
0.08528866
-0.04093206
0.04744190
0.03144478
-0.03695796
0.01381505
0.02490087
-0.00162124
0.06417868
-0.06145213
-0.05790983
-0.00682403
-0.09455421
-0.02486265
0.07075983
-0.09990511
-0.06472681
0.05585104
-0.01763167
-0.02782337
0.06805903
0.08591321
-0.06374005
-0.06878497
0.07221542
-0.09340386
-0.01169337
0.09846382
0.05801781
-0.07240727
0.04140903
0.00303618
-0.01131580
0.05231053
0.02667278
-0.06210566
0.04050909
0.05909285
0.00652737
-0.00326208
-0.08602607
0.01470595
0.00004231
-0.01710768
-0.05846035
0.05008076
-0.07070843
0.04928787
-0.02082574
-0.09391517
-0.00319095
0.06005354
-0.05250557
-0.00356697
-0.01136194
-0.07780622
-0.02793173
-0.03786456
0.06214082
0.05198420
-0.04922800
-0.09547081
-0.06120246
0.02654271
0.09247107
-0.01856878
-0.00088696
0.07067867
-0.07696824
0.04350716
-0.08564301
-0.09808673
0.01800244
0.04490695
0.08891008
0.06319359
0.03367543
-0.02693072
0.02068421
-0.03131683
0.00139974
0.07307817
-0.09004198
0.05777917
-0.02641016
0.09020150
0.10127511
0.08911301
0.05511950
-0.07285895
-0.03049035
-0.03959872
-0.03304494
0.00049738
-0.08297996
0.07617642
0.04513084
-0.04898418
-0.04161700
0.01532293
0.04857402
-0.02933526
0.00774047
0.05037344
0.01113385
0.07232678
0.10938470
-0.04370426
-0.01830315
0.08161441
0.04298059
0.04756168
-0.05144788
-0.01542063
0.04332488
-0.07528069
0.09068348
-0.05626632
-0.03895434
0.11705287
-0.05829004
-0.04595582
-0.05719371
-0.04967947
-0.06126220
0.09670730
-0.06758332
-0.01354607
0.07142875
0.07098641
0.05874827
0.07452008
0.05467344
-0.07561119
0.02912210
0.02131570
0.04860681
-0.09624993
0.06670238
0.08929935
-0.04310754
0.05982909
0.06309107
-0.07426422
0.06407975
0.08504514
-0.09396989
-0.06275651
-0.02942423
-0.03595270
-0.08484123
-0.09663186
0.00174544
-0.02893760
0.08477622
0.02072496
-0.01810296
-0.03633144
-0.02055749
0.03422377
0.09126422
0.07038808
-0.09701442
0.03115087
-0.07475049
0.07509222
0.02143548
0.05470865
-0.01922192
-0.08800625
-0.03667314
0.08799758
-0.05247211
-0.07087180
-0.05646568
0.03553768
-0.02450406
0.03101930
-0.00274928
0.06601680
-0.06146895
0.01218733
0.17992639
0.10296132
0.17494886
-0.07827576
-0.05358488
0.09753261
0.05759894
0.09231865
-0.02523875
-0.08386888
-0.05913811
0.01660257
-0.06551271
-0.02975795
-0.02226532
-0.02916031
-0.00555518
-0.08662425
0.01515871
0.07522434
0.04080901
-0.03858980
0.00993891
0.02341349
-0.03268777
0.00798205
-0.06601422
-0.00012492
-0.02292550
-0.03259063
0.02828545
0.04712391
0.00357295
0.01312639
0.08455368
0.00458080
-0.02152228
-0.10267043
-0.10009201
0.07787562
0.07363083
0.08960827
0.01951643
0.05306953
0.06835885
-0.02337706
0.00095886
-0.06915123
0.04900088
-0.07699115
0.04374126
-0.07732208
-0.03535177
0.06379185
-0.05600447
-0.01260292
-0.00959323
-0.03468151
-0.03631722
0.01104035
0.07444613
-0.07854788
-0.07162316
-0.08132859
0.03648639
-0.06436344
0.00188113
0.05037962
-0.07378261
-0.03516160
-0.03902737
-0.09799187
-0.01099368
-0.03633162
-0.04596814
0.04325262
-0.09627306
0.08992511
-0.04381890
-0.07270962
-0.03811131
-0.03886560
0.07031265
0.07982500
0.04608250
0.04788402
-0.00673333
0.06915915
-0.03014993
0.05388557
-0.03778085
-0.05520575
-0.03643747
-0.00476632
-0.09717078
-0.08078943
0.08140944
0.01423862
0.11266371
0.10549167
0.00300540
0.04258249
0.02477514
-0.02977615
-0.09113513
-0.08176345
-0.01039344
-0.04026420
0.00028848
0.05944539
0.08306592
0.04716876
-0.04245865
-0.00987885
0.03343640
0.02016654
0.01549647
0.05486591
0.05451348
-0.04037081
0.03197921
-0.07816649
0.06780850
0.07790540
0.06279836
-0.09662799
0.00574678
0.01682922
-0.04778811
-0.08834043
0.05411615
0.00631565
0.03922413
0.03658132
0.01594188
0.08095788
0.02815103
0.18412528
0.05736777
-0.03836486
0.06201643
-0.03680615
0.09420994
0.00585683
-0.05478206
-0.02645443
-0.00778706
-0.04764408
0.03870187
0.06302955
-0.09457458
0.08113321
-0.00135502
-0.04394440
-0.03823741
0.05878927
0.04054569
0.05327853
0.09515317
0.09841416
0.00207616
0.04344978
0.03427977
0.04623519
-0.02625876
0.01967449
0.08196267
-0.02797283
-0.07078077
0.03993116
-0.06303671
-0.07300579
-0.06237976
0.02755139
-0.06444591
-0.09276265
-0.04026672
0.03650819
0.04155737
0.10528157
0.07764687
0.07534664
-0.06785313
-0.03072691
0.02136034
-0.06502168
0.06521853
0.04996352
0.09921725
-0.07378918
-0.02986344
0.05921554
-0.01228298
0.06202287
0.05484894
0.05594014
-0.05513167
0.04223733
-0.07907554
0.05631808
0.06437967
-0.03866447
0.06980154
-0.09480658
-0.11604819
-0.06653846
0.02000495
-0.05921335
0.04995334
0.05622991
0.06108767
-0.00987175
-0.09042685
0.00469053
-0.00072358
0.00688891
0.08001292
-0.00195201
0.08418907
-0.01330115
0.05469159
0.02458263
0.08746008
0.05847154
-0.07536393
0.19847204
0.16128876
0.03984375
0.05557571
0.01084542
0.04665120
-0.02064420
-0.07430625
0.01330423
0.02919118
0.00104731
-0.07318578
0.06720922
0.03412524
-0.06761036
0.08748966
-0.01094255
0.06565550
-0.05401332
-0.07980687
0.05094137
0.08720305
0.04696682
-0.06689633
-0.04212877
-0.01212202
-0.07510878
-0.04595029
0.06626294
-0.02871261
-0.04258247
-0.07612533
-0.00458804
-0.04793731
0.02340580
0.07260621
-0.02289814
-0.05894739
0.02918368
0.01572623
-0.05207690
-0.05757151
0.10139020
0.03948269
-0.01086026
-0.06342303
-0.03184272
0.09073433
0.03157967
0.04592688
0.08183436
0.01866053
0.00622886
-0.08092254
-0.06794530
-0.04290409
0.04146368
-0.01157377
0.08052485
0.08885000
0.05000600
0.08313564
-0.07827328
0.06687492
-0.04233341
0.00444562
0.03789835
-0.12591435
-0.02933929
0.09199017
-0.02746631
-0.04516868
0.05598775
0.01520539
0.03684917
0.01499641
0.01182632
0.18093869
0.10802620
0.08762535
0.00567054
-0.01412343
-0.06621226
-0.10784836
0.02409047
0.05671949
0.04813188
-0.06503631
0.02775266
0.05122927
-0.10695866
0.03768127
-0.05918237
0.03867132
-0.00555420
-0.05483951
-0.05791416
-0.09017102
0.07269253
-0.04212726
-0.03659870
-0.00931281
0.04553821
-0.02926214
-0.03828712
0.10243216
0.01240933
-0.01673877
-0.05960927
0.04144906
0.07714542
-0.04935042
-0.03168866
0.03805738
-0.04583800
0.07235040
0.07513939
0.03730431
-0.07697370
0.00042626
-0.01324511
0.09635721
-0.00927077
0.07121534
0.07473630
-0.04866656
0.04285217
-0.08715137
-0.00071425
-0.06793069
-0.01251322
-0.06521835
-0.08642404
0.05877839
-0.00916053
-0.07979403
0.09040183
-0.03932246
-0.04062493
0.02285741
-0.09847811
-0.01361680
0.03708526
-0.08070102
0.01437515
-0.00401691
0.07717495
0.03166643
0.03887237
0.05053014
0.08602674
-0.01661581
-0.05660247
0.00006112
0.08468361
0.06835879
-0.04392152
0.05647582
-0.07645695
0.03602561
-0.04922406
0.05381097
-0.04113304
0.00002337
-0.07217957
-0.04264131
-0.07085253
0.08695220
0.01149610
0.03145209
-0.00008080
-0.06952988
-0.04570708
0.07612679
-0.11652732
0.04511864
-0.03288569
-0.05189862
-0.03086459
0.08324580
-0.09204883
-0.01389630
0.04835998
-0.07007710
-0.03546943
0.05095077
-0.09031265
-0.04594494
-0.05068417
-0.04195503
-0.06838529
-0.11837213
-0.08215932
0.01984404
-0.06045801
-0.03315245
0.05638347
0.04480033
-0.01003539
0.04387388
0.04416535
0.00464640
-0.01590567
0.08580459
0.05302709
-0.03577572
0.08784333
0.05634832
-0.05666227
-0.01356884
-0.06471850
-0.06315933
0.01254047
-0.06468921
-0.05910875
-0.05194577
-0.08463383
0.02716016
0.02856693
0.03271354
0.08686664
0.09524289
-0.04256215
0.06490707
-0.12347331
-0.01404623
-0.05237363
0.05986203
0.04250000
0.00532896
-0.01302587
-0.05733914
-0.08136119
0.08952359
0.00255676
-0.06664261
0.04858661
-0.00351085
0.07122658
0.00009405
0.11445319
0.07938578
0.11328376
-0.08039330
-0.09518815
-0.09404406
-0.14747097
-0.17546033
-0.11999626
0.01107094
0.06428582
-0.06699225
0.00499635
0.03958483
0.07914475
0.04788601
-0.07173763
0.08589291
0.03308242
-0.08470995
-0.00105353
0.02875181
-0.08586347
-0.08797628
-0.08255427
0.09586379
-0.07076603
-0.05496379
-0.03655477
0.03784332
-0.00845504
0.01594857
-0.01667307
0.07735877
0.05268179
-0.05306451
0.00527248
-0.03480163
0.06845559
-0.05337371
-0.02441056
-0.10428171
0.09321357
0.09971153
-0.04267043
0.06879436
-0.10765567
-0.03281500
-0.09232511
-0.04917384
-0.06076882
0.08372849
-0.09147114
-0.05196955
-0.04971196
0.09408522
0.03212062
0.09644802
0.02198255
0.03444232
-0.00188428
-0.00342540
-0.00418357
-0.05477121
0.06196219
-0.01848679
0.04841409
-0.03798355
0.04543744
0.07309174
-0.02882068
-0.01456752
0.05674907
-0.06764811
-0.03170095
0.04844608
0.08723258
-0.02675925
-0.00445925
0.10661692
-0.01980624
0.05540395
-0.01200246
0.05477045
0.04263276
0.01312700
-0.03241929
-0.08450378
0.04956646
-0.06761409
-0.01939636
0.03928839
0.05621170
-0.05067646
-0.05339760
0.08059305
-0.08002233
0.02987702
0.09364758
0.01768154
0.04421502
0.05968262
-0.05589037
-0.03015554
0.04152316
-0.13012674
0.06421114
0.04025440
0.08664221
0.07523105
0.15365538
0.07745513
-0.02376586
-0.01220309
0.03065526
0.04580313
-0.03010021
-0.01327265
-0.06400983
-0.05976617
-0.04108244
0.03242861
-0.00391848
0.02557623
-0.09451292
0.02198229
0.05256547
-0.07820708
-0.04594511
-0.08861175
0.05456462
0.07008180
-0.04483222
0.01090837
0.00434417
-0.04934618
0.00341852
-0.00408521
-0.06247053
-0.06528155
0.02767480
-0.02957566
-0.03790879
-0.02852490
-0.08386248
0.09081692
-0.06875393
0.00836042
0.03301841
-0.00087072
0.01431000
-0.06883617
-0.07837356
-0.04082344
-0.03463119
-0.07686703
-0.03902608
-0.05038198
-0.05287481
-0.11598808
-0.00170985
0.01950525
-0.06492806
0.00938993
-0.08475708
-0.00710016
-0.04772934
-0.09475605
0.08202163
0.07090714
0.05172754
0.08155093
-0.02040512
-0.02577764
0.09748061
-0.06118212
-0.00576055
0.09830934
-0.06359371
0.01670758
-0.00783553
0.03836085
-0.05534575
-0.05492746
-0.04539714
-0.02827261
0.05994467
0.06693724
0.09161929
0.04403944
0.05818694
-0.03402535
0.01524426
-0.04914918
0.00285470
-0.03384802
0.07046700
-0.09756422
0.16796188
0.16985587
-0.00201049
0.05877932
0.01657239
0.10184445
-0.06926754
-0.06115743
0.08452738
-0.05727426
-0.06529383
0.04809585
-0.02449692
-0.00353137
0.09571978
0.02155006
-0.07875205
-0.01954924
0.03130620
0.12349726
0.05139205
0.03807373
0.02238839
-0.08638049
-0.02335525
-0.07874534
0.09806042
0.07352136
0.05368148
-0.06024830
0.00881405
0.05866029
-0.04619344
-0.01951788
0.03852349
-0.00785330
-0.05477324
-0.03317848
0.06645093
-0.08355226
-0.07067573
0.04251024
0.00800951
0.03230766
0.02682591
0.03015995
-0.07134626
0.05856437
0.08701600
0.01721653
-0.03153372
0.02016630
0.05035880
-0.06886111
-0.00531451
0.09934353
-0.05727141
-0.00673993
-0.06999212
-0.11286873
-0.12542324
-0.10152642
0.06934922
-0.01589451
-0.05494377
0.04422359
-0.08105801
0.09525227
0.09906340
-0.04888430
0.04697957
-0.07882016
0.06214938
0.07639194
0.07791469
-0.01439339
-0.05065454
-0.05876092
0.06981458
-0.00197356
0.02492621
-0.05491888
0.08504403
0.06314228
0.06307029
-0.06473247
-0.00074267
-0.05366070
0.02048532
0.05257516
-0.10331458
0.09108552
-0.01374485
0.00566665
-0.03642552
0.03374427
0.06332840
0.12061067
0.07848969
0.05593107
-0.06649911
-0.01124872
0.14053789
-0.00983523
0.07746492
0.04164565
-0.04923355
-0.01755353
0.00225356
0.02621544
-0.07574102
-0.05776147
-0.07008401
0.05865157
-0.04024998
0.00835580
0.06349645
0.01650310
0.01115348
-0.02725507
0.01437995
-0.04034844
0.05557534
0.05428594
-0.02985142
-0.07841619
-0.05750818
-0.06542291
0.00115698
-0.02995818
0.04361656
-0.03260629
0.04509635
0.08980824
-0.00048851
0.10779230
-0.00568043
0.06510556
0.07603625
-0.03563260
0.04821223
-0.07667252
0.07693134
0.07591893
0.09429382
-0.00482374
-0.02566308
0.06590073
-0.03895602
0.01429917
0.05949828
-0.01747321
0.09061048
-0.01338416
0.05823516
0.08398636
0.05551803
0.04498911
0.06743607
0.00312379
0.05128188
0.02156766
-0.04282620
-0.10369428
-0.00933932
0.07362294
-0.00922080
0.04716814
0.08961646
0.06768365
-0.00894758
0.02350129
-0.01059470
-0.03715322
-0.01447443
0.03480222
0.04573103
0.09906364
0.03458795
0.00425269
-0.07854439
-0.04955066
-0.01327405
-0.02270536
0.00812063
-0.10177387
-0.00592659
-0.09706376
-0.04507229
-0.09878351
0.04583705
0.04196061
0.09532551
-0.06445454
-0.04849595
0.00456840
-0.00102121
-0.02733200
0.01041040
-0.05623060
0.05406714
0.02726650
0.06938027
0.00907422
0.02361531
0.00227800
0.00997015
0.09375661
-0.07013166
-0.07533534
0.01891090
0.04396364
0.04425834
0.02583680
0.07569727
0.03005891
-0.03994559
0.02103776
0.03873553
0.06232953
-0.03034380
-0.02160691
0.06360158
-0.01735660
-0.02213039
0.03254959
0.00094409
-0.03658024
-0.08198951
-0.07917415
-0.01766861
0.06055882
-0.04841676
0.02999136
-0.00783175
0.09034003
0.05114813
0.06465109
0.02214547
0.08022026
0.05194927
-0.08912172
0.06689214
0.04038726
0.06448927
0.03863937
0.06309902
0.05105851
-0.09392655
-0.01688276
0.04786019
-0.04811989
-0.09802831
0.04182357
0.06722013
0.07861779
-0.00245708
0.02888771
0.01925883
-0.08314696
-0.01414030
-0.05655167
0.02656930
0.05479078
-0.04647296
0.03153100
-0.06003503
0.08589207
-0.05923940
0.02695722
-0.01576780
-0.03706888
0.10047457
-0.00174358
-0.09316822
0.08285781
-0.09272097
0.07144880
-0.08547205
-0.00780868
-0.03182276
-0.01104071
-0.06629072
-0.02778557
-0.08624388
0.03895933
-0.00099299
0.04474789
-0.03209596
-0.01991664
-0.04693307
-0.07910420
0.07844874
0.05880126
0.06073325
0.03035287
-0.10044874
-0.02110772
0.03845840
-0.09824317
-0.05192732
-0.06799988
-0.05880464
0.02736048
-0.05368660
-0.04860257
-0.01488723
0.05418804
0.07386667
-0.05762980
-0.08905049
0.07811115
0.03204109
-0.09894425
0.07320842
-0.03628335
0.07113872
-0.03466807
0.09927699
-0.05624130
0.08017777
-0.05238187
-0.03974592
0.06171438
-0.08830473
0.03974685
0.03934079
0.05354742
0.06701737
-0.02984458
-0.01319088
-0.03738452
-0.01208368
-0.03440225
-0.03700081
0.07059391
-0.04199625
0.00818810
-0.05403080
0.03848656
-0.07769186
-0.05468881
0.08236938
-0.05567293
-0.09468795
0.08525773
-0.00997787
0.01587034
-0.09801478
0.03488805
0.08476408
0.04236778
0.01152673
0.02528805
-0.04000638
0.09273180
0.03433310
-0.08154258
0.00267028
-0.00452862
-0.07775248
0.00542878
0.06228444
-0.09304411
-0.02339414
-0.09620299
0.06591465
0.09195492
-0.09021832
0.04626729
0.01001013
0.01200524
-0.05905736
0.07160123
-0.05875595
-0.03185310
0.07892583
0.03771951
0.09166520
0.06474095
-0.04964312
0.04013012
-0.04205416
-0.03621382
-0.03118043
0.02868204
0.00220820
0.00231209
0.08764641
0.12542558
0.08550527
-0.03707684
0.01660785
0.00066833
0.01676421
0.05400265
-0.10223884
0.03103390
0.07160522
0.07310648
0.01291904
0.10544204
-0.05060940
-0.01787626
0.02998708
-0.05445049
-0.06191419
0.07905806
0.06571699
-0.02806402
-0.04047974
0.06303441
-0.07279330
0.07829196
0.05047449
0.06194880
-0.05477824
0.00842387
-0.03111853
0.05155870
-0.06462982
0.00648045
0.09679496
0.09193444
-0.01903445
0.00131522
-0.09489235
-0.07783949
-0.03023209
0.00333164
0.05159616
-0.08889128
-0.08642993
0.08030991
-0.02454285
-0.02102178
0.08379839
0.00310105
-0.08090264
-0.00405435
-0.09635521
0.06045568
0.08173253
-0.07354357
-0.09151115
-0.01197616
-0.09011567
-0.03271284
-0.01400327
0.00999961
0.06649736
-0.08544934
0.08117021
0.01544309
0.08981734
0.00128127
-0.03130696
-0.07239687
0.02483661
-0.01001963
-0.08458494
-0.01762436
-0.00184137
0.08598950
-0.02340794
0.08263962
0.00840080
-0.05287719
0.00602684
-0.05577695
0.06802731
0.02763325
0.07887344
0.00448316
-0.04509352
-0.03630312
0.02094819
-0.07099442
0.03243395
-0.00766110
0.03591851
0.04077242
-0.07004117
0.03045837
0.06655448
0.11407942
0.13046165
0.07665020
0.04731631
0.07719907
-0.02527990
0.09188545
-0.06638064
-0.02038441
-0.03899385
0.03704322
0.02732159
-0.06367096
0.07206144
0.07992406
-0.06826311
0.06789673
0.02872188
-0.10782292
-0.09391916
0.05937853
0.09743730
0.10516956
0.00094655
-0.04097294
0.08072500
-0.00320686
-0.08840262
0.05353340
0.00099455
-0.08982686
-0.06201406
0.05025925
0.05709397
-0.05750476
0.07944594
0.04923697
0.04766548
0.06263107
-0.07453969
0.10023297
0.08363648
-0.01384670
0.06331531
0.07845230
0.02180964
0.02984871
-0.00219906
-0.00399513
-0.00726311
0.06601440
-0.06218516
0.09418973
-0.08328577
-0.07881316
0.04749174
-0.02588189
0.08002984
0.09334746
0.03065757
0.09329966
0.03832621
-0.01279970
-0.04859291
0.05279201
0.08735388
0.05709484
-0.10508536
-0.01698545
-0.11188848
-0.09249036
-0.08075742
0.01984336
0.05130563
-0.03380058
0.09820416
-0.04628515
-0.05787623
-0.09761767
0.06592316
-0.04620777
0.01025303
-0.08632574
0.08123722
-0.09265403
0.00536222
0.06709249
0.07722784
0.04612103
-0.01912695
0.05738748
0.05549768
0.04800453
0.06493806
-0.04674118
-0.07831334
-0.10895426
-0.09046751
0.03965058
-0.04142399
0.05114414
0.00884564
0.02898819
0.00879484
0.07150133
-0.03870844
0.07078025
-0.06787293
-0.06555271
-0.05045824
-0.01747011
-0.07474051
0.01106286
0.02474606
-0.01536780
-0.04443328
0.07048998
-0.09662782
-0.10679217
0.04339062
0.07743246
-0.04838132
-0.06979232
-0.07873707
0.07137788
0.03183407
0.04961655
-0.04755450
-0.07634916
-0.00714676
0.09147711
-0.04276501
-0.05293879
0.04732610
0.01643669
-0.01876620
0.05506708
-0.08134434
-0.01978383
0.05017197
0.08881179
-0.05317694
0.00454559
-0.05794046
0.01925660
0.07027553
0.07379434
0.03359457
0.07529612
-0.02101861
0.00561195
0.09648054
-0.04716232
0.03163568
0.04354489
0.03784527
-0.02553617
0.06888510
0.07134508
-0.08976058
-0.07450870
0.02784941
0.07461615
-0.11356689
-0.05050273
-0.03895683
-0.04619903
0.06464104
0.01311420
-0.05458609
-0.12532535
0.05268516
-0.05815760
0.02279906
-0.03733607
0.07015116
-0.00691599
-0.06063651
-0.08311762
0.05405786
-0.02352222
-0.05439350
0.07651902
-0.04936493
0.02127555
0.03690255
0.13255101
0.10014064
-0.04825941
-0.03317402
0.09143915
-0.07126707
0.10348643
0.05460991
0.11398318
0.02499157
-0.04871366
-0.01274172
0.03575697
0.01584873
0.00169750
-0.09255508
-0.06126543
-0.00521553
-0.06207738
-0.05539250
0.03366237
0.02833634
-0.04918438
-0.07618947
-0.05478749
-0.02466857
-0.03485422
-0.04565546
0.01945983
-0.00252083
-0.07030074
0.02650993
0.03445089
-0.09152762
0.00555209
0.02765378
0.03887074
-0.08805612
0.09964118
-0.07495174
0.05399897
-0.00582235
-0.07923033
0.06942506
0.03120692
0.05481532
-0.01786698
-0.05140632
0.02899312
0.03496146
-0.05527568
-0.07224846
0.09052345
-0.09017564
0.05702557
0.00173450
0.05535059
0.06826628
-0.02927063
-0.05246078
-0.07627413
0.07214968
0.03391239
-0.06995684
-0.02070114
0.06625818
0.05665830
0.04949647
0.06360704
-0.02253068
0.10813833
0.05238833
-0.00194556
0.06427625
-0.05224109
0.06047666
-0.01329633
-0.10041541
0.04066039
-0.08598162
-0.08233391
-0.10367277
0.05444568
0.09540313
0.04898719
0.04009755
-0.07557601
-0.08568843
-0.07752993
0.09232812
-0.02238810
-0.06678185
0.00064377
0.08926876
0.09657108
-0.08504484
0.04874925
0.02959383
-0.01792921
-0.04523252
-0.11146826
0.06192346
0.02553795
-0.03112020
-0.07153410
-0.02090249
0.04854570
-0.05682647
0.05255385
-0.02855261
0.09113163
-0.00442146
0.05936724
-0.04251664
-0.03988775
0.03797644
0.05683324
0.07756569
-0.09568263
-0.07131373
0.04982723
0.07452909
0.06534158
-0.04759151
-0.01772180
0.06936837
0.04232601
-0.06227910
0.06315965
-0.10327424
0.06260282
0.06807619
-0.00738112
0.03041661
0.06148537
0.06883558
0.08371870
0.00375352
-0.06958240
-0.06140915
-0.04387304
0.08636806
-0.06203209
-0.06715128
-0.09705839
0.09833114
0.09960590
-0.02503859
-0.08769410
0.07430118
-0.03389184
0.08864079
-0.07293284
0.09638668
-0.00891250
0.07515347
-0.03207825
-0.04464261
-0.01121828
-0.01225190
0.06968967
0.09612858
0.05711597
-0.02606698
-0.03263078
-0.04200410
-0.01348614
-0.09403788
-0.02321811
0.08640683
-0.03492913
0.09845253
-0.09856437
0.07230569
0.07484099
-0.01663486
-0.08874038
0.00179910
0.00411348
-0.07080513
0.03777421
-0.03281875
0.08168381
0.03721319
0.09031583
0.06677982
-0.02623174
-0.08924680
-0.00348851
0.04267232
0.07175220
0.08672574
0.01860428
-0.03159883
0.03934011
0.00414513
0.06476646
0.01886567
-0.08582263
-0.05764338
-0.04326019
0.09678521
0.00001127
-0.06411692
0.05733571
-0.00912153
-0.07243102
-0.00937912
0.00315799
-0.02265391
0.09562806
0.09799592
-0.08138207
0.02153896
-0.04006492
0.07335277
0.05054438
-0.09303910
0.05007418
-0.07724248
0.07638416
-0.07513610
-0.06199454
0.05112809
-0.00247597
-0.09138961
-0.03937950
-0.03098385
0.03632938
-0.00740998
-0.01501068
-0.06486150
-0.03966387
-0.06621431
-0.09859290
-0.10682944
-0.03592534
0.05798144
-0.03048731
-0.11126257
-0.05826029
-0.02507290
-0.04261633
0.01696133
-0.07084824
0.03171828
-0.08253896
-0.06337278
0.08316514
-0.09513458
0.06110160
-0.03522926
-0.02616033
-0.02401857
0.05317829
0.04315060
-0.03682118
-0.02968506
0.00853531
-0.04986273
0.00003758
0.09074734
-0.03608835
0.07786627
-0.04614998
0.07676366
0.04151313
-0.00673721
0.03438480
0.08301908
0.07396850
-0.08304187
-0.09611070
0.08702769
-0.06786241
-0.05025829
-0.07016998
0.03763561
0.07654891
0.07798989
-0.04095011
0.03129751
-0.04304711
-0.01812773
0.05456119
-0.03260805
0.07607773
-0.07974768
0.04515321
0.07098762
-0.00377223
-0.04281904
0.06894790
-0.08919515
-0.02111595
0.03277856
-0.02858150
0.04481026
-0.08043458
-0.05023312
-0.09880498
0.00593630
-0.06614941
0.02113372
0.03340166
0.08201974
-0.05744207
0.09469190
-0.05523341
0.08783283
-0.09305123
0.04202272
-0.01556177
0.03519259
-0.03541137
-0.07805400
0.05051876
0.09011081
0.08802191
0.07945128
0.07018083
-0.08522845
-0.05156940
0.00552914
0.08564527
0.08545514
-0.02064777
-0.06461187
-0.06819313
0.04973680
-0.06188916
0.03891888
0.07816650
-0.06303988
-0.06060885
-0.04196849
-0.02340597
-0.07942077
-0.00447683
-0.02422683
-0.01370107
-0.04377361
-0.01212111
0.05654499
0.03684847
0.09248566
-0.07586700
-0.09315810
0.08266416
-0.07004544
-0.02001610
-0.06425304
0.05354575
0.00164724
0.00258612
0.06881827
0.04806022
0.04054147
0.02147287
0.02270294
-0.03200637
0.09517366
-0.07432728
0.01256398
0.05080953
0.00995471
-0.05468327
-0.01856487
-0.07438784
-0.00645037
0.07004288
-0.07734752
-0.01521059
0.07366179
0.07623520
-0.06612231
-0.07632552
0.01437998
-0.05666393
0.05754476
0.04596222
0.06390457
-0.09732122
-0.00215911
0.05604760
0.03086598
-0.06371509
0.04436063
0.06686043
0.07002767
0.01150661
0.07646830
-0.01322192
0.03320070
0.01255554
-0.01131636
0.09619688
-0.04994540
-0.01182191
-0.07804130
0.05536746
-0.02752805
-0.09472861
-0.04286835
-0.03209110
0.03052055
-0.03813484
0.01276286
0.06005300
0.01309699
-0.07533988
-0.01195488
-0.08251548
0.08241158
0.00165395
0.06941700
-0.01781042
-0.08213865
0.06676167
-0.04149622
-0.06897583
0.00767490
-0.08035896
-0.09737286
0.02244839
-0.05317868
0.05854393
-0.07223750
-0.02301198
0.03321845
-0.00152139
0.04216165
-0.05964138
0.07926071
-0.04577120
-0.03042470
-0.07602841
0.08341779
0.04044884
-0.07926165
-0.01770476
0.05124889
0.01621392
-0.04451713
0.06516328
0.08268187
-0.08972381
-0.00939709
0.06155913
0.01836821
-0.08750731
0.01803708
0.00100895
0.08729989
0.06547472
0.08088004
-0.08161577
-0.00589150
-0.08139710
0.07403566
-0.07412169
-0.09829563
-0.02058320
-0.08731319
-0.02908417
-0.07431408
-0.07651682
0.08067634
-0.04344533
0.06622738
0.08762666
0.07282830
-0.05708479
-0.08055193
-0.08991360
0.07414454
-0.03569312
-0.01796242
0.09698515
-0.02655649
0.07244657
0.01383902
0.01350223
-0.08347619
0.03984657
0.09340885
0.05852517
-0.01630086
-0.09221908
-0.06920317
-0.02289801
0.06643045
0.01820568
-0.07289914
-0.03833722
0.00861738
-0.03064696
0.05002234
0.08334756
0.02138205
0.06871987
0.08490597
-0.04212916
0.02911040
-0.09091892
0.04643811
-0.00321602
-0.03316334
-0.08744488
-0.02851337
0.07002496
0.03762980
-0.03902911
0.03768596
0.06798093
-0.08079561
0.09236763
-0.06662769
-0.07682592
-0.05623438
-0.03470507
-0.03556263
0.02632067
-0.04217954
-0.06922955
-0.00969177
0.01773991
0.02565455
-0.00589486
-0.02862130
-0.01031499
-0.09539930
0.08555138
0.07960350
0.01832799
-0.09828501
0.05619070
-0.00360460
-0.02953162
-0.03649855
0.09880473
-0.01380362
-0.05965957
0.04502152
-0.03950302
0.03777049
-0.08416682
0.01070663
-0.03851777
0.07479092
0.07976414
0.01107873
0.09689472
-0.09111146
-0.07389410
-0.05210454
-0.05802003
-0.00116126
0.08721602
-0.00903014
-0.04176897
-0.07854488
-0.09637689
-0.03152502
0.00476535
-0.09934520
-0.00013210
-0.03769312
0.07615599
0.06182946
-0.06157321
0.00798643
0.02148770
-0.08727820
0.06232141
-0.09020614
-0.05139234
0.08862720
0.09554015
-0.06931871
0.00473828
-0.03217159
-0.03053576
-0.06629853
-0.09384986
0.05592053
0.09134951
0.04794747
0.08853554
0.02371915
-0.05221653
0.05984556
0.08440166
-0.07042235
-0.07089329
-0.09942743
-0.01372309
-0.08620069
0.00048091
0.02425545
0.03997176
0.04577888
-0.06459461
0.06159580
0.09170000
0.01670360
-0.02158789
-0.00893496
0.00580200
0.04860322
0.05241617
0.05062860
0.02233613
0.01150029
0.03625907
-0.06286254
0.09742839
-0.06455093
0.09859952
-0.05316110
0.03736597
0.05233551
0.02845352
-0.09263979
-0.07974031
-0.05186207
0.02622847
0.07554484
-0.08973927
-0.04870800
-0.09005350
-0.09131930
0.08942176
-0.04576503
0.09632942
0.03510364
-0.01175187
-0.01801651
-0.06680730
0.01529030
0.04940136
-0.03295454
-0.06757839
-0.01967090
-0.00002898
0.02220668
0.03652572
0.08707082
0.05014905
0.05192449
0.03148192
0.03657479
-0.05571723
0.08427440
0.02998079
-0.08973346
0.02514807
-0.07348274
-0.09162049
-0.06471013
0.03489112
0.03210424
0.02355488
0.07919644
0.06219054
-0.01292804
0.05050007
-0.01652841
0.01066675
-0.05564171
0.07825113
0.03858757
0.06927595
0.03174105
0.07355836
-0.05630601
0.05416290
-0.05100736
0.05682283
-0.00957784
-0.08758276
0.08761661
0.00844149
0.00279427
0.08014844
0.07036314
-0.06627432
0.08527596
0.01554028
0.00695446
0.08594682
-0.05925994
0.02303737
-0.07709122
-0.09836837
-0.01781044
-0.03180691
0.00916066
-0.09327531
-0.07162577
-0.08875045
-0.00400809
-0.03975767
0.01851648
-0.06972420
0.07015807
0.02949914
0.05156960
-0.03576543
-0.06562320
-0.03184063
0.02584306
-0.09448147
-0.04866397
-0.05894897
0.00395931
0.07407158
-0.04363524
0.09645226
-0.06921322
-0.05164885
0.01882896
-0.05596714
-0.08960418
0.02341402
-0.01065251
0.02654503
0.01611793
-0.00353730
0.03760862
-0.01083487
0.07662763
0.09014584
-0.08604707
-0.00355245
-0.03656014
-0.00213716
-0.04347789
-0.07033747
-0.02745481
0.06335714
0.08495789
0.00397228
-0.04829401
-0.03528579
-0.07293022
0.01531702
0.00921143
0.00659256
0.04299988
0.03182989
-0.00193247
0.05521150
-0.05107863
-0.06421761
-0.00347759
-0.08927952
-0.06004149
-0.01696457
-0.09545473
0.09681213
-0.08217503
-0.00668608
-0.04254358
-0.07574296
-0.00313069
0.07387389
0.05608919
-0.02902539
-0.00813716
0.01571608
0.06229333
0.09147777
-0.07446522
-0.05898978
0.05829674
0.09153342
-0.08807715
0.03178667
0.03416643
0.04915419
0.08701765
-0.06899572
-0.04252980
0.02841130
0.02701636
0.00089585
-0.06088361
-0.08503770
-0.08808385
-0.05271082
0.00863035
0.06510109
0.04536969
0.02876751
0.07451771
0.02070077
0.09468063
-0.03646227
0.03950104
0.09878452
0.07240710
-0.07673542
0.07737148
-0.02258773
-0.03334997
0.04812379
0.01371760
0.00275996
0.03232382
0.08383784
0.04601184
-0.09307554
-0.01862872
0.02842450
-0.00579100
0.09773213
0.09625302
-0.08458516
0.04928497
0.08693903
0.08381785
0.04642747
-0.02861980
-0.01816344
-0.07374803
-0.00160854
-0.09573603
0.04010154
-0.03681862
-0.04216503
-0.03730062
0.00852726
0.00208616
0.01607148
0.00844069
-0.03931544
0.05880503
-0.01023630
0.05454153
0.04891448
-0.02809889
0.06308125
-0.04107436
0.04963511
-0.03536266
-0.00083843
0.01290758
0.02279573
0.09873935
0.02662361
0.09061913
0.09464554
-0.06922907
0.04826804
-0.05789118
0.00076867
-0.06425908
-0.05760434
-0.05503562
0.09071852
0.07810354
-0.04771440
-0.04436822
-0.07986138
-0.06701810
0.01331081
-0.05089751
0.01161808
-0.00567369
-0.01923572
-0.01517748
-0.02207908
0.04888592
0.08107373
0.07240315
-0.08297198
0.05743905
-0.09277568
0.07135822
-0.09213804
0.09570259
0.03350913
-0.09159089
-0.03018714
-0.00881634
0.06967949
-0.06374399
-0.04115889
-0.04543374
-0.00033542
-0.02308848
0.07624979
0.08058869
0.04999807
0.02255183
0.05872507
-0.03619130
0.05703450
0.07802149
-0.04287482
0.01721540
-0.09534342
-0.07369125
0.04118046
-0.04385957
-0.09458249
0.03153870
0.03511803
-0.01502604
-0.07238720
-0.05580515
0.06573394
0.02403589
-0.09276582
-0.06902815
0.03146177
-0.00712521
-0.05070692
-0.08207806
0.06454723
0.08334405
-0.09156147
-0.00251410
0.01833608
0.03507033
-0.00972275
0.09560796
-0.00063638
0.08115815
0.04630119
-0.02550738
-0.00700272
0.08354055
0.06811947
-0.02862580
-0.05209989
-0.02082152
0.07909325
0.04177748
0.07626977
-0.08612343
-0.02791396
-0.07891602
0.01019020
0.00398093
-0.09021882
-0.00049851
0.08015926
-0.08232418
0.05433542
-0.04319300
0.04979513
0.08744685
0.04768491
-0.01350902
0.05132434
0.03103281
0.03358301
0.02683663
-0.05720125
-0.06082854
0.08501449
-0.07108968
0.06004611
0.09567789
0.03419665
-0.08204102
0.06760409
0.00529259
0.05929054
0.09424437
0.07335511
0.09318726
-0.05626498
0.06583582
0.07168249
-0.05545736
-0.09062428
-0.00857172
0.03752886
0.07554299
-0.05692346
-0.08543472
0.04234882
0.06675984
0.04655465
0.00495743
0.08558540
0.10711796
0.00217762
0.05118985
-0.04925565
-0.04039564
0.09613429
0.07131466
0.03501666
-0.07435595
-0.06399391
-0.01430179
-0.04583933
0.10886899
0.03807257
0.07273239
0.01334223
-0.02983453
-0.00241035
-0.01959339
-0.04496332
-0.03861320
0.06838266
0.07346615
-0.03503116
0.06249326
-0.03302496
0.05979574
0.08893321
-0.02886115
0.06407248
0.04553281
0.04858544
-0.03817085
-0.08626703
-0.03723833
0.01933488
-0.07212216
-0.07347468
0.01670155
0.08989865
-0.01471647
-0.02118281
0.01519307
0.04650124
-0.05749520
0.02312692
0.08037279
0.06784706
-0.07922254
-0.04529819
-0.07924998
0.07558255
0.00515353
-0.09939682
0.01637310
0.09764800
-0.05913985
-0.08865508
0.07601403
0.04764165
-0.02448242
-0.02156024
0.07992122
-0.00541930
0.05632381
0.01594269
0.00479718
-0.04386934
0.00727165
0.09643770
-0.05624462
-0.08880613
0.01426483
0.05793708
-0.00336231
0.03129913
0.04361224
0.09376806
-0.02423358
0.08864876
0.03122152
-0.02914591
0.07259824
0.08225250
-0.02782930
-0.04063734
-0.02997939
0.05331053
0.03290444
0.04523489
-0.00124104
0.08524666
0.04169146
0.00262289
-0.09742054
-0.01553955
-0.05830244
-0.01383746
-0.06861598
-0.05075871
-0.01732367
0.02234777
0.07733104
-0.05358703
0.03915275
-0.03334786
-0.00479653
-0.00719291
0.10061352
0.06779483
0.04991518
-0.01964113
-0.03045891
-0.07047584
0.04488022
-0.06579196
0.08695081
0.07763852
-0.06660975
0.09705144
-0.05345532
0.07517529
-0.09087389
-0.04492567
-0.06405755
-0.02854817
0.00097532
0.06396464
0.02162475
0.04407244
-0.03035838
0.06634010
-0.03811195
-0.03210361
0.05411377
0.02116051
0.00753505
0.03991676
-0.06222592
0.07346487
0.08048917
-0.08367326
0.09545649
-0.08033701
0.03478884
0.08356977
0.04534857
0.02807769
-0.02306649
-0.02944554
-0.05284542
0.00664016
0.09053802
0.03959781
0.09745101
0.02225316
0.06009984
-0.06172882
-0.02496509
0.03677691
0.01379061
0.01403610
-0.06321564
0.01114347
-0.05965195
0.09479242
-0.09073952
-0.05142925
0.00671772
0.05125672
-0.01075345
-0.02072309
0.00148007
-0.06121870
0.07168952
-0.09638600
-0.03976739
-0.00894876
0.09873733
0.04457103
0.08756284
-0.03750927
0.01323775
-0.07705131
-0.03411170
-0.06604328
-0.00809596
0.02117289
-0.09797040
-0.00220560
-0.08960070
-0.05244844
0.05915676
-0.02204312
-0.00199573
0.09735815
-0.07924823
-0.05250303
-0.00991846
0.06865172
-0.01450481
-0.03450802
-0.08421883
-0.02316533
-0.08455461
0.04878988
0.07890371
0.00290436
0.04250794
-0.07082451
0.03313825
0.00942602
-0.05285490
-0.04454940
0.00738626
-0.09344073
0.06981534
0.05767253
0.03550882
0.03762834
-0.04789276
-0.05806373
-0.06468370
0.02145673
-0.04409161
-0.01842262
-0.07385253
-0.05714748
-0.07821514
0.00847842
-0.02237190
0.01038723
-0.02478470
0.04007297
-0.06581749
-0.02773621
0.08643025
0.06087250
-0.02377107
-0.06105204
-0.04594120
0.03136032
0.07828728
-0.05140252
0.09110233
0.08052695
-0.09054275
-0.08473991
-0.02870723
-0.07429954
0.02318231
0.02857276
-0.03115484
-0.01662256
0.06112063
0.02889683
-0.06909431
-0.06176694
-0.08108885
-0.02739643
-0.06540041
0.07578493
-0.08617258
0.08805262
0.00814835
0.08111192
0.03030337
-0.03438766
0.00019460
0.01366390
-0.03041334
0.04157450
0.05237052
0.01227597
0.01419029
0.01492462
0.04781181
-0.07683326
0.02911640
-0.08914013
-0.07348939
-0.02400979
0.03656376
0.06262349
-0.04400525
-0.09983572
0.08321651
-0.06343656
0.01589066
0.02342050
-0.04237627
-0.04497219
0.00402242
0.06714032
0.06042022
-0.06670339
0.09120309
-0.06951562
-0.01315567
-0.02015803
-0.04193583
-0.03202060
0.06613500
0.04855424
-0.01378876
-0.02511466
0.05576698
-0.03812551
-0.03016730
-0.04198608
-0.00173758
-0.02457374
0.05454135
0.02000208
-0.07443155
-0.02270816
0.06321665
0.04859737
0.09490873
0.09418391
-0.09278953
0.09717511
-0.05597115
0.06070956
-0.03118398
-0.08108592
0.08830281
-0.01304142
-0.03425354
-0.03395483
-0.08069761
0.05910199
0.08349446
-0.02180423
0.03826306
0.03907653
0.08446493
-0.05237703
-0.01835125
0.07244010
0.06617679
0.03832359
-0.09454822
-0.05465466
0.05198823
0.09843021
0.01998679
0.03386321
0.02150735
0.07996172
-0.04048874
0.07900584
0.08660762
-0.07381202
-0.02287743
0.02353004
-0.05673240
-0.02867029
0.07790394
-0.01540477
-0.07144084
0.00895791
0.04677075
-0.03077215
0.00521200
0.05390216
-0.00332961
-0.09596670
-0.01572870
-0.09035198
-0.03944016
-0.07726672
-0.09808067
-0.04628465
-0.02360859
0.07177283
0.09386848
0.07277870
0.03299578
0.03090138
-0.02461509
0.02656087
-0.06666325
-0.00772864
-0.07602673
-0.09895959
-0.05852864
-0.07686060
0.03210111
0.04032344
-0.00664844
0.03806129
0.07877556
0.03979124
-0.02237919
0.09803205
0.04250659
0.09746668
-0.02500294
0.05678939
-0.07996913
-0.02048577
0.05544140
0.06446672
-0.09124914
-0.05406779
-0.02605906
-0.07800038
-0.01849446
0.08017308
0.07142618
-0.05718087
-0.09229846
0.05902206
-0.08199210
-0.05982710
-0.04784482
-0.06875605
0.08378075
0.09085236
-0.09365438
0.03470060
0.05771815
-0.01947296
-0.05645726
0.00076700
0.04326073
0.08272960
-0.05190359
-0.04075961
-0.00726161
-0.03531275
0.05059142
-0.00481368
0.09323693
0.02224659
0.03040453
0.00346534
-0.05529272
-0.07574438
0.07427613
0.08123252
-0.02660483
0.08575791
0.03290677
-0.08946844
0.03420198
-0.01685140
-0.05410456
-0.08693031
0.09350264
0.00147233
0.09856053
0.02475480
-0.06467581
0.07268096
-0.04277881
0.08216554
-0.05813981
-0.05649603
-0.08750139
-0.04418742
-0.00979100
-0.00854812
-0.03924254
-0.03149057
0.00485661
0.07553671
-0.02793750
-0.06265543
-0.09322682
-0.11388989
-0.06600012
-0.10299939
-0.03648678
0.06055160
-0.07559868
0.09652077
-0.05800002
-0.04887736
0.03104662
0.06676807
-0.05986533
0.07950929
-0.02835573
0.09973968
0.02858704
0.02051835
-0.04120114
0.07504769
-0.10095413
-0.00757056
-0.04791918
-0.04714489
0.05781270
0.03282061
-0.00240013
-0.08871224
0.00897083
-0.01918918
-0.08084256
-0.01386318
0.07725408
-0.01930316
0.01468555
-0.07985291
-0.00749988
0.02137339
0.04315613
-0.00807286
0.00462748
0.06094667
0.03122657
-0.00392595
0.04167328
-0.02191724
0.08022011
0.05669248
0.03456089
0.01061274
0.01241148
-0.05603062
-0.04949537
0.00416736
-0.00066400
-0.02939730
0.09691994
-0.02094086
0.01653233
-0.06239620
0.01221630
0.08466071
-0.00948147
0.06693977
0.06821045
-0.03907645
0.06016746
-0.08022521
-0.05622319
0.05541044
0.02979996
0.08055355
-0.06393116
-0.00848516
0.00662013
0.09146106
-0.03352860
-0.09269840
-0.05808675
-0.06654053
0.06225527
0.07981865
0.02249345
0.04981860
-0.05867820
0.02590896
-0.00539676
0.08907638
-0.04922397
0.07431028
0.05984777
0.03259717
-0.03549265
0.02982970
-0.01111355
-0.08024423
0.09871888
-0.07659133
0.07677817
-0.07423330
-0.05174335
-0.07359214
0.08049694
-0.05161524
0.09855850
0.03165250
-0.05560690
-0.07633097
-0.05432556
-0.05083354
0.03307716
0.01670073
-0.06508622
0.07484269
-0.06092122
-0.08629976
-0.08062438
-0.09377281
0.04010231
-0.11539142
-0.02385937
0.06241764
0.03984356
-0.06109582
-0.07788245
0.02160122
-0.02193286
0.08673063
0.01817882
0.04172414
0.00957976
-0.09206303
-0.06814793
0.00946872
0.01759470
-0.04873720
-0.00296611
-0.08824436
-0.00610589
0.07904881
0.00690988
-0.07098569
-0.07805841
-0.05669034
0.02743551
0.00785025
-0.10013905
0.03485763
0.01175399
0.09689354
-0.01768554
0.02467658
0.08655054
0.08856255
-0.00301321
0.06582102
0.07149627
0.09708479
-0.05963796
-0.06368715
-0.01715874
0.01972530
-0.08490097
0.03744106
0.02687537
-0.05074706
0.01693914
-0.07569871
-0.06533223
-0.02327216
-0.08964144
0.02624709
0.05231959
0.04319875
-0.02775866
0.08537988
0.06430762
0.07238347
0.00573535
-0.07081426
-0.06534842
-0.06830701
-0.02705503
-0.06173970
-0.08157692
-0.05712157
0.04156198
-0.06069890
-0.06233610
-0.08255554
-0.05107789
0.09272044
-0.04053291
-0.10029569
-0.09003276
-0.05342972
-0.07724195
-0.00456315
-0.03377989
-0.04965754
-0.03790244
-0.03413072
-0.00657279
-0.04334824
0.09685171
0.09245576
-0.06417597
0.05385674
-0.04431599
0.04184300
0.06732985
-0.08270207
0.00399828
0.06181312
-0.01926664
-0.00150381
0.04461575
0.02851426
-0.08715244
-0.06620009
0.01107042
0.03044293
0.02804647
0.02780281
0.04364326
0.08277148
0.08708812
-0.06290622
-0.00439812
-0.01692503
-0.09612377
0.09823381
0.05190257
-0.01168174
-0.08434122
-0.05130650
0.02014800
-0.02557105
0.06912864
0.05896879
0.04172626
-0.03487221
-0.04472373
0.05837552
0.09440439
-0.05155945
-0.09499314
0.07030600
-0.09003766
0.09375358
-0.06684905
0.03914492
0.05996755
-0.08542849
-0.07335465
0.06603910
-0.06839077
0.00505946
0.07988315
0.08901928
-0.00058227
-0.01036832
-0.02444872
0.08142859
-0.09741047
-0.01603595
0.09618320
-0.04192524
-0.03955966
-0.08244614
0.08436436
-0.07293964
-0.05101529
-0.08061143
-0.02559887
0.05518499
0.09535819
0.02897752
-0.04498677
-0.04081528
0.07628114
0.03445033
0.00332400
0.02406899
-0.05526194
-0.09958838
-0.03840488
0.01632377
-0.03487888
-0.06089189
0.06330896
-0.04053986
-0.08682612
0.06532700
0.04688853
0.08661150
-0.01858485
-0.08504537
0.04028752
-0.02362352
0.03742189
-0.05642834
0.00889066
-0.08128140
0.05101070
-0.08939698
0.06490671
-0.06643070
-0.00664215
0.01540475
-0.00526498
-0.00911135
-0.08578188
0.00059150
0.01724809
0.09687031
-0.06828848
0.07472295
-0.04004151
0.03814733
-0.05565483
0.06049859
0.07446591
-0.07061022
-0.05210624
-0.07700722
0.04347380
0.01458623
-0.00479138
-0.06274084
0.04746683
-0.04623668
-0.09777599
0.00935443
-0.00733860
0.07848684
0.01701176
0.09137304
-0.01852401
0.02635377
-0.03481700
0.05742813
-0.00604755
-0.07649476
0.01732073
0.02368130
0.07598725
-0.03556029
-0.09079991
-0.01281488
-0.02767669
-0.01508975
0.03792684
0.04387081
-0.07658786
0.00649422
-0.04050081
-0.07202240
-0.04171919
0.03270642
0.04172953
0.03632102
0.09297028
0.01603979
0.01071440
0.07645326
-0.06771701
0.00334243
-0.02507437
-0.07652830
0.03994671
-0.05572500
0.06430448
-0.02893693
0.08016263
0.07692769
-0.00552974
-0.03335630
-0.00865325
0.09662178
-0.08890933
0.04314513
-0.06677561
-0.05679338
-0.05010666
-0.04999401
0.00269770
0.02911810
-0.07288261
-0.08659427
0.00850971
-0.06427289
-0.09280573
0.00744746
-0.07940314
-0.04980526
-0.07240141
-0.02281391
0.09317966
-0.02983667
-0.03653509
-0.07206390
-0.04052968
-0.07607520
-0.05485319
0.08122832
0.08634715
0.03573870
0.10218078
0.01388365
0.03677581
-0.09496258
-0.03457449
-0.03480312
0.06825797
0.05042838
0.00929078
-0.05758407
-0.00576637
0.07874905
0.00831555
-0.04714867
-0.05362156
-0.06816978
-0.02759384
-0.07180578
-0.07442127
0.03828910
-0.02397399
-0.02627586
0.10190736
-0.00693850
0.07557547
-0.02077318
0.02025551
-0.00653326
-0.06657034
-0.01416230
-0.01665708
0.01208501
-0.03038800
0.09670033
-0.00876919
-0.00229144
-0.04792042
0.09233867
0.07121876
0.06782538
0.00667389
0.07214199
-0.01604040
0.08988998
-0.08147126
0.05518147
-0.05826892
0.09031988
0.06210168
0.03752950
-0.04049522
-0.06010703
-0.05830529
0.07864021
-0.02223887
-0.09693567
-0.04274475
-0.07300903
-0.04370653
0.08252446
-0.09051128
-0.00071106
-0.06277428
-0.02201586
-0.08214569
-0.04250886
0.05696962
-0.09152940
0.06560911
0.07280717
0.03816149
0.03612114
-0.04031579
-0.09801846
0.07937475
0.07362740
-0.05346440
0.06064839
-0.03540877
0.05729935
0.00059122
-0.05860020
0.04702104
0.06229519
0.01490618
-0.05941398
0.10150071
-0.04943164
-0.03705465
-0.00126345
0.10759721
0.02901751
-0.03123326
0.09675173
-0.04460846
0.05289003
0.05629968
0.07745274
-0.07416513
-0.01621867
-0.02193126
-0.08684623
-0.01266785
-0.01612123
-0.04321641
0.05249636
0.06360631
0.00595636
0.03966768
0.03451682
0.09323775
0.01402456
-0.09065105
-0.06415613
0.02654136
0.06109972
0.04562169
-0.02845219
-0.09159447
-0.00253435
0.08374993
-0.06745787
0.04834445
0.01152631
0.08573293
-0.02410902
0.03040571
0.00894320
0.08193193
0.00100295
0.07346999
-0.10022501
0.03584016
0.03421404
0.07790341
0.00725278
-0.00398541
-0.05064621
-0.04249594
-0.04357585
0.05422280
0.07059254
0.04224635
0.08978345
-0.07330815
-0.05818299
-0.05721577
0.05096911
-0.00017401
-0.06597259
-0.00991271
0.05016505
0.05245709
-0.07698295
0.05051990
0.09772584
0.02626564
-0.02041791
0.04010053
-0.05602356
0.06370052
0.00605311
0.04747487
0.08476992
0.04674024
0.07292164
0.00492361
-0.03875956
-0.10178176
-0.06495742
0.01588311
0.00024442
0.00197623
0.01817533
-0.03938813
-0.06813974
-0.01385184
0.03008804
0.10060254
-0.05782711
0.01084965
0.07722426
-0.04781641
-0.05365197
-0.00250596
0.09833946
0.04273265
-0.03604091
-0.03129120
0.08562380
0.06045645
0.10795114
0.04563808
0.11595547
0.04715766
0.05999786
-0.02910477
-0.07450019
-0.07965432
0.06615143
0.02551106
0.07180103
-0.07615173
0.10260394
-0.00689625
0.09356608
0.02185089
0.09841473
-0.02125659
-0.02372517
0.04569045
0.08316518
-0.06210628
0.04792579
0.02868907
-0.01609009
-0.01520074
0.05493954
0.01567300
0.00285095
-0.08116982
-0.06950166
0.02348648
0.05000462
-0.09587526
0.05547263
-0.09873731
0.02343906
-0.04829808
0.03484346
-0.09942283
0.02115634
-0.09835494
-0.01831097
0.01863734
-0.08942225
-0.08782740
0.00377905
-0.03174584
-0.01149738
0.07774760
-0.08116684
0.09579369
-0.06987515
-0.04021855
0.07848493
-0.04393044
-0.09257519
0.04268650
0.03317690
-0.01338120
0.07689353
0.08370906
-0.04463776
-0.08885738
-0.04853830
0.04735992
0.07169218
-0.00774128
-0.07106881
-0.04479877
-0.08120357
0.04876299
-0.04873258
0.06711919
0.03276749
0.06998280
0.01954263
-0.08749269
-0.02932156
0.02269641
0.01998333
0.02677833
-0.03172575
-0.06601369
0.06775155
0.01427206
0.06768853
-0.02215393
0.00885881
0.05617606
-0.00952322
-0.03044645
0.12612653
-0.04363603
-0.01420207
-0.00195623
-0.03291362
0.07743572
0.01383433
-0.02727397
-0.01972039
-0.03566557
-0.04194203
-0.08642552
0.09216988
0.02780680
0.04300242
-0.12043155
-0.12011609
0.03829887
0.03148697
0.08976884
-0.05461675
0.07928346
0.03451404
-0.02006782
-0.00262217
0.09483501
0.08066215
0.04246743
0.01660504
-0.03087411
0.02125476
0.00641599
-0.03051035
0.07894193
-0.05227376
-0.07836886
0.07901416
-0.07444191
0.02314029
-0.01240031
0.00221241
0.01658167
0.02944168
0.09235840
-0.01964918
-0.03478345
0.07858860
-0.04796310
0.05143907
0.03671229
-0.07888149
-0.01465380
-0.02746839
-0.01339358
0.04015783
0.02394351
0.05885262
-0.06285423
0.03992932
0.06124146
-0.03392473
0.03628758
-0.07383506
0.07385246
0.03650758
0.03356271
0.07220531
-0.00324741
0.07248445
0.06428594
-0.04539679
-0.07000615
0.04754312
-0.05401948
0.02408782
-0.03400594
-0.00021939
0.00876855
0.04692992
-0.04594994
0.01904797
-0.03121493
-0.09338193
0.04835201
-0.10277862
-0.02905699
-0.00925625
-0.04071592
-0.14243346
-0.08330713
0.02552874
-0.03441526
-0.05990994
-0.11216375
-0.05292386
-0.01057974
-0.08859229
0.01127663
-0.12193662
-0.10011067
-0.10943425
0.07615007
-0.11650761
-0.11968423
-0.02213342
-0.02135795
-0.02738415
-0.04910024
0.02155265
-0.01294620
-0.01194721
-0.04782659
-0.02805641
-0.02474341
-0.04586244
0.00293238
-0.01545839
0.05518859
-0.04400711
0.06396845
-0.07417954
0.02188536
0.05969446
-0.10375532
0.08739804
-0.04791883
-0.01256867
0.02525399
0.04666716
0.04917543
0.01972809
0.01760201
0.03467669
-0.05140611
-0.03532605
-0.05158425
-0.04567818
0.04116551
-0.08494551
0.00821241
-0.03117589
0.03130311
-0.06685158
-0.04547641
-0.03523291
-0.04462438
0.08518520
-0.02256191
0.07668096
-0.06917540
0.07250536
-0.08384061
-0.03851221
-0.04285542
-0.01304921
0.07949176
0.00859268
-0.07316682
0.00469644
0.02418970
-0.05128199
0.04250115
0.05114847
0.06239729
-0.04890989
0.08379524
-0.07959822
-0.05624423
-0.04763301
-0.07876819
-0.08886760
-0.04093171
-0.07450590
0.08228404
-0.00266012
0.05732751
0.07379197
0.05326466
-0.00949224
0.05523314
-0.05920697
-0.07042365
0.04139500
-0.12250889
-0.10966096
0.01885576
-0.00803852
-0.06743087
0.05860560
0.04201985
0.03411506
0.10374656
0.08914027
0.12149540
-0.04051533
0.11113607
-0.01561395
-0.04165192
0.06987453
-0.07062852
-0.00786715
0.11582141
0.12392675
-0.03842603
0.16107179
0.06001985
0.12511811
-0.04013027
0.02132619
0.00885741
-0.01812031
-0.09433622
-0.10849946
-0.04149389
0.04636565
0.01785884
0.04105516
-0.04102043
-0.03062765
-0.05578740
-0.05881705
0.02489276
0.06392942
-0.10629682
-0.01860763
-0.07243845
0.04600287
-0.06889897
0.05802525
-0.10057157
-0.04394289
-0.05033380
0.00065265
0.09642099
0.00500663
-0.05228511
-0.10195334
0.00470427
0.02284697
0.03346620
-0.00788387
-0.09637717
-0.07009974
0.02855397
0.08016114
0.03147355
-0.03186524
-0.02557517
-0.07175969
-0.09252774
0.01523199
-0.05021769
0.00292577
0.04413222
0.07364460
0.00293859
-0.09116931
0.02164021
0.03512837
0.09147424
-0.04213633
-0.07765050
-0.05990437
-0.05427577
0.07250371
0.09444368
-0.07637260
-0.00334672
-0.08765383
0.07386143
-0.09640655
-0.06480490
-0.10017435
0.08536212
-0.04846270
0.04149511
-0.03699003
0.04512782
-0.01216374
-0.06234955
-0.05446578
0.03967496
0.02227030
-0.04598916
0.12341358
-0.04831991
0.03655396
0.02100117
0.04274912
-0.05906850
-0.05207487
-0.04367302
0.00946193
0.05817055
-0.17649029
-0.05047904
-0.14350322
0.01202224
-0.04578764
0.05672327
-0.03212438
-0.03781579
-0.00954968
-0.11503074
-0.09596061
-0.02426331
-0.02277802
0.15108733
0.02876553
0.08551588
0.08664411
0.06854234
0.03730335
-0.09736131
-0.05666093
-0.10638005
-0.10061306
-0.08292682
-0.09890984
-0.07247540
-0.08853400
0.08185289
0.07229082
0.07474344
0.05786966
0.00865763
-0.01516587
0.08129288
0.01629224
0.06164291
0.00654492
0.01125644
-0.02966835
-0.03973369
-0.04166805
0.02556457
0.03686377
0.02389653
0.07537450
-0.05932076
-0.06483733
-0.08349459
0.02654665
-0.00175113
0.01160901
-0.06988675
-0.03172941
-0.09100873
-0.05422392
0.02525423
0.09600452
-0.00384845
0.02054954
-0.03290000
-0.06844564
0.06746995
0.10240431
-0.09795552
-0.07643884
-0.08644290
0.07006133
0.06027012
-0.07495641
0.00875336
0.05699114
0.08690710
0.09592507
0.08741194
-0.09443006
-0.05176814
-0.02045414
0.00612597
-0.00843367
0.05959813
-0.07433995
0.09522017
0.10473284
0.12372483
0.07041161
-0.02658754
0.05682932
0.06394575
-0.04887026
0.10765768
0.06087132
0.03629911
0.03726204
-0.00814268
-0.02033745
-0.01258581
-0.01350954
0.10018183
0.03908943
-0.05224391
0.02186851
0.01289605
0.04165504
-0.00833093
0.08668307
0.01572895
0.05274756
0.05344312
-0.03386079
-0.06318613
0.00147158
-0.04677942
-0.05910103
0.04241894
-0.05312396
0.02072475
-0.04712852
0.06223449
-0.05586159
-0.00650212
0.06396398
-0.07733556
-0.07081341
0.02279522
0.06355418
0.07772381
-0.01570166
-0.01974072
-0.00057644
0.07848626
-0.08980854
0.00084436
-0.08504783
0.03778314
-0.04095362
0.06808267
0.03172003
0.06040799
-0.02960413
0.02367478
-0.02420314
0.00517171
0.03884549
-0.09303892
0.07246312
0.09212197
0.06801512
0.06451232
0.08053759
0.04892632
0.04049130
-0.03367132
0.01996631
-0.00211515
0.08899809
-0.06176209
-0.06419934
0.08076546
-0.08275284
0.01203722
-0.02350152
0.05724529
0.04254602
-0.08066205
-0.08771698
-0.08780338
0.03580146
0.10132224
0.05784086
-0.01535542
0.05594394
0.07347682
-0.07266720
0.05969117
-0.04650769
0.07042370
-0.00385183
0.00650650
-0.09307976
0.06492612
0.12109580
0.09285248
0.00575569
-0.11222665
-0.02763029
-0.12619213
-0.11944206
0.03464022
-0.14887144
0.05906454
0.03385711
-0.03008304
-0.03389157
0.01752485
0.06162514
-0.06867317
0.02516849
0.07887989
0.10350056
0.11031460
0.02797600
-0.05650918
-0.03329594
-0.05112172
-0.10343376
-0.07391098
-0.01976074
0.08316994
-0.06776710
-0.05513439
0.08708820
0.06171361
-0.01130378
-0.08312873
0.07547269
0.06227280
0.09738181
-0.00887226
-0.01511892
0.05853712
-0.04369482
-0.00627930
-0.04465207
0.04122654
-0.03027886
0.04874248
0.07161924
0.01891420
-0.02044418
0.08910120
0.04935199
-0.09102849
-0.07277669
0.07696293
-0.08944915
0.05360318
0.07560291
0.00413137
-0.02993478
-0.10227076
-0.01964137
-0.10290885
0.03064743
0.07398767
0.04483194
-0.10253703
-0.08713772
-0.01387283
-0.05426189
-0.07546709
0.04264475
0.01733743
0.07693483
0.09788523
-0.03382500
-0.02874710
-0.09220564
0.09328683
-0.07436948
0.07647702
-0.06412261
0.04134556
-0.00979962
-0.06855621
0.00321583
-0.02179077
-0.07003052
-0.07813568
0.08307879
0.06013469
-0.01452785
-0.05420412
0.07022229
-0.06276111
0.12819157
-0.01939365
-0.04273890
0.02576179
-0.02137434
0.11712527
0.06335300
0.04883700
0.07638399
-0.03150937
0.11090675
-0.08357662
-0.02282881
-0.08013489
0.01270504
-0.02786443
0.04796112
0.03736945
0.01640564
0.09478290
-0.00337356
-0.09186241
0.00054385
-0.02760926
-0.06457064
0.09739498
-0.11978859
-0.11380362
0.00110280
-0.01679687
-0.02890329
0.08117798
-0.06123356
0.00115656
-0.03074869
-0.01946364
0.01631005
-0.07650984
0.02287715
0.07176649
-0.02666952
0.04460023
-0.09043139
0.02345577
0.03540025
-0.05332469
-0.08008041
-0.10030207
-0.07828054
0.07711451
0.06471316
0.09724336
0.06576768
0.09323735
0.02511564
0.05075671
0.09130222
0.02948981
0.01854092
-0.00005263
-0.08474730
0.07190323
0.07314291
0.04535376
-0.04390739
0.03795610
-0.08155646
-0.09905820
-0.00983886
-0.04300458
0.02568860
0.04437564
-0.07940618
0.00628400
-0.03720603
-0.03699271
0.09993985
0.02730693
0.09015111
0.06705663
0.05879712
0.00522476
-0.01863944
-0.01869048
-0.05637901
-0.02908904
0.03469411
0.07191905
-0.06577753
0.02532436
-0.02141657
0.08355089
-0.07421177
0.05135676
0.05458959
0.09315226
0.01407951
0.02652513
-0.07470089
-0.00322137
0.08484196
0.12966296
-0.06321917
-0.00419443
0.06343079
0.08140405
-0.04485434
0.03515917
-0.04475865
0.13625096
-0.00968972
0.06861942
0.04685356
0.00275409
0.01802362
-0.03196631
-0.05267003
0.05378152
-0.02680282
0.05941964
0.07270004
0.05940806
-0.11497123
0.04203996
-0.00790126
0.05207792
-0.00561118
-0.00037514
-0.02560325
-0.07953354
-0.09095905
-0.00940484
0.01738957
0.04123887
0.04134302
0.05800448
-0.00391767
0.05858023
0.08357647
-0.03490629
-0.05965188
-0.11241752
0.08414205
0.06739955
-0.05076659
0.06833452
0.03224597
-0.01709708
0.06662897
0.05196946
0.04033457
-0.01430188
0.04478931
0.01421706
0.00369335
-0.03850836
0.00245384
-0.05946067
-0.05640027
-0.02364539
-0.00257850
-0.06263362
-0.05553993
0.03074772
-0.04944969
-0.08421517
-0.01310343
0.05688791
-0.05888550
-0.04612386
-0.07969000
0.01059958
0.07269208
0.09581984
-0.09780548
0.04878565
0.07040651
-0.02553204
0.06941302
-0.03377987
0.08756411
0.08782637
0.03221631
0.08841396
0.03680384
-0.06079619
0.03256839
0.03240483
-0.02081010
0.04231116
0.04515998
0.11249813
0.02901267
-0.03962669
0.03257505
0.01270913
0.04387127
-0.09379217
0.05463796
-0.01673880
0.02751823
-0.04776436
-0.06447557
0.00497438
-0.03563332
-0.01297485
-0.08127267
-0.05903734
0.05205192
0.06191529
-0.02835893
0.08039992
0.02817202
0.05969379
0.10008536
-0.03722434
0.02829589
0.03568092
-0.03684110
0.01208626
0.06063087
-0.05565002
-0.00962335
0.00757203
0.02773931
0.04592313
-0.01305385
-0.09341488
0.03249709
-0.02481889
0.00386215
0.02728718
0.05787674
0.06382239
0.07094898
-0.08685970
0.05698855
-0.09824408
0.03821389
-0.03471910
-0.09137109
0.07359496
0.09878167
0.02018025
-0.03129823
0.09131269
0.02143149
0.01645873
-0.09951210
-0.03435860
0.03629064
-0.01187128
-0.09840251
0.05530760
-0.03571044
-0.02638999
0.00267006
-0.06997108
0.03372916
-0.05064563
0.03314465
0.04786124
-0.04764338
0.09778882
-0.05808517
0.05643000
0.06639002
0.00122980
0.00599083
0.03762391
-0.02176159
-0.10178174
-0.01087255
0.00003136
-0.06158356
-0.02424880
0.01773943
-0.08450904
-0.09557545
0.06990374
-0.09237824
0.06554725
-0.08827331
0.02011684
0.07573909
0.09781167
-0.04451758
-0.06510927
-0.02778340
0.00998528
-0.00586710
0.10366822
0.05031098
-0.03578087
0.09194265
-0.04751327
0.07783245
0.06558454
-0.08262723
-0.05759922
-0.04106135
0.03688434
0.08269786
-0.01663095
0.05626789
-0.03159558
-0.01902837
0.06561189
0.04490997
-0.08915795
-0.00660859
-0.03741169
0.03376929
0.00155745
0.04597060
0.00805556
0.01659671
0.00442439
0.07053821
0.06165922
-0.02388877
-0.00485638
-0.05961821
-0.06472245
-0.07289764
-0.06275348
-0.04919522
-0.08571253
-0.04939808
0.03258310
-0.08260747
-0.08598703
-0.05470919
0.05331166
0.04021502
-0.10406333
0.03095990
0.02911750
-0.04057363
0.08233691
-0.07753956
-0.01990800
-0.07098888
-0.06799283
-0.06314279
0.01803305
0.01472048
-0.01280543
-0.00315020
-0.06724320
0.00814706
0.04043097
0.02048900
-0.08447910
0.06102746
-0.04457958
0.05802453
0.02254860
-0.02665645
-0.06053164
0.01015311
-0.02345746
0.05554514
0.01350416
0.07490238
0.01680650
-0.06784223
0.09087808
-0.08216858
-0.09605250
0.08115852
0.05220318
0.08311414
-0.00783010
-0.04155204
-0.00290914
0.00541313
-0.09339200
0.04294954
-0.00185499
-0.05995641
0.05937209
-0.09758582
-0.00918003
-0.08624570
0.04921449
-0.00800274
-0.08914506
0.01683942
-0.02437051
0.00996699
0.05162395
0.05826921
0.03439403
-0.05742268
-0.05002445
0.02516644
0.00286608
-0.00658935
-0.01297784
0.02387420
0.02009134
0.03186217
0.05582111
0.00149105
-0.08789233
-0.02033169
-0.03420237
-0.06633470
0.03991551
-0.05939674
-0.01328383
-0.07603029
0.05609524
-0.07519883
-0.08965479
-0.08661875
0.06157364
0.02170166
0.00747233
0.05792726
-0.04604495
-0.06825551
-0.06771360
-0.08179574
0.08522327
0.03539458
0.05433142
-0.03453078
-0.04456649
0.02630009
-0.09815232
-0.03923088
-0.04873379
0.04904120
-0.02441690
-0.02737570
-0.07924413
0.05382275
-0.08816948
0.06507502
0.04337759
0.04692794
-0.05474356
-0.02456871
-0.05149717
0.00676937
-0.08247976
-0.09834775
0.06223396
0.04519227
-0.06648458
-0.07411468
-0.00998874
0.00846801
0.07593309
-0.02474921
0.01497913
-0.01139783
0.01843132
-0.08940610
0.02473066
0.01630862
0.08736750
-0.04638418
0.04277584
-0.04169403
0.09965704
0.04545055
0.04188440
0.04752595
0.06460503
0.07345126
-0.02378180
-0.03443101
0.01659933
-0.00472481
-0.07290311
0.05948708
-0.04028608
0.02920479
0.06166629
-0.05415653
0.06237797
-0.02316096
0.05819555
0.05256844
-0.00113937
0.05588520
-0.00832557
-0.01215920
-0.04669204
-0.03195223
-0.06960100
-0.05638097
-0.04471596
0.05652781
0.04525951
-0.06296296
0.06619146
-0.08982722
0.07757692
0.08174173
0.05346667
0.01905920
-0.06732127
0.00957503
0.04697170
-0.04668434
0.00564422
0.00352749
0.08520673
0.07801440
0.01741057
0.00470926
0.04211862
0.09807623
-0.07789406
-0.00826949
-0.06108146
-0.09573712
-0.00138474
0.00190765
0.01750461
0.09342765
0.02403621
0.05877937
0.08611224
-0.00369533
-0.01551389
0.07495944
0.09410524
-0.07197761
0.04069616
-0.05052937
0.02830757
-0.03704735
0.02917128
-0.09675107
0.01908041
0.02549684
0.01659488
0.03880331
0.08776097
0.02940805
-0.01492824
-0.07419871
0.05179169
0.00823305
-0.06819511
0.03235100
-0.08927502
0.09182690
-0.05665543
0.09479581
0.04178891
-0.01695815
-0.07543457
-0.02725794
-0.13268050
0.08176512
0.06147427
0.09305395
0.01593465
-0.04985910
-0.03720390
-0.03379258
0.01631866
-0.01005780
0.07832299
0.00860559
-0.06265085
0.05324495
-0.01533248
0.05669301
-0.07703522
0.04595363
0.02751000
-0.02822811
-0.00623776
0.06100325
-0.03276223
-0.09509418
0.04954243
0.05104148
0.04170353
-0.00017065
-0.00853872
0.00944297
0.04835347
0.07772188
-0.04381215
0.05205790
0.00186687
-0.05515977
0.08026859
-0.07963327
-0.02172402
0.11104024
-0.08575210
0.04110289
0.00876460
-0.00964320
0.00422814
0.06390454
-0.09174863
-0.03977119
-0.09014957
-0.00173547
-0.00666630
-0.09993617
0.08330553
-0.06674719
-0.08298330
0.05830125
-0.03306203
-0.09435437
-0.03335885
-0.00374468
-0.01989863
0.06087841
-0.02265820
-0.00575940
-0.03330724
0.08077679
0.08614822
-0.12571811
-0.09760917
-0.11403186
-0.02021908
-0.07508624
-0.03596116
0.09733907
0.08919568
-0.07821260
-0.02603554
0.00765964
0.10150324
0.02403100
-0.01708277
0.05696592
0.00449747
0.08258040
-0.07118843
-0.09164821
0.02056674
0.00536850
-0.03221091
-0.09252399
-0.05412954
0.04298785
0.00128310
-0.07737403
-0.06554533
-0.00560546
0.02491637
-0.03515302
0.07803718
0.05032678
-0.05374448
-0.09719570
0.04236754
-0.04782974
0.06798341
0.03016254
-0.09691338
-0.04671474
-0.05653988
-0.08409133
-0.05197670
-0.08331349
-0.08396028
0.08962282
-0.00028159
0.08193882
-0.04142527
0.03828086
0.02505127
0.00636793
0.00789575
-0.09336691
0.00257545
-0.07605201
-0.06335868
-0.00085275
-0.02428294
-0.05760206
0.01012581
0.02716668
0.03361309
0.01581195
-0.07115843
0.03896516
0.11424523
-0.02656654
-0.08280337
-0.06115171
0.04713031
-0.05038974
-0.06297739
-0.01377162
0.02835130
-0.06908037
0.07343690
-0.00359006
0.01285569
0.08811891
0.03553006
-0.04356574
-0.02332878
-0.02298455
0.09428448
0.02175923
0.00194706
0.00280083
-0.01021409
-0.00272619
0.04448421
0.01094398
-0.00320417
-0.06848640
-0.07423571
-0.09543248
-0.01804250
-0.10396067
-0.06183855
0.07355642
0.09246039
0.02949994
0.02131875
0.09403642
0.00746226
-0.11202538
-0.01297846
-0.07488380
-0.01324104
-0.00066344
-0.01813535
-0.07807976
-0.03665696
0.06570289
0.09608396
0.07343739
0.02380147
0.03280387
0.04020071
-0.02430376
0.03573417
-0.01398391
-0.08946019
-0.03108738
-0.00336208
0.08996213
0.10606569
-0.01321568
-0.07215588
0.08841970
-0.02033146
-0.04707162
-0.05888327
-0.02746639
0.01312468
-0.07690537
0.05823870
0.11020575
0.07478202
-0.03489843
-0.07095859
-0.08586282
0.02453182
-0.08852803
-0.08350698
0.05959376
0.03682774
0.05219447
0.02535550
-0.00188544
-0.04795329
-0.08925006
0.09212222
0.08166783
-0.09103253
-0.08110825
-0.02055201
0.05329315
0.02197700
0.03994210
0.02783356
-0.00069709
-0.09883687
-0.02945338
0.01027211
-0.00372446
-0.03923490
-0.10541247
0.05207328
-0.01807204
-0.01075150
0.03903643
0.02247556
-0.05138526
0.03648111
-0.07796405
-0.02775499
-0.07812628
0.02385862
0.09232503
0.01578070
-0.00280515
-0.18235179
-0.01445119
-0.06855064
0.06702146
-0.08796960
0.03924288
0.06806070
-0.06816315
0.04308780
-0.07621298
-0.15595568
-0.13705607
0.06118483
0.09405320
-0.05380134
-0.03273190
0.08789115
-0.02607054
-0.02811090
-0.05797763
0.09461464
0.08226275
0.01570183
0.11277059
0.09198446
-0.04700377
-0.00070791
-0.03100604
0.03659810
0.00566459
0.07102604
-0.02738123
0.09331086
0.00141150
0.01121674
0.01142770
0.01198114
-0.05246193
-0.03739197
0.02497223
0.02494697
-0.03803884
0.03851206
-0.06659795
0.00972807
-0.01520234
-0.04435671
-0.07739328
-0.07632731
0.04396250
-0.08431971
0.03382698
-0.04319667
-0.05770659
0.02726199
-0.02968334
-0.00771720
-0.08959473
-0.09369681
-0.02567341
0.08530137
-0.01048216
-0.03908586
-0.02677385
-0.06343886
-0.05063408
-0.03799214
0.06377759
-0.07438483
-0.01278507
0.04621707
0.09393387
-0.08227214
0.03615915
0.03014706
-0.08871340
-0.05826304
0.05891191
0.08779143
0.07411017
-0.01799799
0.05752956
-0.05518754
-0.10634572
0.07797289
-0.08083287
-0.05908336
-0.04881027
-0.05625458
0.01830961
-0.07594896
0.05355017
-0.08539394
-0.06009930
0.02616124
-0.06323980
0.01312535
-0.01014392
-0.04200222
-0.03305049
-0.00262708
-0.05390032
-0.12451499
-0.12316075
0.06183978
-0.18844609
-0.17126558
-0.02060092
0.05229794
-0.06600151
0.05794250
-0.04198155
0.10557829
0.01951713
0.04466755
-0.00571862
-0.03978652
0.03805522
-0.07728871
-0.08566341
-0.07923742
0.03102659
-0.03685052
0.09577857
-0.01768128
-0.07342856
0.06226530
0.11233230
-0.05890656
-0.08672372
0.09134421
0.09022345
0.03791269
0.04679069
-0.04345379
-0.02073253
0.09504530
-0.01981647
-0.06950179
-0.01549189
0.00863579
-0.04733974
-0.04705952
-0.02031501
0.02118347
0.01101417
-0.12726482
0.03327544
0.01687582
-0.00180402
-0.03815111
0.08072023
-0.06594782
0.08590876
-0.00455042
-0.06322603
-0.03531648
0.01587159
0.08006443
0.05892608
-0.05302423
-0.10519456
-0.02253590
-0.03580508
0.03532389
-0.02721087
-0.05673418
-0.09327448
-0.02791132
0.00220675
-0.07552916
0.04489231
-0.10204552
-0.00320325
-0.00327048
-0.02195138
0.02231736
-0.06902465
0.02204815
0.08750812
-0.05415425
-0.02306240
0.04821546
0.02664030
0.03168971
-0.08184355
-0.08099499
-0.09029293
0.09803704
-0.09018814
0.03132542
0.07494035
-0.03306964
-0.08184972
0.09781769
-0.03785184
-0.00255004
-0.11168697
0.01330055
0.04475240
-0.01050263
-0.09969046
-0.03334767
-0.12297807
0.05157258
-0.08703788
-0.02644001
-0.07796077
0.08813104
-0.05441386
0.00805306
-0.08004189
-0.00447403
0.09721283
-0.08081500
0.04257778
-0.02906816
-0.08605549
-0.05739877
0.01622392
-0.00098803
-0.01622674
0.08421348
0.06668304
0.07620543
-0.07578440
0.05268176
-0.06363853
-0.06087377
0.02459071
-0.07898235
0.03475117
0.09843175
0.11188178
0.06657512
0.12744282
0.01745552
-0.00631436
0.06603118
0.11855685
-0.04523227
-0.04485667
-0.03614585
-0.01248854
-0.06089007
0.06724276
-0.04600276
0.00797722
-0.07001190
-0.03497440
0.03950495
0.08354996
0.03131648
0.01496138
0.02046266
0.03811007
0.04935792
0.03578851
0.04438347
0.04882739
0.09587138
-0.11485628
-0.07160126
0.05160852
-0.02823906
-0.00846911
-0.10525659
0.03567247
0.03496802
-0.00419571
0.10646985
-0.03463834
-0.02328489
0.03550079
-0.06609681
-0.00857018
0.04724482
-0.01438992
0.07950592
0.04612138
-0.03907015
0.01752411
0.00342546
-0.03871315
-0.08574047
-0.06790301
-0.01127766
-0.04740381
-0.01621175
0.06846186
0.00787379
-0.09598929
-0.03872220
-0.03281692
0.04873780
-0.05084533
0.00150088
0.02542763
-0.07790188
0.02562053
0.09547887
0.01394973
-0.03956139
-0.04403765
0.07052153
-0.09940322
0.03124046
0.09712071
0.07790071
0.01526232
0.09351927
0.08545925
0.01713389
-0.03459260
-0.07064925
0.00106810
-0.07359074
0.03032103
0.00337812
0.04023769
-0.00078239
0.08905516
0.10174768
-0.02054428
-0.07410118
0.10483695
0.04029286
-0.04822794
-0.05791668
0.03461196
0.05541664
-0.08443379
0.03881107
-0.05280441
0.04753857
-0.03808140
-0.05337373
-0.19174590
-0.05672661
0.01702426
-0.07719854
-0.05026714
0.05282236
0.01816365
0.01536332
-0.00119242
0.03102816
0.10638379
0.03633113
0.05277560
-0.06245469
0.00831581
-0.03657809
0.08082680
0.07234584
0.01752231
-0.06745349
0.09495824
-0.06838293
0.02427626
0.16856867
-0.00461291
0.02075951
-0.04604253
-0.08369992
-0.17865388
0.08063239
-0.04633310
0.09602234
-0.03174622
-0.09041585
0.01270508
-0.05093855
0.02337220
-0.01442895
-0.09540901
-0.03292919
0.03824235
0.01817837
-0.03642609
-0.01440604
0.08796346
0.08687028
-0.06464065
-0.02297754
0.00168297
-0.09428225
0.00730873
-0.03726275
0.03310598
-0.16537625
-0.06986345
-0.04614588
0.10095597
-0.07652450
-0.00342336
-0.01526345
-0.03914978
-0.02725184
0.04060769
-0.03527870
-0.00406395
0.09968314
0.07668045
0.06483064
0.03223765
-0.02833368
0.00079389
-0.06184619
-0.03931121
0.06003479
0.03909089
0.07130450
0.11350444
-0.00433260
0.02377270
-0.00865067
0.04233740
-0.05098905
0.07359938
-0.07971372
-0.06454820
0.07579465
0.00904716
-0.02289588
0.09121840
-0.05770818
-0.03522254
-0.01360999
0.06304603
0.11818558
0.04582672
0.03916273
0.01577034
-0.06295311
0.01881778
0.07750222
0.05192544
0.07105636
0.02225627
0.00441608
-0.06469289
0.10113115
0.02456228
-0.07397666
0.02728882
-0.02735555
-0.02329048
-0.08012911
-0.00869734
-0.04361743
-0.02781689
0.08876490
0.03446457
0.01349214
0.08169080
-0.00198878
-0.01678007
-0.00885059
-0.05317887
0.02719453
-0.11825516
0.00496815
0.05025138
-0.07871869
-0.03063242
-0.04289331
-0.07022491
0.09556052
0.01590194
-0.01123057
-0.01410402
0.01978286
-0.07333700
0.01148635
-0.08938047
0.01637084
0.00845444
0.05539538
-0.09097990
-0.04783949
-0.06392638
0.02011773
-0.03990463
-0.06507733
-0.07223783
-0.15436059
0.00454651
-0.03931573
-0.01324237
0.04346124
-0.05212615
-0.07115495
0.08548899
-0.01720945
-0.02712857
-0.00812887
0.06838436
-0.05342040
-0.08128918
0.05252777
0.01379739
0.09626459
0.01220222
0.06119183
0.01817627
-0.03820029
-0.00952425
-0.06644905
0.00623967
-0.03767393
0.07822389
0.07164120
-0.05291158
0.02594591
0.07961466
0.08899738
0.08217069
-0.07166341
0.02613993
-0.04664035
-0.02888427
-0.04138689
0.05376112
-0.08739776
0.06903742
-0.01354533
-0.06458099
-0.08186733
0.00704012
0.07459842
0.08145704
0.06134801
0.05243658
-0.01862963
0.08489470
0.05667535
0.05766073
0.03485972
0.04296299
0.04334821
0.01406301
-0.06344345
0.08489803
-0.04236988
-0.05992695
-0.09358373
-0.02984876
0.07036686
0.02272481
0.00429911
-0.01570969
0.03908394
0.05910835
0.04361737
0.01706552
-0.05170098
0.10157162
0.02371712
0.09630189
-0.04375612
-0.06187511
0.07818806
0.04088186
0.00295780
-0.09107860
-0.09075952
0.05469836
0.09520661
-0.03875800
0.09696902
0.08995677
0.08309671
0.00702035
-0.00272958
0.02097346
-0.06873147
-0.02346568
-0.09456927
-0.06564441
-0.09044776
-0.03139987
-0.07981446
0.06897047
0.09987152
-0.09064297
-0.09792110
-0.01750813
-0.08687888
0.07020793
0.02539119
0.05499848
-0.04745529
0.05354977
-0.02126144
0.07114602
0.07425669
0.07258812
-0.06998453
-0.04924813
-0.01095111
0.02684917
0.07557929
0.08642065
0.06305528
0.07914273
-0.06838680
-0.01290362
-0.01839604
-0.08183853
0.08289732
0.05701388
0.01859110
0.02473298
0.06099594
0.05297517
0.03690379
-0.08116039
-0.08209657
0.04767097
-0.01048093
0.06194370
-0.07669630
0.07633262
0.03680839
0.04163723
-0.00222313
0.03204337
-0.02073264
0.02573265
-0.07716026
-0.03765409
0.00311996
-0.09771082
0.03809406
0.00499582
0.01152402
0.01776816
-0.05364740
-0.04480504
0.07303219
-0.00333160
-0.03746312
0.00998551
0.01537503
-0.00964705
-0.03644313
0.06528062
-0.07997568
-0.07202920
-0.00896502
-0.08252516
-0.06265181
0.06218477
-0.06080760
0.02160298
-0.03752446
0.05576937
0.09082331
-0.07302995
0.00203837
-0.06320555
-0.00048651
-0.01128425
0.07924646
-0.08072650
0.07283131
0.04759850
0.05933734
0.03373757
0.09952473
0.09443991
0.08652806
-0.09927748
0.01915884
0.07949071
0.09206755
-0.05828439
-0.01343060
-0.03806027
0.06851425
-0.07543038
-0.08272449
0.01013806
0.04611705
0.07224526
-0.05827535
-0.01077751
-0.00948291
0.02178839
-0.08993516
-0.09467244
-0.01077629
0.00238368
-0.04158336
0.04967839
-0.06010910
0.06128357
0.02829130
-0.08624989
0.01161632
-0.05361953
-0.03777101
-0.04555372
-0.06072500
0.01030817
0.00728373
0.02447010
-0.00701063
-0.07913173
-0.02242268
0.00806770
0.07645916
0.02084900
-0.09830505
-0.05651492
-0.00919677
-0.01196488
-0.06404237
0.07481475
-0.02100393
0.09138374
-0.02279586
0.06503800
-0.00549432
-0.03559164
-0.06375315
-0.02104811
0.08430175
0.09890681
-0.09709196
0.09832895
-0.03153777
-0.05912291
-0.01591771
0.01540416
-0.02178487
-0.04647748
-0.07797024
-0.08858751
-0.04731353
0.05144419
0.02882762
0.06013507
-0.04809988
0.07786389
0.02238943
-0.08041393
-0.03210109
0.05484414
-0.00593849
-0.01655981
-0.00425077
-0.06739789
0.05556305
-0.06981832
0.07726028
0.05251866
0.08334750
0.01609212
-0.08597414
-0.01960525
0.02585690
0.08026953
-0.03319753
-0.03675247
0.09380058
-0.01313736
0.06434085
0.02995935
0.03797369
-0.03547170
-0.00804103
-0.03483733
-0.04182384
-0.03479049
0.06680598
-0.02202785
0.03691535
0.05125048
-0.03521436
-0.00927128
-0.07740194
-0.02649029
-0.04755850
0.03922269
-0.00459796
0.05701780
-0.09767011
-0.03243873
0.05160843
-0.00147483
0.01742121
-0.05377791
-0.09518074
-0.09891138
0.00957344
0.06371852
0.11055411
0.12444744
0.07895941
0.13832887
0.10087372
-0.02053730
-0.01680736
-0.09337790
-0.02702435
-0.07400145
0.04091985
-0.07682851
0.09825755
-0.07202810
-0.03796766
0.10171339
0.04773617
0.08683879
0.00107684
-0.04127509
0.07929344
0.05598206
0.07846383
0.00758352
-0.03018475
-0.08643602
0.00351509
0.07519447
-0.07608742
0.09255414
-0.06955711
-0.05864759
0.09759455
0.04192551
-0.00783672
-0.09186176
0.09269754
0.03854453
0.05542046
0.09477811
-0.09784914
0.03984650
-0.05456927
-0.07288987
-0.04524692
-0.07732084
-0.08088086
0.05889799
0.03744286
-0.04998148
0.06983772
0.01981333
0.00907913
-0.09143377
0.02904304
0.02907950
-0.09627591
-0.07737241
0.06711851
-0.02355790
-0.05420282
-0.00240675
0.01403904
-0.02843650
0.00348824
-0.02182331
-0.09752160
-0.08946141
0.08473571
-0.09881902
-0.09684888
-0.09381971
-0.03916084
-0.05835060
-0.05179757
0.00260298
-0.02394479
-0.06671242
0.07461829
-0.05726292
0.04356577
0.04353093
-0.09269758
0.08543623
-0.01737612
-0.02353014
0.09904326
0.06367741
0.00403782
0.02672677
-0.05268007
0.06784365
-0.00967422
0.03284970
0.01262347
-0.03149800
0.04899495
0.11639441
0.06813867
0.00412311
-0.00483802
-0.01960178
0.03525027
0.07123776
0.06922888
0.03454996
0.09324745
0.12437904
-0.06404237
-0.05548993
0.03264649
0.08707789
0.03423027
0.05241611
-0.08280849
0.10546211
-0.00290475
0.05115732
-0.07454023
-0.02077562
-0.07479481
0.04915608
0.10831947
0.09551652
0.05279725
-0.03233329
0.08638091
0.06599163
0.03047998
0.08013619
0.05775738
-0.07116800
0.06797878
-0.00154132
0.07628163
0.06420128
-0.00911345
-0.03804901
-0.03390459
0.02876176
0.02908939
0.09088310
0.09823576
-0.09491898
0.01780437
-0.00917247
0.00428337
0.07939993
0.05449627
0.00451837
-0.00274826
-0.03343455
-0.06233020
-0.05575761
-0.04643101
0.01197909
0.04124373
0.01234552
0.03793111
0.09914047
0.02595438
0.04955490
-0.00042121
0.08097927
-0.08271248
-0.00891027
0.08630037
0.05110001
0.03885956
0.03438385
0.03170798
0.04417104
0.06422036
0.06787398
0.03606735
0.02468053
0.09026330
-0.07895713
-0.06343270
0.07319458
0.07387154
-0.09556181
-0.08581989
0.07338923
-0.02604858
-0.08112237
-0.09339399
0.08385350
0.06194750
0.00365079
0.06627944
0.06814037
-0.05730198
-0.09064910
-0.07258192
-0.10914016
-0.01442699
-0.03468380
-0.00079160
0.08822532
0.02412160
-0.03462682
0.07340981
-0.02223986
-0.04582317
0.01009334
0.00617092
0.09893693
-0.06963667
-0.01328815
0.08741891
0.06111441
0.06734705
-0.01221051
0.10305545
-0.04585280
-0.08149223
0.04065785
-0.01816164
0.00568804
-0.04898453
0.01656897
-0.00153913
-0.01419011
0.05592619
-0.09800166
-0.04983451
0.03491221
0.00633577
-0.00108121
0.00827016
-0.03980221
0.00196720
-0.05297997
0.06293034
-0.00385949
0.04360292
-0.00914058
0.01026116
0.00567083
-0.05181942
-0.05486223
-0.00381961
0.07126911
0.01204079
-0.02558213
0.05232427
0.09079522
0.07049419
0.09899392
0.09344323
0.05133362
0.00951121
0.01600839
-0.03589029
-0.09762774
0.04732795
-0.05560071
-0.05053118
0.08225988
0.09085770
-0.09122611
0.02809918
0.08013251
0.03365084
-0.07735181
-0.08887749
-0.10857374
-0.02334590
-0.00070917
0.09578474
-0.06568907
0.04318795
-0.01888176
-0.08650354
0.03271219
-0.00735922
-0.09904549
0.01254317
-0.04101157
0.00571139
0.07421574
0.00455360
0.04753045
0.01134081
0.06133058
0.10169328
0.04186388
0.01550148
0.01192979
0.09411772
0.12267868
0.00931840
-0.07274917
0.02001926
0.00041092
-0.08217572
-0.07990090
0.08032491
-0.02263815
0.06242882
0.09318056
0.01603015
-0.02611072
-0.08085436
0.00458704
0.01950286
-0.05507638
0.04802446
-0.05307791
-0.04328173
0.02034542
0.01529246
-0.01359051
0.00941141
0.03953869
-0.09679309
-0.01762711
0.03098151
-0.10601676
0.01740985
-0.00862861
0.01981942
0.03664101
-0.08886050
0.09424277
-0.07367076
-0.02251587
0.04520569
0.03154119
0.06010847
-0.03551331
0.03789020
-0.05217520
-0.06786777
0.07065237
-0.02182116
-0.03150347
-0.02080217
-0.09772448
0.02794013
-0.09813994
-0.00100976
0.04217439
0.01112976
-0.02987210
-0.08394267
-0.01410496
0.02649134
-0.04823507
0.00662179
0.03775130
-0.00594508
0.07742532
-0.05801509
-0.04820937
-0.03784653
-0.09181372
0.00124383
0.04851777
0.09258120
0.08214605
-0.05690438
-0.07657282
0.03045961
-0.01184888
0.01912893
-0.00911299
0.07826099
0.07005277
-0.05553049
-0.01499236
-0.09495086
-0.09076936
0.07378289
-0.05197215
-0.02964520
0.09060289
0.02071246
0.00192808
0.07920230
-0.01883917
0.06138103
-0.02534909
0.07464739
0.06937288
-0.06196324
0.05682854
0.02035772
-0.01424733
0.05800986
0.06810773
0.02311698
0.06677893
-0.00013837
0.03901691
-0.06436099
-0.02673377
-0.04298177
0.02049312
-0.05327894
-0.00290208
0.01259519
-0.01939835
-0.00319114
-0.03905203
-0.05348188
0.08004616
-0.09984717
0.02475985
-0.07628112
0.02674540
0.07580002
0.02141769
-0.08383127
-0.09298753
0.09604926
-0.03760022
-0.06488698
0.07006763
0.01073578
0.03595692
0.07917404
0.07084585
0.00019609
-0.03752208
0.00112038
-0.03708082
-0.08594704
0.00204661
0.02681229
-0.07301559
0.07581938
-0.06951351
-0.06961028
-0.06376008
-0.03177818
-0.07855011
-0.04182069
0.05494928
0.01142763
0.04222156
0.00487571
0.03285291
0.02471672
-0.01641545
0.09861386
0.04280321
-0.07494925
-0.01247296
0.08903458
0.05593404
-0.07632743
-0.00982743
0.09661688
0.04223707
-0.02084089
-0.00781300
0.00308923
-0.00999182
-0.08752861
0.00957664
0.08570593
-0.07125627
0.02163400
-0.03416964
0.01026440
-0.00747394
0.08874201
-0.08103918
0.07368507
-0.02040593
-0.08089297
-0.05575865
0.08975511
-0.04993062
0.03267050
0.06900193
-0.06031477
0.01771590
0.08046529
0.02587922
-0.07043928
-0.06175604
0.07648920
0.01948992
-0.06010709
-0.06261726
-0.00814441
0.04495189
0.00243544
-0.08429036
0.02681015
0.00617827
-0.02866672
-0.03201105
-0.03788305
-0.04426534
-0.02052082
-0.00953143
0.04986519
0.04235189
-0.05271569
-0.06386929
-0.06088968
-0.06190467
0.00833185
0.06025976
-0.06312139
-0.03463525
0.09918409
0.00489649
-0.06160817
0.01093019
0.06607765
0.02326717
-0.08018082
0.08657661
-0.10032809
0.09562256
-0.01929283
0.07195086
0.10491216
0.11507767
-0.07565209
-0.04723916
0.10030964
0.02205866
0.00421290
0.03966735
-0.08177902
0.04418378
-0.09291546
0.02356343
0.08512350
0.05228240
0.07389166
0.07033321
-0.08191593
-0.01730574
0.09696410
0.03378613
0.00344958
-0.09241092
-0.01790157
-0.05896230
0.01365168
0.04882988
-0.09223036
-0.08258969
0.06176921
-0.08182577
0.05583068
0.05216381
-0.06095502
0.06583140
0.01802837
0.02488287
-0.01294619
0.05935136
0.00371104
0.09227485
-0.09189049
-0.07346004
-0.09805277
-0.03229470
0.05777630
0.07781283
-0.03964974
-0.09306469
-0.01110553
0.03127682
0.04049928
0.03948759
-0.04936828
0.09082830
-0.04217767
0.04759947
0.05479290
0.05984213
-0.01881911
0.07662250
0.08651031
0.08238540
-0.06478849
-0.07812814
-0.02267640
-0.05503014
-0.06776986
0.05631989
-0.07833834
0.03732731
0.04253802
-0.04312902
0.03845932
0.02634667
0.00387642
0.03240562
-0.00842278
0.09696047
0.01927088
0.04284798
-0.06529127
0.08810974
0.07978005
-0.08401871
0.02363269
0.07883894
-0.00944739
-0.00493517
-0.07653318
0.01875677
0.02859262
0.07695300
-0.02063748
0.08980565
-0.07541476
0.06887599
0.12504754
0.01356809
-0.00621733
-0.05056932
0.13213015
-0.00610398
0.07661576
0.04744125
0.03098733
-0.09790795
0.06275243
-0.04295524
0.05392632
0.04230914
0.08707421
0.09677019
-0.06012276
0.04964422
0.09401292
0.03563740
0.01547459
-0.02074303
0.09870841
-0.06901307
0.04510555
-0.08117690
0.01937920
-0.06578028
-0.06807728
-0.08663695
-0.09371093
0.05934695
0.08873589
-0.06925862
-0.08596391
-0.06091536
-0.03882098
-0.02931976
-0.09387816
-0.01581035
0.03554245
0.03281516
-0.05244905
0.03483825
-0.00023426
-0.09475107
0.03750886
-0.00540853
0.07268493
0.06234723
-0.05753314
-0.08494413
0.09091800
-0.08030365
0.07374604
-0.09444115
-0.05785779
-0.04677275
-0.07026472
-0.04530995
-0.02846171
-0.04360497
-0.06859075
-0.08181373
0.05971446
-0.08965827
-0.08864512
0.08649275
0.04669859
0.06219267
-0.00460833
-0.09055268
0.01822231
0.05584101
0.06119962
0.07166949
-0.08676925
0.02483054
-0.08715470
0.04188248
-0.05152984
0.04198150
0.01072902
0.04618123
0.01386547
-0.07639601
0.07374159
-0.05752700
-0.04252802
0.00491746
