-0.06245626
-0.09932998
-0.03966716
0.05147686
0.04123609
-0.06403418
0.02964009
0.03694952
-0.02191976
0.09205085
-0.01990382
0.01973947
-0.05551969
-0.08926413
0.08496936
-0.03086400
-0.06134824
-0.04967475
0.06221492
0.01903195
-0.01351804
-0.02757682
0.07661617
-0.09203939
-0.05514752
-0.09236882
-0.09334954
0.03763960
0.02668044
-0.07378885
0.09394715
-0.08993101
0.02875248
-0.03586490
0.06520428
-0.03384652
-0.00240078
0.03095162
0.04173483
-0.09170625
0.07864862
-0.04047067
-0.08462651
0.02911166
-0.07086369
0.07116624
-0.04910499
-0.00265675
0.05798366
-0.04391882
0.07742479
-0.02061949
0.01058168
-0.02873734
-0.02219256
0.00013046
0.00194331
-0.03669689
0.02313397
-0.01514252
0.08399247
-0.07337203
-0.03280943
0.02218016
-0.08807338
0.00880600
-0.03720549
0.07976027
-0.04323223
0.07465139
-0.09349773
0.05595061
-0.01605511
0.07344114
0.10225693
0.08914102
-0.07376551
0.05059444
-0.07680280
-0.03228159
-0.05404438
0.02063718
-0.03460578
-0.05934693
-0.02285971
-0.05809953
0.01160254
-0.01978211
-0.03707993
0.00275866
-0.08440307
0.03797823
-0.07787054
0.08659202
0.08711361
-0.08738816
0.00778077
0.01891928
-0.07360804
0.02181835
0.06773086
0.05479843
-0.08661666
0.06110175
-0.00801588
-0.02553709
-0.04602852
-0.00496389
0.00307967
-0.08218780
0.05973165
-0.04184483
0.04513753
0.09666928
-0.05893417
-0.08868127
-0.09948955
0.07601017
0.06058942
0.06684047
0.04904251
0.02726440
0.04819131
0.08041201
-0.02248429
-0.02528492
-0.00301970
-0.02530278
-0.03455662
-0.08895713
-0.07193932
0.00361783
0.03185025
-0.02216135
-0.05036194
-0.02344254
0.04977735
-0.07399083
-0.01998635
-0.09311650
-0.04500952
-0.05346918
0.00654479
0.09328410
0.01920248
0.03015130
0.09788913
0.05952238
-0.06478567
-0.03299317
-0.02590342
-0.08425244
-0.09686629
-0.07092510
-0.05265390
-0.07542898
-0.00839048
-0.05196542
0.02020016
0.06300872
0.06123938
0.06765965
-0.02291226
-0.05787123
0.04837270
0.02756956
0.04603369
0.08171752
-0.08868653
0.07362969
-0.04541323
-0.07314853
0.10169416
0.00656870
-0.01884375
-0.04660872
-0.04057464
-0.01906929
0.01167542
-0.09496686
-0.03899931
0.01400723
-0.00034930
0.05239642
0.00274909
-0.07903859
0.04396963
-0.03029329
0.07032889
-0.00101651
0.07796910
0.09447154
0.01785061
0.01407057
0.00515655
-0.05087074
0.06798778
0.00818788
0.03902453
-0.06866081
-0.03155941
0.07936007
-0.06371684
-0.08395470
0.09892629
-0.02041969
-0.01645574
-0.01476579
0.00137615
0.01343704
-0.06060770
-0.07170771
-0.00700606
0.03227786
-0.03631412
0.06097090
0.06846968
-0.07107213
0.04338277
-0.04277977
0.02844316
-0.09043439
0.06597193
0.03877741
-0.02466041
-0.03393952
0.00903111
0.08583904
-0.01260360
-0.04642450
-0.03830137
-0.05578356
0.06633309
-0.07262168
0.08247824
-0.09055282
-0.05733349
-0.03792939
0.00678440
0.08353428
-0.09612811
0.09863177
0.02159142
-0.03691722
-0.02426695
0.03421984
0.06792433
-0.02519677
0.04060439
-0.03909554
-0.08284933
-0.02178186
0.01366937
0.06768567
0.05160221
-0.08546669
-0.09512938
0.04136696
0.06144475
-0.04462263
-0.00554426
0.05889773
-0.01389756
-0.02781390
0.04351169
0.06971915
-0.00331253
0.06959944
-0.06280399
0.03809265
0.00987808
-0.00143753
0.05530701
-0.08537294
0.07602650
0.00302502
-0.01379422
0.03677113
0.09518659
0.08223573
0.08640367
-0.04700540
-0.05770063
0.09744480
-0.07736559
0.07732160
0.09569671
0.00924117
0.02028529
0.07524150
-0.07327821
-0.06478565
0.04171523
-0.04595742
0.09547716
-0.06538669
-0.00732529
-0.10003721
-0.00461575
-0.06778817
-0.06057793
-0.08540247
-0.06000853
-0.06045623
0.07705899
0.03768338
0.00026007
-0.00833705
0.02905837
0.07490004
0.02392385
-0.05780104
0.01976511
-0.05933771
0.05822559
-0.07431056
-0.03628911
-0.05830537
0.03879356
0.05738717
-0.04383968
0.00558387
0.04855003
-0.05023062
0.00574083
0.08218667
0.06065654
0.02162582
0.05006185
-0.08381770
0.07329305
-0.00100411
-0.05988823
-0.09792031
-0.06871850
-0.01935427
0.03031733
-0.03226798
-0.01415521
0.03753758
0.04461627
-0.02163035
-0.01579142
-0.05597242
0.06637250
0.05671376
0.09185627
0.02229717
0.07613260
0.06300818
0.08882239
0.05023704
-0.02256425
0.06735176
-0.05556174
0.07734272
0.08443835
0.06345797
0.00165795
0.05139592
-0.04824627
0.09345169
0.08465363
-0.09666397
0.03372877
-0.09264440
0.08726596
0.03106790
-0.00943721
0.09289050
0.08486134
-0.00338182
-0.09134642
-0.00861183
-0.07394376
-0.03967305
-0.09786795
-0.04057510
-0.04435288
-0.08209932
-0.05030622
0.06745703
0.05528558
0.04191058
-0.00714212
0.01398449
0.01822663
-0.04611028
0.01519373
-0.05146916
0.04851277
-0.08488505
0.08039628
-0.06230598
-0.01771830
0.04697826
0.07088388
0.05240643
0.09843122
0.07503478
0.07822568
-0.08401364
0.04774916
0.08671876
0.01365329
-0.04795400
-0.05100119
-0.09421746
0.02725982
-0.00244303
0.03865436
0.09547781
-0.01009567
-0.02375448
-0.07798483
-0.06037021
-0.06739181
-0.09146531
-0.03353146
-0.01046237
0.06691431
-0.00885041
-0.09327871
-0.02982158
0.06762784
0.07042541
0.00609053
-0.00061171
0.03622773
0.07016512
0.04089351
-0.04770197
0.04440428
0.04611657
-0.09663107
0.08109689
0.09773126
-0.07596539
-0.05330691
-0.05269507
-0.03453701
0.02647877
0.00689502
-0.01622836
-0.06841089
0.01332914
0.04200970
0.09886745
-0.05037201
0.09338641
-0.05705609
-0.08214023
0.03494827
0.03856933
0.05040884
0.00381801
-0.05780521
-0.01749630
0.05357785
0.06711615
0.01807586
0.07914629
-0.03384605
-0.05839497
0.05838072
0.00012584
-0.04827225
-0.09119206
0.02097917
-0.04525062
-0.01023840
-0.07592128
0.08002738
0.01495151
0.02153393
-0.01970048
0.05275338
0.01985511
-0.03828168
-0.05748858
0.05019894
0.05137411
-0.00367802
0.04580940
0.04799772
-0.04734967
-0.05984821
0.07483032
-0.02097435
-0.10348911
-0.07606360
-0.08372425
0.05909253
0.02737034
-0.09503027
-0.00602852
-0.06266674
-0.00601161
-0.01367201
0.05188150
-0.02079785
-0.08670980
-0.05943676
-0.08281759
-0.03107514
0.04112023
-0.08682045
0.03938686
-0.04399476
0.03686060
0.01592768
-0.05095780
0.05699111
-0.04699196
0.06585800
0.05506038
-0.02548032
0.01703418
0.04619359
-0.08892128
-0.09182538
-0.03650593
0.10290490
-0.01032240
-0.05478442
0.06471366
0.07998288
-0.07604197
-0.07641814
-0.04567337
0.07587877
-0.04226071
-0.09627305
0.08277924
0.03361230
0.06629055
0.05147198
0.07604308
-0.01187818
0.05338669
-0.03038488
-0.09148007
0.09861608
0.04462250
0.02081642
0.07348735
-0.04645835
-0.05554152
-0.00495361
0.08988682
-0.03290651
0.06618170
0.04827407
-0.02062741
-0.07877135
0.05817656
-0.05275342
-0.07796436
0.08083728
-0.03010654
0.07715169
-0.08033439
-0.03417036
0.01512660
0.04255900
-0.08182751
0.07377248
-0.02665769
-0.02293197
0.00121545
0.05782306
0.09291816
-0.03407511
0.09322974
0.09858495
0.01533666
0.03782350
0.00286090
-0.05723989
0.09070531
0.04041482
0.05223961
-0.08455258
-0.02774325
-0.02962144
-0.10597358
0.03491910
0.05924274
-0.08820618
-0.02123601
0.08948365
0.05927826
-0.08448371
0.02241358
0.09243234
-0.01588753
-0.00986043
-0.08238697
0.07571586
0.09113372
0.04303827
0.01706828
-0.01281932
-0.02155603
-0.06432471
0.04604802
0.09518058
-0.09328806
0.01973614
0.03283128
0.02382794
0.04802004
-0.03730450
0.00273833
0.10229778
-0.08088907
0.09322541
-0.02718568
-0.03856838
-0.10004511
0.01075226
-0.00900770
0.06734395
-0.02711362
-0.02583358
-0.08319011
-0.01980906
-0.02219120
0.06745601
-0.02269365
0.01337281
-0.06974719
-0.03504000
0.01812872
-0.06511410
0.07438026
0.01053721
0.03763423
-0.07301882
0.02452080
-0.08012428
-0.03967773
0.04373540
0.07975222
-0.05559384
0.02748847
0.07190242
0.03341973
0.03792600
-0.06610623
0.08579279
0.02773700
-0.08279207
-0.08109277
-0.04713308
-0.08276851
0.00266186
-0.05202420
-0.00040886
0.04917308
-0.07212855
-0.02400392
0.04203066
0.06143451
0.07924487
-0.00206211
-0.04575659
-0.08463513
0.04672664
-0.05597377
0.02577235
-0.08682170
-0.07555149
0.09488822
-0.07218960
0.03356240
-0.09203418
0.01691121
-0.02107668
-0.08275701
0.06257038
0.04700128
-0.09684409
0.04407472
0.06021615
-0.04990829
0.06104281
-0.01296080
0.01272212
-0.03056061
0.04141241
0.03343361
-0.05773792
0.02855750
-0.08716697
0.09949767
-0.01747386
0.08166318
-0.04775333
-0.00441118
0.03439000
0.03385184
0.01584259
-0.00781691
0.03730716
0.04147672
-0.09340824
-0.07129434
0.09609364
0.09326713
-0.02094300
0.02385585
0.07984281
0.09078846
-0.02523765
-0.07456939
0.01472041
0.06624037
-0.09131783
-0.06416520
0.03446720
-0.04101869
0.07337944
-0.09174446
0.03602651
0.04676588
-0.05325523
-0.06855052
0.08097291
0.07343261
-0.06761886
-0.05324761
0.10198957
0.00366134
0.08087813
-0.06425150
-0.09030889
-0.07743840
0.07719293
-0.09646620
0.09244406
-0.03489060
-0.03565937
0.05659921
0.00988352
-0.09262308
-0.06995678
-0.01088331
0.04645407
0.05030465
-0.02359401
-0.06289301
-0.08492503
-0.01997614
-0.09430376
-0.00316436
0.05306141
-0.06888058
0.04182770
0.09727088
0.00988261
0.09916564
-0.01002318
-0.03129033
0.09178658
-0.05735151
-0.00834588
0.05458541
0.01804577
-0.04007151
0.00099061
0.07003078
0.00779509
-0.06330313
0.02635544
-0.01998208
-0.00377863
0.07933944
-0.09307713
-0.09822229
-0.02757443
0.09819573
-0.08510082
0.05342354
-0.04439577
-0.00062050
0.07678758
0.00484192
-0.04007221
0.01209386
0.09211855
-0.02759832
0.04994318
-0.01131320
0.07578732
0.02573478
-0.00655483
-0.05987697
-0.08094776
-0.06076591
0.06165316
0.08338119
-0.03907267
-0.08052507
0.08049833
-0.05566863
0.06423515
0.01312399
0.05163001
-0.09057811
-0.09186071
-0.08553090
-0.02930439
0.01891733
-0.00819350
0.00895899
0.08053937
-0.08126006
-0.00345313
-0.02384143
0.07580693
0.02661824
-0.03604510
0.02042469
-0.08896534
0.07527946
0.04212108
0.02430744
-0.07612582
-0.08967155
-0.00835375
0.03064302
-0.01708524
-0.07078525
0.08943360
0.05201415
0.08336553
-0.07033850
-0.07547982
0.04156149
-0.01010341
-0.04056475
0.01468258
0.00731882
0.08712865
0.00465499
0.02902780
-0.05736887
0.03108043
-0.07934913
-0.07838537
-0.09334384
0.03691597
0.08831042
0.10017648
-0.05269808
-0.08251668
0.00024682
0.02393795
0.02667587
-0.07447305
-0.03651798
-0.07864896
0.01012422
-0.04416799
0.04005311
-0.00436204
0.05542855
-0.07429331
0.00103517
0.03192878
-0.01342488
0.04624399
-0.07553362
-0.00056231
-0.08419049
-0.05474221
0.08148607
0.02265581
0.08839635
0.00336955
0.08759005
0.02874453
-0.03449561
0.00297861
-0.05168578
-0.06420622
0.09622099
0.04347907
-0.08932459
0.01369223
0.06661754
-0.02268940
0.00558033
0.02408936
0.03491000
-0.03102752
0.06187238
0.00592649
0.08728570
0.03920439
-0.07480548
0.03611269
0.04207369
-0.07231654
0.03174872
-0.08665828
-0.03683367
-0.08957660
0.06711724
-0.01854236
-0.06204262
0.01086074
0.04064763
-0.02496502
0.06620952
0.08798099
-0.03909916
0.08052974
-0.10157168
0.09069716
0.05548577
-0.09037551
-0.08094636
-0.01165361
-0.03100727
-0.02870114
-0.08473543
0.06312399
-0.04396265
0.09748281
0.01570723
-0.01099552
0.04702054
-0.08616622
0.05069195
-0.06111082
-0.04383706
0.07980833
-0.00013033
0.02480418
-0.02004749
0.07446611
0.00126279
0.09631312
0.08132089
0.06135432
0.07867622
-0.07661293
0.06179357
-0.07423377
0.03278829
0.08237318
0.00465662
0.09323779
-0.08050938
0.00347668
-0.01298244
0.02199556
-0.09510040
-0.09574172
-0.01993589
-0.07531649
-0.09708221
0.08065372
-0.08999493
0.05199228
-0.08148967
0.01549445
-0.08034440
-0.08213638
0.02695412
-0.09232545
0.06394287
0.04001701
0.08055961
-0.05244346
0.01417318
-0.09170368
0.03737493
0.06159432
0.01912238
0.04909238
0.01362782
0.08850205
0.01904806
0.00022734
-0.03205492
-0.01032966
-0.01751327
0.03378042
-0.07209021
-0.02425836
0.09712460
0.05359970
-0.03313046
-0.06314836
0.08982061
0.03109840
-0.00188999
-0.04953452
0.05936151
-0.08379396
0.03465998
-0.08929716
-0.05074620
0.02770181
0.03208290
0.06411777
-0.02839746
0.01205542
-0.08159688
0.00472318
0.00036333
-0.00819932
0.02874529
-0.00647696
0.06014738
-0.03398342
-0.09496362
0.04575024
-0.10071928
0.01733299
-0.04252233
0.00683437
-0.01237270
-0.09538160
-0.05450904
-0.08422346
-0.04502684
-0.02221630
-0.09404417
-0.04968664
-0.02513056
0.04897403
-0.05481052
0.07696994
0.07987465
-0.04648010
-0.06108472
-0.00907172
-0.01724069
-0.07562234
0.07139526
-0.00891388
-0.02888234
-0.09036099
-0.06484763
-0.07769025
0.02422717
0.02252089
-0.06397772
0.01479123
0.10045714
-0.01885614
0.02361848
-0.03691662
0.03260618
-0.01712543
-0.02181788
-0.07797279
0.06860122
0.02591904
-0.08291290
0.04139034
0.01202042
-0.02138338
0.03117168
0.01750369
-0.08238413
-0.09900365
-0.02888176
-0.09339629
-0.03545014
-0.09487260
-0.00678695
-0.04501894
-0.08751019
-0.08772463
0.01745423
0.03880370
0.08750846
0.04611174
0.03327568
0.05973454
-0.07678304
-0.07338552
0.01707459
0.02123782
-0.09478407
0.08674996
-0.06281490
-0.03888840
0.01631704
0.08664544
-0.05529783
-0.09632092
0.00885890
0.03149099
-0.05591719
0.07429396
-0.09552723
-0.04128944
-0.04951951
0.00209976
-0.03219844
0.09243678
-0.07118284
-0.00477112
0.00899123
0.08431605
0.02709878
-0.08231756
-0.06676219
0.01859812
-0.09529166
0.07011881
-0.07160512
0.00735862
0.07990780
0.00353444
0.01510891
0.09518391
0.04632385
0.00030848
-0.00353150
0.04134392
-0.01760253
0.04702984
-0.09969506
0.03134609
0.08188090
0.09133678
-0.08540337
-0.00828763
-0.06547272
-0.07943357
-0.05531405
0.08683196
0.09752868
-0.05435528
0.04687530
-0.07380958
-0.00823069
-0.01979088
-0.02695723
0.01199957
0.02120375
0.07864904
0.09869191
-0.02602577
0.00848266
-0.03387885
0.05488403
-0.05619882
-0.09783933
-0.07270286
-0.01669358
-0.03333683
0.07407230
-0.01132883
-0.05180165
0.08651937
-0.01407729
0.07080045
0.02033577
0.02356918
0.05867517
-0.06737001
-0.07028671
-0.00965767
0.06960969
-0.06301116
0.02698923
0.09236675
-0.03600868
0.08365920
-0.09618433
-0.05039723
0.02602776
0.04704099
-0.01006121
-0.03199002
0.06210293
-0.01951219
0.01481476
0.08007265
0.04754325
-0.05878967
-0.01376347
-0.08441280
0.09703023
-0.10322168
-0.09938623
-0.04700531
-0.03339442
-0.06158525
0.08287821
0.08385438
-0.09030736
-0.08127128
0.09118720
-0.01711100
-0.05238872
0.05549004
-0.05084382
0.01399667
0.06455043
0.09595341
-0.07064045
0.05595805
0.09673585
0.06242521
-0.01523920
0.09697370
-0.04248361
-0.03452835
0.02949257
0.02475577
-0.02348252
0.00730969
0.01516616
-0.09069469
0.01148993
-0.01857932
0.01902274
-0.08757091
0.09846272
-0.05619574
-0.00327852
-0.00891220
-0.07682976
0.02572289
0.09946114
-0.08885761
0.02921672
-0.07189556
0.01732473
-0.07364510
0.09040127
-0.06791839
-0.02425425
0.04687351
-0.02599978
-0.05428858
0.08148496
0.04711043
0.05314217
0.07273147
-0.09083806
-0.03661756
-0.04459686
0.00606858
0.07162219
-0.02473385
0.03583895
0.05068117
0.07942461
-0.08789653
-0.00796917
0.07871518
0.05329811
-0.09661777
-0.00261763
0.01101929
-0.08958505
-0.08159144
-0.05077769
0.08386456
0.05500391
0.03298269
0.05978768
-0.05899927
0.05915953
0.08682168
-0.03511218
0.05034495
0.05297002
-0.09429173
-0.01839398
0.06347408
-0.03807423
-0.02017276
-0.00742328
-0.07160784
-0.02191644
-0.09429605
0.01499628
-0.02933072
-0.04358446
-0.04765430
0.02475466
0.06417025
-0.06817568
0.00051557
0.09071528
0.05031947
0.00690122
0.02955873
0.08104061
0.00452918
0.08259494
-0.08691400
0.07133373
0.09219734
-0.09181700
0.04811963
-0.07962288
0.06114731
-0.09365216
-0.07413166
0.02383813
-0.05034352
0.03932145
0.04735728
0.05634030
-0.06163874
-0.03022439
0.07223918
0.08335888
0.04151741
0.02750230
-0.03903544
-0.05639315
-0.05487441
-0.05075023
0.03862140
0.00056316
-0.02056021
-0.01549063
-0.06054122
-0.00517164
-0.08897442
-0.07603227
-0.05450565
0.08243128
-0.01345329
-0.04006761
0.09139635
0.04934521
-0.00533459
0.05270919
-0.06275387
-0.08688332
-0.02029235
0.06886245
-0.01741037
0.07336529
0.10315824
0.05784448
0.03435276
0.01669580
-0.03700278
-0.02278794
-0.08022514
0.01786339
-0.10296143
0.00929720
-0.07783513
0.00045981
0.05576019
-0.08909067
0.02500782
-0.01942062
-0.08449018
0.00898805
0.07005777
0.07897573
0.06968610
-0.04769165
0.01806852
-0.07197495
-0.00246848
0.09013656
-0.03109051
0.04198431
0.00194756
0.08184075
-0.07749246
-0.07043181
0.01245874
0.08956832
-0.06252457
0.03325082
-0.10107052
0.01116858
0.08624281
-0.09303924
0.05193079
0.01395520
-0.02454165
0.01554256
-0.05439645
-0.00649510
-0.03567410
0.09803455
-0.09342871
-0.00760796
0.01110828
-0.07182955
-0.00214769
-0.06977515
-0.04921168
0.07183760
-0.05844448
0.03389871
0.01220400
0.06777800
-0.07065258
0.04472665
0.07709707
0.05504095
0.01984450
-0.08485520
0.09247383
0.03743758
0.03762337
0.01802776
0.01999465
0.01311401
0.03455456
0.09764540
0.09820981
0.01578015
-0.01625815
-0.05888685
0.08804142
-0.03031367
0.08972166
-0.09531697
0.09253839
-0.03680893
0.07875233
0.05713007
0.08745066
-0.03698734
0.04247266
-0.07312379
0.05168075
0.09067824
0.10203318
0.00981227
-0.08138964
0.04924668
-0.00832055
-0.02794912
0.00596005
-0.02320872
-0.01602437
0.00848078
-0.04163592
0.09097594
0.02081325
-0.01554979
-0.05948861
0.03597488
-0.08670051
-0.05696324
0.02535477
-0.03255974
-0.02281695
0.00459313
0.00287927
-0.06423198
0.04034038
-0.01879034
0.07855512
0.03825318
0.03524306
-0.02722423
0.05392550
0.07181776
0.06574785
-0.07734129
0.01824639
0.06830913
-0.09189557
-0.08102342
-0.03323698
0.03478661
-0.01605734
-0.09967829
-0.00986702
0.05113385
-0.07163352
-0.00758723
-0.03321020
-0.02439759
0.09978988
-0.07321073
0.09346181
0.01456285
0.04732863
-0.04214396
0.00712809
0.08269158
0.04324935
0.07499000
0.09144728
0.09598156
-0.00506878
0.01931147
-0.04117650
0.03591903
0.02186560
0.06735356
0.03089617
0.00689642
-0.08380405
0.02363629
0.02695778
0.08151180
-0.07442081
-0.09443617
-0.07162232
-0.02131125
-0.01573228
0.07659823
0.01818955
-0.03151960
-0.03276550
-0.08708871
0.06389896
-0.00306350
0.09830464
0.01703575
-0.02976857
0.09947133
0.07873458
0.01060298
-0.03564611
0.07779856
-0.07362801
-0.08325318
0.09097566
0.05530029
0.00459897
0.01526838
0.07236817
-0.06722582
0.07788608
-0.05117236
0.03584138
0.03636560
-0.09465626
-0.05168179
0.04548129
0.08433824
-0.04341962
-0.01693315
-0.09854337
0.02987715
-0.03816440
0.02308397
0.01738357
-0.03671807
0.04440962
0.06028823
-0.07090941
-0.08417804
-0.02299091
-0.03740210
-0.00491132
0.09278342
-0.04250342
0.09457157
-0.04347195
0.05513623
0.05427942
0.03547294
-0.03620827
0.07665967
-0.03329016
-0.03225227
0.02778371
0.05101184
0.06614698
0.07114536
0.08572230
-0.03978257
-0.04293578
0.04577147
0.00921780
0.01281989
-0.06606938
0.09021032
-0.09459122
-0.09828270
-0.05071287
-0.03118101
0.08695270
-0.07037709
-0.01668739
0.01746353
-0.00848628
0.00489528
-0.03766834
0.01973577
0.04939438
0.03281476
0.06922090
-0.07407452
-0.00579064
-0.00298889
-0.08049872
-0.03192006
0.00178894
-0.03223936
-0.01919197
-0.00375151
0.08963416
-0.05714076
-0.00130963
0.02831450
-0.06592880
0.02910089
0.00242882
0.06220783
-0.04853708
-0.02755264
0.00404843
0.01649230
0.05636527
0.00818717
-0.01171799
-0.03311186
0.03067132
0.02226070
-0.07367058
-0.04835260
0.02802308
0.02534736
-0.03172229
-0.02276841
-0.07044754
0.03076904
-0.00329758
0.03121166
-0.05324363
0.06965422
0.04825395
-0.02310024
-0.01086416
-0.06729580
0.05312666
-0.09289536
0.02203616
0.05455730
-0.09473403
-0.02663943
0.07599455
0.08758667
-0.07432236
-0.09889399
0.01329828
0.04808319
-0.08547980
-0.09146966
0.06623519
-0.06975398
-0.01483737
-0.04866910
-0.04855858
-0.06422512
0.10101929
-0.01734459
0.02937740
0.07407165
-0.03637673
0.04802109
0.04084906
0.08068356
-0.09889517
-0.03472506
-0.04102412
-0.02385148
0.01955948
0.03644219
0.02141693
-0.07384058
-0.00076961
-0.01502563
0.08148968
-0.09333748
-0.03584014
-0.07967251
-0.08378408
0.02287599
-0.09299451
0.04286923
-0.05700462
0.05625535
-0.00177010
0.09444505
0.04582896
-0.08467177
0.04331733
0.04290375
0.03070230
-0.03786116
-0.05001986
-0.07726263
0.02975000
0.00970655
0.01280266
0.01552429
-0.09735613
0.08943410
-0.08846813
-0.00262341
0.05173425
-0.08919417
0.08283330
-0.05067302
0.02213983
0.04979780
-0.09515893
-0.03416247
-0.09316062
-0.04344811
-0.05813414
0.08204588
-0.02170319
0.07837785
-0.05127778
0.06179431
-0.07680901
-0.01884291
0.01541997
-0.01279675
-0.05243682
-0.10133005
0.01323627
-0.03617781
0.04275124
-0.08996987
0.06906210
0.08379997
-0.02568072
0.02755376
0.08916228
-0.01887077
0.01587603
-0.04084336
-0.00712775
0.03078986
0.07219882
-0.09290799
0.05965018
-0.04001701
-0.08384746
-0.07095109
0.03773549
0.04133783
-0.02415398
0.05178975
-0.03590837
-0.06323389
-0.01721478
0.00030406
0.05913718
-0.08534943
0.07653009
0.04482201
-0.08910102
0.07619994
0.00621100
0.07634749
0.00045927
0.05251213
0.00961039
-0.08294877
0.04527489
-0.04197120
-0.00043910
0.07142210
-0.02010030
-0.09839729
0.06657945
0.00469585
0.07471455
0.01186200
0.03826680
0.07302344
0.03247313
0.04032348
0.02260909
-0.03001202
0.09930665
0.01178160
-0.00754969
0.09519801
0.04925958
0.05583662
-0.00298765
-0.09086920
-0.03152305
-0.01775389
0.00335056
0.07836676
-0.03526896
0.08318962
-0.06308533
0.03669593
-0.00957318
-0.06141003
0.06634659
0.08891580
-0.06399134
-0.05954042
-0.08069037
0.03555090
-0.07548492
0.04020954
-0.03245838
-0.01758679
0.00054454
-0.08682470
0.07535176
-0.01781510
-0.07118934
-0.01754966
-0.08552657
0.05577786
0.09549754
-0.05155740
-0.02807795
-0.04598489
0.02756368
0.00307049
-0.08697549
-0.05670883
-0.05013263
0.06071933
-0.03154325
0.01515627
0.07405071
-0.08059760
0.06331101
-0.07165061
-0.01025738
0.02604809
0.03683627
0.05208264
-0.08031554
-0.02212038
-0.03036414
-0.09445335
0.05042274
-0.00757751
-0.00988492
0.01553898
-0.02012772
-0.03981031
0.08582801
-0.09205010
-0.07053951
0.01490115
-0.05564516
0.02452647
0.05499807
0.07441548
0.00192803
-0.06242345
-0.01831928
-0.01647139
-0.01884777
0.04687650
-0.01356080
-0.09682869
0.02053128
-0.04306729
0.08727603
-0.05170851
0.09843560
0.04613681
0.09278034
-0.04796000
0.08476398
-0.05496039
-0.08638732
-0.08873621
0.08394215
-0.08121945
0.08768272
0.04634848
0.01912571
-0.04937708
-0.07071284
0.00750625
-0.07078190
0.08229196
-0.04608081
-0.07238277
0.09808607
-0.00263738
-0.09364353
-0.06569208
-0.04942133
0.07530029
-0.06929106
-0.09146232
-0.05258147
-0.00713525
0.01914610
0.00818351
0.07056283
-0.00892558
0.01997912
-0.09084568
-0.04617827
0.06215520
-0.04027725
0.02605728
-0.02686900
-0.06913231
0.03903288
-0.03809393
0.02225886
-0.06374232
0.08408204
-0.03155490
0.02920578
0.07269116
-0.02969182
-0.08987427
0.02661959
-0.08239441
0.01253793
-0.08590422
-0.07704605
0.00090173
0.05096263
-0.04507408
0.03281626
-0.08615751
0.00027218
0.00197085
-0.00606987
-0.00105115
0.00231840
-0.00581805
-0.01348852
0.08009629
-0.00862344
-0.01052658
-0.05077677
0.02597185
-0.06029055
0.03107564
-0.02813694
0.06667734
0.03545046
0.05780400
0.04367123
0.09917000
0.06133228
-0.02811246
-0.00701557
-0.06592897
0.01150076
0.03426429
0.02722308
0.08632062
0.02697096
0.06454636
0.04995321
0.05607991
0.07405228
0.03893513
-0.00370594
-0.06379272
0.06767049
-0.04375098
-0.03396889
0.06215793
0.03018573
-0.04398646
-0.02499015
-0.06168743
0.02486958
-0.02068076
-0.06975211
0.00340402
0.04129238
-0.06699322
0.02641596
0.00029388
-0.07126583
0.06399445
-0.02651883
-0.04705066
0.04788673
-0.09492220
0.07880927
-0.05638342
0.05934162
0.07167528
-0.05057953
0.00970178
-0.07652339
-0.06595421
0.08697555
0.03991074
-0.01685625
-0.04185306
0.07405793
-0.05642773
-0.05411964
-0.00386401
-0.08869318
-0.03188808
0.07638272
-0.05585563
-0.05530934
0.06958545
-0.00339192
-0.03396666
-0.07035395
-0.01283064
0.00397880
-0.04748247
-0.06614118
-0.06723188
-0.09861739
0.04305988
-0.03236466
-0.05833140
0.08844854
0.02036220
0.07264476
0.02005088
0.05778715
0.00790363
-0.05119883
0.09048610
0.04219686
-0.03838061
0.06307014
-0.08962013
0.02595597
0.07993931
0.08573203
-0.04126388
-0.01012600
0.06941915
0.03806029
0.03888183
0.03095661
0.02543834
-0.01752827
0.02394815
0.04267210
0.00420174
0.02236847
0.08370494
-0.02115106
0.07834071
0.06910185
0.01195198
-0.01826888
-0.05511698
-0.07353353
-0.00999632
0.01445229
0.08687466
-0.04519384
0.02848831
0.07208805
-0.05927446
0.06741461
0.00281750
-0.00366755
0.08469910
-0.08466758
-0.08371248
-0.00008260
0.09939714
0.01707596
-0.06005174
0.09487235
0.09317505
0.09350960
0.02685477
-0.06165179
-0.00940685
-0.03686586
0.07914663
-0.08140120
-0.06105397
0.03822015
0.03496424
-0.06113184
-0.09630675
0.01248049
0.08334507
-0.02821975
-0.09296549
-0.04342290
-0.04541713
0.02935390
0.07274773
0.00665637
-0.08168918
0.01272689
-0.00270906
0.09558802
0.00432552
0.07349848
-0.01230302
0.06844022
0.06079284
-0.02085135
0.05744384
0.05595602
0.07682792
-0.08017037
-0.09797107
0.06511444
0.04566520
-0.00491174
0.06410719
0.01369847
0.05299510
0.09010270
-0.04673444
0.00914676
-0.09361882
-0.07357027
0.09916617
0.08495074
-0.07800325
0.00525652
-0.05956497
-0.01956030
0.01679865
0.06034579
-0.09103538
0.00698472
-0.06202665
-0.09247018
0.09946260
-0.03838006
-0.05209070
-0.09617652
-0.09197708
-0.05826296
0.00152993
-0.06723659
-0.08556197
0.01544033
-0.03706159
-0.09329184
-0.00246562
0.01106642
0.06016951
0.09899057
-0.04560993
-0.02542648
-0.06062355
-0.08274955
0.01724296
-0.04698427
-0.06201389
0.01683118
-0.06613338
0.06402862
-0.09657099
-0.04317809
0.01368359
-0.09597829
-0.00699238
-0.07380840
-0.00306403
0.04595248
-0.00442961
-0.08259674
-0.05653096
-0.09683255
-0.01009455
0.06723950
0.02537756
0.08666637
0.07263470
-0.01144902
-0.01147028
-0.07035392
0.00721646
-0.04215595
-0.02182971
-0.05223250
-0.09198813
0.01082410
-0.09058931
0.05622685
-0.02852520
0.01551444
0.05239594
-0.07610326
0.04812797
-0.04746584
0.01803869
-0.07209629
-0.00111525
0.09174882
0.05240914
0.05471250
0.06559795
-0.09935952
-0.02806000
-0.02047816
-0.01228241
-0.05879007
0.03659157
-0.06980754
0.06883404
0.00426716
-0.00474693
-0.04661981
0.00731862
-0.00846189
-0.09668326
-0.04307242
-0.00503188
-0.09591354
-0.06321626
-0.03009755
-0.05468786
0.08642393
0.09276389
-0.00320119
-0.02912603
-0.07461859
-0.06894011
-0.09783565
-0.05556233
0.09717475
0.05268178
0.09921531
0.06907126
-0.02833819
0.10014826
0.08287912
0.09250336
0.09787507
-0.05069149
-0.02326434
-0.09762559
-0.04993592
0.07908857
-0.05999666
-0.07894518
0.05679622
0.00749502
-0.00152634
0.04168121
-0.07650701
-0.03966774
-0.04911252
-0.06485674
0.03986795
0.06816788
-0.09179139
0.05415274
-0.01221667
0.06573175
-0.07428538
-0.03059025
-0.04347992
-0.02607025
0.07170367
-0.02919143
0.06968747
-0.05206852
0.01258683
-0.03596154
0.02133061
-0.02229074
0.04315399
-0.01823897
0.05181655
0.01006830
0.03394047
-0.03021732
-0.06022404
-0.01828184
0.05939110
-0.05432751
0.03146499
-0.04784739
-0.06309229
-0.02268692
0.02058812
-0.00655248
0.06494752
-0.06685053
0.08301913
0.04745052
-0.01660088
-0.02457921
0.02899531
0.01228017
0.05154523
0.00201828
-0.02711973
0.04380430
0.06045654
0.02853202
-0.06521938
-0.05017257
-0.06844939
-0.01974924
-0.02243630
0.06774888
0.06497403
-0.06203195
-0.03749089
-0.07548273
-0.08930427
0.05956142
0.01769799
-0.00753666
-0.04466499
0.06998298
-0.08737573
0.08963064
0.05244655
-0.10255200
-0.02131548
-0.00000389
-0.06440134
0.00705847
-0.01197236
-0.04171514
0.07845158
0.02762530
0.08737801
0.00742895
-0.04031959
0.01578096
-0.06220537
0.06788292
-0.01010592
-0.01635761
-0.01313068
0.01221133
-0.08354737
-0.06516245
-0.04363246
-0.08425036
0.07254794
-0.01837597
-0.10637646
0.04250478
0.08431797
-0.06036081
-0.09273003
-0.01664718
0.03316523
-0.09713405
0.09322178
-0.03648149
-0.06017138
-0.10300048
0.06654901
0.02854463
0.02603498
0.01710496
0.04566682
-0.02295810
-0.04444027
0.08265036
-0.05656434
-0.03226499
0.00721062
0.01221953
0.03104274
-0.04820602
0.00574148
0.07480702
-0.07553380
-0.09879021
-0.08402182
-0.00360994
-0.05382054
0.03185210
-0.06654624
-0.07878290
-0.03785964
-0.09704859
-0.02836618
-0.04590152
0.06041985
0.08776313
0.02273421
0.00242256
0.01281670
0.03761857
0.07972942
-0.06410947
-0.07987148
-0.00125480
0.01342261
-0.06861924
-0.03595151
-0.07836451
-0.06668658
0.09313878
0.07698557
0.10581787
-0.00130229
0.01956198
-0.00762727
-0.02856000
-0.06420353
0.02949667
0.02674280
-0.06775307
-0.04161363
0.05337293
-0.05319510
-0.08918549
-0.02505086
0.09236134
-0.06868433
-0.00416797
0.07304494
0.03655091
0.06795311
-0.02478946
0.04271263
0.03437522
0.01680674
0.02258094
0.06599479
-0.06671503
0.07498381
-0.08842238
0.03017384
0.06443715
0.04644603
-0.09139304
0.00505734
-0.08110529
-0.04317182
0.02921867
-0.00847171
0.02199723
0.04733756
0.02231203
0.08502587
-0.05411795
0.02826777
0.01351492
-0.05007841
0.04843648
0.01397647
0.04813862
-0.10173644
-0.09807517
0.08413972
0.09500603
-0.08247078
0.03579853
0.06158892
-0.09322467
0.05729587
-0.05564231
0.00690206
0.03196402
0.04995325
-0.06720412
0.00644114
0.01215816
-0.10032401
-0.03103659
0.02158670
0.03396745
-0.01138561
0.04219783
-0.00307107
-0.03804393
-0.03794742
-0.00163888
-0.01689967
-0.10167934
0.02736874
0.00712536
0.04914883
-0.06497881
-0.02031672
0.01626501
-0.02210845
-0.00291902
0.04279529
0.09827968
0.02376103
-0.00027217
-0.05958533
-0.10068257
-0.06363654
-0.04710635
0.09364630
0.09034034
0.00753290
-0.05353824
-0.01126001
0.09824164
-0.08360764
-0.09054249
-0.01168166
-0.01015320
0.01837032
0.03776601
0.09772356
-0.07862479
0.06181361
0.02219339
0.04720467
-0.00977726
-0.00216855
-0.01542776
0.04011014
-0.02377266
0.02639812
-0.05639043
-0.01648571
0.02518746
0.08958313
-0.01879684
-0.05492805
0.09244613
-0.01697750
0.06936011
-0.05223547
-0.05764685
0.07509125
0.06336655
0.02022651
-0.08241695
0.01491522
-0.03718609
-0.02055968
-0.03455481
-0.08357245
0.05124370
0.05382542
-0.01084354
0.03604395
0.02232373
0.06107634
0.05634801
0.02324916
0.06304609
-0.06819399
-0.06006227
0.03749929
-0.03197200
0.05080372
-0.09682299
0.08903613
0.02176252
0.01677618
-0.00511958
0.02400454
-0.08946563
-0.08000235
0.06067105
-0.04550152
-0.05392055
-0.06565819
-0.08215861
-0.06286421
-0.01054453
0.02278061
0.00997085
-0.03622522
-0.03885731
-0.07910909
0.07016850
0.06121131
-0.00070840
-0.05347774
0.00051173
-0.01308265
-0.00746508
-0.02751591
-0.00527091
-0.06001406
-0.10052564
-0.05255581
0.06914223
0.07677204
-0.00713578
-0.02971285
0.03707048
0.03852979
-0.05815159
0.04054749
0.00553978
0.00696072
0.03412994
0.05572041
0.06893983
-0.01296588
-0.08473065
-0.09255795
-0.01489264
0.01880316
0.00233002
0.06719315
-0.04668988
-0.00374197
0.03399420
0.07831703
-0.02609384
-0.08094438
0.02009170
-0.04586241
0.03199380
-0.00464118
0.01669333
-0.02451963
-0.10533597
-0.05283574
-0.10328595
0.07427316
-0.02655157
-0.04795425
0.01389773
0.06721951
-0.03365872
-0.05981947
0.00334833
-0.00764982
0.06507090
-0.05626330
0.06968768
-0.02139612
-0.02996076
-0.04177424
0.07004703
0.07323595
-0.03694130
-0.00826396
-0.02142617
0.06016770
0.06380937
-0.07980963
-0.04590803
-0.05007590
0.03734323
0.00377431
-0.02468201
-0.00325359
0.03798243
0.00936258
0.01496008
-0.08154238
-0.05340524
0.02207364
0.03588255
0.03424752
0.07277032
0.00682882
-0.05480594
-0.08936548
0.05141956
0.01248289
0.06546810
0.03206518
-0.03124198
-0.03770376
0.05749742
-0.10545283
0.05651328
0.00923486
-0.06356805
0.08371989
-0.05187758
-0.09983830
0.09544057
-0.08266308
0.00124917
-0.09541425
0.03084848
0.05435716
-0.00164171
0.01832923
-0.05886232
-0.03068926
0.06254733
0.04816472
-0.08893977
-0.09550498
0.03998993
0.04452972
0.02349035
-0.00317081
0.07904428
0.09313233
0.05307615
0.00790394
0.01257345
-0.02657080
-0.09133756
-0.07131814
0.07436773
0.09213871
0.02794666
-0.08255415
0.02407056
0.01484173
0.02708794
-0.09587507
0.05908730
-0.06285709
0.06805464
-0.00465177
-0.08487329
-0.04194163
-0.00572139
-0.08216615
-0.08033073
-0.09473615
-0.08255317
0.01184816
0.06337103
0.06778872
0.03555731
-0.10303708
-0.08350352
-0.02469034
-0.01017576
-0.00654768
-0.04293609
-0.02583074
0.04810541
0.01700898
0.02492234
-0.00252402
-0.09003715
0.06606049
-0.10896907
0.03678994
0.06953142
0.02398231
0.08608532
-0.09997955
-0.04162501
0.01327230
0.00932248
0.03395063
-0.02291202
0.02234032
-0.04976928
0.07293451
-0.03916134
-0.10012859
-0.00342534
0.01054855
-0.00977625
0.01904191
-0.03211539
0.02877611
0.08433121
-0.07592420
-0.04225103
0.02366049
0.07413569
-0.06604054
-0.08430416
0.05845361
-0.06678719
-0.09092154
0.05942473
-0.02183375
0.05483385
0.09256338
-0.07581182
-0.07368816
-0.01038384
-0.08552237
-0.02845441
-0.09795056
0.00308273
-0.02652924
-0.07394554
-0.05265347
-0.01483937
0.10675920
-0.02755489
0.01809193
-0.02591684
0.00320598
-0.04760946
-0.02854622
-0.07339777
0.08751144
0.03044031
-0.02830670
0.05702248
-0.06243401
0.06788686
-0.06407405
0.00939922
-0.08101677
0.03607898
0.08713838
0.07410324
-0.02944200
-0.02229148
0.03927613
0.05301243
0.07488069
0.08840961
0.03025232
-0.09010538
-0.06686866
-0.08160106
-0.01317780
0.05705662
0.06648382
0.09047082
-0.01124686
0.08946641
-0.08733132
-0.09868940
-0.03404116
0.07027873
-0.08926117
-0.01174428
0.08096865
-0.05851950
-0.08215043
-0.03479163
-0.04115656
0.01333419
-0.05103131
0.00848111
0.02636257
-0.03402067
0.03703687
0.00948696
0.05327558
0.04667142
0.03615127
-0.04241023
-0.08664817
0.00707862
-0.03480358
0.01825240
0.07115862
-0.06421814
-0.09616547
0.02568952
-0.04631930
0.08011440
0.02864238
-0.09135300
-0.00316962
-0.02897435
0.08976334
-0.02510976
-0.07433901
0.05461135
0.08831979
0.08359582
0.08356381
-0.06849549
-0.05511838
0.06716746
-0.08400377
0.09772594
-0.04791102
-0.09041794
0.08013223
0.07268735
-0.04859741
0.04220539
-0.08308228
-0.05561617
0.03556615
0.08116655
-0.00713735
-0.04302535
0.08435892
0.06318355
-0.05330416
-0.06225767
0.02054004
-0.06263425
-0.03944370
0.01285404
0.02437940
-0.05091589
0.02560586
-0.03700177
-0.05504500
0.00280928
-0.06588553
0.08009661
0.10077107
0.07774281
0.08882450
0.05990451
0.01804922
-0.02749074
-0.06078846
0.05196234
-0.05274519
-0.00899597
-0.00179941
0.07633973
-0.05795790
0.03902625
-0.00512682
0.03827663
0.00567866
0.07598306
-0.02435092
-0.09923882
0.00214070
-0.08245968
0.02707914
-0.01652807
-0.08112524
-0.08825500
-0.04717663
-0.05990717
0.01172572
0.06302536
0.05084484
-0.02781410
0.03668560
0.00440268
-0.09814768
0.02426321
0.05088777
0.00919477
0.03862786
0.08726025
-0.10345621
-0.02094751
-0.05753047
0.02120567
-0.01163658
0.04354687
-0.04764352
-0.07788963
-0.08907148
-0.09934638
-0.05108537
0.00740134
0.09018344
-0.02120492
-0.03987655
-0.05859691
-0.01659784
-0.04232688
-0.03538312
0.03185414
-0.03225939
0.03869528
-0.01738005
-0.03101875
0.01390163
0.08337161
-0.04254770
0.06645163
-0.04608667
-0.01568814
0.08515037
-0.09485204
-0.10876588
0.02411497
-0.00153108
-0.04824126
-0.02386682
0.01699772
0.05021523
-0.02047635
0.02655198
-0.00330201
-0.00194730
-0.01266641
-0.00491517
-0.02874742
0.05362963
0.11229120
-0.01168296
0.04128146
0.08764039
-0.07195787
-0.05106884
-0.04078891
-0.06190671
0.05733615
-0.02129342
-0.02682441
-0.09234631
0.09721493
0.07776544
0.06694116
0.08709559
0.04497686
0.01991321
-0.04723072
0.03226639
-0.05307234
-0.03216916
-0.02034279
-0.05922347
-0.04567271
0.08933415
0.00551179
0.03722518
-0.00311967
0.09000830
0.09078936
0.07600776
0.08532600
0.06742092
-0.09325465
-0.02608645
0.02138980
-0.08482735
0.03983734
0.06533062
-0.05500299
-0.08485787
0.00415121
-0.01788496
0.01285451
0.09727947
-0.06951238
0.05057393
0.02718569
0.08364327
-0.09414506
-0.08433385
-0.06733055
0.08761774
-0.06345965
0.07445948
-0.00948482
0.07870247
-0.07568489
0.04947173
-0.01610068
-0.07918730
-0.06578915
-0.01978116
-0.06514240
-0.04039294
0.01968354
-0.02104432
0.06251910
-0.01312510
-0.07612812
-0.10223736
0.01606084
0.00233358
-0.03429811
0.07612228
-0.00888002
-0.08144608
0.01448549
0.08056920
-0.00174125
-0.07431052
0.07589269
-0.00650390
0.00317534
-0.00176431
0.08770720
0.03685659
0.08375714
-0.03274979
-0.01149143
0.06407464
0.00084683
0.05287060
0.02002510
0.05989706
-0.07422186
0.01027907
-0.07760568
0.02721713
0.07350295
-0.04353894
0.10733186
0.03370087
0.06957378
-0.04584618
-0.09786315
-0.04678951
0.09118697
-0.01997310
-0.04372758
-0.02363521
-0.08348857
-0.02171605
0.05182359
0.02366839
-0.03935299
-0.00918814
-0.09475140
0.06599016
-0.00187730
0.05884623
0.02379387
-0.08236029
-0.07068162
-0.09845834
0.02543284
0.06683800
0.03625389
0.07136843
-0.08783769
0.06014958
-0.03760155
0.01496615
0.07249909
0.02653152
0.03226130
0.07198036
-0.09231861
-0.07965418
-0.09955252
-0.02291073
0.08823988
-0.07123222
-0.07207269
-0.01131852
-0.05201334
-0.01862946
0.05830420
0.05445477
0.09189971
0.03083731
-0.08971367
0.03106292
-0.04587091
0.03275507
0.02458219
0.04234705
-0.00867035
-0.03769068
-0.00203553
0.05515406
0.02863032
-0.06976336
-0.00074222
-0.06936191
-0.07186231
-0.01673952
-0.08410364
0.09818750
-0.06829286
-0.02825791
-0.07337907
0.05965544
-0.07684271
0.04343262
-0.02028656
-0.06804722
-0.07819310
-0.10941681
-0.11143041
0.07335606
0.09026109
0.08043516
0.01325427
0.03922743
0.01903186
-0.02833982
0.06090220
0.10345790
-0.07478107
0.02684459
0.05665128
0.01118746
-0.02755367
0.05333954
-0.08196005
-0.06274333
0.05003286
-0.08233035
-0.06778948
0.08237687
-0.00205882
-0.03494791
-0.05259405
-0.08584370
-0.02778421
-0.08737345
0.06386171
-0.00396406
-0.06788317
0.01394523
-0.00978590
0.00176499
0.05343613
0.06476691
-0.10413813
0.09830401
-0.01257664
0.04306167
0.03947863
-0.07322320
-0.03397549
0.00705854
0.03566994
-0.02648312
0.02820205
0.06948382
-0.03399122
0.07767775
-0.01489752
-0.02601251
0.02713944
0.07389028
-0.03394702
-0.09275218
0.07636511
0.09227884
0.04212121
-0.06585011
-0.04932060
0.07162157
0.06483867
0.01764446
-0.07443690
0.05702419
-0.04984366
0.04445723
-0.03823788
0.08343123
0.00374433
0.01005921
-0.05421292
-0.04823240
0.02773246
0.05050437
0.07190209
-0.02681594
-0.01015186
-0.08287818
-0.09674210
-0.03724307
0.10763332
0.03997398
0.03798217
-0.04255277
-0.04498581
0.07796396
-0.06881378
-0.03391860
-0.10188283
-0.01666977
-0.01735651
0.06965260
0.04098645
0.01645509
0.01084465
-0.02649257
0.09137252
-0.04880136
0.01123706
0.04025051
0.01506882
0.07382631
0.05612411
0.02965245
-0.02234434
0.03844956
0.02781067
0.00695163
-0.06671446
0.10547866
-0.00968303
0.05441165
0.05863609
-0.07529157
-0.02200189
-0.07818161
-0.05633028
0.01607969
-0.00966997
0.06778629
-0.08030279
0.05451181
-0.01888487
-0.08139960
-0.01651556
-0.04065538
0.09202367
-0.05103578
-0.10314868
0.03956210
0.05974188
-0.04610486
-0.00410871
0.06027049
-0.10123584
0.05982445
0.03416990
-0.08687400
-0.03970535
0.06570367
-0.08589918
-0.01827868
0.01879436
0.06472958
0.07045199
-0.00803191
0.04218746
-0.02078762
0.00733434
0.06029000
-0.07079959
0.01531241
0.00238466
-0.05138902
-0.05210444
0.07634480
-0.03279384
0.02547664
0.06910550
0.04675139
0.01051297
-0.03301150
-0.07099958
0.02804484
0.03976820
0.01951003
-0.02722963
-0.07955906
-0.02666626
0.01013233
0.00832491
-0.09165611
-0.11172617
-0.03721054
0.03700454
0.02452465
-0.03547773
0.08948871
0.04303431
-0.07862064
-0.03675536
-0.04650573
0.05019715
0.00189397
-0.03513914
-0.06769683
0.03796547
-0.02724436
0.06418423
0.01063592
-0.03655424
0.03804386
0.00127359
0.04433305
0.03287679
0.06186447
0.06754970
0.04874494
0.07717218
0.09730418
-0.06906859
0.00781532
0.06622219
0.08120627
-0.09879827
0.06048181
0.03832469
0.05340553
0.06519527
0.03860593
0.04835482
0.10737060
0.00439215
-0.06886867
-0.03459473
0.01760006
0.06311975
-0.01194578
0.07891121
0.08717565
-0.03173766
-0.04326125
-0.05897399
-0.02652988
-0.02257715
-0.05513784
0.01819661
-0.01482991
0.03106027
0.07480467
0.06361619
-0.04247795
-0.00739841
0.03782931
-0.00110992
-0.07382423
-0.01992164
-0.08611903
-0.06683337
-0.09321269
0.07328586
-0.00634923
0.06355493
0.08889135
-0.03517546
0.03031910
0.06007691
-0.08930894
0.05056626
-0.09372047
-0.09719448
0.02742614
-0.07382480
-0.05818189
0.02746334
-0.04438109
0.02584291
0.08714022
-0.09498665
-0.05956399
-0.01016872
0.03727820
-0.06214059
-0.00124790
0.00512142
0.03272961
-0.03412081
-0.06956715
0.04758292
0.02841448
0.08190816
0.05333909
0.06945404
-0.00523789
-0.08508046
0.00158597
0.03497249
0.08759155
-0.04070817
-0.07321596
0.02446731
-0.04114189
0.08978385
-0.03877193
-0.02298016
0.05441586
-0.04632255
-0.00555034
0.00340519
0.00079974
-0.05986081
0.07391899
0.02334733
-0.08286735
0.02294104
-0.04456372
-0.03743492
0.05488197
0.07497398
-0.00498367
-0.08085465
-0.08236748
0.00454707
0.06175986
0.05862005
0.05214775
0.08704128
-0.05184787
-0.02215032
0.03896116
-0.00191426
-0.09691996
-0.09143180
-0.07544457
0.08544427
-0.07734817
0.00105752
0.03975985
0.02237412
0.00441155
0.08185001
-0.05581826
-0.00389861
0.05848099
0.06503785
-0.04811538
-0.09882470
0.05641971
0.05687513
0.05878861
0.04295455
0.00977233
-0.00112221
-0.08107192
-0.07175747
-0.07700631
-0.00230168
-0.06947175
0.00753714
0.02046839
-0.02688436
0.00294032
0.06914287
-0.08727529
-0.08529628
-0.03311321
-0.09503378
0.03501082
-0.02942526
0.03671196
-0.05295346
0.09636402
0.01217145
-0.07501857
0.09064963
-0.01873095
-0.06505110
-0.03536696
0.07914938
0.02431573
-0.03582180
-0.05314380
0.01167276
-0.00292306
-0.04193142
0.01095790
-0.08192886
-0.04229942
0.03987937
0.04405588
-0.06500648
-0.08740812
0.01769879
-0.08399322
-0.07267213
0.06649032
0.02116179
-0.03271120
-0.01104590
0.03723041
-0.06715335
0.06346980
-0.00038181
-0.04711994
-0.07658822
0.07088716
-0.09504002
-0.07082303
0.08581893
0.03442197
0.01029907
0.04645305
-0.03862519
-0.02203485
-0.07740992
0.00650473
0.00049772
0.01666831
0.02628325
-0.02847421
0.06696165
0.00802141
-0.04536939
0.05550767
0.02566559
0.01631312
0.03228038
0.04618228
0.02403197
0.10237229
-0.00628230
-0.09640691
-0.07203646
-0.06075677
-0.00527303
-0.08171811
0.06172903
0.04217514
-0.07342041
-0.07889804
0.01671389
0.08969314
-0.01093355
-0.01096378
-0.08745849
-0.09513100
-0.09464491
0.06955357
0.08110847
-0.04518976
-0.00233247
0.01233508
0.09960670
-0.02079637
-0.08529770
0.08443937
-0.06800215
0.09137709
-0.02994346
-0.05448055
-0.00947866
-0.08188496
-0.05294144
0.08773071
0.08445446
-0.08830025
-0.02504431
-0.04092328
0.02625974
0.02264266
-0.01592858
-0.02062288
-0.08949110
0.03706249
0.03924036
0.00956608
-0.05475202
0.00923321
-0.08573835
-0.05891396
0.05828897
-0.07957033
0.02339029
0.01962850
-0.05332886
-0.05064237
0.08440883
0.03034054
-0.09410485
-0.01362642
0.03097217
-0.06009007
-0.03493411
0.08820788
0.09602109
0.08610157
0.02742808
0.07505590
-0.08399254
-0.00585689
0.04109285
-0.04768907
-0.00927207
-0.04975946
0.00560901
0.06961253
-0.05627472
-0.02800343
0.03726283
-0.02634596
-0.05958808
0.03437341
0.09711902
0.01430705
0.06300356
0.07089482
-0.01463072
-0.03647423
-0.00384595
0.09639186
0.04221930
0.03922420
-0.01086503
-0.05229947
0.02795167
-0.01316989
-0.08023069
-0.00317744
-0.04229849
-0.03973542
-0.03429392
0.01257819
0.00951769
0.07170639
0.04598995
-0.00990270
-0.04345257
-0.00030814
0.10199368
-0.05286927
0.08105577
-0.09222724
0.08301128
-0.08574610
-0.07727201
-0.04724659
-0.01036193
0.04026804
0.08517704
-0.06385962
0.09156535
0.03314131
0.05529612
-0.06222079
-0.02389488
-0.08434975
-0.09446752
-0.03342234
0.09620729
0.06004327
0.01005662
0.09803334
0.07838209
0.03059009
0.01036622
-0.02850981
0.00574620
0.06811072
-0.07746816
0.02998107
0.08088430
-0.02857415
-0.08419503
-0.07124169
-0.04127663
0.08601001
-0.04156271
-0.08618104
-0.10443386
-0.07913649
-0.06364814
0.07939503
0.07147477
0.03577754
0.06744944
0.00903639
-0.03602165
0.04976694
-0.07382224
0.08160990
0.06333334
0.06896175
-0.06963313
0.07525512
-0.05146932
-0.00246433
-0.08832300
-0.02382527
-0.01692800
-0.04633379
0.09833308
0.03280073
-0.06131658
-0.08257794
-0.05794834
0.05903110
-0.05267247
-0.10740123
-0.06969986
0.10843914
0.07978019
0.02768257
-0.02944849
0.01150639
0.07808022
0.02725017
-0.06666088
0.07198263
0.06444313
-0.08205110
0.01749527
-0.08777917
-0.06791111
0.09500319
-0.08851560
-0.08210171
0.03050435
-0.05028865
0.09753093
-0.09683219
-0.08998056
-0.02738450
-0.08400858
-0.06633741
0.03961425
-0.06804493
-0.03226984
0.05766974
-0.00092806
0.05836898
-0.05024942
-0.06167124
-0.08143370
0.07364167
-0.06937707
0.04310820
-0.02127173
-0.07381730
-0.05825124
-0.08282586
-0.09218894
0.09811794
-0.02072340
-0.02185898
-0.02221690
0.09595565
0.03954151
0.05529361
0.01212574
-0.04528901
-0.07600863
-0.03141759
0.06155315
0.03158409
-0.09667195
0.02345690
0.03756745
0.07057251
0.06300176
-0.00335390
-0.07548210
0.02702881
0.01142007
0.08570911
0.04398298
-0.07625628
-0.00377712
0.01230580
-0.10095852
0.05919106
-0.00368806
-0.01961891
0.01336447
0.06470390
0.01438854
-0.05134319
0.07200507
0.03677070
0.04434658
-0.04043188
-0.09122028
0.00317016
-0.08024993
0.07408730
-0.03796368
0.03189019
0.02803844
0.06955967
-0.07389342
0.06594913
-0.07579734
-0.08353808
-0.07795963
0.07001593
-0.02797906
0.02335773
0.03760180
0.08910431
0.02769792
0.09046718
-0.02779072
0.09267943
-0.09729234
-0.04717186
-0.01870221
0.00773688
-0.08729904
-0.01164070
-0.05521873
-0.08566721
0.09738579
-0.04102466
0.08607300
-0.02981578
-0.06576991
0.03338562
-0.03551075
0.05557874
0.08558772
0.08633308
-0.02101826
0.09763956
0.00258729
-0.05402447
-0.03729397
0.06781040
-0.04232526
0.08534323
0.02458765
-0.02671353
0.07847580
-0.00252370
-0.08676541
0.09661448
-0.06189658
-0.05997490
-0.00257593
-0.03595402
-0.05298613
0.01755764
0.07148052
0.02486190
0.02332130
-0.02792114
-0.04978986
-0.02703568
0.00844527
0.05890384
-0.02519245
-0.05107566
-0.02778027
0.05884288
-0.01659308
0.08022984
0.06998870
-0.00658195
0.09924535
0.03721488
-0.08892234
0.03228275
-0.04467885
0.04594637
-0.03242248
-0.04489196
0.06109917
-0.06321078
-0.03857264
0.05785045
0.07325469
0.04673895
0.00830001
0.10795185
-0.01331539
-0.09237568
-0.05077953
-0.02976031
0.04868313
0.04271059
-0.08114433
0.04158736
-0.08066370
-0.04569524
0.02056429
0.05139789
0.03719970
-0.02953180
0.06021619
0.03986023
-0.08191685
-0.04213525
0.06801549
0.03791116
-0.07208667
0.09154523
0.03221916
-0.05806717
-0.04537811
0.01720000
-0.04011540
0.10037411
-0.05696117
0.08153866
-0.08194496
-0.00042603
-0.00711137
0.06769573
-0.00783770
-0.04710445
0.03215686
-0.11368700
0.00653692
0.00213065
-0.01847050
-0.08902951
0.01309934
-0.02768105
-0.05483128
0.01258497
-0.08247634
0.04605486
0.02861985
0.05345409
0.09813066
-0.09675752
-0.04274533
-0.07109736
-0.01748926
0.05937981
-0.06170318
-0.04176939
-0.05443898
0.04406018
0.07741411
-0.04467453
0.03588261
0.01251932
0.01432885
-0.02416918
-0.02142098
-0.01958301
0.06985400
-0.08868761
-0.03672195
-0.07623222
0.08198105
-0.00590359
-0.01004405
0.09667494
-0.00939304
-0.06521448
0.04721023
0.07925322
0.08211118
0.08350353
-0.06001848
-0.08962350
-0.05439167
-0.09665383
-0.06282076
-0.04969267
-0.03211949
-0.02602568
-0.00903281
-0.06827851
0.04380772
0.02739333
-0.07118481
0.01446927
-0.01213812
0.09180242
-0.03544844
0.06820524
0.00625319
-0.06219434
0.03316181
0.10710550
-0.03468879
-0.00618336
0.07435533
-0.01527582
0.00993095
-0.03029806
0.09153245
-0.04464548
0.09762392
-0.01217856
-0.01711431
-0.08729169
-0.09556238
0.02425333
0.07486647
-0.03870029
0.00521328
-0.00190916
0.01860126
0.01723749
0.08420948
-0.03474905
0.07687546
-0.06333162
0.04335418
0.07143394
0.06026685
-0.05128940
0.01799445
-0.04411925
0.03666295
-0.03774305
0.03054196
0.08026674
-0.01013078
0.02618547
-0.08865315
-0.02311558
0.02899049
0.00760846
-0.09041601
-0.06638911
0.07350188
0.01787722
-0.04122929
-0.03070646
0.00466031
-0.00556148
0.00839463
0.01314511
0.03404514
0.00243101
-0.00731746
0.10493056
-0.08575939
-0.09986180
-0.08739718
-0.07249210
0.05741029
-0.07274801
-0.04027044
-0.03445783
-0.07038159
0.05976735
0.01346859
0.00166281
-0.01818247
0.02536784
-0.06892495
-0.03172317
-0.01907169
0.09153380
-0.02524069
0.00075838
-0.08854585
-0.00663550
-0.06310407
-0.09533168
0.07488238
0.07939060
-0.04952266
-0.04718181
0.05302415
-0.00477244
0.03737058
0.03503932
0.07355466
-0.04186615
-0.03172347
0.08141453
-0.02295307
-0.04446660
0.03119805
0.07893671
0.02429789
-0.08816788
0.09557647
0.07588818
-0.08528351
0.00607877
-0.00742318
-0.01644107
0.02068048
0.02696737
-0.06181049
-0.09048761
0.07064914
-0.01453174
-0.03256655
0.09628817
-0.03814801
-0.03713656
0.00915572
-0.08241354
-0.01219312
-0.03198023
-0.00234965
0.07697622
-0.10269085
0.03258530
-0.05895583
-0.09781369
-0.09787326
0.04479050
-0.07971242
-0.09197090
-0.00121983
-0.10127348
0.06355404
0.00951297
0.08897531
0.05451455
-0.07035084
-0.06051672
0.00272376
-0.06769364
0.04917062
-0.06626229
-0.04900501
0.00263340
0.09261327
0.07171076
-0.06556057
-0.03975361
-0.01719117
0.03389509
0.00980358
-0.09497859
-0.02026533
0.00806414
-0.08411899
0.06364623
0.00266789
-0.02664379
-0.01108750
0.00232640
0.00011910
-0.09487737
-0.10267618
0.01855136
-0.08577893
0.10200385
-0.08062139
0.06893888
0.08814296
0.08031353
-0.09550094
0.06910565
-0.01584362
-0.07530899
0.02666240
0.09019070
0.05403225
0.02583289
-0.00470623
0.05540432
0.03416284
-0.04192418
0.09688277
0.01719456
-0.02617688
0.07459462
-0.00925057
0.05490760
-0.08394766
0.03661568
0.02644222
0.06788666
-0.00492608
0.04527310
-0.08377667
-0.06271811
0.01767555
0.01601637
0.03219258
-0.02404134
-0.07810949
0.09490316
0.09154030
0.03731873
0.00857027
-0.06993750
0.02914100
-0.09394876
-0.09411771
0.07521449
-0.08457832
0.02013879
-0.02420145
-0.04307954
-0.06760641
-0.05045800
0.07579761
0.02258533
-0.04612332
-0.03235837
0.05305492
0.02334979
0.07324672
-0.06171652
0.08673992
-0.06227684
-0.03787152
0.05492000
-0.01365182
0.00071356
-0.08938688
-0.05332068
-0.01411348
-0.03677910
0.07003464
-0.04383607
-0.00924040
-0.03092758
-0.05881091
-0.05517882
0.00844658
-0.00931927
0.01563889
-0.06345419
0.01157391
0.07605299
0.04159312
-0.00666230
-0.09566096
0.06889673
0.00250781
0.09896792
0.00317985
0.05739099
0.04982869
-0.07288599
0.00487739
-0.07798738
-0.03401605
-0.04853117
0.02911273
0.09869946
-0.07186731
-0.02292878
-0.05560829
-0.04932810
-0.10056155
0.08070157
0.02887948
0.05062789
0.00540241
-0.05556833
0.02375286
0.02277763
-0.02866245
0.00963406
-0.05571463
-0.05786967
0.00210618
0.05555067
-0.02537318
-0.07835550
0.06403056
0.06378086
-0.06722660
0.01780074
-0.08507044
-0.03441587
-0.04691113
-0.01893875
-0.02342097
0.08436403
-0.05030200
-0.08530741
0.08126046
0.09148713
-0.03592732
0.00397633
0.01448344
0.01271267
-0.00222128
-0.05157708
-0.08908446
0.05735012
-0.07797544
-0.08448700
0.02457723
-0.00445149
-0.00540706
-0.04969078
0.04849608
0.07437670
-0.09702999
-0.03810698
0.04956849
0.01570148
0.05066204
-0.01583325
0.09355580
0.03625135
0.05437175
-0.00188900
0.00675731
0.07187361
-0.03139439
0.05093865
0.02990435
-0.04829982
-0.07680781
-0.06441329
-0.02357173
0.05350820
-0.00490823
0.03751857
0.02350264
0.07757125
-0.01951078
0.08749456
-0.03883756
-0.03815599
-0.01975059
0.09113394
0.07271592
0.03105799
0.02234951
0.05458063
0.01415764
0.04290674
-0.05425889
0.01827245
0.06937141
-0.05405237
-0.04742301
-0.06373422
0.02304685
0.06125180
-0.08481011
0.08223014
0.10069343
0.03930625
-0.00011704
0.06284348
-0.07249462
0.05960080
-0.07084923
0.06367901
-0.05826557
0.02109977
-0.02392343
0.02676275
-0.06738560
-0.07945265
-0.06980969
-0.06531798
0.02468227
-0.07279698
-0.03160096
-0.05447334
-0.03755942
-0.04112424
0.02545824
-0.04509336
-0.01379360
-0.06431086
-0.03044983
0.03443731
-0.04383210
-0.09007481
0.01170954
-0.04355015
0.06805844
0.08463503
0.08298708
-0.03699613
-0.04369571
0.00914072
0.09890060
-0.04857476
-0.06451051
-0.03998932
0.01856796
-0.05087578
0.03540380
0.00828102
0.07456276
0.02524761
-0.09338023
-0.00541048
0.07674515
0.06302057
0.06533744
-0.09132852
0.10018712
0.00734437
0.02684322
0.06843004
-0.04532527
0.01259206
0.08660565
0.03600899
0.10221892
0.02986483
-0.03395552
0.03502236
-0.03077208
-0.09174332
-0.09527126
0.01751286
0.01811705
0.01033886
-0.07273251
-0.04198794
0.08197639
0.08866785
-0.06288765
0.09579294
0.05865059
0.09390256
-0.02038644
-0.09263843
-0.00273387
-0.08713519
0.05126222
-0.02929454
-0.01288553
-0.01462681
0.04832261
0.05255238
0.05964415
0.08144006
0.05146106
-0.02793623
0.02622527
0.01051349
0.08192836
0.06930507
-0.05086474
0.05248482
-0.01883658
-0.07360103
0.01346965
-0.06519170
0.09375852
-0.05974092
0.07388467
-0.00469895
0.05105918
-0.01790291
-0.07347617
0.04962887
-0.04305363
-0.04225276
0.08680194
0.08928270
-0.00551580
-0.04076615
-0.09215720
0.06523979
-0.04637851
0.00891878
-0.06515895
-0.07741393
0.04369086
-0.01729864
0.03731018
0.00537550
-0.03684225
0.01554121
0.04618317
0.01709575
-0.06005617
-0.09159287
0.00382680
-0.00801977
0.06255330
0.05286908
0.00560369
0.09536704
-0.05073910
0.00379084
-0.07066348
-0.00670040
0.02759622
0.09077454
0.00036313
0.06086897
-0.06758445
0.00242524
0.08629915
-0.00090777
-0.09727690
-0.09224236
-0.06338325
0.09944258
0.01936759
0.06766040
-0.01138012
0.09805396
0.00820703
-0.09241430
-0.03935493
-0.08080651
0.09460312
0.07370974
-0.07801751
0.03852040
-0.06350558
0.07370894
-0.01119681
0.10160312
-0.03948004
0.02151869
-0.06862367
-0.01229191
0.00501064
0.05480940
-0.09537042
-0.01929374
0.06296859
-0.01783021
-0.03029823
-0.04783200
-0.07855494
-0.05524068
-0.05692191
0.06379684
0.07551871
-0.04436142
-0.06115768
-0.05300656
0.07590613
0.02299986
-0.08887852
-0.04734402
-0.07984163
0.05596128
-0.08633834
-0.09152245
0.05360618
0.01449459
0.04318223
-0.00689789
-0.02432193
0.03428650
-0.00584459
0.09429765
-0.02188719
0.04097275
0.07482997
0.08257715
-0.07101544
0.09775006
-0.01112805
0.03134643
0.07539551
-0.06667206
-0.08561647
-0.06040626
0.08472645
-0.09593052
-0.04088911
0.00157537
0.07886566
0.07464074
0.02596154
-0.01268489
0.04045579
0.02587358
-0.08356013
0.01839233
0.02173397
-0.08095774
0.10500496
0.05137808
0.02374823
-0.03829178
-0.01616066
-0.05272989
0.09630377
0.08433777
0.09014611
0.08621233
0.04402323
0.09178633
0.00673577
-0.03933083
-0.08393952
-0.04195932
-0.04756323
-0.04862954
0.06308959
-0.08546503
-0.06857126
0.08999702
-0.00677660
0.00467575
-0.05648902
-0.01392007
0.04421337
0.08286325
0.08394687
-0.03765430
0.09756702
0.05012799
-0.00825568
0.01663598
-0.08959176
0.06340444
-0.01919333
-0.04478883
-0.05816544
0.02026032
0.02081577
-0.02907468
0.05252032
0.00784327
0.05152357
0.00324832
-0.00585901
0.06555585
0.01967504
-0.02732684
-0.01238661
0.09861417
-0.07786654
0.01779723
0.03557969
-0.02864418
-0.01258038
-0.02210331
0.06448587
0.05763873
-0.02785620
-0.08402753
-0.00708553
-0.08185526
0.04915580
-0.07795137
-0.01396999
-0.06954607
0.07405269
-0.06864655
-0.01671792
-0.04769254
0.07025804
0.02839375
-0.01295560
0.05803167
0.00058878
0.04239072
-0.01780704
0.00876826
0.02405294
-0.01433161
-0.01743895
-0.08892010
0.02009300
-0.03033255
0.09161346
-0.01504240
0.00800454
0.08134302
-0.00312223
-0.09241742
-0.05628829
0.04782009
0.08614708
0.05803045
-0.06830860
0.09215454
-0.02888637
0.08583528
-0.04745307
0.04949999
-0.06345556
0.00662877
-0.05186244
0.02667624
0.03007896
-0.01924807
-0.06549787
-0.05852172
-0.01429612
-0.06574678
-0.03936318
0.04635372
-0.04217653
-0.04062311
-0.05700853
-0.06737233
-0.08689570
0.09074236
-0.03225485
-0.09478455
0.10334324
-0.06389044
-0.02553423
0.09432408
0.00635453
0.03710301
-0.01716121
-0.08881577
-0.08257838
-0.02710881
-0.09021005
0.06878713
-0.04411644
-0.09281469
0.03239976
-0.01649584
0.08967551
0.00649347
0.09327569
0.10057611
-0.07099291
0.00085132
-0.07496356
0.07547353
-0.07338276
-0.07288847
-0.04627521
0.03345466
0.07522754
-0.07265060
0.09902631
-0.08138351
-0.01940398
-0.04082196
0.03323777
-0.02786245
0.03080141
0.04870322
0.05593891
0.05193886
0.05447695
-0.02245285
0.04743888
-0.07005866
0.06346774
0.04459336
0.04255959
0.02361831
0.05804099
-0.05517900
-0.02122220
-0.04212567
0.04944281
0.04107768
-0.06311384
-0.09482110
-0.08816578
0.08497525
-0.01709533
0.01859065
0.03502973
0.00387326
-0.02054062
0.08450854
-0.00266499
-0.06590200
-0.09772023
-0.01032402
0.10148287
-0.08101009
-0.07438030
0.07956276
-0.04019560
0.01399252
0.07865273
-0.03776613
-0.05024860
0.03949736
0.00302340
-0.03160888
-0.00113163
-0.07418673
0.07881387
0.10271085
0.01519945
0.10480076
-0.07928752
0.03394832
0.06549821
0.00415634
-0.06691281
0.01178500
-0.08146827
0.06146516
0.08437976
0.06253712
0.08863410
-0.03949080
-0.01690574
0.03761048
0.02443724
-0.08198960
0.05871272
0.03245236
-0.02920377
-0.06885346
-0.08575948
0.06722202
-0.05319240
-0.07604711
0.02671138
0.08823157
0.08407741
-0.02390560
0.06488428
0.09380935
-0.06465857
0.04749910
0.08292167
0.02434223
0.09156425
-0.00440744
-0.07956476
0.08931335
0.06485380
0.03119789
-0.02660076
-0.04907880
0.10048216
0.03018948
0.05001413
-0.03853873
0.03379812
-0.07456719
0.02759208
0.02389604
-0.02272826
0.09855373
0.07757742
-0.07269293
0.03556200
-0.03209384
-0.06157600
-0.06027452
0.07853509
0.09977125
0.05123274
-0.09177350
0.00440003
-0.01292296
-0.03495649
-0.04968190
0.07061401
0.10255620
0.07830783
-0.06290805
-0.09782964
-0.08193515
-0.06566185
-0.03168725
0.09150575
-0.08554140
-0.08421500
0.02552729
0.05527128
0.06974393
-0.08389280
0.05626057
0.02111432
0.02357050
0.09632549
0.01502985
0.07991201
0.09531046
0.08968905
-0.01002424
0.10342909
0.00849396
-0.05413003
0.08079895
0.06481061
0.07104497
0.00563583
-0.04357252
0.02864126
0.09889606
-0.06899843
0.01608898
-0.08381539
-0.05283494
-0.03957848
0.00754283
0.04968306
0.09259730
-0.00638073
0.06306433
0.05240831
-0.09224034
-0.07350895
0.02050308
-0.08249963
-0.04413414
-0.09493450
-0.02501542
-0.02199544
0.01806302
0.10136703
-0.05357123
0.01284481
-0.05680424
0.04390513
-0.08944363
-0.01266406
0.04221640
-0.06601886
0.04729033
-0.06562791
0.08465214
0.01372208
-0.04170818
0.02757562
-0.04438443
-0.06147563
0.02646359
-0.09078115
-0.02981558
0.08475487
0.06307014
0.03824106
0.01547387
-0.06545179
0.06652522
0.01687698
0.04746466
0.03862058
0.04245068
0.09038453
-0.07708847
-0.07145729
0.02194630
0.03605605
0.08314888
0.06542893
-0.08467981
-0.06021047
-0.07975175
0.00933704
-0.05634143
-0.06235305
0.09780247
0.06984651
-0.01163284
0.03058792
0.03978179
0.07046610
0.07616092
-0.02088439
0.09286154
0.01333510
0.03093330
0.09916488
0.01573454
-0.04709275
0.04624484
0.03949296
0.01373702
0.05150327
0.02539686
0.03280681
0.00428537
0.03314029
-0.08062678
-0.03873837
-0.05516533
-0.05253996
-0.02070912
-0.06959198
-0.05674888
-0.00668858
0.03359526
-0.05927773
-0.08562171
0.06384705
-0.09174300
-0.02687758
-0.08814723
0.07119756
0.09664305
-0.07348681
-0.06045316
0.00771003
-0.06020259
-0.02894002
-0.04735825
0.09510188
0.08951109
0.05555635
0.08734026
0.09081238
-0.08373110
0.08775782
0.09053591
-0.03950075
-0.00116377
-0.08749208
-0.04248450
0.00388342
-0.04708363
0.01108617
-0.04024262
-0.06932552
-0.03748253
-0.03022318
0.01926483
-0.06697722
0.09884715
-0.05029881
-0.09099262
-0.06220345
0.08665147
-0.05353345
-0.09653069
0.10008192
-0.07000453
0.03054170
-0.09263686
-0.03731582
-0.00720072
0.10020502
0.02139979
-0.08237465
0.08447418
-0.03486957
0.03144074
-0.01558794
-0.09218962
-0.01660847
0.09994878
-0.02988606
0.08252911
-0.09664413
0.05903036
-0.00860637
0.09498324
0.05297192
0.04472353
0.03897220
-0.07855036
-0.08486821
0.00865548
-0.00357583
-0.06105183
0.01695539
-0.06346967
-0.07768231
-0.05718516
-0.05927138
-0.01193943
0.07897217
0.05160123
-0.04930949
-0.07931627
0.09547010
0.08926741
0.06649381
-0.05752054
0.08191515
-0.00409915
0.03743241
0.07774400
0.00384644
0.00587945
-0.00801028
-0.00624943
0.06637887
0.06405803
-0.05310423
-0.03919468
-0.02849143
-0.06596896
-0.09711575
0.04398646
0.08440338
0.04634570
0.09001599
0.10801954
-0.07061070
-0.09152900
-0.00037996
-0.06394614
0.08764203
0.03994500
-0.05233269
0.00945145
0.00196540
0.07120820
0.04469819
-0.05863382
-0.07856511
0.07067739
0.07038719
-0.08534003
0.03657734
-0.08906514
0.09309025
0.09282962
-0.08091641
-0.03611038
-0.03204694
0.05011331
0.08035563
0.04544329
-0.03483359
0.02071165
-0.08991276
0.04337052
0.00720890
-0.00883110
-0.03380614
0.09362286
-0.05123076
-0.08087585
0.09151284
-0.01209625
-0.00434175
0.03412786
-0.00063642
-0.06757878
-0.03916264
-0.04464999
0.08714884
0.01171155
0.03015134
-0.01511302
0.02246837
-0.00524406
0.09985213
-0.05338585
0.03272276
-0.00489622
-0.00625148
-0.07346055
-0.05128646
-0.02213905
0.02955741
0.02124205
-0.06998575
0.07419925
0.02995694
-0.04800386
0.08954924
-0.00026811
0.03572680
-0.04942453
-0.04773257
0.05516559
-0.05429270
0.09723945
0.08931845
-0.01266644
0.00246538
0.01143303
0.08181937
0.02478261
0.05887670
-0.01858963
-0.06219272
0.02875062
-0.04033953
-0.00196313
0.01321509
0.03249631
0.05661844
-0.03512163
-0.00982238
0.01406204
0.08711772
-0.03269661
0.08388186
-0.03862603
-0.03088862
0.03476084
-0.03762865
0.08793068
-0.08598413
0.05720004
0.01931911
0.04452686
0.00785659
0.02544135
0.05548837
-0.09378693
-0.02299406
0.10581529
0.08727135
-0.04577229
0.02167253
-0.07082963
-0.06479797
-0.04181451
0.06691535
0.07182698
-0.04411831
0.02361453
-0.05820443
0.04252329
-0.03342028
0.01935182
-0.02699347
-0.03932827
0.00963436
0.00157652
-0.05540956
0.02447470
0.06226070
-0.02139867
0.09975052
-0.09017913
-0.08026985
0.03183732
-0.05508451
-0.06096768
0.08039312
-0.04372194
-0.07099227
0.07991990
0.01866399
-0.07325534
-0.06630119
-0.00558968
-0.01783332
-0.08994117
0.08209104
0.05201593
0.05354675
0.00650681
0.00191062
-0.03099667
0.08362293
0.05707328
-0.02737951
-0.02353172
0.08173610
-0.03070780
0.08437553
0.06776215
0.05493931
-0.09396683
0.00323245
-0.00026769
0.03109303
0.02245999
0.08168732
-0.05107538
-0.00950023
-0.02540625
0.00803743
0.03749332
0.08069378
-0.00750858
0.01061106
0.06484940
0.08234048
0.00661129
-0.08741472
0.07474458
0.03227114
0.09898487
-0.07445244
-0.09939455
-0.03341711
-0.05045936
0.04989403
0.02966640
-0.04777383
-0.06583734
0.06323169
0.01105591
0.02785923
0.08537974
0.05060055
0.06159529
0.02460020
0.06214116
0.10033255
0.07238936
-0.01699707
-0.01434431
-0.01381512
0.07293804
-0.01368937
0.03593637
-0.03252324
-0.04656292
-0.00084542
-0.05792250
-0.06546615
0.06338291
-0.09045563
0.09898604
-0.01953366
-0.07658008
0.00876803
-0.08278335
0.01872951
-0.07306073
-0.00825971
0.03972084
0.07279494
0.02400402
0.07179431
0.07853758
-0.06604825
0.05713493
0.04467540
0.07417773
0.03160136
0.01915234
0.05866171
-0.00449254
0.08296378
-0.07457805
-0.03054573
0.03557453
-0.08396058
0.02489911
-0.07988516
-0.02303892
-0.03324987
-0.01472657
-0.00819538
0.08307663
-0.02528429
0.02468514
0.02447443
-0.04191249
-0.07814422
-0.07897305
0.08054153
0.09767208
-0.09383932
0.05674996
0.07702748
0.05798232
0.01970420
-0.03434413
-0.01444174
0.10292116
0.06416231
-0.10178622
0.06799132
-0.00903595
0.00915707
-0.01317897
-0.05653453
0.07150187
-0.08238412
-0.04196639
0.06838062
-0.01553761
0.08940752
0.07822963
-0.07199405
0.01389627
0.07726058
-0.02978915
0.06399027
0.03951487
0.08644146
-0.07768413
-0.01377823
0.02728808
-0.08747298
-0.06193830
-0.05298922
-0.00865562
-0.08813157
0.02074631
0.04151713
0.03962901
-0.04586028
-0.07993996
0.02133867
-0.06158538
-0.08274800
0.04733367
-0.05008698
0.08572201
-0.02860998
-0.03507258
0.03101519
-0.00700267
0.04389826
-0.04232807
0.05022170
-0.07076041
0.01555920
0.02785412
-0.07016008
-0.07673212
-0.08427826
0.04661648
0.01781220
0.01664929
-0.04591164
0.04594988
-0.01055377
-0.02860547
0.06098405
0.07409790
0.07044449
0.05030145
0.00132735
-0.00894245
-0.05368188
-0.01591887
-0.01460370
-0.05760088
-0.06387868
0.09141124
0.04916855
0.00091956
0.00874917
0.02023315
0.02435435
0.08302918
-0.01305172
-0.04302677
0.07168058
-0.01721858
0.06520024
-0.04609661
-0.00123368
0.02524144
-0.04313791
-0.08291549
0.08279767
-0.08937772
-0.08872619
-0.07322116
0.01757925
0.00695771
0.09053164
0.02670819
0.06046538
0.00737119
0.10218772
0.06058434
0.09712897
-0.04654899
-0.06430271
0.01694643
0.08476637
-0.06459549
0.04511844
0.07415983
0.07433411
-0.01372964
-0.09864805
0.09314352
0.07477438
-0.00732032
-0.06761007
0.04232701
0.04870973
0.07087963
0.09716656
0.09330915
-0.07551338
-0.03930144
0.04042072
-0.03687543
-0.06389741
-0.06631587
0.00677351
0.09222647
-0.04649965
-0.02650089
-0.08118828
0.07620971
-0.03067243
-0.03741503
-0.09320562
0.04220218
-0.06237416
-0.02523251
-0.05889930
-0.07584591
-0.09637595
-0.02389549
0.04968287
0.03122739
0.03754155
-0.07389787
-0.04289408
0.09584357
0.01992988
-0.02065626
0.05660924
-0.02414299
0.00470460
-0.03054780
-0.09588853
-0.08000064
0.05204125
0.01328016
0.00801401
0.07612274
0.05475174
-0.00301678
0.05378783
-0.07175125
-0.04183008
-0.08941074
-0.08071936
0.03157819
0.06379972
0.07498665
-0.07256645
-0.05428960
0.08090115
0.01026458
-0.02104816
-0.06306589
0.10005703
-0.04075022
0.00530113
0.00260899
0.08884971
-0.00534811
-0.05193051
0.06234135
0.05405253
0.06086105
0.02473271
0.06943407
0.07870939
0.01228584
0.02538548
0.10371206
0.08864778
-0.03589948
-0.02220700
0.08793779
-0.08777649
-0.03300708
-0.06796587
-0.03818532
0.06107566
0.09906916
0.06157317
0.08251813
0.01852924
-0.08638200
-0.02559914
0.05440779
-0.03892869
0.03910660
-0.05342304
0.01322422
-0.07770919
0.00675197
-0.02430868
-0.04508363
-0.04816054
0.04596235
-0.05481444
0.05266203
-0.06667300
-0.06185417
0.07668141
-0.06647452
-0.06293454
0.06684094
-0.07026842
-0.00053270
-0.09308727
0.09309806
0.00399197
0.04082139
0.04447661
0.03408892
-0.04262031
0.04094918
-0.01976645
0.07838268
-0.00373581
-0.09203222
0.09809742
0.02824849
0.02973698
-0.01857917
0.05526041
-0.08234825
0.08485221
-0.05838292
-0.09260339
-0.08873472
0.01902898
0.06586828
0.03035511
0.04762929
0.07847196
0.05281863
0.05455989
0.01729311
0.00323661
-0.07865201
0.08176595
-0.05330246
-0.06566450
-0.01492856
-0.04763898
0.04226805
0.06642445
-0.05389627
-0.07765675
-0.03402819
-0.07600987
-0.08043842
-0.07127258
-0.09668895
-0.05215155
-0.05776986
0.02851655
0.06505466
0.10304629
-0.04612894
-0.08026013
-0.03838339
-0.01507926
-0.08434367
0.04754378
0.00130192
0.07456668
0.02199274
0.02484966
0.08837083
0.07690001
0.05393938
0.04980971
-0.01995774
0.00556548
0.01696713
0.04506077
-0.02526426
0.07039140
0.08920566
0.01779337
0.09620417
-0.04143469
-0.02399649
0.01085577
-0.00586714
-0.02734499
0.07927182
0.07275460
0.01962399
-0.05442451
0.03273994
-0.08146692
0.00636883
0.00274396
-0.00904759
0.06417447
-0.10293787
0.00284322
0.04384878
-0.00039336
0.06250232
0.01171653
-0.01026195
0.05225055
0.04734488
-0.01325894
-0.01580116
-0.08780346
0.01613999
-0.00040309
-0.08331218
-0.10141018
-0.04690136
-0.01923144
0.04456901
0.10278269
-0.02711639
-0.00989208
0.00574791
0.09943989
-0.01274265
0.08566301
-0.07758476
0.00129894
0.02424439
0.04971114
0.03560809
0.07956115
0.09009625
-0.09741218
0.05412915
-0.09285253
0.05565970
-0.08220559
-0.06924542
-0.00290563
0.09792531
-0.00074248
0.04966377
-0.04544142
-0.08241108
-0.08122868
0.08904822
0.08716737
0.08755755
-0.01785221
-0.01574489
0.07910467
-0.00923133
0.09694074
0.08646979
0.00808504
-0.00439072
0.06610325
-0.01331601
0.02684909
-0.08456872
0.07852774
-0.00612660
-0.07756863
-0.07278745
-0.07081927
0.04959150
-0.00425646
-0.07612199
0.09671312
0.02429698
0.06656385
0.07940267
0.04062221
0.07571130
0.10214515
-0.07319362
-0.06761376
0.05257323
-0.06896673
-0.08916171
0.08437766
-0.07084335
-0.03077339
-0.01352719
-0.00534397
0.05597903
0.01444561
-0.08110076
-0.07380488
-0.08316769
-0.00502037
0.07311246
0.06369620
-0.00775099
0.05291070
0.00514025
-0.05595650
0.08580418
0.09492782
0.05844363
0.02585909
0.00670003
0.07551919
-0.04765632
0.00777725
-0.03619297
0.02343934
0.02730777
0.09665395
0.00274182
0.03281476
0.01575029
0.09652471
0.09543845
0.00680090
0.01648012
-0.01801964
0.07063998
-0.02265926
0.03745277
0.04312004
0.09767603
0.07223559
0.08173194
0.00617374
-0.07127460
0.03154154
-0.02299644
-0.09170523
-0.05908178
-0.01140043
-0.04529820
0.03283975
0.01289919
0.08986837
-0.06151439
-0.06845441
-0.09123475
-0.02707938
-0.04628061
0.08574029
-0.06925150
0.07722523
0.03180312
-0.08378282
-0.01421895
-0.06842572
0.03610102
-0.02299568
0.03796533
-0.01762941
0.08987849
0.09247152
-0.06110732
-0.01847140
0.03096256
0.07786942
0.08637986
0.05752558
0.07232280
0.08837541
0.04964122
0.00007573
0.06412418
0.03661844
-0.05725892
0.06592835
0.08613965
-0.07206039
0.01835311
-0.04676107
-0.04958697
0.02011012
0.02332989
-0.02380731
0.06613526
-0.00901399
-0.02664729
0.04144445
-0.03274388
0.09696173
0.03642378
0.00638800
0.03807507
0.03120007
-0.02032245
0.00545068
-0.09028161
0.07345755
-0.05852856
-0.03484497
-0.00417230
0.07569070
-0.08394114
0.02663232
-0.02225381
-0.06103343
0.08171499
-0.00393629
0.06186439
0.02781639
0.05057115
-0.08482852
0.00132985
-0.01483404
0.03664212
-0.08317670
0.01616922
0.04438298
-0.08348444
0.03690181
0.07261503
0.06453676
-0.03172000
0.08475317
0.06119290
-0.04330687
0.04264586
-0.02747261
0.09785763
0.01380252
-0.06666028
0.08208842
0.08188097
-0.06510931
-0.04360304
-0.07468009
-0.01170381
0.09112921
-0.09333788
-0.08674898
-0.02162795
-0.03243501
0.03155597
-0.03417582
0.03389663
0.07065250
-0.10111841
-0.06021508
-0.00091941
-0.09710536
-0.03005241
-0.07689902
0.08281173
0.00615424
0.07932740
0.05914426
-0.02236758
0.05219070
-0.02106133
0.05922508
0.06585762
0.07754527
0.07779519
-0.03022194
0.05674912
0.06135484
0.05476096
0.08162176
-0.07603156
0.00892245
0.04518287
-0.07573371
-0.03649601
-0.02343470
-0.08515250
-0.02069303
0.07531246
0.01399909
-0.06095414
-0.06763912
0.00929449
-0.08955775
-0.06925450
0.07437536
-0.07198790
0.07269063
-0.00305016
0.08373298
0.05716288
0.00169909
-0.02097436
0.03934767
0.01636907
-0.10380085
0.01731772
0.03778596
-0.07864038
-0.03661785
-0.04460386
0.06661198
-0.01489073
0.03603716
-0.05734139
0.00703270
-0.01971998
0.00577967
0.09071163
-0.02824587
-0.08946855
-0.08908417
0.04494173
0.03595695
0.03170283
-0.06921829
-0.07833808
0.05427678
0.05337731
-0.00795358
-0.03793163
-0.04266410
-0.03401342
0.01949141
0.09774987
-0.00580619
-0.09520947
0.09098456
-0.08396730
-0.02039705
-0.09478711
0.02693259
-0.07610313
-0.00017671
0.04513449
-0.07720039
0.01449327
-0.04287373
0.04284417
-0.07382622
0.05610058
-0.06194473
0.06277814
0.08872006
-0.08905267
0.08533454
-0.10133589
-0.09590320
-0.06612011
-0.05586189
0.00120759
-0.08460845
-0.02871669
-0.09813792
0.01867812
0.01271619
0.04843611
-0.01916860
0.01102205
0.07961075
-0.05995232
-0.07479647
0.02485852
-0.04095154
0.07968953
-0.05984581
-0.05590574
0.02504143
0.03607783
0.06005695
-0.02307321
0.07582792
-0.01339039
-0.00057505
-0.05255046
0.07887343
-0.01289707
-0.09030984
0.08674015
0.09222533
0.01789969
-0.01527683
0.08419504
0.02042625
-0.00704127
0.02821024
-0.01879511
-0.02165829
0.04728864
0.03278703
-0.08185104
0.09210378
0.06978377
0.05207251
-0.02234191
-0.00643371
0.02028436
-0.07316512
0.06167767
0.09174881
-0.01043639
0.04717275
0.03022552
-0.07507381
-0.07265121
0.05750187
-0.04753453
0.02195509
-0.07577799
0.04314203
0.07924411
0.07417603
-0.07435040
-0.00072802
-0.06503667
0.03767991
0.00581388
-0.09662011
0.00625113
0.04477115
0.00067899
-0.09409246
-0.01620979
-0.01418264
0.02292336
0.02722916
0.07708684
0.02345864
0.03841131
-0.05704898
0.06677317
0.08972932
0.03733100
0.09361633
-0.08635500
0.05876192
0.01122477
-0.03786388
-0.01266024
0.04911756
-0.04724800
0.06907836
-0.00155435
-0.08605589
0.09823436
-0.05238347
-0.09900380
-0.05037022
-0.04013147
-0.07120898
-0.09199743
0.04854981
0.07023649
-0.07754020
0.07526632
-0.01781836
-0.09419367
-0.04953208
0.05568178
-0.10006997
-0.07772230
-0.06832378
0.00208937
-0.00004236
-0.09581430
0.04907722
-0.05280077
-0.05758397
0.06515557
-0.08670260
0.06702296
-0.08114099
0.06671876
0.00168269
0.00816615
-0.01296842
0.02838423
-0.06440922
0.08269925
-0.05886563
-0.04001957
-0.02438768
-0.05961821
0.09532602
-0.08883142
-0.01226454
-0.01869248
-0.05697952
0.04220787
-0.03679219
0.07772839
-0.05544759
0.09188380
-0.01850681
0.02594960
-0.01145674
-0.08972226
0.01649526
0.07127610
-0.04131258
-0.02985758
0.07225903
-0.03286321
-0.01950979
0.06838653
-0.05944025
-0.09906803
-0.00524354
-0.08167526
0.05739752
-0.09051434
-0.02558938
-0.06918927
-0.01986442
-0.04136387
0.04361393
0.06352002
-0.08455092
0.03050530
-0.07672355
0.08133749
0.08741703
-0.03124567
-0.00608656
0.09867685
-0.03546241
0.01414702
0.04631803
-0.04459338
-0.06540458
0.08943525
0.01262124
-0.09278094
-0.03703234
-0.01573560
-0.01598161
-0.09010391
0.02432224
0.07953102
-0.08188916
0.03527237
-0.06527764
-0.08319777
0.04045405
-0.03131530
-0.08097408
0.06618305
0.03813246
-0.05347399
-0.08473814
-0.09163581
-0.00722146
-0.10254303
0.01468680
-0.05156541
-0.00305771
-0.04432318
0.06937266
0.00275822
-0.03160721
-0.07619693
0.02940041
0.01326720
0.08745796
-0.05534973
0.05456988
-0.05701486
-0.08521059
-0.04888082
0.05305229
0.01263833
0.05861606
-0.05916065
-0.04430836
0.00376843
-0.05383200
-0.08078793
0.02278714
0.00558239
-0.08805729
0.05387953
-0.05465203
-0.02045969
0.01045493
-0.06087576
0.04924310
0.08293243
0.01498072
-0.04936933
0.07672783
-0.05741565
-0.05899361
0.06871682
-0.03239025
0.09215638
0.09476211
0.01846696
-0.01785596
0.00904973
-0.06000919
-0.07331611
0.08281353
-0.02967211
0.02038073
0.06008447
0.05824492
-0.01539384
0.07312622
0.04452537
-0.00527872
-0.06789286
0.03256442
-0.02502328
-0.09608493
-0.01260850
0.06705491
0.01138736
-0.01692453
0.07886248
-0.01138762
0.06145677
-0.09288640
0.09408515
-0.03540847
0.03786203
0.05343341
-0.00072063
0.03458526
-0.06467681
-0.07602635
0.06179197
0.02435929
-0.06135138
0.02384454
0.06413391
-0.08460057
-0.08686462
-0.03550154
0.01227096
0.03596196
-0.00268278
-0.00437687
0.04017861
0.07197667
-0.03272602
0.05303149
-0.01235603
0.02952567
-0.07737189
0.06620254
0.05397850
-0.00754480
-0.05093558
0.02913448
0.09405937
0.05755850
0.04713794
0.09262071
0.06124643
0.03902332
0.01895250
0.02976602
-0.06852498
-0.02525010
0.08660681
0.05023101
0.04995606
-0.04060050
-0.09781337
-0.09152072
-0.04459755
0.05076801
-0.03904269
0.01603839
-0.02814655
-0.01839431
-0.02828853
0.03106541
-0.04330492
-0.00550452
0.07010756
-0.01911068
-0.02414031
0.00481713
-0.04979786
0.08831873
0.08192743
0.03217420
-0.08969643
-0.09247359
0.00434023
-0.08458225
0.03838635
-0.00731132
-0.02854427
-0.02944741
0.04921377
-0.01701281
0.08940711
0.07614180
-0.09648155
-0.08730691
0.03186838
-0.06670060
-0.04862576
-0.06793883
-0.03183612
0.04087833
0.01295438
-0.00836791
0.01312515
0.05453338
-0.00338832
0.08341997
0.02978373
0.07884602
0.07528332
0.07735205
-0.07676052
-0.09441486
0.00938845
-0.01398167
0.01538747
0.00025871
0.06418284
0.08039752
0.05497210
0.00398438
0.07283459
-0.10277930
-0.00112904
-0.09406540
0.07430367
-0.04505773
-0.01403554
0.08904397
-0.06251194
0.05191897
-0.08001612
0.04056346
-0.00421085
0.07808628
0.01857087
-0.09067015
0.06253959
-0.00953292
0.03879555
0.01770954
0.03870975
-0.06488906
0.04024584
-0.08628996
-0.08598260
0.09121087
0.09521108
-0.07473600
0.04713621
0.09699645
0.01402399
0.10383104
0.01023266
-0.04932046
0.01831986
-0.02984071
0.06094927
-0.05272990
0.09311380
-0.01283830
0.08364893
-0.03472532
-0.03326994
0.06074067
-0.08835499
-0.00664382
-0.05649664
0.07090317
0.00313207
-0.04067986
0.05969734
-0.09222804
0.01320161
-0.03470915
-0.03985212
0.07274297
-0.03861261
0.00722931
0.06978210
0.02755325
0.00424098
-0.00141408
-0.02642220
0.04567246
0.06075778
-0.08771475
0.00249723
-0.08481644
-0.01484990
-0.02268369
-0.06078112
0.02437915
-0.09032768
0.09428525
0.03818878
0.09513027
0.02640451
-0.03219618
-0.09058153
0.05424847
-0.08389442
-0.07994661
-0.01988097
-0.06025913
0.06949186
0.04124829
-0.03866453
0.04534763
0.09687461
0.00914229
0.02141101
-0.04302431
0.04721473
-0.07524595
0.03028592
0.07428377
0.04259977
0.04874234
0.06839614
0.09923002
0.04544847
0.07999041
0.07084990
0.06410536
-0.03886607
-0.06386646
-0.07257129
0.05046242
0.08910591
0.00414044
-0.05034848
-0.03228565
0.09244136
0.04309429
-0.09253665
0.01664001
-0.05195805
-0.03329677
0.04028970
0.06760393
0.02727658
0.01519782
0.04945414
0.07777381
-0.02338316
-0.04453389
-0.00685329
0.00167408
-0.07334545
0.05881737
-0.06257647
-0.03504545
-0.06640430
0.05772726
-0.03387909
-0.03424286
-0.07377080
0.03243286
0.05343834
-0.07310298
-0.07038385
0.06832465
0.04463281
-0.05107459
0.01177611
-0.03351228
-0.00474361
-0.05019816
0.07299713
-0.08445072
-0.07018664
-0.01426452
0.03578669
-0.01186482
0.06636849
0.02852436
0.04372191
-0.08338828
-0.01186411
0.05335980
0.07531025
-0.09710705
-0.02731131
0.07429298
0.00930531
0.05030286
0.00775365
-0.03630506
0.08810771
-0.01884907
0.05162068
0.03848679
0.05812289
0.06938886
-0.09943091
-0.07502144
-0.08183112
-0.02274534
0.01814697
0.05106058
-0.04359814
0.02264082
0.09904539
0.07253851
0.00976337
-0.03244089
0.05301713
-0.00815890
0.01890349
0.01279811
0.09927004
0.07060898
0.03732780
0.00524463
-0.02592114
-0.09681462
-0.07403011
-0.02588237
-0.06852351
-0.06756431
-0.08386734
0.04570786
0.00424688
0.00637191
0.07191697
0.07829523
-0.04931205
0.03289110
0.05296728
0.03079666
-0.00480129
-0.06077107
-0.01872857
-0.03459134
-0.06847608
-0.02130214
-0.01041179
0.03129917
-0.00974974
0.03251126
-0.07520349
-0.01653640
-0.07921200
0.09586275
-0.06434535
0.04202251
-0.03426818
0.02163858
0.01713726
0.08701919
-0.00252368
-0.06178513
0.05119987
-0.06340141
0.02301083
-0.04760864
0.04112105
-0.07201728
-0.03243599
0.02129363
0.02952413
-0.08304911
-0.04772707
-0.05924026
0.01900974
-0.01113015
-0.03780921
-0.01632671
0.02035723
-0.07249679
-0.09415076
-0.06996841
0.08187216
-0.06134146
-0.00915236
-0.02685352
0.07547098
-0.06324055
0.00147066
-0.09331551
0.08107213
0.00873941
-0.00313596
0.05174427
-0.07920345
0.02461705
0.04163142
-0.08771064
-0.07775888
-0.00581067
0.04773769
0.03854998
0.04334716
-0.09575268
-0.02728370
0.09510689
0.02426239
0.09467539
0.04735425
-0.03511481
-0.08309659
0.05160929
0.05573410
-0.03144383
0.08472852
-0.05943675
-0.02464505
-0.04075128
-0.05353384
0.08052174
-0.02967865
-0.05252395
0.01697438
-0.08318454
0.05358308
-0.04202798
-0.06411499
-0.05927700
0.03592109
0.02097914
-0.04452502
0.02304669
0.02445296
0.04529297
0.07444431
-0.09365616
-0.04172300
-0.06821947
0.02163562
0.02650636
-0.02399087
0.00511790
0.08104992
0.05965664
-0.07243787
-0.05438129
0.01205544
0.00651924
0.07339774
-0.08690959
0.01660777
-0.07843636
-0.00779247
0.03687595
-0.00262941
-0.05666205
0.02092282
-0.05733578
0.07833016
-0.04343351
0.00012095
-0.07784198
0.05385511
-0.09230603
0.05908673
0.00153026
0.08282492
0.09434881
0.04132073
-0.09455659
-0.07066913
-0.09851485
0.06601951
-0.00725244
0.08649519
0.06063173
0.03388040
-0.05092200
0.02039686
-0.09155715
0.00525186
-0.09851216
-0.06667641
-0.04857714
0.01596060
-0.03185209
0.07153812
-0.02718360
0.08325514
0.09706391
-0.07485751
0.02017474
-0.02679520
-0.03284437
0.01930213
-0.10148206
0.04341714
0.07767707
0.00629639
0.09497126
-0.01127230
-0.03593621
-0.05677337
-0.01570620
-0.03002663
0.02697306
-0.10216625
0.02494128
-0.06945494
-0.01241145
-0.04928058
-0.02042073
0.03499931
-0.00338548
-0.06874632
-0.07071491
0.02607664
0.05410455
-0.02241187
0.05583420
-0.03565701
-0.07391680
0.02798768
-0.07205294
0.02350164
0.01204229
-0.06712063
0.00732984
0.00451079
0.05208016
-0.03033398
-0.00383688
0.00259718
-0.03372734
-0.06275753
-0.09889648
0.07091566
0.00965929
0.05961991
-0.02943661
-0.00972662
-0.03233594
-0.07560379
-0.09440492
-0.04489152
0.08205739
0.02547041
0.07557218
0.03432940
-0.09751215
-0.06426789
-0.01519026
-0.09932205
-0.07452787
-0.08798533
-0.07864384
0.03530340
0.01900758
-0.04582650
-0.00293062
0.09753049
-0.09583957
0.07572577
-0.06569938
-0.09700986
0.07538424
0.06727819
0.02413878
0.08110152
0.04754777
0.08853683
-0.01908286
0.02743464
-0.09398782
-0.05711430
-0.07333784
0.08024478
0.03727508
0.00067812
0.04509922
0.08173288
0.02671890
0.03677586
-0.07751020
0.08050388
0.01597349
-0.09925897
-0.08290204
-0.05460830
0.05864947
-0.07307084
-0.01143047
0.00846221
0.02308594
0.00661044
-0.09256909
-0.04492792
-0.03704675
-0.02624382
0.09222804
0.04551923
0.05762128
0.09457538
-0.00903659
0.08728335
-0.07363233
0.09020809
0.04530561
0.06819869
-0.04206360
0.04139915
-0.02764809
0.04985862
0.05983210
0.06549213
0.00860623
0.04289833
-0.25659871
0.13109153
-0.00110135
-0.00119603
-0.00047559
-0.00039261
