-0.01930751
-0.09631181
-0.02563095
-0.07045653
0.00369124
-0.06169162
0.03508258
0.02754451
-0.05216374
-0.04411295
-0.06108125
-0.07360604
-0.02007658
-0.00553756
0.05662864
-0.04068267
0.06757632
-0.02598733
-0.08361238
0.03417686
-0.04386507
-0.06586892
-0.03797239
-0.06084907
-0.03280866
-0.04240629
-0.02255705
-0.08051780
-0.01639621
-0.05936627
0.07634344
-0.00118704
0.08999006
-0.00925614
0.00772436
-0.02723764
0.00853005
0.07225439
-0.02226143
0.04417736
-0.02416437
0.01450869
-0.08545774
0.01515205
0.09392643
-0.04437125
-0.05486961
-0.05319720
0.04908864
0.06674054
0.00114406
0.05332461
-0.02186079
-0.08305651
-0.01120373
-0.07570324
-0.08358312
0.08677731
0.00575677
0.04800659
-0.04436073
-0.06621808
-0.01641188
-0.08072048
0.04053441
0.01403214
-0.06545637
-0.08880303
0.08299786
0.01339735
-0.06841667
0.00848998
-0.09565139
0.07752732
-0.01447377
-0.05670529
-0.07491386
0.01070277
-0.03551446
0.05276948
0.09443335
0.08381291
-0.02911168
0.04897298
-0.01819216
0.02687147
0.02652356
-0.07351611
-0.08044381
-0.00782197
-0.07346118
0.03195706
0.08938069
0.08247740
-0.05973233
0.03033390
-0.03199711
0.05904571
-0.00910822
-0.07083496
-0.03333382
0.03574788
-0.03192997
-0.00042876
-0.02187107
0.04782711
0.04909668
0.03481401
-0.05273138
-0.00695338
0.08925317
0.02813680
0.02188661
0.03081633
0.06930017
-0.04946566
0.03932489
-0.09222820
0.00101806
0.01643601
0.01198030
0.01878203
-0.03337410
0.08778438
-0.06581178
-0.07349634
0.09021105
-0.00679261
-0.01690644
0.06126977
0.03429988
-0.09255335
0.07059860
-0.04055592
0.07981519
0.09264517
0.02836708
-0.08942826
0.05975232
-0.07032005
-0.07636271
0.07406912
0.00974859
0.01458882
0.01903842
-0.04236482
-0.04066188
-0.01827351
0.09225402
-0.05210464
-0.03951270
0.06571343
0.00491445
-0.04281039
-0.02953971
0.05428853
0.04946050
0.09070321
0.08662594
0.04020729
-0.04877496
-0.01406320
-0.05876061
0.02075231
0.07477007
-0.05133851
-0.01809937
-0.03959051
0.05493142
0.07249135
-0.03146690
-0.04427247
0.08955772
0.01172331
-0.03294358
-0.02069467
0.07395543
-0.01034280
-0.05376495
0.08350731
-0.02589545
-0.08933080
0.10333255
-0.04172803
0.09694197
0.06373173
0.03516641
-0.05519280
-0.07400441
0.00628369
-0.07223271
0.04323102
-0.03751485
0.09793850
0.04153419
-0.02787100
-0.03749044
-0.05409861
-0.07110963
0.09006472
0.04714349
0.04114355
0.01207547
-0.01822330
-0.03684570
0.09908748
-0.07144995
0.09187290
-0.04788356
0.10465405
-0.00442520
-0.06779994
0.02920009
0.11239355
-0.04364539
0.00060645
0.08422106
0.05792001
0.07813547
0.05621708
-0.07592143
0.04897862
-0.04653210
0.07515986
0.06336140
0.09356862
0.08674414
-0.03859538
-0.01108599
0.04044756
-0.08205984
-0.01364344
-0.01337003
-0.05798199
-0.01891219
-0.08120657
-0.07086080
-0.03686928
-0.04028125
0.09329216
-0.03456819
0.10438557
0.02247999
0.02868745
0.00039300
-0.00770661
-0.05792177
0.06036018
0.09903323
0.09949101
0.04189191
-0.01445137
0.08068093
-0.05709182
0.00616084
-0.00003442
0.07622886
-0.08000149
0.04622306
0.08701997
0.08270465
0.07018596
0.04531157
-0.07182458
0.00528959
-0.03800566
-0.03912874
0.04408913
0.08154683
0.03647710
-0.09060808
-0.01595980
0.06028154
0.08990891
0.04906170
0.05581240
-0.00953383
-0.00839244
0.06337489
0.05093554
0.09443052
0.00115375
-0.09793375
0.04615066
-0.08275342
-0.01524038
0.08209939
0.09510028
0.02171547
-0.00232091
-0.05559402
-0.04591355
0.05426041
0.02968690
-0.01512037
0.05672405
0.07059777
-0.02247148
0.06608476
-0.06071354
-0.00180061
0.09633471
-0.05401778
-0.04109014
-0.04765772
0.02183292
-0.07515490
0.00264953
-0.02088634
0.11170437
0.05657184
0.11336678
0.02610216
0.08178012
0.10330178
0.06243749
0.03880545
0.01018519
-0.08153514
0.06052919
0.09841487
-0.00001343
0.03192226
0.10404360
0.02528754
0.09963167
0.10793881
0.04680413
0.04846164
0.05765382
-0.02556406
0.02473938
0.07629735
0.01781167
-0.08094335
-0.03117986
0.08844049
0.05666903
0.06859566
0.08727909
-0.04528192
0.03764907
-0.08499261
0.11138743
-0.05257631
0.02580743
0.03895039
-0.06802309
-0.07437094
0.00947684
-0.06354785
-0.03278519
0.06060338
0.03102484
-0.04490521
-0.06774858
-0.05356968
-0.03454444
-0.10022679
0.02041898
0.07206850
0.00186301
0.09041551
-0.07996933
0.08670277
-0.07527727
0.06894710
0.02728492
-0.04701544
0.06636693
-0.00966201
-0.08310175
0.06180623
0.08563509
0.04154194
-0.01745644
-0.03939925
0.04148701
-0.00112293
0.09090258
-0.07082721
-0.04945815
-0.05909754
-0.07701801
0.08451036
0.09181038
0.04888305
-0.02305518
0.08619498
-0.09578079
0.03460649
-0.06560024
0.01634806
0.02581491
0.00233714
0.10736354
0.02605613
0.04162667
-0.03891167
-0.03930842
0.02207706
-0.01090735
0.04217655
-0.00277666
-0.07069866
-0.06871495
-0.02825741
0.09295600
-0.02861143
0.01525861
-0.07340377
0.11219150
-0.05771080
-0.03435803
0.06591358
0.04914028
-0.08517168
0.02684956
0.05054999
0.09360551
0.00532767
-0.03280243
0.08646391
0.09131025
-0.07755265
-0.00795824
0.09644558
-0.05801683
-0.04178099
-0.06468208
0.03862984
-0.07103537
0.06510770
-0.06325546
-0.07675684
0.07310124
-0.00753696
-0.06847632
0.09581092
-0.07642179
-0.02460136
-0.00008279
0.10345363
-0.01830912
0.03354793
0.06870497
0.10599859
0.01988757
0.03244463
0.09182755
-0.09349915
-0.00954478
0.09234432
0.08370148
-0.07909819
0.01840234
0.01953153
0.02469054
0.03684301
-0.07796152
0.04976927
-0.04969666
-0.06776362
-0.03265512
-0.07536272
-0.05117986
0.03294793
0.04469756
0.02091754
0.05266899
-0.00829478
0.02512909
0.01298883
-0.03424772
-0.08382809
0.06563936
0.03448606
-0.08206412
0.06898581
-0.03389208
-0.03317185
0.07011783
0.03557698
-0.05114442
0.08385726
0.04290142
0.00791500
0.09661729
-0.03408128
-0.05650017
-0.06571303
0.08323561
-0.00740437
0.03520612
0.01179842
-0.07793210
0.01400186
-0.05866882
0.03577987
-0.03441881
0.10931727
0.06104309
0.01026964
-0.00906689
-0.05785988
-0.03121267
-0.00697487
0.04676212
0.05824083
0.10566660
0.08631786
0.04687930
0.02025495
-0.02349638
0.07852725
-0.08147519
-0.04013482
-0.06725395
-0.07545122
0.04655568
-0.06457437
-0.02701830
0.07197765
0.10175724
0.07975950
-0.00040652
0.10030918
-0.03248906
0.05347548
-0.00345695
-0.08331169
0.08145164
-0.08067708
-0.03500308
-0.08052449
0.10463636
0.08614214
0.03849665
-0.07547529
0.04509724
0.05098121
-0.05057400
-0.03117644
-0.06358709
0.00800051
0.03837253
0.07725311
-0.07024471
-0.04405372
-0.04170380
-0.07808427
0.01601040
0.09958228
-0.00235281
-0.01059891
-0.02687138
-0.08943905
0.05713525
0.03090764
-0.03697044
0.02329751
-0.08242471
-0.03312464
0.01922681
0.07771248
0.01297662
-0.09693274
-0.03893537
0.05447569
-0.08470703
-0.02011765
-0.06566958
0.05830271
-0.07133382
0.08292098
-0.00953790
-0.01356024
-0.02134004
-0.08365274
-0.01577347
0.05736053
-0.02131008
0.06921392
0.00346870
0.06242435
0.02467906
0.10952662
0.07327674
0.02781636
0.02829619
-0.03798391
-0.03112945
0.08343757
-0.00888092
-0.05346236
-0.05199734
0.11429191
0.03147078
0.09794840
-0.04872966
0.02783518
0.01071516
0.08050489
-0.08463076
0.05223335
-0.06256507
-0.03795495
-0.03374295
0.00396572
0.00796975
-0.03587443
-0.04535958
0.08211623
-0.05871572
-0.07634932
-0.05532817
-0.06230203
0.02677540
-0.00060581
-0.01489922
-0.02940772
-0.00556666
-0.08176426
-0.01447095
0.09386366
0.05565625
-0.07817352
0.02525982
-0.06246079
0.10064844
0.06755417
-0.00067196
0.09494864
-0.05469582
-0.08308660
0.03322554
0.00009465
-0.07199255
0.00150212
-0.00723227
0.04857455
-0.07330417
-0.06083431
-0.00410457
-0.07463895
-0.04979689
-0.04776608
0.01833091
0.05030821
0.07697417
0.10137677
0.03539575
-0.01104843
0.04419008
-0.07340384
0.08918518
-0.01192874
-0.08105927
-0.08641175
0.02699503
0.02357696
-0.05671724
-0.00368828
0.07918778
-0.03081134
-0.01226219
0.04718787
0.07546632
0.01520447
0.08893719
-0.01470815
0.02306156
-0.10290664
0.01971956
0.03432572
0.00370955
-0.01191038
0.09083323
0.00418508
0.02827153
-0.06282622
-0.07336731
-0.08581625
0.09743519
0.05030240
0.04789517
-0.07354408
-0.04729816
0.05983456
0.00010373
-0.06056096
0.01602109
-0.05434239
0.05434013
0.00609471
0.03843822
0.01345577
-0.04049056
0.09208185
-0.03265951
0.10132441
-0.04540248
0.03695477
0.04136667
-0.04820516
0.05180400
0.09607520
-0.00680880
-0.04430384
0.00721285
0.02961954
-0.06282713
0.05735422
-0.06752752
0.10483492
0.07520140
-0.06245539
-0.04426025
-0.05657945
-0.00408151
-0.08656084
-0.06736709
-0.01444799
0.06646879
0.02299099
-0.05031447
0.04519626
-0.00721105
0.03245081
0.01446320
0.01981827
0.05656866
0.07751657
-0.03378245
-0.05902736
0.00033114
-0.05808886
0.01428274
-0.05943777
0.03908812
-0.03180028
0.07489243
0.09683697
-0.05899665
0.09535987
-0.05243017
0.02976228
0.04961151
-0.02219268
-0.04156583
0.00398610
-0.07859960
0.03381228
0.05001761
-0.07622967
0.05871708
0.02911412
0.07455618
-0.07865894
-0.02743057
-0.07863453
0.03577936
-0.09465064
0.07048553
-0.10219430
-0.04207284
0.06756648
0.05475481
-0.00857720
-0.04482764
0.06718139
-0.06246124
0.04866276
0.02477897
0.03973915
0.05765748
0.10982582
0.06999916
0.06007579
-0.02372804
-0.04575020
-0.03347915
0.04032682
0.02070341
0.06192599
-0.00572744
0.11878197
0.01013712
-0.05120508
-0.03961415
-0.06070730
0.02518400
-0.03274013
-0.02180713
0.05033253
0.04654823
0.01283999
-0.04390002
-0.06483572
0.01696574
0.03527684
-0.00074721
-0.00832666
0.02903410
-0.05714407
-0.01558214
0.00279000
0.06505997
-0.09556226
0.02611504
-0.05361152
0.08318747
0.09037153
-0.00261227
0.05640908
-0.08386009
-0.08107070
-0.08641907
-0.00272511
0.08452731
-0.04995833
-0.00313683
0.00609196
0.04640638
0.08055659
-0.03366198
-0.08667664
0.04150720
0.07075614
0.04577854
-0.08083055
0.04043170
-0.05249830
0.10533733
0.05147216
-0.08467870
0.03281756
0.00356862
0.05937906
-0.00663858
-0.07292478
0.05689787
-0.03092219
-0.03092219
-0.03876599
-0.08691810
0.08897838
-0.05828125
0.05681015
-0.03569145
-0.01588847
-0.08387761
0.05094096
-0.10124874
-0.03593303
-0.05471412
-0.04353662
0.06835034
0.07289760
-0.08862836
0.08421627
-0.04463898
0.00720087
-0.06257055
-0.00194248
0.08984499
0.01056401
-0.09111756
-0.00234191
0.08697966
0.03875431
0.07138470
-0.03187162
0.01850833
-0.02803239
-0.08161069
-0.00311098
0.09355945
0.05070536
0.00685637
0.04850803
-0.08537057
0.07888615
-0.00591710
0.06733343
0.05358789
0.07929616
-0.06358540
-0.01533564
-0.00260697
-0.07953803
0.01447729
-0.05586481
-0.03411121
0.08084591
-0.10831680
0.05479242
0.04544155
0.09680526
0.06057368
-0.01561883
-0.00506077
0.04663148
0.08745915
-0.02672891
0.00297171
0.01641206
0.07250289
0.06615504
0.03556329
-0.04177190
-0.04083804
-0.01245582
-0.08162384
0.05519063
0.04266584
0.04780132
-0.04338189
-0.09138140
0.00348338
0.07805841
0.05322245
0.00766644
-0.08045271
-0.05255269
0.04300518
-0.06239355
-0.06100190
-0.02011561
-0.06588117
-0.05302677
-0.09279750
0.06921306
0.08407557
-0.00553910
-0.08935513
-0.06129031
0.01267936
0.04913067
-0.04260187
-0.00567989
0.06732038
0.02844590
-0.05157027
0.04460576
0.08159419
-0.00159824
-0.00694508
0.01276377
-0.04782511
0.02972242
-0.00426909
0.00401363
0.05347193
0.00239615
0.01132628
-0.05125497
-0.02783507
-0.06771666
0.04859549
-0.05373307
-0.09525587
0.01132087
0.06713312
-0.04923665
0.01596309
0.07122601
-0.03743820
-0.01179044
0.09926031
0.04109203
-0.02622570
0.05184675
0.03722228
-0.02150143
0.09399282
-0.06507576
-0.06624157
0.02065684
0.06432987
0.05261076
-0.07936348
-0.06414733
0.00008193
-0.06089405
0.10501460
-0.00005453
-0.06009664
0.04255771
0.07289921
-0.06189494
0.05633593
-0.02210274
0.02765463
0.00687645
-0.08923244
0.02060978
0.00955009
-0.01162975
0.06226776
0.03453816
0.10972356
-0.06635604
-0.02634186
-0.05596312
-0.09650391
0.00838912
0.07139153
-0.09505642
-0.00127533
-0.03568190
0.08594657
0.04580062
0.01884057
-0.03836333
-0.00922887
-0.07777954
0.06084163
0.03912492
0.02327971
0.05132011
0.05113824
-0.01027721
-0.01111342
0.05883785
0.01514145
0.05739128
0.08887757
-0.00609604
-0.09420908
0.06200828
-0.09153034
-0.02111804
0.00318988
-0.04475470
0.00869542
-0.06125199
0.06194513
-0.07411249
0.03643434
0.05638124
-0.03173790
0.04078628
-0.07131431
0.05865792
0.05977747
0.08721971
0.06098600
0.08619429
-0.07321609
0.08907524
-0.04815429
0.00904350
-0.08242658
0.00152374
0.07136230
-0.05408709
0.02385177
-0.06577499
-0.04538863
0.02574788
0.02735315
0.05919617
-0.07080714
-0.07392002
-0.00576609
-0.03519814
-0.02640881
-0.05109218
0.02733974
0.04123177
-0.06346503
0.05752865
-0.07978023
0.01597465
0.09325881
0.00689143
-0.02584272
-0.02459653
0.07574833
-0.08932018
-0.06588337
-0.09358197
0.08674580
0.07290801
0.05855210
0.03857468
-0.08160720
-0.03615293
0.04985433
0.00995590
-0.02977309
-0.06547364
0.07050896
-0.09828281
-0.03114819
-0.08877027
-0.07967576
0.01913097
0.06197550
-0.07703631
0.02925355
-0.04073717
0.06710303
0.09969680
-0.03913377
0.05924570
-0.03601478
0.03981241
0.01465295
-0.00980458
0.06281376
0.01310522
-0.04727260
0.07449560
0.09077417
-0.09342335
0.05192250
-0.06756357
0.02143451
0.08348661
0.01725534
-0.05759436
-0.05660459
-0.09266527
-0.08299090
0.06942353
-0.07511823
-0.00635393
-0.09278953
0.03829357
0.05761789
-0.00070556
-0.04419444
0.07786129
0.00306945
0.02871721
-0.05685669
0.06162226
-0.08658782
0.05889391
0.05219205
0.08612252
-0.06621977
0.07194009
-0.05428446
0.02491717
-0.04911868
-0.00580681
-0.01272840
0.00118983
-0.00858220
-0.01554042
0.03070012
-0.02134004
-0.07677997
-0.07645861
-0.00506361
-0.04208866
0.07220316
0.01566456
-0.06166323
-0.02264347
-0.03912957
0.10474689
-0.03715807
0.10053534
0.10804899
0.05410448
-0.08095214
0.08819975
-0.03263004
0.02157694
0.09089058
-0.07561175
-0.04196815
0.08951169
0.09889247
0.01363596
-0.04996461
-0.06712077
-0.08786115
-0.10326690
0.07442594
-0.06404874
0.05508942
-0.02095154
-0.11051116
0.04407119
0.03693308
0.05223506
0.05344360
-0.05157184
0.00585178
-0.03401149
0.07451384
0.03864239
-0.04738929
0.02188100
0.09425870
-0.09102528
-0.03631614
0.00214939
0.02901789
-0.08464208
0.03993447
0.05911841
-0.01017363
0.04143317
0.05809017
-0.08471536
0.06983648
0.02215436
0.06999052
0.04060119
-0.03910095
0.04040367
-0.02824466
-0.10087261
-0.02762834
-0.09650251
0.03457449
0.06118964
0.01004672
0.01616873
0.02670982
0.04730371
-0.08802146
-0.01801026
0.08406194
0.03220489
-0.04102896
-0.01348906
0.08833900
-0.02213800
-0.02076467
-0.09964891
0.05610535
0.04707798
-0.04708383
-0.05722645
-0.04473827
0.06449358
0.02357436
0.00545247
0.02413590
-0.04937934
-0.09748872
-0.06760499
0.06509448
0.07523883
-0.06887567
-0.08363656
0.03877318
-0.05611497
0.00767417
-0.01894407
-0.06834744
0.04408886
-0.01526354
-0.08288645
-0.00757288
0.04280098
0.08182194
0.03722219
-0.07497606
-0.01457382
-0.02472428
-0.03486863
-0.00033999
-0.06460678
-0.05731285
-0.05814906
-0.05522601
0.00160556
0.00609178
-0.08178234
-0.10399981
0.07512552
-0.04104547
0.03050212
0.07438164
0.06842009
0.07536000
-0.00158937
0.07837879
-0.00909336
-0.07730834
-0.04046176
0.08067841
-0.01431961
-0.08022978
0.07319898
0.03482500
0.01756875
-0.01390804
-0.06969587
-0.08375319
-0.01956056
0.03347451
-0.05237406
0.05520979
0.07288611
0.02864979
-0.04045632
0.04274324
-0.10218827
-0.08193619
0.09179348
-0.02302874
0.01101771
0.02851092
-0.01969479
0.04909393
-0.06116944
0.05242224
0.02639606
0.00032715
-0.09976746
-0.09246133
-0.05195106
-0.01547509
0.02717147
-0.04951544
0.08429904
0.04825668
-0.02184434
-0.08268738
0.03219650
0.03852603
0.02749665
-0.04582713
0.04094310
0.03977376
0.00727765
-0.05123854
-0.05545620
-0.06025981
-0.02330190
-0.01263693
-0.07858743
-0.07665866
-0.10108586
0.00315927
-0.05999574
0.02307660
0.08581044
-0.05728474
0.05295422
-0.06955318
0.02014682
0.05115084
0.02081544
-0.07630666
0.06839380
-0.09261575
-0.02814846
-0.06792628
-0.00330028
0.04844690
0.01172703
0.10023071
-0.00194526
0.01957029
0.09506087
0.09331521
-0.01148626
0.02797417
0.01146976
-0.02662803
0.08151126
-0.06262766
-0.10161200
-0.07878416
-0.03998903
-0.04792467
-0.09565562
-0.06571086
-0.00140126
-0.02409483
0.06301110
-0.01682532
0.06253502
0.05206717
0.05915357
0.03535523
0.04083636
-0.05389206
0.02361885
-0.07302106
0.04351915
-0.07328740
0.08704464
-0.10375385
-0.07488945
-0.05159772
-0.02608794
0.05814315
-0.05191270
-0.05544470
0.00322408
-0.06904985
0.08410066
-0.00621581
-0.01507228
-0.06203778
0.00899710
-0.01102304
0.02916726
-0.03003865
-0.00197383
0.09670460
-0.06844326
0.04267463
0.08113896
0.06761316
-0.02747641
-0.02727772
-0.03294196
-0.02893183
0.06534399
-0.11337240
-0.08333608
0.00670923
-0.04137573
-0.00621841
-0.01107696
0.08166879
-0.07101531
0.03241449
0.03989763
0.06264612
0.02358854
0.05896559
0.08090230
0.08274562
0.01869337
0.05311825
-0.07404212
-0.00233583
0.03833924
-0.04306312
0.00350202
-0.07134157
-0.01256902
-0.07804343
0.04512317
0.01652668
0.00683400
0.01234564
0.08053631
-0.00713727
0.03161514
0.04857122
-0.08328705
0.09932350
0.05827000
-0.04247770
-0.05771864
0.00790836
0.04888251
0.01973123
0.09585263
-0.08086174
-0.07587502
0.06855401
0.02178135
0.05860498
-0.05917423
-0.02819794
-0.01439137
-0.08600991
0.06944528
-0.00848069
-0.00904839
0.01504292
0.05416155
0.00368932
0.05090756
0.03100949
-0.00615938
0.06746348
-0.02392115
0.04690023
0.00690877
0.07517868
-0.01730037
-0.03899903
-0.06168039
-0.04467888
-0.08387685
-0.03120801
0.04382548
-0.06632193
0.06364420
0.02789863
-0.09167289
-0.07796398
0.06904881
0.06317095
-0.04611584
-0.09641992
-0.03965549
0.04253696
0.01736324
0.03447802
-0.03235141
0.00993736
0.04110287
0.03156888
-0.06313492
0.05389746
-0.03873842
-0.06248388
-0.01476514
-0.02420756
0.08664111
-0.08519641
-0.09896636
0.04968400
0.02760691
-0.10187091
-0.03764711
0.00197202
-0.01538080
-0.08370344
0.04614061
-0.06106481
-0.00913452
0.01238103
0.01113588
-0.06063145
-0.06191323
0.02084687
-0.05177498
-0.09809597
-0.05495501
0.07523273
-0.04731740
0.06585744
-0.06894892
0.09739527
0.08435166
0.05366995
-0.07801132
0.08146621
0.02370077
0.09314869
0.02203446
0.04662017
-0.02974934
0.01375784
-0.08317817
-0.05587021
-0.05636461
0.03085119
0.02205575
0.05971559
-0.09653918
0.03044224
-0.01042205
0.04658294
0.09825077
0.06690216
0.08048124
0.07432871
0.00368447
0.03647399
-0.05567970
-0.01568214
0.01717403
0.04198557
-0.01153779
0.04981591
-0.02763397
-0.04346086
0.03198089
-0.02868380
0.00782244
-0.01769091
-0.01813038
0.04232068
-0.05249827
0.03826378
-0.07729761
0.04667892
-0.08998907
0.04122221
-0.06851014
-0.03368852
-0.02702938
0.03813278
0.05483250
-0.06553860
-0.02403645
0.09582805
0.02940146
-0.04873780
0.09269108
-0.03378983
0.03707191
0.07952316
0.05040850
-0.09994497
-0.04465764
0.09017314
0.02875852
-0.06661792
0.06423934
-0.02813223
-0.07826804
-0.03652482
0.06451866
0.07820316
-0.01061181
-0.01941156
-0.01225802
0.05741574
-0.02230851
-0.03997872
0.00765457
0.02570932
-0.04576503
-0.07597225
-0.06171401
0.05536110
-0.06767122
-0.00452012
-0.09604513
0.09251653
-0.09020999
0.03439098
0.05538161
-0.05726033
-0.01104310
-0.06254613
0.08434556
0.00513171
0.04266948
-0.01796855
-0.00625555
-0.06552860
0.00647300
-0.09939571
0.08411209
-0.07866754
-0.00989102
-0.08852502
0.05717645
-0.08796347
-0.09257177
0.03376265
0.03981142
-0.00114442
0.09316998
0.08683434
0.00329908
0.08388717
-0.07808066
0.06956789
-0.05736803
-0.07933526
-0.09369116
0.00457717
0.01580188
-0.00578081
-0.02321417
-0.09119110
0.06037603
0.07416728
0.06099549
0.01839165
-0.10900241
0.06536205
0.05156158
0.07323582
0.04304691
0.00204835
-0.08872362
0.04375723
-0.01027885
-0.07038212
0.04441021
-0.03164802
0.05521883
-0.04031631
-0.07634036
0.08042953
-0.05660468
0.08237051
0.05917428
0.06737155
0.02321737
-0.02219952
0.02802174
0.00641463
0.07508013
-0.08837701
-0.00634936
-0.10566281
0.06893358
0.01099724
-0.05217339
0.07777442
-0.08883833
-0.05915603
-0.03630377
-0.04494661
-0.08577935
-0.00383105
-0.11123178
0.04151560
0.07038000
-0.06481089
-0.00196909
0.00895653
-0.01887635
-0.03916693
-0.06668242
0.08023369
0.04865924
0.00919270
-0.04964088
-0.10213272
-0.07576473
-0.00736664
-0.01585469
0.01799644
0.04399210
0.08052464
0.09920197
-0.06713612
0.02909485
0.04982302
0.05615866
-0.05782885
-0.05433143
-0.05406897
0.05186078
0.09704648
-0.07673812
-0.09381692
0.02245860
0.00057072
-0.01090027
0.02827328
0.02901183
-0.07298713
0.06742243
0.03777064
-0.02834984
-0.08682941
0.03564137
-0.09104032
0.03086282
-0.02405219
-0.07783839
0.04730581
0.00516585
0.00929533
0.05162451
0.05871091
-0.11008958
0.06317620
0.03494048
-0.06913472
0.02733429
-0.04222350
0.01537032
0.07001066
-0.00020633
-0.10477290
-0.08539975
0.03264585
0.04567127
-0.06395732
-0.06282203
-0.09449091
-0.02602569
-0.05509762
-0.02324426
-0.06408413
-0.04321557
-0.06296583
-0.07320174
0.00699480
-0.08612849
-0.03071908
-0.06204939
-0.04857963
0.03476642
-0.06900872
0.00710200
-0.09877892
0.08363021
-0.07167238
-0.04021390
0.04481677
-0.07381293
-0.02517863
0.02281477
0.05989980
0.02363771
-0.02816441
-0.06774323
-0.05569452
-0.06253067
-0.02375545
-0.01644931
-0.05326684
-0.07297956
0.01745899
0.07858756
-0.03229228
-0.02662805
-0.03432482
-0.02067882
0.04471014
-0.10439109
-0.09641965
-0.00790987
-0.09400869
-0.02161756
-0.01573970
0.06915669
-0.03413951
0.00151832
0.04773555
-0.07166507
0.09235361
0.09215219
-0.01417742
-0.01250501
0.05154114
-0.09179595
-0.03541606
0.02026802
0.08746153
-0.05872213
-0.00808582
-0.07838826
0.03406634
0.05292678
0.04520560
0.06935185
0.05127878
0.07451650
0.03822388
0.03588617
0.01873052
-0.09343721
-0.08617380
0.00713734
0.05891505
0.05511244
-0.06127222
-0.10835008
-0.03762648
-0.05526531
-0.00420174
-0.10475412
0.09005163
-0.02702958
-0.01805714
-0.10130645
0.02987431
0.04418749
0.00610173
0.07799114
0.04464661
0.00522274
0.03159073
-0.10419832
0.00572941
0.05842877
-0.05438595
0.04925683
-0.01650445
-0.04522847
-0.07755906
0.06501731
-0.06820209
0.05186147
-0.01535860
-0.05717506
0.08841592
0.00439846
0.00582673
-0.02686701
-0.04196146
-0.07911469
-0.07163766
-0.02834410
0.08321936
0.00672557
-0.00191117
-0.01925789
-0.11067139
-0.06606554
0.02997621
-0.00952695
0.04857419
-0.10085054
0.04077257
-0.07748665
0.06952711
-0.01072585
0.05018910
0.04457979
-0.03767369
-0.09066603
0.05847182
0.07150135
0.09159473
-0.06766306
0.07757435
0.08362922
0.07528546
-0.06674768
-0.02667688
-0.02722011
0.03231150
-0.05471509
0.08397933
-0.07363046
0.04985354
-0.05076599
0.07268436
0.01193421
-0.05500508
0.05733965
-0.00615105
0.03937035
0.00884360
0.05295505
-0.09618280
-0.06345860
0.01846528
0.04654842
-0.07926719
-0.01710099
-0.03797565
-0.02756792
0.10082955
0.03838258
0.06326737
-0.04133177
0.01413868
-0.03845731
0.01106813
0.03692341
0.02533320
-0.10490759
0.08414847
0.01578915
-0.04124384
-0.03922351
0.07551998
0.02816136
0.00181167
-0.08283054
-0.05290409
-0.09103392
-0.04066411
-0.01467455
-0.00572042
0.02529859
-0.09733699
0.02712360
0.07878660
0.04958649
0.01235391
0.01176239
0.05182709
0.03596967
0.03647017
0.07839650
0.01560772
-0.07096025
-0.08433957
0.00116719
0.06275355
0.06110555
0.00451813
-0.00821842
-0.05460045
0.03458684
0.03054860
0.03300839
0.07752879
0.08732687
0.05111971
0.07151829
-0.03979102
0.07273072
-0.03358966
-0.05765656
-0.10845767
-0.03092234
-0.00739257
-0.04096293
0.03255616
-0.05191991
-0.01453474
0.01232155
-0.09045868
0.00001649
-0.06440808
-0.04863800
0.03949946
-0.04022099
0.07174532
-0.06313429
-0.01986515
-0.09069250
-0.07984012
0.06661210
0.06966615
-0.08888971
0.04974977
-0.05127870
0.09571675
0.05724512
0.05873130
-0.01702785
0.06625106
-0.07512899
0.09424263
0.03860739
0.08353064
-0.09163340
0.07408211
-0.00264967
0.02716691
0.00889243
0.09267795
-0.07299483
-0.05069191
0.06364355
0.04238436
-0.04497182
0.03872824
-0.08209454
0.00390052
-0.06878050
0.01622576
-0.03674827
-0.03215757
0.06246202
-0.08074914
-0.06673290
0.03478387
-0.04336793
0.08388724
-0.02904346
0.05111036
-0.06742964
-0.01555427
0.05396689
-0.07660755
0.07870725
-0.09726858
-0.00809960
0.04719384
-0.00668354
0.07888850
-0.02000978
-0.05730951
-0.01875612
-0.05678219
-0.05335801
-0.00325272
-0.01994634
-0.01497793
-0.06363278
-0.02542360
0.06135272
0.00917525
-0.03519866
0.01140310
-0.01972578
-0.09972700
-0.09750525
-0.02079205
0.05555916
0.03730909
0.07363627
-0.07977417
0.03944944
-0.04572772
-0.05618337
0.01872737
0.02474342
-0.08580073
-0.02408009
-0.10545465
0.04518472
-0.07989234
0.08184882
0.09174292
0.08013978
0.01805293
-0.07696950
0.06782251
-0.08978305
-0.08179941
-0.00773099
-0.03464831
0.09220492
-0.02245922
0.01301159
0.08065282
-0.04173251
0.02396163
0.01086309
-0.04056060
-0.09781943
0.05958284
0.07725916
-0.08569748
-0.04604783
0.01963411
0.05407417
-0.03217724
0.04367346
-0.03894838
0.06975855
-0.07315353
-0.03694423
0.07641982
0.08452554
-0.07938937
0.01614577
0.06296116
-0.01392931
-0.08101510
-0.01256208
-0.08874849
0.05998652
0.03010890
0.04792965
0.04773433
0.08264140
-0.00079434
-0.09656753
-0.05288334
0.04704529
-0.09871721
-0.02239652
-0.02993460
0.01271807
0.07183853
-0.10826340
0.06473992
0.07407859
0.08169601
-0.00982290
0.05617033
0.02387583
0.07092317
-0.06060550
-0.05886355
0.03805103
-0.03491262
0.05320042
-0.08647059
0.06158691
0.02117430
0.05841298
-0.08307693
-0.02409076
-0.04027167
0.03286288
-0.08549703
-0.09748470
0.01291296
-0.08176380
-0.00299553
-0.08521239
-0.06455747
-0.05721471
0.03890028
-0.08108037
-0.08565204
-0.07351788
-0.09318401
-0.02041567
0.02809655
0.05782768
0.01578538
-0.01837704
-0.08029519
0.01831012
-0.02321337
0.01802241
0.06149908
-0.05461164
-0.02573691
0.00875511
0.05369667
-0.06160836
-0.06848724
-0.00680933
0.03685656
0.06423166
0.07370460
-0.02780997
0.00703607
-0.07325203
-0.00249792
0.08765376
0.03371535
0.07479326
0.02734308
-0.09839318
-0.09479199
0.04869383
-0.04506513
-0.07600182
-0.07257154
0.06603743
-0.03599816
-0.05259412
0.00932183
-0.04494618
-0.08017065
-0.06961735
-0.04846192
-0.07280348
-0.00980717
0.01293835
0.09701684
0.02249064
0.00620596
-0.00516523
0.04898071
0.00661888
-0.08284919
0.05684624
0.01343275
-0.03619645
-0.04175693
0.06784115
0.07153388
-0.07065795
0.04923282
0.00006140
-0.08370581
0.03345289
0.07772914
-0.09389475
0.02046421
-0.07040160
-0.00645922
0.08379622
0.09835355
-0.09589066
-0.07757345
-0.09101380
0.07979830
-0.09372179
0.07677292
-0.01124857
0.03587201
0.08509837
0.04643141
0.09311863
0.08787555
0.01857412
0.02322514
0.09393042
-0.09685909
0.08126221
-0.01909486
0.00759053
0.05227754
-0.03491384
0.00054867
0.00672561
0.04768756
0.05483499
0.01782214
-0.04793914
0.05034267
0.04069271
-0.05049659
0.07710130
-0.04254430
0.00705438
0.01343885
-0.08542281
-0.00724049
0.08598745
-0.09467602
0.00327619
-0.01754354
-0.09695270
0.03508258
0.05276500
-0.02723622
-0.04941707
-0.06715443
-0.04872735
-0.03684955
-0.06233861
0.04989766
-0.08308370
0.10054617
-0.06310018
-0.05780216
0.05496373
0.01536291
0.08411501
-0.00994914
-0.05037396
0.09682902
-0.09690858
0.06361878
-0.02475062
-0.03266102
-0.00953409
0.08334644
-0.04928090
-0.04527077
-0.06568765
0.09053050
0.02754640
0.02367219
0.00290129
-0.02023174
0.04248216
0.00183761
-0.08587869
-0.07788372
0.00870339
0.06038343
-0.07394345
-0.04514008
-0.01395627
0.01344935
0.04716620
0.06179678
-0.02224472
-0.09009347
0.03798661
0.02299291
-0.02827208
-0.10016148
0.06321409
0.08519352
-0.08122391
-0.08650361
-0.03924875
0.07111838
0.04448183
-0.07147020
0.01154015
0.01433564
-0.02151750
0.08434511
-0.07378998
-0.02189020
0.07893685
-0.00375000
-0.08313474
0.04153337
-0.00458010
0.08790319
0.03464229
-0.04528353
0.04947644
0.09586457
-0.01897658
-0.09634100
-0.05182670
0.03703099
0.02429257
0.03805031
-0.03476332
-0.05176213
-0.03846216
-0.06751572
-0.00784593
-0.02442969
-0.00655194
-0.03067377
0.05150037
-0.01946738
-0.04817919
0.00759644
0.09689970
0.06259079
-0.04552408
-0.05734695
-0.00569742
0.06768128
0.02650242
0.07182241
-0.05413969
-0.08161270
0.03714702
-0.00619536
0.00213619
-0.00905800
-0.06309407
0.00040884
0.09000508
-0.07188340
-0.04842688
-0.00767856
0.06316100
-0.00797764
-0.08050793
0.08038565
0.00877305
-0.05668305
-0.05079298
0.02436190
0.05626595
0.08097374
0.06816207
-0.04503108
-0.04760074
0.07743359
-0.02235583
0.06940112
0.06136167
0.04339237
0.02334171
-0.01121299
0.06455837
0.07213306
-0.08616867
0.05532735
-0.04719043
0.02915418
-0.02444243
0.02195181
0.04772164
-0.08973983
0.09909040
-0.08473479
0.08273247
-0.05958754
-0.04461905
-0.02541680
-0.06137371
0.04635529
0.10355308
-0.02596747
0.00967204
-0.05852462
-0.01003071
-0.06952312
0.07898606
0.08295346
0.08723751
0.03093086
0.01190562
0.08706082
-0.03393287
0.10374834
0.06651576
0.05111612
-0.02229311
-0.04810344
0.01471586
0.02666691
0.01842080
-0.02608129
-0.02559299
0.10032382
-0.08919003
0.06944519
0.02532178
-0.03821776
-0.04100105
0.00735833
0.05712181
0.06167517
0.05419820
-0.04662275
0.03483726
-0.07844720
-0.03049041
-0.08566788
0.09118664
-0.01118465
-0.09209533
-0.09205870
-0.04390660
0.00618648
-0.04579264
0.06945135
-0.01679395
-0.05484187
-0.05062421
0.00133660
-0.01876289
-0.05460993
-0.09232470
0.05767377
-0.00610991
0.03629861
0.02691722
-0.01144455
-0.05792424
-0.05276800
0.07307812
-0.09873498
-0.04271471
0.00846483
0.01675366
-0.00969368
-0.07724335
-0.07897070
-0.02559993
0.06454564
-0.04112775
-0.06578148
0.06816426
0.06001582
0.06309624
-0.04343167
0.00509276
-0.08919737
-0.00674857
0.09019043
-0.05924927
-0.05702752
0.04230412
0.02865029
-0.05807721
0.00598724
-0.06359496
0.07447688
0.08083084
0.08049242
-0.06288354
-0.07602481
-0.01868664
-0.00896344
0.01034257
-0.07395566
0.00090625
-0.01819224
-0.09362522
-0.03950370
0.06800081
-0.08083306
0.00316608
0.08778170
0.00126708
-0.07355210
-0.05184123
0.00567978
0.02269690
0.03298774
0.03272566
0.01771666
0.04155162
-0.00867963
0.03800758
0.02903514
-0.09185065
-0.08495958
-0.02941589
-0.03739376
0.07245456
-0.02897065
0.10483395
-0.02771404
-0.01199090
-0.08804905
0.07252104
0.02201901
-0.03967111
0.04386416
0.02117059
-0.06464739
-0.03652764
-0.06469012
0.04176455
-0.01507923
0.08263493
-0.03627128
0.03049101
0.10191653
-0.03368357
-0.05005369
-0.08729848
0.02535467
0.08299193
-0.00020763
0.02234555
0.00953388
0.06223934
0.02488469
-0.01604674
0.03789778
-0.03590348
-0.04129915
-0.01159854
-0.09404684
-0.09402853
0.07248656
-0.05809604
-0.07917823
0.04038719
-0.04087139
-0.06853337
0.04622233
0.04679844
-0.07664283
0.02001540
-0.03388117
0.06704354
0.08268122
-0.04921367
0.09076253
0.06988176
-0.06050098
-0.00369383
0.06549163
-0.07152125
0.08421471
0.08673553
-0.06623063
-0.03953304
-0.04901819
0.02746435
0.09185230
-0.04446778
0.01876687
-0.01791028
0.05651216
0.04234081
0.06496723
-0.02294439
0.08518832
-0.00033064
-0.00148424
-0.02450168
0.04152207
0.05643951
-0.08366340
0.08091072
0.04686427
-0.04018754
-0.08033159
0.05227134
-0.00726990
-0.08650816
0.09759780
0.03604035
0.10410273
0.01931010
0.03777564
-0.02504976
0.08612307
0.04438874
0.06905990
0.03519046
0.06415888
-0.04251552
-0.03295102
0.09860216
0.05837266
-0.02417991
0.01851473
0.04829469
-0.04656294
-0.05245836
0.05868395
0.08173152
-0.06453142
-0.07288129
0.02429575
0.01944331
-0.03511768
0.06313361
0.08295843
0.02500378
0.05867180
0.08518628
0.00226749
0.02350837
0.04602791
-0.07319570
0.07271940
0.02481755
0.03528539
-0.00512111
0.06918535
-0.09122604
-0.06283772
-0.09555496
0.04505603
-0.05851159
0.00701445
-0.06935507
-0.01439734
-0.07569071
-0.04601451
-0.04204100
0.06848109
-0.00163214
0.03754753
-0.10641668
-0.07499483
-0.02662909
0.07804851
0.07470369
0.05128378
0.00669163
0.04949079
0.05738288
-0.00165579
-0.07761026
0.07110644
0.05736296
0.07911656
0.02700315
0.07224778
0.02630522
0.04988382
0.09176083
-0.08607663
-0.06726502
0.02362099
0.03321601
-0.01261669
0.07647825
0.03850712
-0.03141689
-0.02743818
-0.06210110
0.09444664
-0.01633780
0.04122011
-0.05814816
-0.07182568
0.08734666
0.02850697
-0.05809848
0.02809189
0.02629130
-0.09843306
0.05296927
0.02868264
0.05324144
-0.06353458
-0.01104275
0.01067619
0.01079216
-0.01431236
0.00835447
0.04004489
0.10373702
-0.05012140
0.09382831
0.03641689
0.02234234
0.09453692
0.02057837
-0.03546030
0.03464071
0.06805238
-0.05796465
-0.01871785
0.02828065
0.04799643
0.04142884
-0.00238963
-0.06486713
-0.04222850
-0.07601249
0.00368965
0.08726764
-0.00462359
-0.08604697
-0.02883697
0.03556929
0.00344197
0.05385854
0.06285540
0.01926928
0.08078849
0.08114251
0.01395296
0.04819472
0.04459964
0.06436433
-0.06001080
0.06579870
0.00247329
0.04779328
0.09543267
0.08799462
0.07835688
-0.02084659
0.03252418
-0.00905424
-0.09745415
0.07968749
-0.10525468
0.06314035
0.06155363
0.05321598
0.01638013
-0.00008122
-0.00181467
-0.05585684
0.02071433
0.00508275
0.04003865
-0.01319715
0.08180697
-0.06695245
-0.04258432
0.09515182
-0.06873258
-0.04222411
0.02486168
-0.07039269
0.06252317
-0.04495081
0.08992879
-0.03142482
-0.02439336
-0.08843340
-0.06348327
-0.07179651
0.08941446
0.01442775
0.00818367
0.07771094
-0.00806473
0.00366658
-0.01793442
0.01563234
0.03327814
-0.08862499
-0.01420388
0.03084144
0.00756802
0.09088619
0.04578594
-0.09179761
-0.01112474
0.06519595
-0.07504271
-0.03524979
0.09055361
-0.05478164
0.05950341
0.07921226
0.10282138
0.03754318
-0.02394552
0.01618022
0.03722026
0.10644235
0.07766950
-0.05151914
-0.05144590
0.00102763
0.00295721
0.06631363
-0.07447435
-0.07196573
0.09596542
0.01808829
0.01728260
0.09320655
0.03425089
0.03661912
0.05722522
0.09966426
-0.00938827
-0.09109852
-0.04029741
-0.03242907
0.01045553
0.07780989
-0.06124846
-0.08678635
-0.02313084
-0.05625092
0.09440065
-0.04072310
0.04728618
-0.06401483
-0.09037061
0.07718871
0.00006843
0.02434286
-0.10081729
0.08544328
0.03249366
-0.03496846
-0.07212169
-0.02144265
0.01146152
0.04290169
-0.01823299
0.07320199
-0.04915282
-0.06969788
0.04592828
-0.04111661
0.06119975
0.05047895
-0.00431398
-0.00089591
-0.07194312
-0.07681998
0.09916806
0.07923084
0.00900775
-0.06149001
-0.07774360
0.00643866
0.00679267
-0.00637463
0.00535059
-0.02720046
0.02044112
-0.04678506
-0.05169854
-0.08348421
0.03119214
0.03266313
0.01805002
0.05926222
-0.01990279
-0.08775642
0.05496644
0.06183311
0.09956912
0.01240216
0.06615135
-0.01688729
0.06561645
0.01237386
0.00357973
-0.01480462
-0.09650267
0.06038276
-0.05977472
-0.03926017
-0.04132555
0.01230157
0.06591039
0.02357702
-0.00889467
0.02443154
-0.00493781
-0.01510658
0.01538141
0.05634277
0.05718508
0.07498348
-0.05949247
-0.05318735
-0.06156163
-0.02750297
0.02195533
-0.01657124
-0.02865386
0.05000454
0.10375985
0.01776479
-0.08336134
-0.00281689
0.01821903
0.02937660
-0.07957448
-0.03716555
0.09494298
-0.07708986
-0.02036586
0.04632929
0.05713895
-0.07220153
-0.08056360
-0.04483864
-0.09256795
0.05985980
-0.00305716
-0.07713119
0.08704008
0.05071085
0.08013306
-0.00315196
0.03242042
0.06700745
-0.04787032
0.01631621
-0.06651424
-0.03002021
-0.08785889
0.05483965
0.08207437
-0.04839836
-0.05218021
-0.09215946
-0.09195194
0.10190698
-0.08099655
-0.01076126
-0.07184388
0.04675715
-0.08721911
-0.05846938
-0.04253262
0.03355003
-0.07192430
-0.04028882
-0.03091963
-0.01007424
0.09514748
-0.06763825
-0.02078481
0.08208699
-0.00252253
0.04494463
-0.01972409
-0.06835838
-0.01622375
-0.07467280
0.01195093
0.06170053
-0.01343604
-0.01937494
-0.09338558
-0.05249078
0.09589022
0.00520537
-0.05434845
0.02792335
0.04865892
-0.04452019
-0.06646300
0.01626174
-0.04204692
-0.02438281
0.10217123
0.05587465
-0.03556491
0.00417210
0.04719099
0.10148342
0.02961944
-0.00074038
-0.00262642
0.02663420
-0.04957662
0.04671538
-0.00254684
-0.00039224
0.01336551
0.06448401
0.07488472
-0.07034066
0.07563547
0.10198516
-0.05549035
0.00099168
0.05961163
-0.06148582
-0.00654327
0.02424380
0.04871354
0.02934879
0.01106210
-0.06433083
-0.07134398
0.02103555
-0.08544353
0.06474039
-0.03569603
-0.10027930
-0.04857787
0.06153901
-0.02141030
-0.08785356
0.03826724
-0.07849048
-0.05999950
-0.03187975
-0.08968791
-0.08169093
-0.01444035
-0.06159755
-0.05064419
0.05170879
-0.06177124
-0.06772268
0.00059605
-0.04711048
0.04241994
-0.00683693
0.04621034
0.02234354
0.05274608
-0.05475842
0.08547986
-0.03898073
-0.03489735
0.07096931
0.07717678
-0.02033596
-0.04156040
-0.08459760
0.01112675
-0.01219586
0.07942071
0.01240206
0.08707645
0.07829932
-0.06735331
0.04637305
0.09215692
0.04124594
0.08701472
0.06870972
-0.06236728
-0.05539670
0.04718822
0.07145043
0.08565763
-0.02397706
0.05324087
0.07184795
-0.05001246
-0.02930260
0.06812074
0.08587641
0.02744567
-0.06334116
-0.02916043
0.04841152
0.05066727
0.05361536
-0.00693336
-0.07808009
0.04569078
0.07233344
-0.00214561
-0.08082233
0.05521088
0.10662107
0.03274797
0.04902654
-0.07759796
-0.07180555
-0.01084177
0.03679762
0.10571452
0.05326541
0.07231763
0.10088905
0.07954441
-0.08238614
0.05905495
-0.02820968
-0.05882148
-0.00489528
0.01589393
-0.07704103
0.04221920
0.01685221
0.03092588
0.03889731
0.08136077
-0.08665583
-0.03622705
-0.00020300
-0.04960636
-0.03920566
-0.07154307
-0.02746824
0.06819508
-0.00956608
0.01741228
-0.00880312
-0.10183574
0.01161115
0.08116894
-0.08322207
0.07357425
-0.02693541
-0.06650571
0.02062080
-0.08219606
0.05669978
-0.06664939
0.01868036
0.07893611
0.00171788
-0.01843654
0.06760124
-0.02797951
-0.01963574
-0.05660587
0.01093692
0.06720084
0.00894101
0.06412458
-0.07866543
-0.01046266
0.05560368
0.10561742
-0.07696262
-0.07618754
-0.01409458
0.00510156
-0.00092668
-0.08987592
-0.09035812
0.02743410
0.03302509
-0.03105157
-0.02862217
0.06071162
-0.08224929
-0.08372255
0.01366202
-0.05447361
0.07767079
-0.00232433
0.08651505
-0.02541901
0.02981339
0.01618382
-0.06850939
0.08665892
0.09333637
0.08084635
-0.05978905
-0.08754258
0.04755570
0.09113003
-0.05985114
0.01582082
-0.05158236
-0.07044891
0.02169731
0.06179863
-0.05713200
0.06269596
0.00978907
-0.04660303
-0.05280760
0.06537228
0.02566160
0.09362021
0.06350455
0.07193376
0.07369748
-0.06237235
-0.03015091
-0.01110736
-0.07877300
0.04595005
-0.06969828
0.07757794
0.04801161
-0.00235761
-0.05744962
0.00585187
0.09287845
-0.01193432
-0.02732175
0.09138915
-0.03168589
-0.01368608
0.04212007
0.07681961
0.07175354
-0.02626581
-0.04422900
0.00070035
0.03206840
-0.04051072
-0.03408963
0.02849496
-0.09806530
-0.07070240
-0.03313735
0.05199709
-0.03255139
0.04858665
-0.01245037
0.08378670
-0.06725927
0.06789500
-0.09044113
-0.04553571
-0.01116576
-0.02045560
-0.04763491
-0.05086377
0.05097650
0.04888857
-0.04663436
-0.03603834
-0.05727009
0.07723719
0.10549123
-0.05745417
0.09728077
-0.01056553
0.03232304
0.10352272
-0.01394913
-0.07480807
-0.04261715
-0.01185449
-0.00733615
-0.03374077
-0.00678071
0.07846502
-0.04846146
0.03046551
0.01451282
-0.02004023
-0.03163116
0.01051950
-0.05439947
-0.08940420
0.04982584
0.02731538
0.01374685
-0.01440273
-0.05842873
0.04950303
0.00948013
-0.07929211
-0.08424221
0.06828874
-0.06557155
0.07977590
-0.00319986
-0.03028198
-0.06127658
-0.00160069
-0.07065187
0.07638631
-0.09256736
0.03377316
0.02227379
0.00999924
-0.08013412
0.07300776
-0.04020981
-0.02249686
0.04006608
-0.04438474
0.04839153
0.10439910
0.06956989
0.01286650
0.09226345
-0.01350527
-0.00386752
0.03282794
-0.09067817
0.06915947
0.07241274
-0.03999303
0.06832936
-0.05949436
-0.10630448
0.07385239
0.06442217
0.04600730
-0.09780812
0.04830840
0.01541652
-0.03340089
-0.09917438
0.05493911
-0.10036348
-0.07456923
-0.04667237
0.03176630
-0.02512631
-0.08406421
-0.02222151
0.08819446
-0.04538639
-0.00434509
-0.07912765
-0.03281896
0.01320905
0.02317640
0.09221684
0.02559494
0.09139284
0.02897158
0.07479818
-0.04350988
0.04268636
0.01689211
0.09504391
-0.05494397
0.02846922
0.05891449
0.03067648
-0.02808386
-0.07505184
-0.02157643
0.03385129
0.00546907
-0.04360720
0.07525629
-0.08115717
0.06206076
0.06563142
0.02563386
0.06804631
0.05693758
0.05311666
0.00645965
-0.04542182
-0.04042899
-0.05291571
-0.00390299
-0.03062499
0.04115620
-0.05807168
0.06440520
-0.05641809
0.05409553
-0.03253431
-0.01995940
-0.06029266
0.05528704
-0.08084596
0.02597492
-0.04064088
0.09017366
-0.07259376
-0.04100710
0.03734612
-0.02608965
0.07661123
0.05083820
-0.06607821
0.04300104
0.04613316
-0.08450437
-0.08056748
-0.01958269
-0.08257900
-0.07321592
0.09012105
-0.05000774
-0.00611602
0.01446190
-0.10192959
0.01637236
-0.04996268
-0.00463659
0.08439201
-0.05716968
0.02104316
0.03034520
-0.04817282
-0.00424448
-0.03082610
0.04218028
0.01674615
-0.10770222
0.02982736
-0.04398471
0.01899329
0.08394048
-0.10727629
0.06192443
0.05203318
0.05043401
-0.09156862
0.05793322
0.03710739
-0.03570978
0.08563614
0.00288825
0.08039306
-0.02037408
0.09031045
-0.09104274
0.05946999
-0.09376955
-0.00215298
-0.06494430
-0.06162389
0.05366283
-0.06180488
0.01141513
0.06622637
0.03021491
0.06760009
-0.06610150
-0.00205753
0.00917328
-0.04994718
0.00952673
0.05377246
-0.09457801
-0.10458307
0.05900225
0.05051810
-0.02118197
0.02883176
-0.07948453
0.06317283
0.10290793
0.06681674
-0.08291664
0.07725060
-0.01384715
0.05227151
0.04486772
-0.05648425
0.03150015
0.10827251
-0.02487364
-0.07801247
0.02221031
0.04982346
0.03136745
0.05722273
-0.08903417
-0.03979976
0.05922060
0.06175974
-0.08967921
0.03117409
0.06379838
0.09592826
-0.03704699
-0.08865989
-0.00252647
0.09659765
-0.05589113
-0.01363521
-0.05313226
-0.02156391
-0.08563085
-0.04384491
0.01067336
0.07257901
-0.00288716
-0.02157059
-0.04499426
-0.02172085
-0.08292877
0.07583990
-0.09651644
-0.08252675
0.05532535
-0.00944713
-0.02598816
0.04983813
0.06279018
0.04551671
-0.09602204
-0.00552855
-0.03222004
0.08607580
-0.00112168
0.01047535
-0.03149273
-0.09529472
0.05076076
-0.05447642
-0.01317877
0.05807584
0.08989920
0.08103662
-0.07298419
0.05432317
-0.08717895
-0.07282304
0.00918752
0.07990501
-0.03047433
-0.04000169
-0.04741159
-0.03510652
0.01400396
0.08803576
-0.09181592
-0.05515382
-0.04452117
-0.02357937
-0.04428409
-0.06338258
0.04356649
-0.09572673
-0.04952781
0.10144726
-0.05035791
0.09224898
-0.06873616
-0.06615036
-0.04490337
0.08539235
-0.08062284
0.06791075
-0.06649887
0.04182403
0.08423255
0.00258943
0.06386776
0.07591646
0.03016922
-0.01943474
0.08664760
-0.04434395
0.05905887
0.10104013
-0.03191071
-0.04884507
-0.03470279
0.10170884
-0.03502345
0.01738293
0.01415408
-0.02835388
0.05340521
0.03318365
0.03616836
0.04783253
0.10832632
0.06967447
-0.01943958
-0.07335968
-0.00453434
-0.06200679
-0.04724804
0.00947637
-0.08279940
0.01282730
0.10472438
0.06358543
-0.00020436
0.02880326
0.06862992
0.05267484
-0.05894356
0.00111687
0.00495610
0.05160820
-0.09062026
0.03460329
-0.10361504
-0.10059981
-0.07683810
0.05959795
0.00872359
0.04147605
-0.06331230
0.06896713
-0.07663668
-0.00848885
0.03787487
0.01192803
0.05565593
0.02810382
-0.05206220
-0.01046496
0.06796761
0.03696691
-0.09121083
0.08173756
-0.07705635
0.05024423
0.08477897
-0.08865772
-0.01092292
-0.06740658
0.10333838
0.07150147
-0.02698176
0.00889580
-0.09551413
0.03451914
0.01461497
-0.00544908
0.03511612
0.04934385
0.06036440
-0.08641132
0.04819972
0.00361297
0.08980945
-0.04701114
-0.06721243
0.00222328
-0.02087923
0.02400011
-0.09566297
-0.00117156
-0.01830809
-0.00805997
-0.05974612
-0.08519944
-0.08887997
-0.02759880
-0.04827494
0.07130269
-0.03510315
-0.07606489
0.08625086
0.05205182
-0.06454984
0.06485474
-0.01110583
-0.05361424
0.00744109
0.02083262
-0.03603190
-0.03402378
0.02253923
0.08697217
-0.05077617
-0.00734223
0.05175992
-0.03368581
0.06687268
-0.02568706
-0.08939140
0.00189557
-0.06672835
0.10616511
0.03826142
-0.06587994
-0.06324314
0.05807404
0.00246631
0.01746921
0.09161698
-0.09808660
0.08519536
0.00465702
-0.04806066
-0.04763950
0.04644906
-0.09590230
0.06579697
0.01057678
0.07067233
0.05087803
-0.11482527
0.07617177
0.06553912
-0.02170109
-0.00624652
-0.00299325
0.00588154
-0.07908200
0.05815974
-0.02256172
-0.00417360
0.03387078
-0.03710307
0.07651792
-0.06740737
0.04497399
0.02064660
-0.00458000
-0.04229478
-0.04626863
0.04379149
0.02377745
-0.05457888
0.06690310
-0.04826766
-0.05327394
-0.07405704
0.07127821
-0.03068270
-0.01229225
0.04160954
-0.00207486
0.09003611
-0.06260527
-0.04191870
-0.07329783
-0.06678518
-0.06980844
-0.02356069
-0.09116529
-0.00777520
-0.08909482
0.09435804
0.06703910
0.07136052
-0.03495376
0.09563625
0.01694122
0.09840123
-0.00767314
-0.03179497
-0.06235621
0.01488762
0.08846164
0.04292192
0.05656659
0.06571603
-0.08882359
-0.03818926
0.00885197
-0.07734451
-0.00551096
-0.08075129
-0.07355503
0.09619646
0.10856256
-0.07141730
-0.07311973
0.04961962
-0.00356194
-0.04540054
-0.03598253
-0.02282905
0.06886730
-0.04469208
-0.09019518
0.07313378
-0.00210045
-0.00629369
-0.04711525
-0.03528627
-0.02645422
-0.02309108
0.08887523
0.05194173
-0.03372916
-0.02628265
0.00366822
0.03306975
0.05887620
-0.07591185
-0.06926958
-0.02889359
-0.05914353
0.01711001
-0.04247432
-0.04827894
0.05392144
-0.00048086
-0.01347564
-0.09298689
-0.11125527
-0.10949130
0.05437478
-0.07487111
-0.08363602
-0.03943912
-0.01095314
0.07614668
0.03748702
0.03302521
0.07054467
0.00682572
0.02866476
-0.03771910
-0.07846053
0.06634369
-0.01823530
0.06059700
0.03255659
-0.03766650
-0.05418436
0.05215433
-0.04916101
-0.04880700
-0.08763265
0.08772060
0.04274222
0.01209553
-0.07985063
-0.05749425
-0.04116074
0.01372375
0.00052256
-0.08307984
-0.09457922
-0.01587808
-0.05657757
-0.00474493
0.00141026
-0.06690847
0.04554613
-0.01968628
-0.07684745
0.00477736
0.02056869
-0.04892806
-0.05434205
0.04070781
0.08057108
-0.08004173
-0.04850178
-0.07905691
0.06038216
-0.03929248
0.03862737
0.02593167
0.08903039
0.05307959
0.09452983
0.06111689
0.05728987
0.00637889
0.00048946
0.02091855
0.03917472
-0.05418987
-0.00305916
-0.06941861
0.03410628
0.01357343
0.09481370
0.02295482
-0.06931485
0.00787867
0.04690618
0.02381587
0.05718481
0.09007156
0.01656467
-0.01073718
0.02749707
0.06734814
0.00023794
0.08283934
-0.02451257
0.02337707
-0.04761892
0.02216470
-0.10563461
-0.05974613
0.07255771
0.03009425
-0.06216320
0.04257022
0.03731493
0.04766681
-0.03129678
0.04182557
-0.06368913
-0.05639520
0.05245211
0.02467417
0.03896904
0.02149414
0.03747840
0.03058122
-0.11388120
-0.08472520
0.02959103
-0.01577778
-0.01224275
-0.01874930
0.02995214
-0.06031734
-0.02295047
0.05545768
0.07031447
-0.09112845
-0.06219080
-0.06854280
0.08693070
0.04016413
-0.00276320
-0.05134867
-0.09235334
0.04767978
-0.09169215
-0.00473881
0.09477480
0.05646187
0.09284603
0.03889984
0.07414262
-0.07565444
0.07299708
-0.05111560
0.05923933
-0.03506819
0.07590931
-0.08368418
-0.02253315
0.06207637
-0.07444513
-0.00627415
-0.04701025
0.07891522
-0.07574628
-0.03469278
0.01948368
0.04623606
-0.07373831
0.09679302
-0.04518519
-0.03248339
-0.01769412
0.03196316
0.07308990
0.05374116
0.07059658
0.05815113
0.01922172
0.03222809
0.00179503
0.07417273
-0.01307534
0.09547290
0.08748315
-0.04822656
-0.04186650
0.08067142
-0.02984831
-0.01536422
0.02976655
-0.08120442
0.02916272
-0.02306666
0.02245541
-0.09451593
-0.07383659
0.05587928
-0.01171311
0.03605446
0.01453674
-0.08455075
0.01464661
-0.10561463
0.07386473
-0.07272178
-0.05989262
-0.03122354
0.01901603
-0.06208510
-0.01259018
-0.07462210
-0.11280686
0.06938254
0.03545206
-0.05263179
-0.01166375
0.06712894
-0.00906885
0.01097571
0.06358352
0.01525711
0.04266884
-0.05760278
0.08312759
-0.01100980
-0.04038082
-0.01806411
0.01700166
-0.00442234
-0.05092212
-0.04438506
-0.00027360
-0.04873824
-0.07541142
-0.00406525
0.09694344
0.08934433
0.02721475
-0.01805051
-0.07729304
-0.09234477
0.01514921
-0.06269130
-0.00677529
-0.05710529
-0.09167055
0.03007999
-0.01143527
-0.08601030
-0.06404918
-0.01153282
0.02531523
-0.05026081
0.08703958
0.02464754
-0.09746923
-0.02888868
-0.08129506
-0.01469147
0.09861766
-0.00456542
-0.03344204
0.04993557
-0.06367874
0.10077941
0.05397763
0.03348750
0.03433592
0.03429734
0.04420975
-0.02915064
0.00096794
-0.06768650
-0.01410821
0.01529642
0.08492135
-0.00037789
0.07533243
-0.08282669
0.09949699
-0.02014953
0.06007753
0.01319500
0.06693809
-0.01691456
0.05238687
-0.06229959
0.02802910
0.03602495
0.01925707
0.03380219
0.09447910
-0.03691530
0.01461216
-0.03988169
-0.09911646
-0.03939173
0.03341933
-0.10364313
-0.02305596
0.06290248
-0.11497285
0.03936536
-0.11790263
-0.11693824
0.05347712
0.03983534
0.03555665
-0.05866620
-0.02681098
0.04051763
-0.03047453
-0.11610947
-0.09548618
0.02718602
-0.08299801
-0.11343944
-0.00211402
-0.08378155
-0.00382311
0.02281955
0.06986078
0.01320235
0.07064429
0.02378617
0.03469349
-0.04936669
-0.02217470
0.01366756
-0.02451109
0.06397428
-0.02129716
-0.09990063
0.05748942
0.00296194
0.07396020
-0.01995746
-0.09789862
-0.08505033
-0.08306662
-0.06677143
0.07706841
-0.03832818
-0.05124847
-0.00747882
-0.05063810
-0.00631591
-0.09972696
0.07554084
-0.00513284
0.05878512
-0.02666670
0.04337565
-0.06094272
-0.07198432
-0.01309580
0.07150150
-0.08178076
-0.07863168
0.02637030
-0.02858133
-0.02059206
0.02766991
0.07593188
-0.06255501
0.07768364
-0.04835170
-0.05915706
-0.02512282
-0.07602769
-0.08409535
-0.05291764
-0.03194532
0.06466408
0.08718063
0.00985894
-0.01550980
-0.05163761
0.01360486
0.05156353
0.00006660
-0.09385716
-0.05405492
0.01408070
-0.03781297
0.01726727
0.00418093
-0.00053723
0.07159632
0.00303954
0.09983204
0.02618034
-0.02661058
-0.03650468
0.00607474
0.01532185
-0.05043333
0.03646993
0.03010377
0.06661612
-0.09456207
-0.03244470
0.05087694
0.05195729
0.01540222
-0.03446502
0.06670251
-0.05935725
0.04337416
-0.05578658
-0.03353249
-0.03019986
-0.07775110
0.01348094
0.04833918
0.02245333
-0.00201031
0.01674026
0.05365670
0.02554305
0.02550032
0.03802512
-0.01454606
0.02165499
0.08107074
-0.07589816
-0.03748146
0.05874803
-0.09874579
0.00648814
0.03652445
0.07710186
-0.04029674
0.01119920
-0.06501162
-0.06054371
-0.09113596
0.04825428
0.08021327
0.03624830
-0.09436481
-0.09479207
-0.07740873
0.00393530
-0.08653987
-0.03835115
0.07459786
0.09983667
0.02692969
0.09627385
-0.00819101
0.06311440
0.09034911
0.10277015
0.08965892
0.00853461
-0.02816695
0.05876154
-0.06348950
-0.08283824
0.08141848
-0.07379255
-0.08925933
-0.09422164
0.05862116
-0.06543048
-0.04167487
0.06743491
0.09397380
-0.03172583
-0.06298900
-0.00439346
0.00127513
0.06819002
0.09837282
0.03451589
0.08767303
0.01832888
0.03127483
0.05182599
0.08966284
-0.05290089
-0.02520840
-0.08334005
-0.09520565
-0.06659149
0.06566962
-0.08279516
-0.04346290
-0.02029325
0.05730922
-0.02858818
-0.07620316
0.07615134
0.00963931
0.08044835
0.02000825
-0.10206579
0.06684195
0.02462265
0.04014436
-0.01999541
-0.06339406
-0.01712800
-0.08477533
-0.00009257
-0.08500117
-0.08073468
-0.01523698
0.05211126
0.00082186
-0.08072365
-0.03341996
-0.03184520
-0.07524128
-0.05445817
-0.06259441
0.07638211
0.03305193
-0.06280671
0.06430289
-0.02166775
0.00827090
-0.07110311
0.06375208
-0.09215478
-0.06387023
-0.05010027
-0.02837720
-0.05702685
-0.03700060
-0.06874596
0.01201661
-0.09195996
0.04001429
-0.00127726
-0.08551445
-0.07579125
-0.07720430
0.02002157
-0.06116377
-0.09618372
-0.08707089
-0.05036323
0.10003198
0.00942253
0.07330387
-0.01077898
0.01180472
-0.01352564
-0.09347045
-0.00744488
-0.06227443
-0.05606086
-0.05429079
-0.05763562
0.05459271
-0.03414290
0.06112978
0.00595842
0.02594804
0.06340646
-0.02371778
-0.09041903
-0.04866361
0.02908535
0.10275093
-0.08668357
0.02528099
-0.00084285
0.09340441
0.09495475
-0.05834583
0.03489432
-0.00473658
0.09460727
-0.08349264
0.07062583
-0.08997478
-0.09714663
0.04233517
0.01679728
-0.02561124
-0.02034374
0.06674387
-0.01420952
-0.08507794
0.03372451
0.00321211
-0.08227759
-0.04646107
-0.08657459
-0.02882012
-0.08265477
-0.02451701
-0.00380715
-0.00644395
-0.01146119
0.04022371
0.03171515
-0.00156223
0.08241860
-0.04511215
0.03365002
0.00102274
-0.08411780
-0.04981499
-0.06754737
-0.05590761
0.03044146
0.06656736
0.08807681
-0.03520577
0.09518762
-0.03048760
0.00853947
0.02993294
0.07680937
-0.07634472
-0.04113246
0.01137769
0.02307238
0.05250408
-0.01766408
0.08800931
0.02203889
-0.03636133
-0.06313827
0.05540782
-0.01188549
0.01591077
0.08203217
0.05341191
0.07527537
-0.03393206
0.03145079
0.10119169
-0.04025240
-0.08842282
0.06228979
0.00367895
0.03533274
0.08185516
0.00917228
0.05267336
0.06757250
0.02536862
-0.03518620
0.05647309
0.01549283
0.04458918
-0.08549902
0.10609618
0.00845527
-0.07346252
0.02476392
0.06747152
0.07941037
0.00341928
-0.08793482
-0.03596180
-0.08999962
-0.08453681
0.08958349
0.00147045
0.04583216
0.02453634
0.09746948
-0.08178404
0.03723204
-0.06096388
-0.02971293
0.09032858
-0.01904366
-0.01944650
-0.00390648
-0.07991588
0.09554724
0.04899431
0.08267454
-0.00090345
-0.00107436
0.04178140
-0.03627274
0.05336623
-0.06333655
-0.02580489
0.06720332
0.06780758
0.03796659
0.07903229
-0.00123139
-0.08191012
0.00252849
0.09383210
-0.07605834
-0.03174546
-0.04843298
-0.00773960
-0.01979441
-0.06502409
0.01894454
-0.03999281
0.00010366
-0.08659943
0.05227200
-0.08938882
0.07705303
-0.04557034
0.08668354
-0.00725243
0.01661305
0.00814834
0.09678629
0.04472172
-0.08995647
0.03463840
0.05534216
0.04134637
-0.05563535
-0.06395469
-0.09289845
-0.08935220
-0.01508235
-0.09694668
0.04643538
0.08403419
0.00781116
-0.09249708
-0.04693905
0.00930656
0.08124479
-0.01486410
0.08925895
-0.09523764
0.04877920
0.02579575
0.05274360
-0.07626425
-0.04485011
0.09299589
0.08255856
0.00176386
-0.01107833
0.06763501
-0.01259205
0.03093345
-0.02000805
-0.07061994
0.08516484
-0.07495357
0.02659983
-0.07018047
0.08253415
0.07972034
0.09474155
0.01227444
-0.07509395
0.03220913
-0.04804845
0.03605446
0.04898210
-0.07116317
0.09027364
0.03216640
-0.05965769
0.07700420
-0.00495631
0.02200984
0.00204925
-0.03714873
0.01523324
0.02978447
0.04282198
0.01831561
-0.00598322
0.02235626
-0.01505943
-0.08752258
-0.09033028
0.00161588
-0.09363238
0.05690322
0.09132809
-0.01112254
0.01688187
0.09960534
0.05936363
-0.07388628
0.07829732
0.09287906
-0.04937873
0.02920643
0.07146846
-0.08759520
-0.01964269
0.02010462
0.01994664
0.01333633
-0.09664017
-0.02487260
-0.02489702
-0.09889220
-0.07592397
0.01577195
0.06817223
0.00148773
0.01814473
-0.02516104
0.03668620
-0.09633788
-0.08760349
0.06716894
-0.07400968
0.07030625
0.09290826
-0.09513459
-0.00948134
-0.01357693
0.08768959
0.07430417
0.07127674
0.02582857
-0.02199393
0.01643653
0.08181939
0.02606207
0.00408264
0.04196832
0.09984972
0.04940873
0.01777324
0.00164116
0.06297662
-0.09717841
0.03015702
0.05860637
-0.01128712
-0.08831584
0.02384579
0.08117786
-0.08328028
-0.07948501
0.07824075
0.09531891
0.07971762
0.00231048
-0.03572779
-0.07696440
-0.08886052
0.05861102
0.06591715
0.03972006
-0.00331103
-0.00597225
-0.01301592
-0.01601894
-0.02687132
0.04211882
0.09529427
-0.05296268
0.08297287
-0.07298892
-0.03648342
0.07593456
-0.00966376
0.04091152
-0.03835116
-0.07936193
-0.03571436
-0.08132732
-0.04196455
-0.04315477
0.03621777
-0.00867496
-0.01551110
0.01500130
0.03711501
0.09873370
0.02213224
-0.05260759
-0.07894507
-0.05578762
-0.03513269
-0.03513269
0.08201566
-0.02993844
-0.08531123
-0.02727113
0.06810532
0.03786220
0.06777644
-0.06049286
0.00216656
-0.00712938
-0.05440865
0.02759544
-0.08692221
0.09449812
0.02818077
-0.07931152
0.08613542
-0.00443741
-0.05402388
0.07065033
0.03286231
0.04564347
0.08473157
-0.09140992
-0.00265599
0.01047918
-0.03711735
-0.06336326
-0.00794776
-0.02423854
0.03485140
-0.05326774
0.08495513
-0.06823558
0.07861339
0.08198283
-0.07711016
-0.00103362
0.01777957
-0.01890978
0.02310200
0.00151931
-0.04795119
-0.05421970
0.02113575
-0.04825114
0.02255791
-0.06427335
-0.02128498
-0.07558962
0.09683263
-0.04968674
-0.02128621
-0.07748225
-0.08296338
0.01581283
0.09118060
-0.00569736
0.06542298
-0.09282793
-0.07139783
-0.00651548
0.00882997
0.03995885
0.09279860
0.06157742
-0.02416738
0.06488563
-0.07753815
0.01486579
-0.07584743
-0.00895696
0.04350436
-0.08546686
-0.04713438
-0.02602168
-0.06772217
0.00370945
0.01671644
-0.00311448
-0.00439016
0.09141965
0.09907369
-0.02213362
-0.02485587
-0.03457296
0.09539065
-0.07016616
-0.02209341
-0.08922130
-0.01502469
-0.07406580
-0.03924418
-0.06184619
0.09545841
0.04987597
-0.07684299
-0.05289817
0.08361185
-0.07026248
0.08198216
0.08274554
0.04271746
0.04061168
0.08987215
0.09730035
0.09670219
-0.08794490
0.09827294
-0.04963807
-0.03575574
0.09192760
0.02204021
0.08942508
0.02257123
-0.00826467
-0.04532000
0.02379221
-0.07119970
0.01220128
0.06038391
0.03976560
-0.02729577
-0.06800746
-0.03435776
0.07331275
0.00094116
-0.04562399
-0.06240743
-0.00485563
0.07341825
-0.04590892
0.06079599
-0.09116177
-0.08235912
-0.03558645
-0.07886170
-0.07816452
-0.08589791
0.01243273
-0.00290063
-0.00705725
-0.09895459
-0.03400877
0.07561981
-0.08133688
-0.08041203
0.08773885
0.08315497
0.05545657
-0.01143389
-0.03788734
0.05391843
0.04730812
0.04056963
0.09939711
0.03041307
-0.05513031
0.08920370
0.06406256
0.00823199
-0.00209547
-0.02293351
0.05080531
-0.07138469
0.09998284
-0.03410328
-0.05512517
0.02784245
-0.03013052
-0.07975867
-0.00697813
-0.05401325
0.04691756
-0.05653408
-0.08060098
-0.09587855
-0.01547448
0.02312533
0.01388181
-0.04775947
-0.08090257
-0.06430598
0.04354032
0.01387633
0.01533512
-0.00860360
0.06828473
0.08328763
0.01877150
0.01836255
0.05931440
-0.05114429
-0.03572634
0.01810903
-0.00053168
-0.00311965
-0.03046423
0.08878379
-0.07638848
0.03215861
0.02512104
0.00694422
0.01976013
0.08774316
-0.07167333
0.08993219
0.00997980
-0.01216443
0.09897377
-0.05317320
-0.01202204
0.00481770
-0.00041317
-0.07028225
0.09354178
-0.05665201
0.04832556
0.02123512
-0.05299200
0.09570639
0.07577326
-0.06245728
-0.01582500
-0.08589256
-0.08097297
0.01100982
0.04541681
0.01774873
-0.05082026
0.07977909
0.00965366
0.08687159
0.07926671
0.04959051
-0.08303073
-0.00350490
-0.04043840
0.01616123
0.04751492
-0.06600173
0.07969363
0.08565769
0.06295192
0.07160697
-0.05542329
-0.03331568
0.06221946
-0.06629378
0.01400652
0.08165995
0.07445738
0.04463470
-0.01911847
0.05452857
0.01987175
-0.03020302
0.07308993
-0.06872958
0.07079494
-0.04479086
-0.04262405
-0.00842501
0.04607495
0.07371861
-0.06984046
-0.09553674
-0.03338885
0.08083583
-0.02757202
0.08618878
0.00533304
0.08841663
-0.04773865
0.01745499
-0.03981856
0.05987321
-0.04650821
-0.03138831
-0.10159309
0.05001066
0.02880030
-0.07795345
0.06230962
-0.04457019
-0.08210185
0.07030148
-0.08509918
-0.07524171
0.05540803
-0.05248028
0.02470103
0.01517925
0.02924955
-0.02687399
0.04726157
0.00574857
-0.02252378
0.00422264
-0.09415363
-0.02253889
-0.09810883
-0.06151239
0.00598235
-0.07892015
-0.05493947
0.09762256
0.06423531
0.09306817
-0.08338375
-0.07029131
-0.09496881
0.08636607
0.01319489
0.08904102
-0.00550533
0.09835527
-0.01135680
-0.01996302
-0.01815022
-0.07355424
-0.09145640
0.01700638
-0.07811116
0.04426806
-0.08321386
0.06224461
-0.00854612
0.04512373
0.04790421
-0.01562922
-0.07000710
-0.04338483
-0.00856931
0.10012541
-0.06436374
0.04064435
0.09992960
0.06969670
0.00159769
-0.08321324
0.02170694
-0.09314031
0.10067054
-0.07253177
0.05324112
0.06178630
-0.03752093
-0.07028560
-0.02499003
0.03340976
0.07135038
0.03538126
0.06315310
0.05997308
0.00987389
0.09682112
0.05293551
-0.04682340
-0.01165997
0.05003014
-0.06127086
0.02550670
0.08445015
-0.08267531
-0.01159863
-0.02958624
0.02806933
-0.02168195
0.05512094
0.05056147
0.05630295
-0.09036900
-0.03599723
0.04574417
-0.09984132
0.02970975
0.08228915
-0.05268201
-0.03938815
-0.01864777
-0.02026525
-0.02465381
-0.00142923
0.05176454
-0.03546347
-0.01468903
0.00738806
0.07339349
0.00018785
0.04517823
-0.07240958
0.03868553
0.08182040
-0.08225932
0.08083561
-0.00624590
-0.05007048
0.03705700
0.07988668
0.00319366
0.06282326
-0.05692527
-0.01039675
-0.09971407
-0.03547261
-0.00795102
0.07272375
-0.02183480
0.03501508
0.02983238
0.03537454
0.01284577
0.02542801
0.04680928
-0.04884184
-0.07840500
0.07883856
-0.09793685
-0.09574727
-0.07934051
0.01327095
0.00455938
0.04095575
-0.04776156
-0.09296513
0.02449451
0.07726712
-0.05387545
0.03476861
0.06651396
0.04045879
-0.08792037
-0.02341645
0.02836754
-0.01367476
-0.07657951
-0.07473754
0.04614017
-0.08137227
0.06456480
0.03128131
-0.06352749
0.05014654
-0.02434914
0.00727414
-0.06424336
0.03875661
0.09420264
0.05047571
0.06605847
-0.09061135
-0.02063241
0.05885610
-0.01593867
-0.07840395
0.05689681
0.04511056
0.08490718
0.09279927
-0.03243648
-0.09075754
-0.09705656
0.01724136
0.03350204
0.05841735
-0.02921960
-0.09419602
0.05218296
0.06005673
-0.00389786
-0.09309125
-0.07620841
0.00654010
-0.08779872
-0.03455613
0.09396553
-0.04778074
0.03633438
-0.05027993
-0.03680906
-0.05682310
-0.06828513
-0.08875695
0.04480425
0.00902352
0.01775181
-0.08098167
-0.04038840
-0.05879106
0.02732607
0.00826635
0.09100814
-0.04564765
0.08024680
0.07418582
0.03310180
-0.01970869
0.01924514
0.07610722
0.01378480
-0.08559567
-0.06354300
0.07807466
-0.06209075
-0.08013940
-0.01274862
-0.00446590
0.01837416
0.00275532
0.03437249
-0.05105492
0.07809494
0.05161098
-0.04159255
0.07263147
-0.03838877
0.04959610
0.02793656
-0.05404226
-0.00377828
0.04569136
-0.03927217
-0.05571554
-0.03792440
0.03915315
0.00731014
0.02931269
0.09712481
0.01411447
-0.00217453
0.05425419
-0.07431418
0.09729665
0.00021116
0.01088043
0.00009687
-0.08485445
-0.06298489
-0.02089741
0.00241873
-0.03731027
0.05146765
-0.00266608
0.06545123
0.02240182
-0.06762168
-0.03431377
-0.03996284
0.05361912
-0.00117381
0.05205047
0.02570079
0.00509469
-0.03496267
0.09375830
0.07445839
-0.04439992
-0.02819460
0.05874653
-0.05087554
0.03800657
-0.08803488
0.06417554
-0.03494858
-0.04701559
0.03073455
0.03380471
-0.06489825
-0.05648063
-0.05207986
0.04022032
-0.04175638
-0.00961429
-0.06183756
0.06879443
-0.07155409
-0.04611386
0.06628268
0.05429501
-0.06800487
0.01262416
0.00884597
0.05614966
0.04542227
0.08195903
-0.08896904
-0.09791408
-0.05103765
-0.00254374
-0.04926119
0.09439554
0.04777547
-0.05489361
-0.04322333
0.00537435
-0.05283267
-0.06134733
-0.04103421
0.06091063
-0.08187327
-0.01781492
-0.00891495
-0.03802961
0.03027081
-0.06424368
0.01273621
0.08058496
0.00229392
-0.04863537
-0.04395383
0.06220128
0.01187626
0.04180882
0.03542632
-0.04889021
-0.00309414
-0.04419095
0.06179983
0.06950881
-0.06253407
-0.03486598
0.00043783
0.02633736
-0.02368248
0.02375549
0.09587402
-0.00083914
0.08944682
-0.01130173
-0.03140733
-0.06895730
0.03043923
-0.01186553
-0.01405066
-0.04871746
-0.03473388
-0.06343959
0.05552747
0.08242038
-0.09660730
0.07638992
-0.07310195
-0.06480702
-0.07397478
-0.07930331
0.09209474
0.04091558
-0.08212284
0.07953370
0.02991875
-0.05393391
0.01257813
-0.04704241
0.04486103
0.09329390
0.04736965
-0.02829184
0.08495624
0.04873462
0.06264496
-0.03401327
-0.05720493
0.05310117
-0.10141404
-0.06041429
0.06508393
-0.09720130
-0.02925215
0.05581514
-0.05269037
-0.09853245
0.03715284
0.05444463
-0.05838876
-0.09739141
0.06063343
-0.03266531
-0.08906351
0.02304929
0.01185558
-0.05578565
0.03578819
-0.05220879
-0.00605870
-0.01691108
-0.08232477
-0.09248133
-0.07935226
-0.09288549
0.06352187
0.01122535
-0.03208252
0.03854952
0.05949132
0.00647947
0.09174819
0.03182204
-0.05598528
-0.03040467
0.08676199
0.07100037
0.05836571
-0.06712640
-0.07125255
0.00584941
-0.05678068
0.06690115
0.04996337
0.01470229
-0.09078886
-0.04478526
0.00328750
0.03465276
0.07670116
-0.05335041
-0.06813316
-0.02518751
0.10038394
0.01078926
-0.03961511
-0.07812947
-0.07439242
-0.02486698
-0.08416444
0.05899311
-0.06555903
0.09139156
0.07657009
0.03312394
0.08042153
-0.07864645
-0.05282169
0.02689876
0.00024624
0.08169404
-0.01033148
0.01220339
-0.00510060
-0.07332778
0.09952418
-0.04642144
-0.05654137
0.00944556
-0.07012840
0.03928046
-0.07561426
0.06430701
0.08731186
-0.06126445
-0.02307969
-0.07646267
0.08336092
-0.05467430
-0.01645292
-0.07896093
0.07858783
0.01646435
-0.09055186
-0.00394643
0.08320833
-0.05007821
-0.04186873
0.02984977
0.06150967
-0.08142072
-0.08626095
0.06094696
0.02144380
0.02015592
0.01028732
0.09725286
-0.09367704
0.03324201
-0.00475964
-0.04245611
-0.01366385
0.05481969
-0.06983011
0.08472009
-0.01889636
0.01895880
0.01542504
-0.07923727
-0.05961387
-0.08990929
-0.08374455
0.07142987
0.04888889
-0.00428656
-0.00671583
-0.04312818
0.06355843
-0.01452013
0.02554946
0.00514478
-0.04710901
0.03179970
-0.00056823
-0.08063049
-0.06758120
-0.04183578
0.05855180
0.02518181
-0.02610760
-0.01239869
-0.08750293
-0.08693528
0.09536398
-0.00322281
0.04676041
0.03676865
-0.06264468
0.03781004
-0.05585737
0.01538657
0.08849061
-0.07169495
-0.03479134
0.08631832
0.03109813
-0.03188408
0.05633882
-0.04542820
0.08937671
-0.06208666
0.09748242
-0.00057522
-0.03840596
-0.06282077
-0.07834022
0.04151817
-0.06040754
-0.06262695
-0.03558755
0.00663786
0.03019205
0.04821017
0.01001931
-0.06879853
0.08543591
-0.04249158
-0.02637170
0.01837454
-0.06561851
-0.05191968
-0.00450002
-0.00014198
0.04258209
-0.04999886
-0.01810702
-0.08925787
0.08959890
0.03993919
0.07890522
-0.06002114
-0.02103680
0.02691999
-0.00628415
0.04523720
0.08325716
-0.05353291
0.06009361
0.00316110
0.03121371
-0.08092350
-0.02162342
0.00777811
0.04821514
-0.03266217
-0.09511524
0.04436655
-0.04962112
0.06970625
0.02688268
-0.01374441
-0.02532924
-0.00318501
0.07045589
0.00846059
0.03776446
-0.07941100
-0.01044527
-0.06348034
-0.09164446
0.01224055
-0.08892831
0.02041304
0.07958843
0.07609101
-0.09125469
0.02391606
-0.06271378
0.06355691
0.06124361
-0.07430130
-0.08607399
0.05210771
-0.08367524
0.05430311
0.03549760
0.00860469
0.09375871
0.03974095
-0.01160339
0.04631242
0.07786245
-0.05953188
0.08369032
-0.06359201
-0.04360849
-0.06270283
0.03923509
-0.02268086
-0.02273030
-0.00372947
-0.00415063
-0.01488252
0.07695378
0.04239462
0.05446259
0.10004503
-0.00107500
0.05406054
-0.04461191
-0.02067929
0.03381456
0.06130563
-0.00350347
0.06534863
-0.05561454
-0.00250012
0.00016109
-0.09198039
-0.06867036
0.03742419
0.04099486
0.01505412
-0.01232098
-0.06196849
-0.07562247
0.02805712
-0.08494071
0.03456367
-0.05591376
0.08546018
-0.06227382
-0.00016824
0.09973105
-0.02576106
-0.00875615
0.02906849
-0.08225693
-0.06043125
0.03009886
-0.06055332
0.02941524
-0.07707605
-0.00027316
0.05326291
0.06055073
-0.06154162
0.05660445
-0.01663387
0.02004938
-0.05289401
0.07849428
-0.06127439
0.08626925
-0.07944625
0.00936261
-0.09040891
-0.00236301
0.04220012
0.09600539
-0.09330703
-0.01969639
0.00175414
0.02955651
-0.09637507
0.00304738
0.10363028
-0.04801619
-0.04472885
0.01069277
0.03644428
-0.06097459
-0.07147296
0.07090199
0.01630273
0.04870728
0.09213512
0.00451785
0.03708110
0.01146997
0.00488569
-0.00503893
-0.09079594
0.07993896
0.00378307
0.02614093
0.10276111
-0.03374208
0.02374258
0.02109649
0.04839835
-0.06770016
-0.07631027
-0.08375679
-0.09680650
0.00529180
-0.07550901
-0.09834906
-0.01339793
-0.07848171
-0.06582873
-0.01245217
0.02212530
0.02663593
-0.09114271
0.00549110
0.07030020
-0.06564144
0.09905474
0.03735242
-0.08375723
-0.07454064
0.07838761
0.02210772
0.04196916
-0.07251797
0.01559125
0.08423348
0.09902275
0.05538425
-0.09313713
-0.04330651
0.03057795
-0.07010261
-0.00521416
0.03362144
-0.04690470
-0.01453677
-0.07205195
0.04571287
-0.03510624
-0.03552204
0.06042815
0.05936000
-0.04124731
0.00240026
0.05484937
0.02067474
0.03368173
-0.07675865
-0.01274863
-0.07061172
-0.03359277
-0.06882985
-0.07628247
0.08108927
-0.04472058
-0.06508864
-0.04891383
0.03614581
0.07393994
0.07093691
0.05588775
-0.00801801
0.07462611
0.08378495
0.00503499
-0.03598189
-0.06052848
0.08016795
0.04262408
-0.09987784
0.07083050
0.01561031
-0.02780933
-0.04469217
-0.09813008
-0.05738718
-0.02254115
-0.08449372
-0.05809824
-0.05643803
0.01077593
-0.02919438
-0.02713133
-0.07572290
0.09519796
-0.04486979
-0.06147186
0.07670820
-0.07253342
-0.01894902
-0.00966894
-0.01206770
0.00728714
-0.06024694
-0.03351883
0.05695635
-0.02343415
0.05295978
0.04504939
-0.02517178
0.04751110
-0.02789403
0.05347442
0.09459506
0.06356994
-0.06498292
-0.08752999
-0.09682593
-0.05436571
-0.07797483
-0.06473590
0.00340583
-0.02977390
-0.02845550
-0.08432268
-0.02124702
-0.01611381
0.04224383
-0.03244717
0.00211809
0.00864905
-0.06670725
0.00195940
-0.05572144
-0.03787421
0.05941269
0.01378667
0.01553232
-0.09607997
-0.00756634
0.06484798
-0.05497379
-0.01297538
-0.00847085
-0.04032607
0.09844159
0.08799816
-0.00457058
0.06385802
-0.07072861
0.09230127
-0.08878336
0.07297085
0.00474977
0.04065174
0.09222802
0.00057484
-0.03782915
0.07739043
0.01446737
-0.03112764
0.06230783
0.03621450
0.06575474
0.09501588
0.07852368
-0.01922472
0.02916543
0.01809942
-0.01607105
-0.07354350
-0.00665304
-0.00370009
0.03694446
-0.04995395
-0.07768420
-0.05463052
0.00710232
-0.04733310
0.05764447
0.02850540
0.03925107
-0.00233956
-0.02359875
-0.09266542
-0.08231355
-0.06117643
0.00938237
0.02421436
-0.08500528
0.08904764
-0.06062734
-0.05876571
0.07530138
-0.00637225
0.06116521
0.04318515
-0.09621119
-0.02825868
-0.04015230
0.08839166
0.09546585
-0.04104558
0.01885615
0.05301857
0.09246069
0.09787467
-0.03815853
0.07274047
0.08179837
-0.07969338
-0.02347920
0.08763259
0.03435338
-0.09933550
0.04459590
-0.09614326
0.00047834
-0.05530949
-0.06209681
-0.00437176
0.05675682
0.00496690
-0.06421245
0.00628530
-0.06213109
0.01936240
-0.05886264
0.02624738
-0.09379862
-0.09962765
-0.00508741
0.04210174
-0.07123790
0.04161344
-0.06868655
0.03713943
-0.08412892
0.02864576
-0.06415492
-0.08396754
0.07079182
0.01853193
-0.05458432
-0.06403285
-0.09393488
-0.09561950
0.08194939
0.03671486
-0.00493070
0.09687294
0.02639350
-0.06353845
-0.00127408
0.05697355
-0.05764787
-0.01815502
0.04076402
0.01578767
0.06028366
0.04337640
-0.03153433
-0.00198954
-0.08624504
0.00473064
-0.02951378
-0.00712541
-0.05337315
-0.03019740
-0.09453652
0.00745634
-0.09899833
-0.05759692
-0.00974389
0.01814696
0.07682185
0.06236829
0.01709338
-0.04047673
0.07728199
-0.02110959
-0.08276308
-0.01717880
-0.05283457
0.06121921
-0.07577228
-0.06379489
-0.06795151
-0.00201933
0.04415275
0.03730440
-0.09828934
0.09363238
-0.05209960
-0.05410772
-0.07496031
0.01031451
-0.01359979
-0.01230325
0.01222142
0.08104066
0.04321656
-0.03841434
-0.04607449
-0.05805109
-0.04567889
0.05468428
0.02259820
-0.02993026
-0.09312188
0.06773190
0.04529469
-0.08677111
0.06759151
-0.05017942
-0.09225834
-0.00246444
-0.00359973
-0.00795167
-0.08889896
0.08781542
-0.09948278
-0.09943395
0.08579509
-0.02568292
0.07534251
0.07553172
0.05792864
-0.01383869
0.00762193
-0.05626552
-0.00680112
-0.00641659
0.07960899
0.05977690
0.00770011
-0.00321331
-0.05430096
0.02031069
-0.03471418
-0.03202855
-0.08508193
-0.09454267
0.05054843
-0.06735068
0.03181007
-0.09475019
0.05018221
-0.01448041
-0.02893782
0.03118974
-0.08197289
-0.00660121
0.03061306
-0.03325608
-0.04721258
-0.09850198
-0.02498900
-0.01495881
-0.01096088
-0.01967697
-0.03894319
-0.05528280
0.09575941
-0.05582018
-0.04706747
-0.06697775
0.01752193
-0.09792959
0.02883820
-0.04398763
0.01292939
-0.03452078
-0.05758166
-0.01344580
-0.03003566
0.02362992
0.06415850
-0.09995784
0.03540891
0.05328666
-0.03310514
-0.09315700
0.01288261
-0.04024401
-0.05636910
-0.03952899
-0.02013142
0.08928520
0.04464883
-0.07614954
0.01748705
-0.05804626
0.05686203
0.03610336
0.06280706
-0.01045568
-0.00292017
0.08461912
-0.03359738
-0.04227913
-0.04258431
0.06604327
0.01084979
0.08430174
0.08455199
0.09385438
-0.07553556
-0.09624542
-0.07596187
-0.03471916
0.07966421
0.06288094
-0.09031587
-0.05440779
-0.09591907
-0.05567736
0.03340006
-0.03400922
-0.01882321
-0.04048525
0.06442518
-0.00494950
0.07173741
-0.07711577
-0.02859744
0.00243988
-0.04863589
-0.03686796
0.09819476
0.04552734
0.06925853
-0.02708840
-0.03695198
-0.08769816
-0.06328335
0.05346215
0.01367212
0.06060959
0.06102193
-0.03018569
0.02889814
0.06507478
-0.09318200
0.05914809
0.08423431
-0.08145068
-0.08041916
0.00519373
-0.03033592
0.01849369
0.09657292
-0.05290064
0.00262474
-0.03413104
-0.08018347
0.08724718
0.07409077
-0.00169280
-0.03652052
-0.07541357
-0.05748699
0.01589781
-0.03428682
0.05200121
-0.05088889
0.00110599
0.08850489
-0.00271493
-0.02418745
-0.02844173
-0.04940795
-0.06869064
0.07810950
-0.07950029
-0.02701456
0.09245930
-0.04445894
0.04683845
0.01232812
-0.09667789
-0.10021822
-0.09423659
-0.01153753
0.07821308
-0.00615839
0.05017268
-0.04873837
0.09993560
0.01583269
-0.06728077
0.03061040
-0.05580581
0.00256608
0.06644743
-0.05419224
0.02730019
-0.07804970
0.01436645
-0.08560355
0.06535931
0.01663346
-0.01583566
0.01558009
0.02393606
0.07622783
0.03278778
0.08933858
0.04439702
-0.00514062
0.02733107
-0.01396657
-0.08158949
0.06522286
-0.01560046
0.07125522
0.00022034
-0.03115879
-0.07594165
-0.00771447
-0.06457876
-0.07936803
0.06610760
0.01065547
0.08127530
-0.08487968
-0.09775590
-0.09104183
0.01662137
-0.05070634
-0.02491209
-0.02203114
-0.00240164
-0.05323327
0.09648443
0.09150992
-0.03360376
0.08439300
0.03475159
-0.02633425
-0.02214101
0.02972825
-0.00096117
0.06155905
0.02761107
-0.02058986
-0.04086636
0.07515483
-0.03689082
0.03599959
-0.07602559
-0.09460526
0.07732381
0.00053506
0.01744231
0.09505088
0.01103737
-0.09276829
0.09006810
-0.00882202
0.04657518
-0.02091345
0.05837364
-0.02882385
-0.06266277
-0.04502941
-0.04054929
0.04240612
-0.01550799
0.04651783
-0.08302103
0.07742668
-0.03557115
0.07137181
-0.04764221
0.08612042
-0.09429280
0.03106752
0.08324807
0.06275794
0.01638305
0.07821355
0.02729647
-0.03169745
-0.09628072
-0.04982544
-0.03450259
0.01002391
0.02004009
-0.00704816
0.06634275
-0.02650066
0.06564693
0.06153304
0.01734224
-0.06237695
0.05454557
0.03370753
-0.09727125
-0.01399845
0.03118115
0.00821763
0.04678692
0.00015464
0.09886036
-0.07080425
-0.04699370
-0.04272111
-0.04331317
-0.09626889
-0.01900213
0.03143276
0.02124568
-0.03518724
0.08348704
-0.09367291
-0.08682676
-0.06289414
0.03937949
0.00714584
-0.01023750
-0.04483939
-0.09188685
0.05204454
-0.08805373
-0.09213710
-0.05882920
0.03425225
-0.09220541
-0.06414058
0.09197990
0.05146288
-0.05312405
0.07766607
-0.07099569
0.05938548
0.06849221
-0.01916225
-0.09058777
-0.00970151
0.07437814
-0.04027990
0.03013241
-0.08592487
0.04949186
-0.04815516
-0.00316570
0.07407664
-0.09359815
0.02103312
-0.06939932
0.07539269
0.01514542
-0.03329967
-0.04886411
0.05491688
-0.06941553
-0.08779988
0.07684778
-0.05231266
0.05927522
-0.00418142
-0.05159497
-0.00312548
0.07585302
0.04193475
0.02239070
0.09706839
-0.03930662
-0.02361400
-0.02205679
-0.07662998
0.05231072
0.02889868
-0.04906390
-0.03904162
-0.03475430
0.06098226
-0.08683719
0.04229399
-0.02047038
-0.07151564
0.07566903
-0.07627653
-0.00457634
-0.02094257
-0.00390714
0.05832620
-0.01048620
-0.03346053
0.04447764
-0.08511823
0.09810880
-0.05373299
-0.03344070
0.03107543
0.08586836
-0.01360921
-0.04100873
-0.09223100
0.09007437
0.07201962
-0.00456963
-0.04972206
0.01290803
0.03881824
0.03641338
-0.03247910
0.05282013
-0.08895046
0.05178259
0.03312968
-0.04820253
0.08385716
0.08314303
0.00817126
0.03659010
-0.07568750
0.09235080
-0.05021336
0.04396676
0.02639679
0.00231158
0.08501674
-0.00002069
0.08613307
0.08449727
-0.02020563
-0.05979424
0.06756561
-0.08297610
0.00210951
-0.03766222
-0.01191599
0.03867759
0.07936487
-0.02985978
-0.00362607
-0.06613408
0.05894039
0.00124820
0.09694204
0.08267850
0.08991138
-0.05892739
-0.01329330
-0.08823455
-0.09006566
0.05501323
-0.07796202
-0.04880463
0.06136028
-0.03274660
-0.06469948
0.06976512
-0.05603218
-0.04905565
0.09468360
0.09195524
0.09587382
-0.09623727
-0.08236355
0.02534848
0.01675665
0.08428191
0.01911879
0.03519620
-0.05474185
0.03558073
-0.02810940
0.02906397
0.07849175
0.09261890
-0.01331084
-0.07793074
0.08006834
-0.03825803
0.00253911
0.06123842
-0.07383651
-0.04453874
0.05409518
-0.07512630
-0.05846319
-0.07471361
0.01198947
-0.07513477
-0.08908173
-0.05227030
0.04526075
0.05010789
0.07856335
-0.04420041
0.05880129
-0.02217652
-0.06044673
-0.01113493
0.06464864
-0.01560894
0.02921940
0.04753051
-0.05791704
0.08909834
0.01817942
0.03300532
-0.05606601
-0.03995834
-0.08039536
-0.04680478
0.00517434
0.01453742
-0.08768127
0.07601391
0.00983147
0.04631668
-0.00934908
0.00990810
0.07106720
0.00377999
-0.06177988
-0.00593776
-0.01823672
0.06544504
0.04870517
-0.01636640
0.09619807
0.02628017
0.07326646
-0.00101559
-0.01279493
-0.06396836
0.03753620
-0.05907930
-0.04847107
0.02410195
-0.00730309
-0.07424239
-0.09459213
0.03313475
-0.05467311
-0.04867927
-0.06600703
-0.00476248
0.03942221
-0.05470297
0.04591045
-0.01112254
0.02818055
0.00805054
-0.00151396
0.09744566
-0.09196441
0.09728697
-0.06565746
-0.09487588
-0.04226197
-0.02924494
-0.09398080
-0.03139954
0.05172758
0.04356693
0.02846027
-0.01421682
0.09801805
-0.05194380
-0.08016065
0.09400238
0.04193170
0.07470247
-0.01666384
0.02671517
-0.08179920
0.08948899
0.00382353
-0.02274382
0.00384391
0.09231706
-0.00667514
0.07895980
0.09646522
0.00417533
-0.04727277
-0.05752699
0.02318226
0.06276477
-0.09572395
-0.01717541
-0.01375734
0.01381308
0.05256492
-0.03426024
0.05190572
0.06972243
0.02708197
-0.09664007
-0.01278466
0.02497895
0.06407926
-0.06867625
-0.04913220
0.00368923
0.08497834
0.09951125
0.04783121
0.02552408
-0.07341082
-0.09304643
0.04942618
0.06851856
0.08023156
-0.08675622
0.08991543
0.00885216
-0.00660851
0.05119354
0.03719165
-0.07999332
0.09196627
-0.01374374
-0.04087535
-0.08187391
-0.01558161
-0.06201857
-0.02700163
0.02174863
-0.00798169
-0.09621070
0.10168962
0.02273214
0.07232471
-0.08542546
0.02800072
0.03508712
0.09107638
0.05707347
-0.03494594
-0.08561887
0.08751328
0.07847370
-0.05725432
0.02247143
-0.09221713
-0.06536084
-0.08035764
-0.07398537
0.04843047
0.07949251
0.02217265
0.09249340
0.06677850
0.04709406
-0.08002774
-0.01105090
0.02410643
-0.04548188
0.04500740
0.04976219
-0.08888340
0.05595134
0.06745682
0.09684004
-0.08840177
-0.02378188
-0.09306500
0.09137168
0.05753276
-0.04655977
-0.07540587
0.00817212
-0.05484250
-0.06545959
-0.02597474
-0.09608797
0.05281154
0.04034168
-0.07281485
-0.03608277
-0.07487790
0.03776591
-0.01998312
0.00847234
-0.02213162
-0.04820663
-0.05548835
0.04032146
-0.02157674
0.04384273
0.03487640
-0.08417021
-0.03697638
0.09454008
-0.04895519
-0.08168935
0.03898694
0.01376034
-0.03354945
-0.08485106
0.03505196
-0.08420216
0.02922293
0.08318576
0.05490120
0.09003411
-0.01943578
0.08086635
0.08525491
-0.00675229
0.09477058
0.04677717
-0.07768002
-0.09740108
0.05267674
-0.08833773
-0.03515008
-0.04771760
-0.05304548
-0.00538167
-0.06194468
-0.00670007
0.03642869
-0.01609977
0.10106624
0.00395634
0.04340457
0.05758347
-0.01309740
0.07504005
-0.09272278
0.04606930
0.04754029
-0.08186320
0.00352149
0.01224368
0.04537252
-0.09257115
-0.07766591
-0.07845939
-0.04931421
0.00748074
0.03085791
0.00005253
0.01267499
-0.00035031
-0.09216220
0.04494526
-0.05942273
-0.05129260
0.06674078
0.07672224
0.07013024
-0.05829775
0.07459205
0.02401067
0.05876515
0.02376042
0.06621777
-0.00915685
-0.03209456
-0.03694700
-0.03896122
0.02960888
0.09801917
-0.01427063
-0.00149614
-0.03039107
0.02072133
0.10018543
0.08523136
-0.00554900
-0.03032698
-0.05284354
-0.03110215
-0.05081711
0.04747690
0.00813855
-0.05931957
0.05602209
0.00143668
0.10004618
0.07472802
0.02171737
0.02751533
-0.01139577
-0.09111622
0.01589664
-0.04332758
0.05558291
-0.02215384
-0.09405545
0.08137105
0.04260033
0.09633122
0.02319056
-0.02269516
0.01176634
0.00747544
0.04683211
-0.02186506
-0.05034493
0.09808489
0.08604839
0.05591442
-0.05547204
-0.01451010
-0.06224715
-0.03065710
-0.02640282
0.08794393
0.00763142
0.02827414
0.02359260
-0.02330214
0.06765523
-0.05847167
-0.01299299
0.02727314
-0.05766598
0.09122433
0.05188597
-0.03739898
0.09170042
-0.09738006
0.02944266
0.00797529
-0.01443750
0.05341125
-0.06219832
0.04804064
0.03475288
-0.01137279
0.08603008
-0.08647274
-0.01755475
0.09756717
-0.01867783
-0.01917332
-0.09205152
-0.00736266
0.08833728
0.00813464
-0.04036538
0.07779008
-0.01078073
0.00561381
-0.04062173
0.02430334
-0.05430013
0.04843768
-0.00756378
-0.05699766
0.02432806
0.03897695
-0.05394581
0.09116360
-0.00149670
-0.07656003
0.08302736
0.07517190
-0.03633053
-0.02951768
0.03190387
0.00598756
0.09751170
0.01724192
0.07436647
-0.03747166
0.09398377
0.08825849
-0.08987805
0.01857863
-0.09351585
0.09660836
-0.01623688
-0.00739872
-0.07362445
0.02900930
-0.04982001
-0.02795045
0.03261048
-0.07455221
-0.03571436
-0.02707762
0.03986168
0.05574962
-0.02767578
-0.01321001
-0.01998512
0.00285494
0.08958854
-0.02472769
-0.05432454
0.05665907
0.03361057
0.14458037
-0.23156241
0.08817423
-0.07631308
-0.15804555
-0.10562439
0.07921503
