-0.00942886
0.02666955
-0.07547717
0.06608803
0.00276071
-0.07277505
0.02424383
0.04245822
-0.01918424
-0.01422604
-0.09383686
0.05887896
-0.03816166
0.05548342
-0.09315892
0.01708238
-0.05118504
0.02418868
-0.01953901
0.07616567
0.08224133
0.05523951
0.04842528
0.10143907
0.05598916
-0.03853666
0.03992630
-0.04585176
-0.00234232
-0.01780489
-0.01325036
0.05627078
0.05464268
0.07162718
-0.04464318
-0.02746758
-0.10332060
-0.04155431
-0.01774347
0.01738483
0.04135126
-0.11876569
0.02221931
-0.00678826
0.06771071
-0.00553149
-0.03595176
0.04432344
-0.02896716
0.06142071
0.04075193
-0.01218332
0.03323891
0.01517788
0.00524924
-0.00343057
-0.09722370
0.00823081
0.05784462
0.06086233
0.03368208
0.04196629
0.07670918
0.02401321
0.02496293
-0.03204609
0.02962565
-0.00821891
-0.06359605
-0.06666452
0.03082781
0.01251711
0.04487006
0.07342850
0.01220481
0.05194446
-0.07684183
0.03355073
0.05671593
-0.06896779
-0.00892916
0.03138836
-0.07294690
0.08188638
0.08171880
0.04994399
0.00110046
-0.02453365
0.07043256
0.09084798
-0.05996461
-0.08200193
-0.03008662
0.09054760
0.08554705
0.07715265
0.07842977
0.08271878
0.07149039
-0.05774201
0.06743857
-0.00919188
-0.02588831
0.04037797
0.00213111
-0.04152879
-0.04800595
0.00544461
0.08888000
0.04678602
-0.08321292
0.00710889
-0.01147435
0.07654346
-0.08149735
-0.02288044
0.02591340
0.08210634
-0.05637549
-0.04940286
-0.03937667
-0.08027188
-0.04461369
0.01270714
-0.04362326
-0.07157386
-0.04666226
-0.07995895
0.03230404
0.09433733
0.05978437
-0.04382008
-0.02072579
0.03832526
-0.02801506
0.03389108
-0.09509565
-0.05706470
-0.09588978
-0.00961047
0.00937992
-0.03030854
-0.02180193
-0.06798979
-0.06921094
0.08463584
-0.01402635
0.02781769
0.06294729
0.06973222
0.04126965
-0.05908015
-0.00803723
0.03634809
0.01895273
-0.04520578
0.07236374
-0.06015337
-0.08585221
-0.00832807
0.00416073
-0.07894385
0.03403340
-0.08442956
-0.06760304
-0.01126261
0.09060236
0.06151184
0.09886946
-0.01473882
-0.06816127
0.02981312
0.07127553
0.01075203
0.04542534
0.00108405
-0.03673002
0.09083051
0.01305673
0.02335223
-0.02074589
-0.00656971
-0.02816986
0.09387630
-0.01643684
0.06693414
-0.02346559
-0.06841808
0.04945640
-0.06671133
-0.08131908
0.05541289
0.08989973
-0.00078572
0.02461258
0.01243996
0.01417880
0.08792060
0.07138124
0.06986176
-0.08120876
0.00537454
-0.01377397
-0.05171227
-0.04497141
-0.02701141
0.07167937
0.09072009
0.01862158
-0.01421624
-0.02486216
0.09579493
0.01569891
0.00930750
0.05470926
-0.04731131
-0.01322689
0.01461739
0.04982430
0.00690689
0.09453076
-0.03791335
0.00164750
-0.02081961
0.02985432
0.05942022
-0.02452718
0.05139342
-0.11379313
0.00315207
-0.08913246
-0.08547914
0.00207067
0.02369024
0.05318928
-0.00179287
-0.08272859
-0.05363176
0.08333701
-0.07910437
-0.04834163
0.07637998
0.04848732
0.02849379
0.05219064
0.07598358
-0.06705764
0.00059863
-0.01702466
-0.09599966
0.04601070
0.03262482
0.06717507
0.04454126
0.06604796
-0.00151616
-0.09635551
0.00121941
0.01567881
0.04850974
-0.04766502
-0.06049735
-0.05620620
-0.08709410
-0.01967279
0.03745302
0.03658587
0.03495517
-0.05150424
-0.06349203
-0.06479187
0.03002903
-0.02860744
-0.05437439
0.02115701
-0.09079416
-0.09134040
0.06678090
-0.03132630
-0.08945486
-0.08955600
0.08002227
-0.04898746
-0.07547012
0.01548782
0.01241377
0.06894942
-0.03096597
-0.01636892
-0.05389991
0.04188418
0.06958529
-0.01061865
0.04102611
0.03861299
-0.07256325
0.03454311
0.00350056
0.05619906
-0.03706626
0.04338387
0.07680494
0.02539793
-0.05824842
-0.07439619
-0.09190733
0.06824342
0.00246267
0.00003503
0.03352773
0.07900278
-0.09300063
-0.00193218
0.09377857
0.05831866
-0.03919698
0.08654474
-0.00822784
-0.01812345
0.01694086
-0.08101633
0.02603750
0.09022694
0.00015131
-0.03818869
-0.03246061
0.01675489
-0.02709302
-0.09830667
-0.12055105
-0.00905226
-0.03128464
-0.09493367
-0.08230815
-0.05096256
-0.04434309
0.06279101
0.02993880
-0.01777132
-0.04832641
0.08526960
0.02176914
0.04982246
0.07877742
-0.06467192
0.02124968
-0.07834652
0.07682741
-0.09673543
-0.01029681
-0.01614076
-0.05132407
0.02687972
-0.04914727
-0.01590044
-0.05247512
0.09892056
0.01400890
0.06665428
0.02824235
0.01734452
-0.05102988
-0.01993050
0.05078747
0.09604230
-0.02260246
-0.07593491
0.09490485
-0.07506214
-0.07878468
0.05707269
-0.00210083
0.05860947
0.00646946
0.08306682
0.07972775
0.02080303
-0.09239589
-0.05176421
0.10044557
0.00561356
0.07046778
0.09865567
0.09659577
0.09848279
0.00139408
0.07291894
0.07544396
0.02035455
0.08978227
0.08321176
0.02261968
0.06585078
-0.07719849
0.10118276
-0.08018587
-0.09089953
0.08409964
-0.04093421
-0.02456100
-0.00573930
0.08323560
-0.08612330
0.09686552
0.06107911
0.08212620
0.07396711
0.06380994
-0.02002825
0.05131348
-0.08588575
-0.08788957
0.06905030
0.00892776
0.03146246
-0.08180114
0.04946856
-0.01940727
0.05747172
-0.08419113
-0.09790437
-0.07085254
-0.08833150
-0.03417722
-0.12781332
-0.09888318
-0.05213145
-0.06365116
-0.06075958
-0.04915123
-0.06803146
-0.01135821
0.05365778
-0.05475337
-0.02352582
0.02872956
-0.06677049
-0.07218698
-0.08307396
0.01142702
-0.00582575
0.09921217
-0.01886820
-0.04026195
-0.01118301
-0.04847182
0.06615224
0.00713222
-0.04560849
0.03565877
-0.05348443
0.05724421
0.01706567
0.10017441
0.05517152
-0.09750928
-0.00689757
-0.02833813
-0.00374852
-0.00250845
-0.09657556
0.00388210
0.00528758
0.00721583
0.09779092
0.04356761
0.05367253
0.01633417
-0.07199855
-0.09105581
-0.08302970
-0.07272251
0.03987549
0.01985563
0.02324854
0.06994217
-0.06912885
-0.08999224
0.02360278
0.08620304
-0.03314128
-0.05262837
-0.06856127
-0.04227501
-0.03453347
-0.05308236
-0.04200652
0.03942283
-0.00699703
-0.02053916
0.09929702
-0.05874132
-0.05853102
0.05587162
0.00838985
-0.00162235
-0.08226991
-0.04547873
-0.05774881
-0.03573922
0.01835247
0.01715407
0.03637091
-0.05518095
0.00146029
-0.02301010
0.03200576
0.01558479
0.07463528
0.04071805
0.03889301
-0.02322945
0.09401936
-0.04572535
-0.00056951
-0.04097137
0.05877753
0.04125352
0.03949700
-0.04923784
-0.02139394
0.00800232
-0.01124341
0.07342020
0.03594789
0.03710669
-0.03163626
0.06394173
-0.10748494
-0.06884103
0.07304189
0.07434380
0.09888801
-0.09504713
0.06816852
0.09124477
-0.02823787
0.08902737
-0.00930422
0.09986773
-0.03649870
-0.04577320
-0.05806401
-0.08641081
-0.07509899
-0.07751256
0.01256479
0.01995240
-0.03179025
-0.00833369
0.06114216
-0.08157410
0.04172849
-0.01677228
-0.03955876
0.10128525
-0.08833732
-0.01844069
-0.02529172
0.01410161
-0.07591451
-0.07445432
0.07100161
-0.02631775
0.04769000
-0.07587435
0.04855471
-0.02281701
-0.04107322
0.09412273
0.04107321
0.03128420
0.08955216
0.01012403
-0.07623332
0.09513238
0.08435216
-0.00362641
-0.07364312
0.07061396
0.07359018
-0.09326820
-0.03386381
-0.08050346
-0.00294599
0.00108993
-0.05028728
-0.00664560
0.00426343
-0.08724120
-0.02131685
-0.05322011
0.10128809
0.08407539
0.09641387
-0.03239741
0.00428380
-0.07513586
0.00496903
-0.04566766
0.01602585
-0.01630116
0.05089824
-0.00026240
-0.02125474
-0.05521463
-0.08634880
-0.04222276
0.02168133
-0.05199936
-0.04797052
0.04675500
-0.08872009
0.06898442
-0.03585158
0.02499607
-0.06248920
0.02070688
-0.02096556
-0.06205078
0.06811893
-0.06374244
0.05924472
-0.04458739
0.07069198
0.03742899
0.01496927
0.04820843
0.03026731
-0.09602987
0.00810737
0.07147960
0.02945177
-0.06835958
-0.01673886
0.07210485
0.05148451
0.03153984
-0.04617020
-0.00611844
0.07161666
0.09315232
-0.01031426
0.09027947
-0.09169557
0.07532233
0.03499335
-0.07693785
0.00219174
0.07309733
0.00979546
0.10044422
0.04000459
-0.04615608
0.02167201
-0.05636247
-0.04634002
-0.02744312
0.09735413
-0.02312460
-0.05459326
-0.07634896
0.08267648
-0.00959320
0.07560582
-0.09034995
-0.01054928
0.01055140
-0.03099703
0.04286513
-0.06070531
0.04021599
0.01176469
0.04800210
0.04248677
-0.07149434
0.00968805
0.02586062
0.09309785
-0.03104435
0.07170232
0.02763183
0.08669365
-0.02552896
-0.08397054
-0.03052666
-0.05730742
0.08654079
-0.06289821
-0.04172510
0.08541839
-0.05715663
-0.04117369
-0.04165479
-0.06081674
0.00243021
-0.00235441
-0.07954982
0.09590300
-0.04058876
-0.04692237
-0.00641103
0.05323053
-0.06606187
-0.02166901
0.05522387
0.03701198
-0.08801336
0.09942679
0.04876848
-0.01043411
-0.09240049
-0.05980555
-0.07723916
0.03814894
0.02874607
-0.05557551
0.01126573
0.05470400
-0.09798972
-0.01329706
0.08494826
0.08228711
0.00386092
-0.02061667
0.08000135
-0.03610141
0.06726457
-0.03073135
0.02420469
-0.04463189
0.08393679
0.02687138
-0.04401036
0.04185635
0.04990931
-0.01870044
0.02617936
0.06555857
-0.08426256
0.02677339
0.09961240
0.06140916
0.01852564
0.08708774
0.02951537
0.00234399
-0.01113578
-0.05682076
0.05248094
0.05845194
0.00173105
0.07714452
0.05185793
0.05103283
0.00073730
-0.05751501
-0.02611567
0.04278501
-0.08505506
0.07945734
0.04290676
0.02782516
0.06633576
0.07835337
0.03570626
-0.00772796
-0.09521173
0.04861687
0.00299169
-0.04904330
0.03519630
-0.01984000
-0.04841319
-0.00013056
-0.05073706
0.09155560
0.00009890
0.09846056
0.01662741
0.01506459
0.00825204
-0.01605445
-0.04910015
0.08488004
-0.03795689
-0.08084843
-0.07002768
0.00472644
0.02767490
-0.09403767
0.03038390
-0.00213220
0.09394582
-0.07022681
-0.08020730
0.07642050
-0.09466063
-0.05039045
-0.03094526
0.04885086
-0.07662356
0.06661369
-0.06656991
-0.05415471
-0.04882676
-0.07956817
0.02243036
0.08101382
0.03600203
-0.09906776
-0.04601361
-0.11042970
0.03940309
0.02713715
0.02340642
0.03992697
-0.05636419
-0.08661891
0.07038348
0.02738169
0.06343104
0.00344185
0.04969505
-0.08799930
0.02167463
0.09486283
-0.06075801
-0.00592919
-0.08591785
-0.05202797
-0.02753326
0.01949071
0.09827606
0.07464575
-0.09682152
0.09544264
0.05045265
-0.07726355
0.00138033
0.01423563
0.03083434
-0.01218829
-0.06291686
-0.02677189
0.00753451
0.09396025
-0.00647308
0.05889714
-0.09314358
-0.04464376
0.10045760
0.05718732
-0.01211395
-0.02368388
-0.06378979
-0.05158132
-0.02648207
-0.02821163
-0.03584894
0.07583653
-0.03858153
-0.09543547
0.07066360
0.05142484
-0.03784126
0.09634336
0.01144082
0.02914895
-0.05935572
-0.03647891
0.09389551
0.04616136
0.01915453
0.06888402
-0.06415970
-0.08011209
0.03458532
-0.01883289
0.03151652
0.05106047
0.09247174
-0.06079944
0.06781340
-0.06729580
-0.02997541
-0.08960450
-0.03553291
-0.08243981
-0.00271592
-0.06408096
-0.06403795
-0.03544317
0.01148226
-0.02046249
-0.08359235
-0.04188684
-0.00071510
0.03178521
-0.08869459
-0.06277794
-0.03544974
0.01145612
-0.01229598
-0.02569625
-0.09673130
-0.01728261
-0.05251114
0.03061901
-0.08006454
0.05317115
-0.03870299
-0.01228246
0.00517427
0.06893315
0.04838264
-0.07834823
-0.08851894
-0.02330293
0.20084419
0.16716756
0.04101453
-0.09610525
-0.07769661
0.00343518
0.01277579
-0.00536143
0.04891033
0.07967940
0.01790345
-0.04018641
-0.01877081
-0.02614283
-0.02703366
-0.03232954
-0.03762853
0.02707895
0.09325815
0.05289008
-0.05986533
-0.07018689
0.09355605
-0.02028417
0.07076651
-0.00946287
0.01705383
0.02200666
0.00058651
-0.00682785
-0.06045979
0.10071413
0.09900879
-0.05012959
-0.03822064
-0.04363966
-0.01185768
0.03456039
0.06193294
-0.05365904
-0.05433478
0.00442155
-0.00311535
-0.04841733
-0.05652024
0.09526788
-0.03781107
-0.01237625
-0.08636713
0.04164090
0.00838566
0.00977673
0.08250860
0.09573972
0.02798953
-0.08842203
-0.00976625
0.09142796
-0.06395994
0.02153510
0.08631935
0.02151438
-0.09350880
0.00368822
0.09796654
0.08202364
0.04411498
-0.02730590
0.07091245
-0.01672122
0.02679920
-0.07088829
0.12406913
0.08321745
-0.03434426
-0.03595464
-0.06187334
0.07617851
-0.07854170
0.02365789
-0.08024318
0.09062180
-0.08704710
-0.07689065
0.00616031
0.11680283
0.02229092
-0.03868453
0.02982681
0.06158291
-0.12145798
0.00732333
-0.08738528
0.03982586
-0.07306830
0.00494026
0.09636214
0.05254579
-0.07686385
0.02264178
-0.08153543
-0.06944692
-0.07187562
-0.04570060
-0.05314392
-0.08051146
-0.06673471
0.00203915
-0.07026852
-0.04432240
0.00419463
-0.03165954
-0.03931589
0.02867104
-0.05810527
-0.05966292
-0.07162407
0.01072400
-0.06181331
-0.05361109
0.06533020
0.00658255
-0.04694491
0.06008668
-0.01961650
0.00905941
-0.02711987
0.04611676
0.03719143
0.09589835
0.09040272
-0.02490778
0.04171617
0.04183272
-0.08743898
0.04867714
-0.04917238
-0.00368090
0.05784539
-0.01440248
-0.01012092
-0.06929882
0.05492001
-0.06501836
0.02809283
-0.00899680
-0.01735161
-0.01469700
0.00584079
-0.08404114
-0.08547160
-0.09383251
-0.05611224
-0.08764580
0.05332416
0.04545959
-0.05536967
0.07740598
0.08359111
-0.03923335
-0.00349142
-0.00797348
-0.00535649
-0.06326903
0.04084149
-0.07821737
-0.01427724
0.06263955
-0.00654282
-0.02793398
0.02292767
0.04984971
-0.08944195
0.01296991
-0.02308050
0.02939581
0.03129786
-0.09777202
-0.08928527
0.02096022
-0.04928137
0.07566223
-0.01848687
0.04817549
0.08407911
0.04465226
-0.03447473
-0.10335838
-0.02826968
0.06823464
-0.05009037
0.00798051
0.10059309
-0.05291034
-0.02367108
-0.02808558
0.02889623
0.05290315
-0.06333076
0.08803786
-0.02916978
-0.02747343
0.00522867
0.09226755
-0.00006739
0.00635671
0.06294344
0.05628580
-0.03516332
-0.01979580
0.03731712
0.05093164
0.04692036
0.03536806
-0.05792691
0.00789080
0.09991690
0.08274257
0.04630300
0.04008224
0.06723053
0.09935424
0.00128681
-0.01986515
0.00328180
-0.03859663
0.07702270
-0.08464336
0.05766234
-0.08922334
-0.07225097
-0.09270614
-0.09582463
-0.01811926
0.04080590
-0.03331798
-0.01883569
-0.08477967
0.08343287
-0.00354852
0.01312032
-0.05443236
-0.03229850
-0.01797005
0.00518757
-0.08666776
-0.06788546
-0.07277639
0.00943995
-0.04203772
-0.05807886
0.08493966
-0.00287812
0.00882422
0.07656933
-0.05807460
0.01270264
0.05848648
0.06386359
-0.05392766
-0.05256055
-0.06774860
-0.09477329
-0.02092557
0.03913096
-0.01059328
0.03140013
0.02111696
-0.08208057
0.09624310
0.01868563
-0.02628914
0.07901543
-0.07085825
-0.02002966
0.06647398
-0.00958241
-0.05179090
-0.09483694
-0.07023104
-0.05303201
0.05687145
-0.05856616
-0.06671513
0.01043362
0.03099510
0.07795303
0.00985488
-0.03131915
0.08102505
0.08309382
0.05950591
0.03436926
-0.01791454
-0.09015334
-0.06385082
0.04204716
0.07767035
-0.02069438
0.00119257
-0.09315072
-0.03044567
0.02971403
-0.00202349
-0.02582817
-0.06496936
-0.06886212
0.01201069
0.03700383
0.01088159
0.05474314
0.07565267
-0.02732363
0.04598706
0.03843703
-0.02498390
-0.04864683
-0.01125384
-0.05172852
-0.07259832
0.06143240
0.06982862
0.04218748
0.00871942
0.03953527
-0.08084787
-0.03517209
0.09933785
0.07770244
0.08849467
0.06472463
-0.03393074
-0.04530966
0.05554013
0.00946348
-0.03455456
-0.02614880
-0.08162933
-0.01371129
-0.00215176
0.08914029
0.01626891
0.07010813
-0.06820138
-0.03707938
-0.08767888
-0.07761845
0.06309456
-0.03733062
0.09496115
0.07379743
0.09899514
0.07858227
0.06652187
0.02148475
-0.05990810
-0.01449774
0.03360866
0.07863777
-0.03786374
-0.06948631
-0.05611205
0.09968706
0.02161706
-0.03316026
-0.02030767
-0.02279393
-0.10561463
-0.09089179
-0.00688869
0.00037974
-0.03062070
0.06662527
0.00587565
0.05736653
0.11463125
0.00208668
0.03384668
-0.06733950
-0.05719276
0.00128515
-0.02875487
0.05647106
-0.08125416
-0.06587889
-0.00123058
0.00123556
-0.01309794
0.04736911
-0.05995234
-0.11681714
0.05954752
0.04996460
0.05877897
0.03395136
0.06466534
0.01965336
0.04936900
0.06337758
0.01599733
-0.00624803
-0.05923651
0.06764207
-0.03291654
0.01493549
-0.09469767
0.07587297
0.01755316
0.07436866
-0.09535132
0.07588558
-0.10291433
0.00197027
0.05288901
-0.06796408
-0.00216080
-0.00033652
0.03402707
-0.00510736
0.01085192
-0.07268198
0.07166378
-0.03251528
-0.00515368
-0.06174846
0.09646476
0.04569112
0.03478052
-0.05539648
-0.01494124
-0.08992263
0.09736100
0.02478173
-0.04694876
-0.08328322
0.07213454
-0.05733664
0.06370397
0.05050887
-0.05363524
-0.09158774
-0.09494691
-0.01164571
-0.06153028
0.00096589
-0.02508163
-0.03653745
-0.03988005
-0.02709300
0.01823077
0.05397590
0.06656181
0.09430521
0.02790618
0.11532289
-0.03775622
-0.03284190
-0.09559635
0.00590634
0.00211688
0.06282378
-0.02164830
0.05100025
0.05947300
-0.07672416
-0.02722530
0.06477680
-0.03703874
-0.01338130
-0.06188831
0.02468170
0.01855175
0.06660281
-0.03004455
0.10290280
0.06228987
0.02824156
0.06994417
-0.01987019
-0.05696134
0.02849356
-0.05223712
-0.09516638
-0.06708249
-0.11056940
0.05371057
-0.10460161
0.04331430
-0.08222296
0.01532338
0.02836680
0.00472165
0.05927342
-0.04567324
-0.02828056
0.05447050
-0.03708163
-0.10089188
-0.02622370
0.06872785
-0.00368129
-0.04817942
-0.06749765
0.04625202
0.00804830
0.04346200
-0.00362152
-0.07832532
0.07117012
-0.00959528
-0.10199389
0.04073580
0.06775980
-0.07936963
-0.04390247
-0.02914751
-0.08357939
0.08140922
-0.00806240
-0.06507894
-0.06661348
0.08885063
-0.04044411
-0.06669685
0.06824881
-0.05482456
0.07370465
-0.01313910
-0.06451523
0.07486317
0.09314478
-0.08931702
0.04469864
-0.03755851
0.07527759
0.01603499
-0.08185130
0.09155753
0.00926827
0.00099438
-0.01951983
-0.02463284
-0.09373376
0.07002205
0.05736119
-0.01381135
0.06707826
0.10574632
0.06873192
-0.02757085
-0.05251515
-0.01261679
-0.03227696
0.03795530
0.10080283
-0.01498617
-0.06782011
-0.01159015
0.07162714
0.05524581
-0.06765594
0.07090390
-0.02190357
-0.00282408
0.03983313
-0.11168395
0.04013588
0.03608397
0.04834381
-0.02005355
-0.00102151
-0.04360423
0.01371176
0.03063818
-0.00693893
-0.06137886
0.06721804
-0.06187303
-0.00555680
0.05644688
-0.03980344
-0.07612992
0.06134239
0.04015282
0.05026291
0.07505464
-0.07574329
-0.02583764
-0.09971018
-0.11420368
-0.07863203
0.05622304
-0.04290227
-0.02216002
-0.08735904
-0.08782515
-0.01162733
0.09549681
0.08693964
-0.10343127
-0.05083958
0.00877812
0.02470596
-0.09486570
-0.05211165
0.01381188
0.07299863
0.05046938
-0.00078928
-0.05494532
-0.01252438
-0.05060406
-0.09607714
0.02530152
-0.04616807
0.03409820
-0.00253582
-0.03166179
-0.08826102
0.09638976
-0.06173797
0.05403628
-0.02165039
0.01616869
-0.01066101
0.07937170
-0.03809629
-0.01033921
0.05693519
-0.01858506
-0.04885168
-0.07948145
-0.01873558
-0.05442272
-0.04968769
0.05427776
0.03451287
0.02014624
-0.03372348
-0.03016962
-0.01559502
0.00819859
-0.07459463
0.02298871
-0.00532821
0.03516309
-0.07911535
-0.03700695
-0.04749591
-0.04643727
-0.05593874
-0.01140329
-0.01780157
0.03352265
-0.07112107
0.04303719
-0.00173064
0.03966142
-0.01127140
-0.02015753
0.03150911
0.09101816
0.10286261
-0.09094213
-0.08073257
0.03555344
0.00953474
0.03623704
-0.03804623
-0.04588629
0.06471543
-0.09619292
-0.06516770
-0.04306959
-0.06075236
-0.00583181
-0.07874953
0.08720468
-0.07823392
0.06225511
0.03324665
-0.02478544
-0.08155714
-0.02396270
-0.02490611
-0.06761868
0.03583356
-0.07104222
0.08936450
0.08389752
0.02432784
0.03614506
-0.06315051
-0.03696388
0.06408498
-0.02972089
0.03951933
0.02076225
-0.01773587
-0.04626028
0.03941335
-0.02887548
0.02771989
0.09506533
-0.08500037
0.02160070
0.01914133
-0.07093640
-0.09057868
0.09725790
-0.04597337
0.03594673
0.08752887
0.09212349
0.05083223
-0.09009675
-0.09346069
0.05409257
0.04879753
-0.05502317
0.01947352
0.02260498
-0.09608851
-0.09311437
0.07008378
-0.06535230
0.02444738
-0.03080513
-0.08503243
0.02866810
0.03266607
0.07987345
0.04904858
0.10934497
0.00589449
0.04182859
-0.01359152
0.01967779
-0.02117489
0.01341952
-0.05106134
0.07022560
0.08213264
-0.00171087
0.02663387
0.05625653
-0.01202560
-0.05483328
0.04715679
0.02550083
0.02633649
-0.03290220
0.06683273
-0.06910183
-0.04536436
-0.00283967
-0.08246382
-0.04391346
-0.05058408
-0.01252652
-0.06592055
-0.01087181
0.01953297
0.02868354
-0.01556873
-0.07667740
-0.00016335
-0.01718261
-0.08368190
0.07848378
-0.04604656
0.01078699
0.01031665
-0.03291337
0.09431729
-0.07544370
-0.05861761
0.00080630
0.07781370
0.00609463
0.03356464
0.02432441
-0.05510137
0.06936610
0.09210882
-0.06100871
-0.02460111
0.03409315
-0.05918697
0.04316369
0.08698687
-0.02105961
-0.00680912
0.03543575
0.03718096
-0.08535261
0.02012854
0.07543034
-0.08111212
0.06876210
0.06159046
0.00180710
-0.09276068
-0.02833608
-0.07438062
0.06475611
0.01185485
0.02097661
-0.00280504
-0.09302727
0.04295907
0.05708180
0.07016776
-0.05261989
0.08815233
-0.04649788
-0.01476775
-0.03460492
-0.04615402
0.06333134
0.03647965
-0.08040183
-0.00768683
-0.01234930
-0.00433699
-0.07262360
0.00665225
0.04686752
0.05353231
0.10822448
0.06121978
0.04406408
0.00769155
-0.01849543
-0.09701830
0.02365067
-0.03445251
-0.06460951
-0.07052290
-0.05754108
0.02763479
-0.05188828
-0.09706643
0.10334239
-0.01087459
0.09653314
-0.06913672
-0.07421525
-0.06304150
-0.07699802
0.01622588
0.01460392
0.09904405
-0.01789682
-0.06534641
0.00503725
-0.08145362
0.06260905
0.10536495
-0.01610543
0.01299945
0.09351181
-0.09769811
0.04261044
0.09206853
-0.01001346
0.02788635
-0.05257783
0.02258431
0.00599248
0.04030191
-0.03644534
0.06147078
0.09493865
0.08351278
0.04958558
-0.03969857
0.09918039
-0.03778528
0.00220325
-0.01057658
-0.08528397
-0.09602184
-0.06362306
-0.03589316
-0.02797755
0.04734812
0.06036356
0.01297699
-0.05975198
-0.06488373
-0.07859421
0.09354801
-0.06641165
-0.05648402
-0.04939164
0.06847469
-0.09559819
0.00102646
0.03622579
0.01134077
-0.05588943
0.04364893
-0.09685676
-0.03717377
0.01435228
-0.02194929
0.08357336
-0.09361430
-0.05604831
-0.02553998
-0.01191680
0.03577990
0.03386631
-0.05947621
0.08870166
-0.06207919
0.00139198
-0.00248311
0.07610079
0.01794321
-0.07206617
0.10026577
-0.01757855
0.06042697
0.06774231
0.06807265
0.03257180
-0.01261645
0.09474739
-0.04829605
-0.05419697
0.07918152
-0.05032158
0.06283549
-0.06801679
-0.00279969
-0.04052073
0.00781499
0.09074854
0.02551003
0.06231263
-0.05607637
-0.00433936
0.11644235
-0.03801103
-0.04347839
-0.06379090
0.06961278
-0.03193223
-0.02198866
-0.03441672
0.10032476
0.04679946
-0.11134722
0.05613459
0.06695404
-0.05751502
-0.02361450
-0.06718047
0.01667960
-0.09430347
-0.09189729
0.07929931
-0.07906227
-0.05222663
0.08336746
0.03849868
-0.08081769
-0.03905742
-0.03673172
-0.07824833
0.02283377
0.06698157
-0.02971700
-0.00228415
0.03238544
-0.11088143
0.02235931
0.00668677
0.04972725
0.10088779
0.04793654
-0.01565400
-0.04647691
0.08042630
0.00950138
-0.08716461
-0.08999121
0.07853809
-0.06238515
0.06836592
0.01874476
0.08602881
-0.07307034
0.00549585
0.06091357
0.04979580
0.06057215
0.04092583
-0.06249804
0.05344485
-0.05573573
-0.03281865
0.07942080
0.09127512
0.06849228
-0.06198213
-0.08448131
0.04890301
0.06922339
-0.06900877
-0.00011239
-0.04362067
0.12228165
-0.02910614
-0.05480275
0.11854449
0.01621443
-0.05696081
-0.02316456
-0.05570812
0.09745862
-0.05175145
0.09766530
-0.05489743
0.10115157
-0.04869668
0.05375190
0.07881940
-0.03811627
0.03547859
-0.05890230
0.00630887
-0.06583500
0.06788083
-0.07381929
-0.08178645
-0.07044960
0.06578074
0.00878914
0.03134850
-0.06968251
0.06683209
-0.02139786
0.04121466
0.05216156
-0.06692660
0.02192783
0.08585877
-0.04198299
-0.07788870
0.08834515
-0.05067402
0.07041295
-0.08321044
0.08019592
0.10337408
0.02814124
0.04613946
0.03251025
0.04951849
0.05699285
-0.02607748
0.01838047
0.01993120
0.02119600
-0.09641272
-0.00616303
-0.08258753
-0.04389376
-0.02417647
0.00361176
-0.09351654
-0.05538960
-0.06100340
0.00518515
0.08077022
0.07308411
0.05783397
0.10905719
0.07004477
0.09475289
0.03370332
0.05854444
0.01291109
0.07168862
-0.01113167
-0.00226712
0.01383531
0.06245506
0.02895561
0.06170892
0.01035516
0.05365494
0.00359971
0.01382113
0.02867560
-0.04331889
-0.00514015
-0.02750211
0.01772833
0.02261759
0.06830077
-0.08888272
0.08755598
-0.08304141
0.09784411
0.03868860
-0.05244261
0.02322609
0.05600986
0.10641348
-0.07457859
-0.05397103
-0.03819689
0.05510743
-0.08247106
-0.06630864
0.07002343
-0.04514443
0.09180524
-0.00180380
0.02597517
0.02188261
0.05272114
0.09496948
0.09790644
-0.01210023
-0.06567814
0.09566525
0.04032496
0.09012877
0.10259126
0.00938309
-0.01574878
0.02083740
-0.05167620
-0.06535346
0.07660920
-0.04272908
0.03247217
0.02179015
0.03225782
0.07227278
-0.04829746
-0.07860337
0.00647437
0.04144487
-0.06859462
0.04925257
0.07821712
0.04751681
0.05698982
-0.00728597
-0.09447688
-0.04475784
-0.01567913
-0.03702602
-0.08099514
0.04219311
0.03552139
0.08163609
-0.09875932
-0.06569461
0.05193633
0.03671129
-0.04153694
-0.02237394
-0.05761457
0.07011645
0.04630935
-0.08480778
0.01050860
-0.07654183
-0.00736579
-0.08974276
-0.07867473
0.05390926
0.04157976
-0.00796994
-0.02557416
-0.10057720
-0.10885204
0.05980639
0.07558908
-0.10228377
-0.02043738
-0.03444463
0.09485874
-0.07634627
0.09603651
-0.01096878
-0.06778495
-0.01730491
0.03859389
0.00953790
0.05194974
0.01537924
0.10016274
0.01678504
0.02807977
-0.03616162
0.04189125
-0.07708781
0.07826248
0.05632286
0.01391591
0.01027796
0.03682500
-0.09247531
0.02731709
-0.09563591
0.02659080
-0.09386825
-0.07885571
0.01683125
0.09471901
-0.06942873
0.09738418
0.05340911
-0.02465042
0.06947495
-0.00604477
0.09323275
0.04211535
0.09410375
0.05162599
0.04795040
-0.01552088
-0.02777220
-0.06849701
0.06323943
0.03185554
-0.05059652
0.02097156
-0.07143400
0.04749112
-0.07050595
-0.04990621
-0.01824154
0.09860739
0.02867608
0.00366064
0.01778761
0.09460742
-0.00362238
-0.03202930
-0.01320199
0.00440897
0.02551539
0.03687250
-0.07271521
-0.07772678
0.06202727
-0.03638960
0.09161396
-0.02794687
-0.01625718
0.02728085
0.09033509
0.06415916
-0.04419997
0.04997897
-0.00092700
0.07693842
-0.00287926
-0.05169470
-0.03556199
-0.08970201
-0.08631761
0.03338922
-0.03223983
-0.08449416
0.02138016
-0.07636313
-0.01465129
-0.01668531
0.04758984
0.04940428
0.03245441
0.02820425
-0.02964457
0.01422588
-0.10683260
-0.00175970
0.04869644
0.00465821
0.09629794
0.00316153
0.10127226
0.06217357
0.07349563
0.08915654
0.09122681
-0.08710679
-0.06566489
-0.07870016
0.01048221
0.05920794
-0.08614013
-0.09229222
0.09560967
-0.08721466
-0.05035372
0.02819804
0.07600775
-0.06142569
-0.05233137
0.07933634
0.07425901
-0.03841533
0.02504005
-0.07696864
-0.09653437
-0.06968541
-0.01996356
-0.02355771
-0.01676422
-0.07743858
-0.09504344
-0.00829384
0.04053035
-0.03810941
-0.08923439
-0.07117717
0.09187697
-0.09571235
0.06638342
0.08779640
0.02942493
0.07133695
0.09371259
-0.04731171
-0.02500066
0.07304286
-0.03969965
0.05753719
0.03145873
-0.04707280
-0.03487904
0.05752684
-0.01345718
-0.09406945
-0.05602802
-0.03100834
-0.06074572
0.05891939
0.07119321
0.06966839
-0.06638818
-0.04199170
-0.04142124
0.03250830
0.02148134
0.01635000
-0.02271604
-0.07967867
0.09629698
0.02937733
-0.09498773
0.07092692
0.03355343
0.06727814
-0.00764714
0.06538312
-0.07571776
-0.07662308
-0.05793494
0.03764588
-0.05371050
0.07865492
-0.04028870
-0.01511270
0.03024341
0.07589711
0.01114115
0.07031503
-0.07754064
-0.09277945
-0.02405425
0.04631734
-0.04594903
-0.05727280
0.06183901
0.07958481
0.06395334
-0.03011172
-0.01003480
0.07641477
-0.06593458
0.00456090
0.00088137
-0.06993059
-0.09465555
0.03776475
0.01875742
-0.08654419
-0.04823870
0.04467939
0.01293833
0.03839563
0.06778686
0.07400289
-0.05735967
0.05117798
-0.03521296
-0.05473840
0.01845645
0.02134323
-0.05543749
0.04918301
-0.02391320
-0.09572753
-0.03259051
0.08801441
0.03610425
0.07785515
-0.08566283
-0.02724022
-0.09203168
-0.02175948
-0.08353843
0.02249830
0.01126958
0.01267501
0.01649766
-0.06916291
0.06573700
-0.06444962
0.03979871
0.05814464
0.09353251
0.07892801
0.08382460
0.03275795
0.05249621
-0.03017443
-0.01873553
0.02938747
-0.04113949
0.07730819
0.09618227
0.07004944
-0.07058202
0.04805683
0.02958409
0.06233206
-0.01390573
-0.07521410
0.08687575
-0.06374232
0.05308909
-0.00038913
0.07595289
-0.09582438
0.05777075
-0.09010924
0.06593818
0.04763234
0.06113934
-0.03454833
0.05420937
0.02186393
-0.04046454
-0.00686089
0.06236758
0.07906015
-0.08369806
-0.00080032
-0.01723983
-0.05654771
0.03028691
-0.00219023
0.09479956
0.01676352
-0.09041480
-0.07156185
0.06894020
-0.03171580
-0.07594281
0.03936329
-0.09599255
-0.01069569
0.07379512
0.06491298
-0.02518439
0.04695075
0.02994834
-0.03262928
-0.04760062
-0.03960190
0.09874477
0.04246695
-0.05897407
0.06747971
-0.02474887
0.01386998
0.08547590
0.00077241
0.00881326
-0.01665251
0.06127179
0.09608538
0.03190072
0.02091112
-0.06891720
0.00530489
-0.08753262
-0.09627282
-0.04128974
-0.00697054
0.08221224
0.06475182
0.06877631
0.06236395
0.02175326
-0.05824625
-0.11252138
-0.04154605
-0.02329382
0.03326612
-0.05168871
-0.06549644
0.00148099
-0.09727655
0.07414106
0.03026447
0.00080031
-0.07861718
-0.00240497
0.00936617
-0.00606584
0.06675964
0.08990203
-0.07580467
-0.04621219
-0.02527199
0.05309231
0.03717442
0.07342882
-0.03863748
-0.04783681
-0.06278975
0.01675508
-0.03509201
0.06429191
-0.07438305
-0.06576310
-0.07276801
-0.06953353
0.04407278
0.08872471
-0.03571081
0.03385986
0.01942171
-0.05159247
0.00386639
0.06261286
0.04414139
-0.00152345
-0.04560982
0.01339357
-0.07677228
-0.02074976
0.01569927
0.05866189
-0.08224897
0.08404639
-0.08624876
0.08084795
0.09691363
-0.05141682
0.03209288
-0.05149670
-0.08245745
0.00497907
0.05929906
0.07960535
-0.07075831
-0.00151699
0.01326955
0.03797797
0.01642152
0.03941156
-0.09860109
0.05917274
0.06471107
0.03574960
0.00667298
-0.09971974
-0.04593792
0.05004882
0.06732164
-0.09220446
0.00254582
0.07644713
-0.03980735
-0.01362222
-0.03398547
0.03342815
-0.02636437
0.03050787
0.00933934
-0.06823454
0.01900857
-0.08675791
-0.07476938
0.02436585
0.01961459
0.09635606
0.01052534
-0.00739243
-0.00980539
-0.10021675
-0.05024933
-0.07640259
-0.07502641
-0.02534839
-0.06528886
-0.07497212
0.04005946
-0.04653682
-0.01609783
-0.02003532
0.02765459
0.05712057
0.05308286
0.06121215
0.02992465
-0.09707405
-0.00917345
0.09711086
-0.00407698
0.00143264
0.06852641
0.03660933
0.06009913
-0.05375579
-0.06013437
0.00285865
0.05274565
0.08779190
0.02941398
0.04864334
0.03801270
0.02876154
-0.04411150
0.07729936
-0.05563484
0.09427314
0.00779941
0.03360970
0.02633763
-0.09685899
0.02427769
-0.02209763
0.03267676
-0.07038810
0.06439057
-0.07928147
-0.04260006
-0.02332409
-0.07851440
0.03364257
0.06694892
-0.03284926
0.06916036
0.00266331
-0.09155766
0.03860633
-0.02691833
-0.03221628
0.08974345
0.02230669
0.03906013
0.08216279
0.05475669
0.06713691
0.06064834
-0.09663024
-0.03574809
-0.09913357
-0.03122849
0.07235010
-0.03774436
0.08758449
-0.00449585
-0.00217932
-0.04631054
-0.04194033
0.04835309
-0.09808777
-0.07502065
-0.07649135
0.03534460
-0.06549804
0.07329342
0.06072057
0.07127495
0.09652257
-0.04880270
0.09227403
0.04948545
-0.06605333
0.05979453
0.09343549
-0.05285993
-0.07397109
0.02497355
0.04461411
0.00736690
-0.02774831
0.02043364
0.06890813
0.00748737
-0.03224411
-0.03074300
0.01999784
0.01716777
0.04515791
-0.10142996
-0.09862994
-0.08378246
0.05220172
-0.08708707
0.06103438
0.00881120
-0.09914243
-0.05309293
-0.00604838
0.07819732
-0.03510318
-0.02688919
-0.09748138
0.07626785
0.05711336
-0.06881951
-0.09773474
-0.08339984
0.09609435
-0.01453367
0.09264267
-0.01757460
-0.00668421
0.00399204
0.04412342
0.07557849
-0.03710883
-0.08022088
-0.08218329
0.05532367
0.09672718
0.00059966
-0.03451240
0.00071223
-0.04442165
0.02620059
-0.01580182
0.06698303
0.03887201
-0.08084288
-0.02861972
0.03711899
-0.06632408
-0.07655681
0.08200520
0.08672508
0.04068608
0.01987607
-0.06495994
-0.03482413
0.08347282
-0.07855798
0.03376961
-0.09455090
0.07491553
-0.09622204
0.08884989
0.05982567
-0.08651267
0.05089477
-0.01354933
-0.00251803
-0.04648353
-0.06189238
0.07437289
0.07552076
0.06054656
-0.04630822
0.09140546
0.02985968
-0.09995852
-0.01156422
-0.07996548
-0.03954478
0.05303892
-0.02517414
0.06316001
-0.01626125
-0.07559388
-0.09689560
-0.04701872
-0.04313267
0.00652332
0.07889038
0.00048955
0.06059365
0.09183163
0.06272234
-0.14723901
-0.11833968
0.03805027
0.05548892
0.05433687
-0.04412776
0.07704689
-0.01552921
-0.09180029
0.09493125
-0.06366220
-0.00747190
-0.07674915
0.08818367
-0.08926637
-0.01130158
0.02144970
-0.00614993
0.01698544
0.05220315
-0.01806105
0.06899295
-0.04454335
0.00608535
-0.00710545
0.05174835
0.02207549
0.03822111
-0.04246615
-0.03389389
0.00258352
0.09637644
0.00731557
0.05587829
-0.06656022
-0.02461174
-0.01064811
-0.01879458
0.00316792
0.01121134
-0.09314929
-0.02428203
0.00905946
0.06329856
0.05517565
-0.04021660
0.05465507
0.08764458
-0.07787652
0.04834871
0.07307833
0.05281409
0.08630164
0.03528592
0.02681030
-0.05068756
-0.07067566
0.00986143
0.02554225
0.01870553
-0.06924384
-0.02035084
-0.06872891
-0.08563494
-0.06422003
-0.06691383
0.01992098
0.06944003
0.00399743
-0.03079588
-0.05699031
0.06805171
0.02439238
-0.02612173
-0.04936296
0.06569406
-0.01527144
0.04336066
0.02079643
-0.09134118
0.07798697
0.00412628
0.05558609
0.06836477
-0.07001241
0.08315289
0.00970369
-0.08252566
-0.08186603
0.02886406
0.06891664
0.03484512
-0.08544076
0.08099122
-0.04078270
-0.00726347
-0.08848283
-0.02554440
-0.08864238
-0.09355602
-0.09068788
-0.01470849
0.06124791
0.04041363
0.07252500
0.01465928
0.04082146
-0.07793987
-0.05432976
0.07777170
0.04321448
0.08575990
-0.05905588
0.01790745
-0.04126884
0.01170627
-0.09888881
0.02470931
0.05299273
0.02836148
-0.05397736
-0.01878178
-0.08873442
0.07484512
0.03616983
0.07055328
-0.04891979
-0.08106944
0.06554615
0.04306337
0.07078615
0.03608529
0.04941337
0.00212148
0.05685472
-0.05944779
0.03969903
-0.01894983
0.05895932
0.01243148
0.06068513
-0.08532671
-0.00615412
0.04926612
0.01729359
0.05556603
0.05232472
-0.07163604
0.03795481
0.08940432
0.08136905
0.02481882
0.04159993
-0.01429524
0.01490317
-0.05633030
-0.03495990
-0.02385732
-0.01430656
-0.08684246
0.02149691
0.05326070
-0.04347409
0.04222815
-0.00973696
0.07196189
0.06257210
0.06449174
0.08383240
-0.01003238
-0.03717577
0.03154852
-0.06736618
-0.07351118
0.04937881
-0.00151923
0.08124972
-0.03878127
-0.01847477
-0.07525757
-0.09358747
-0.05748664
0.07063038
0.09688991
-0.06711839
-0.01837759
-0.05442679
-0.00259144
0.06757994
0.10548325
-0.07317645
-0.00678968
0.02839857
0.10484238
-0.08385802
-0.00314208
-0.04091345
-0.03487807
0.05917579
-0.04715287
0.05333211
-0.10349419
0.01590111
0.06654040
0.03748626
-0.03911694
-0.00461774
0.09245971
-0.06925528
0.01534626
0.00484799
0.00099928
0.03506970
0.02483563
-0.04765397
-0.09779748
-0.00391111
-0.05417897
-0.01699560
0.06196252
0.00739921
0.07720846
0.06798877
0.04044959
-0.02862299
0.08172670
-0.03286148
-0.09922198
0.09197027
-0.01043516
-0.02372404
0.05075262
0.09814273
0.09822732
-0.03426488
0.07970034
-0.01405777
-0.06213601
0.07839763
-0.09811950
0.04178780
0.02314419
0.03300923
0.07214393
-0.03217990
-0.03090164
0.06073060
0.04496347
0.06395878
-0.09392723
0.00992602
-0.07060390
-0.03813094
-0.02581273
0.03041444
-0.02761763
0.03578551
-0.05702452
-0.00499552
0.06964829
0.04192835
0.07317308
-0.03091503
0.02591581
0.00468291
0.06114205
-0.03836864
-0.09663492
-0.07132854
0.04271719
-0.01211957
-0.02056085
-0.03578027
-0.05903146
-0.02351366
-0.04046958
-0.08950841
-0.01539486
-0.01957997
0.03305488
-0.05617444
0.08236290
-0.00734396
0.09192092
-0.00151651
-0.09746581
0.08467986
0.07575823
0.02021110
0.01359657
-0.05861306
-0.07520576
-0.06813434
-0.06727627
-0.05752494
0.01907997
0.04876865
0.06025418
-0.06577286
0.02528093
0.03048406
-0.08239858
-0.02158082
0.05048021
0.03306430
-0.05698445
0.00671305
0.06047698
-0.03795353
0.05264167
0.01442923
-0.03940404
0.03657584
-0.06868645
-0.02230012
-0.06605356
-0.08481729
-0.07950608
0.03855129
0.09523007
0.01841226
-0.00035794
-0.06969295
-0.02425590
-0.05170017
-0.01806849
-0.06341558
0.02855894
-0.09728982
-0.08897732
0.04353221
-0.07329029
0.07998312
0.00867972
0.02241970
0.01444739
-0.02569378
0.06876168
-0.00774296
0.04002913
0.01996322
0.04987523
0.05105685
-0.08868391
0.03858791
0.01617310
0.06408910
0.07908364
0.08391629
0.05427023
-0.05950286
-0.00285928
-0.09028262
-0.00291697
-0.03860177
-0.00836472
-0.07456781
0.02679101
-0.09234580
-0.09146049
-0.08631988
-0.00666482
-0.08481247
-0.02036292
-0.02793105
0.06687551
0.04372020
-0.00299123
0.09890835
0.08224539
0.03276540
0.09069708
-0.06584614
-0.02632459
0.02247171
0.03789009
-0.02874450
-0.07727396
0.05837363
0.04166046
0.10384723
-0.01348911
-0.08443694
0.00492882
0.03940658
-0.07379376
0.00823811
0.02747842
-0.01373464
0.02607404
-0.02762735
0.06996275
-0.06907799
-0.01227098
-0.10327767
0.03592812
-0.06109807
0.02037582
-0.01805539
-0.04046211
-0.06942049
0.02036347
0.09440758
-0.02496396
0.08299082
-0.08639671
-0.09930172
-0.01664941
-0.08482939
0.06061421
-0.09409284
0.05561391
0.03932674
0.09252883
-0.03366056
-0.06588359
-0.00698271
-0.03237050
0.08631351
0.09115856
-0.02034941
-0.03265007
-0.07518099
-0.05830553
0.01906144
0.07062936
0.00714220
-0.07423734
0.08214088
-0.06434908
0.07979728
0.01987962
0.00763428
0.05063412
-0.01803371
0.02174041
-0.08059999
0.09503563
-0.04905398
-0.02203307
0.03215178
-0.06322237
-0.02234165
0.02074557
0.04122235
-0.05674984
0.03383676
0.03668132
-0.03121585
0.06502350
0.06848564
0.00267918
0.09086871
0.01031115
0.01044493
0.03290984
-0.09180216
-0.09269783
0.07860814
0.07459989
0.09425795
-0.06189899
-0.04796719
-0.06685339
-0.03097548
0.08842614
-0.07388021
0.04897108
0.04151806
-0.08285470
0.02183561
-0.00177942
-0.05720957
-0.08392385
0.05363570
-0.05026512
-0.06926208
0.00251143
-0.05073788
-0.05217042
0.02199093
-0.06401115
0.03006258
-0.08738574
0.08103202
0.02258539
-0.04595131
0.02548753
0.07523099
-0.07114040
-0.07578003
-0.06812363
-0.06384005
-0.00301151
0.08256249
0.05452123
0.05145569
0.19739708
0.09395666
0.08798508
0.06995240
0.05750619
0.02519136
-0.02922323
-0.09352367
0.03813479
-0.07808896
0.05383144
-0.04770874
-0.01993349
-0.02781138
-0.08787080
0.05073039
-0.07549099
0.05846442
-0.02175617
-0.09628935
-0.06871369
0.01884667
-0.09249782
0.09237168
-0.04145942
0.00083397
-0.00763614
-0.02092043
-0.01289604
0.03717957
-0.02451393
0.00688047
-0.03942019
0.08311875
0.04287133
-0.00863127
0.04171091
0.08738894
-0.06976072
0.04774742
-0.02483776
-0.01525141
-0.00089799
-0.09798165
0.04412515
-0.07278009
-0.03755169
-0.00653599
0.07257862
0.05227743
0.05694611
0.03234527
-0.04518332
0.02584376
-0.00651572
-0.03543252
-0.03990858
0.07528583
-0.09581548
-0.07306430
-0.06760300
-0.07721576
0.05848761
-0.09383554
-0.02470741
0.00460825
-0.03956969
-0.09869071
-0.05108460
-0.08459526
0.06499896
0.07076900
0.01118525
-0.02957119
-0.04523877
-0.00765270
0.00964975
0.07823515
0.01300590
0.02855375
-0.05277432
0.04669737
0.16120860
0.12998775
0.06822537
-0.12110454
-0.05084946
-0.12616475
0.03352261
0.06109633
-0.10654008
0.08801252
0.07598939
-0.03418907
0.09327078
0.07198196
0.08417863
0.07516109
-0.03111921
-0.05952336
-0.04829113
0.07518698
-0.02459538
-0.02132453
-0.07550868
0.00682294
-0.06813292
0.00824954
0.03398742
0.03295968
-0.04728644
0.00903054
-0.04050029
-0.01985573
-0.05093489
-0.02683699
0.03858775
0.09331714
-0.06056292
-0.03223449
-0.06824363
0.01170172
0.04037944
-0.00361205
-0.06880419
0.01920580
0.01116116
0.09831344
-0.06670746
-0.09019739
0.05855747
0.01732864
-0.05205053
0.05148131
0.09462424
0.06996478
-0.05775461
0.07238944
0.03250040
0.02951720
-0.02454339
-0.02877946
0.09106383
-0.07445638
-0.09366001
-0.07760285
-0.09909131
0.05545077
0.01360982
0.09177431
0.05638049
0.07183939
-0.04605243
-0.02586895
-0.06329038
0.09716644
0.05064846
-0.06001396
0.05453791
-0.07544017
-0.09170199
-0.02769598
-0.04229263
-0.06444871
-0.02271325
-0.08220262
0.07924448
-0.04199972
-0.01027348
0.02697289
-0.04785019
-0.01185072
-0.00765322
-0.03842829
-0.07066510
0.04356975
0.08030781
-0.02373183
0.08513252
0.01219739
0.04834593
-0.05889430
-0.02680945
-0.07388345
-0.09172185
-0.01924055
-0.00343558
-0.04558196
0.06598754
0.06325231
0.00294811
0.07077727
0.09497861
-0.09947938
-0.00628755
0.07805043
-0.06520645
-0.01293157
0.07831933
-0.01103923
0.01309464
0.07557230
0.00219735
-0.02799384
0.02528596
-0.06968809
-0.05516742
0.02686100
-0.07640942
-0.05715974
-0.07467224
-0.03418511
-0.04279111
-0.04452747
0.03815834
-0.01075883
-0.05060651
-0.00291691
0.07829435
-0.01840450
-0.03771125
0.06119374
0.09203246
0.04134074
0.05533199
-0.06616563
0.06579825
-0.04182881
0.01275445
0.02265021
0.01021600
0.00444035
-0.04048082
-0.04050731
-0.03656337
0.04297000
-0.00889582
0.09481842
0.04806149
0.09022830
0.09396797
-0.08774832
-0.07774523
-0.09024786
-0.01612161
-0.01794304
-0.00798135
0.00683235
0.00345051
-0.08424408
-0.03773933
0.04355807
0.03552409
0.07501640
0.02813071
-0.08296978
0.09018066
-0.02731478
-0.05027485
0.08405301
0.08017146
0.03881818
0.00886725
0.09352064
0.07688416
-0.05521014
0.10384904
-0.01016351
0.08031521
-0.01071852
0.04326594
-0.02910255
0.04708764
-0.08624197
-0.06543281
-0.06345193
0.06171284
-0.07978099
-0.01583772
-0.06835184
-0.01685469
0.02343168
0.06239614
0.05416133
0.07597054
-0.04955891
0.02999500
-0.00109301
-0.03135501
0.01483337
-0.05685559
0.00932958
0.08184871
-0.05170841
-0.02436717
-0.00973388
-0.02571564
0.02819973
0.00065524
0.08440352
-0.01159965
0.00534505
-0.07992250
0.07413199
0.08345324
-0.08736967
-0.02756737
0.02887431
0.00991419
0.03641667
-0.00546980
-0.07259281
0.03394465
0.08357093
-0.01928407
0.04460074
-0.01320814
0.02807591
0.08236664
-0.05560066
-0.02013315
0.08206775
0.00413271
-0.07530500
-0.00249882
-0.09385983
0.07972268
0.06482903
-0.03839770
0.06091426
0.01539033
-0.00212832
-0.01238969
-0.02372515
0.05202138
-0.00935666
0.08923368
-0.02984924
-0.08437175
-0.03355770
0.04217592
0.07417208
-0.05831492
-0.08408484
0.00148933
-0.03486938
-0.08084306
-0.05308586
0.04821113
-0.05382029
0.06703538
-0.03212639
0.02904244
0.05934172
0.07133343
-0.00445590
-0.00013185
-0.04101687
0.00851138
-0.01026356
-0.09471995
-0.04758474
0.10999744
0.12353512
-0.02601496
0.00657784
0.05335178
-0.07411152
0.08650760
0.06213717
-0.07159790
-0.09046820
-0.08332606
-0.04309598
0.02038047
0.01070963
-0.06840302
0.06781061
-0.09396726
-0.06559496
-0.07335013
-0.02122966
-0.07358921
0.07051993
-0.08113804
0.07385814
-0.05651279
-0.00806778
-0.10388758
0.05707311
-0.00307593
-0.10561666
0.01667217
0.02645902
-0.10117623
-0.07049270
-0.02832204
0.02419496
-0.05363927
-0.03096096
-0.09074261
0.02072996
0.06990069
-0.04185876
-0.06101726
-0.04204302
-0.09090659
0.02541474
0.00399216
-0.05833562
-0.06278924
-0.07156422
-0.08428854
0.07135453
-0.06785151
0.08090875
-0.05148710
-0.02380254
-0.03115137
-0.01201872
0.05044402
-0.08308495
-0.07156528
0.01807265
0.06555368
0.09095453
0.08621129
0.01744456
0.00521386
0.08119129
0.04128642
0.06698064
-0.00625514
-0.10003368
0.07787386
0.00746406
0.03748466
0.08733989
0.01972649
-0.03789502
0.00546279
-0.00464519
-0.03143519
-0.01218331
0.04990875
0.07077137
-0.01720547
-0.06064452
-0.07069161
0.06070317
-0.05595121
-0.02443353
-0.01185900
-0.01250599
0.01367068
0.09974342
0.05547067
-0.00119944
-0.10032339
-0.02256234
0.03910643
0.04072313
-0.02505246
-0.07236139
0.00696118
-0.00673852
0.08642422
0.02919903
0.01135870
-0.01360603
-0.01939812
0.02837326
-0.04436981
-0.02592321
-0.07587147
0.06199639
-0.04788822
-0.03891770
-0.09789140
0.06160359
-0.05042989
0.04355309
-0.04089254
0.01264069
0.00264476
0.02522630
-0.07939500
-0.06375461
-0.04296141
-0.04705729
-0.00208965
-0.04054199
0.07817068
0.04269409
-0.07402508
0.06723455
-0.09262874
-0.04199271
-0.02246157
-0.00954463
-0.09101734
-0.10031034
0.06276503
0.06091149
-0.07190273
-0.02571290
-0.05587240
-0.07992560
-0.02332176
0.03461708
0.02693439
0.02265382
-0.08083584
-0.09431948
0.01597209
-0.02040577
0.03013340
-0.04697601
-0.03798388
0.04732134
-0.00929563
-0.03912781
-0.00739110
0.09839053
0.08885088
-0.09402587
0.02734173
-0.03980451
0.01911837
0.05731823
0.05841964
-0.03740122
0.06186972
-0.02856714
-0.00338024
0.00518467
-0.03032383
-0.08973337
-0.11714825
-0.05145283
-0.03061611
-0.01956897
-0.01057094
-0.00751516
-0.07429592
0.01975163
-0.08132940
-0.01341566
-0.05217078
-0.08040328
0.03046807
0.02409130
0.10247065
0.00125132
0.02125583
0.07820473
0.01828362
-0.10263663
-0.11244348
-0.05394673
-0.06915650
-0.00011773
-0.03798382
0.01446312
0.05024250
0.01626895
0.06748971
-0.08701887
-0.07424328
0.03797107
-0.05211171
0.07070258
-0.08784603
-0.05961635
0.06850070
0.03488407
-0.05831804
0.04898124
-0.03017503
0.03061576
-0.08369528
-0.01674456
-0.09640045
-0.02182217
-0.08264830
0.08153871
0.04865633
0.05645691
-0.09085967
0.07548169
0.07642179
0.09137780
-0.10152248
0.06463408
-0.07853308
-0.01544845
-0.03583251
0.00029947
0.07402621
0.06860820
-0.03212804
-0.01991271
-0.05245989
-0.07578531
0.07588012
0.02689084
-0.07747417
0.06885645
0.03751880
0.03235804
-0.03358108
-0.02250229
-0.01189529
0.02335914
-0.08473808
-0.00483856
-0.06812645
-0.04239386
-0.09526379
-0.07736906
0.05670346
0.08206676
0.02874671
0.00850039
-0.07591541
-0.09974025
-0.01891715
-0.08772218
0.02116026
0.02657976
-0.01761796
-0.06706308
-0.08531598
0.06186968
0.09654962
0.03655059
0.04818979
-0.03714791
-0.08173114
0.01735960
0.00799501
-0.10895260
-0.03132503
-0.07254350
0.04975067
-0.03436897
-0.07140276
-0.07884410
0.03005486
0.07127372
-0.06455666
-0.05842043
0.10407986
-0.03801239
-0.05094187
-0.01125931
-0.03900660
0.01165826
-0.06224914
-0.09362015
-0.02395278
-0.01497350
-0.02284648
-0.00387210
-0.04811700
-0.06266568
0.05849347
-0.02973318
0.05334175
0.06678854
-0.07815497
-0.07536776
-0.06955160
-0.08038859
-0.00852994
-0.01617354
0.05739743
0.05645962
-0.08869884
-0.03408340
0.00392154
-0.00624601
-0.06212577
0.06770708
-0.01045646
-0.07180667
0.08404070
0.00048866
0.01277247
0.02486333
-0.03577387
0.08295180
0.01111053
0.01586766
-0.06374983
0.08592651
0.04812965
0.03836307
-0.04497042
0.02467392
0.02303583
0.09786547
-0.06634397
-0.02218535
0.04308802
-0.09330182
-0.02105412
-0.05166704
0.06040048
0.09144205
0.03249308
0.05432531
0.07214834
0.07876691
-0.05892149
0.06869968
0.07492178
-0.03951370
0.02627115
0.05680435
-0.02469162
-0.03842249
0.03300238
-0.04120503
0.02193607
-0.00705835
-0.00522706
-0.04045090
-0.04647986
-0.03208151
-0.00190015
-0.00038497
0.10741077
0.03398057
-0.01177423
-0.05449650
0.04844703
0.07677766
-0.05317884
0.01649966
-0.06193451
-0.01982561
-0.02967265
0.03829468
0.02051979
0.00094488
-0.05189448
-0.02373974
0.09281983
0.06810726
-0.08690083
-0.02411941
-0.06844583
0.04394881
-0.01590130
-0.10004684
-0.01315432
-0.00044895
0.00599549
0.01020672
-0.02080884
-0.02729496
0.02477942
0.07001082
0.04165589
-0.00098483
0.00000164
-0.08155473
-0.06298298
-0.06144572
0.03355035
0.06658707
-0.01407805
0.01300938
0.00909370
0.07983517
-0.05688223
-0.03931674
0.05578002
-0.04477326
0.04607576
-0.02908871
0.00776024
-0.03861699
0.06395513
-0.06157418
-0.02051744
-0.01304377
-0.07676993
-0.01410709
0.09390154
-0.09653311
0.03517273
0.01350700
0.03519747
0.09250820
0.08342924
0.01947799
0.08568242
-0.09321496
-0.09394912
0.09033936
0.01972493
0.09084957
-0.02078256
0.08873456
-0.00946111
0.02548892
-0.05203652
-0.09142396
0.04443016
-0.04764387
-0.08890321
0.04487833
-0.06671792
-0.07006402
0.02415427
-0.05534062
0.04836635
0.02127359
-0.05770570
-0.01977888
0.04308633
-0.04514191
-0.05596600
0.04200423
0.05725548
0.06849959
0.06055194
0.00579668
0.09270826
-0.03190440
-0.05178313
0.03156611
0.09153951
0.04285258
0.05650782
0.04192401
-0.00720185
0.04851358
-0.06069631
0.05590225
0.01111281
0.01277350
-0.00052477
0.04458337
0.04186066
0.04869845
0.06280015
0.00253546
0.08733595
0.06202892
-0.02323661
0.04172805
-0.01025094
0.05091408
-0.03345324
0.01377340
-0.02044150
-0.05368488
0.08127377
0.04713576
0.08156271
-0.01052635
-0.02832576
-0.05446189
-0.00442597
-0.06325644
0.06339638
-0.02763337
0.04852599
0.06330056
0.02865320
0.01421680
-0.00481083
-0.06619986
-0.04825527
0.04549143
0.05493038
0.04789502
0.09583471
0.02201565
0.07847952
-0.08386972
-0.08529274
0.06520297
0.03917860
0.08327915
0.03392407
0.00197901
-0.00383909
-0.04574899
0.00783702
0.00951723
-0.01101190
0.01596962
-0.01351100
-0.01831972
-0.06082656
0.00118548
-0.05760230
0.06328924
-0.04477945
-0.04640677
0.03311982
-0.04769430
-0.04063879
-0.06905588
0.08430890
0.04913375
0.08753413
-0.07414770
-0.08186045
-0.05640149
-0.03007187
-0.07009288
-0.03703520
0.12263653
0.06819103
-0.07655058
0.10651522
0.09690291
-0.06423930
0.08471591
0.03658730
-0.03087509
0.09015638
-0.04585737
0.02304664
0.04638752
-0.06129925
-0.01992219
0.01083773
-0.02340349
0.07688294
0.09931004
0.07772895
0.02657396
-0.03714360
0.10418538
0.01603487
-0.04005778
-0.06172540
0.04022908
-0.04975155
-0.04207226
-0.03744403
0.09556984
0.01721056
-0.06883666
-0.06881418
-0.06845575
0.02041159
-0.11274626
-0.07032168
0.00356537
-0.03049145
-0.04359944
-0.04066746
0.06689633
-0.09250373
0.00465229
0.02162077
0.04807624
0.03276423
-0.07675462
-0.02695082
-0.08825674
-0.00018020
0.03017004
-0.00419186
-0.01211218
-0.02508021
-0.02295580
0.06899067
-0.01744461
0.06515306
0.05683399
0.03815193
-0.04408245
0.00420920
0.03799523
-0.00262513
0.05968304
0.02459694
-0.04071933
0.05260568
-0.07541784
0.02756368
-0.03920480
-0.02195135
0.02100281
0.04168798
-0.09640077
-0.09073263
0.05276349
-0.02912049
-0.02482289
-0.06967658
-0.01759683
-0.01558203
-0.04824772
-0.03971314
-0.00414865
0.08463076
0.00123462
0.05748600
0.04775251
-0.02761105
0.06623597
0.00772134
-0.03607986
0.08428908
0.10972275
0.02682946
0.07390973
0.01246175
-0.04368215
0.00813838
0.04844183
-0.07814658
-0.05185025
-0.00455502
0.07377975
-0.01068689
0.08967054
-0.05694216
0.05253253
-0.08534770
0.02348973
-0.03976841
-0.03564499
0.04241375
-0.08429145
-0.03827029
0.05768891
-0.00386206
0.01950478
-0.03836951
-0.08317537
0.08865690
0.08951815
0.00866241
-0.06261218
-0.07815886
-0.03824338
-0.06194315
0.02543596
-0.02884302
-0.09599940
-0.00372669
-0.07881031
0.02989808
0.08156687
-0.08862429
0.06659839
0.02836465
-0.01974000
-0.08583023
-0.02846471
0.03515827
0.07215190
0.07698013
-0.06647977
-0.00900274
-0.05869917
0.04657187
-0.01999039
-0.09372221
0.03943602
0.07613699
0.04082324
-0.08677557
-0.03792393
-0.00705130
0.07056123
0.09011934
-0.01889391
0.03303367
-0.04869534
0.02067086
-0.01344269
0.09118467
-0.06856257
0.00550712
0.04480086
0.03136343
0.06486764
0.01705719
-0.00830651
0.07662154
-0.02599138
-0.08658163
0.03513232
0.02664392
0.08558026
0.07432417
-0.05565536
-0.09313262
0.09491593
0.06859217
0.06583918
0.08294273
0.08823352
0.05779214
-0.03747917
-0.06412201
0.09361905
0.05755512
0.05435902
-0.01198163
0.09243013
0.04366049
-0.04032858
-0.07461290
0.04379375
0.08553937
0.01866735
-0.00761350
-0.09445649
0.01834884
0.09957585
-0.08420471
0.01902634
0.08686528
0.04828178
-0.03371693
0.08229151
-0.01932753
-0.01586895
0.03672867
0.09382099
-0.05578074
-0.04716645
0.05666802
-0.07934938
0.04697143
0.01335552
0.09852523
0.00582121
0.07312724
0.00337787
-0.06527108
-0.08933925
0.04796075
-0.05045973
0.09873473
0.06507717
-0.07725349
-0.07000269
-0.05013099
-0.03722894
0.07948028
0.06193098
0.08973025
0.01565930
0.03853064
0.04944920
0.07445321
0.04384583
0.09362958
-0.01203906
-0.09345823
-0.07021702
0.04258755
0.03594202
-0.09155867
0.01928276
0.01267275
0.08672530
0.00112387
-0.01648171
-0.07306115
-0.03133546
0.10538304
-0.07429020
0.06487216
0.10483151
-0.07705572
0.04886231
0.09889152
0.02352871
0.06581843
-0.07455363
0.01652701
0.00870755
0.02398985
0.02566858
-0.01697942
0.02050520
-0.01744439
0.07313915
0.09119960
-0.01770548
0.03834551
0.05410565
0.01373964
-0.02997575
0.04100372
0.07156548
-0.03347558
0.00103752
-0.07996688
0.09233264
0.01529861
0.08160108
0.13862187
0.05255206
-0.09769333
0.05308711
-0.01797568
0.04637254
0.09112239
0.00687473
0.01764877
0.07717395
0.04620593
0.07071282
-0.01825971
0.03522089
0.00030475
-0.05957038
0.09773397
-0.03246123
-0.06350565
0.01283025
0.03715326
0.07535698
0.07870869
0.01685443
-0.08871251
0.04224947
0.07039653
-0.08480658
-0.05641445
-0.08190709
-0.05869061
-0.03881803
-0.05068909
0.02927473
0.09372438
0.05916891
0.09116264
0.00173795
0.05353121
0.01834195
0.04890087
0.03640884
-0.02802463
0.05091686
0.01029944
-0.01909634
0.02717993
-0.06510005
0.09069485
0.03183167
-0.09965270
0.04407036
-0.00325123
0.05776036
0.06593663
0.04996343
0.07334371
-0.04256831
-0.02613971
-0.06734215
0.07518911
-0.05609104
0.02548646
-0.06181123
-0.07452910
0.08691184
-0.08338595
0.06469282
0.05556245
0.06982186
-0.05776287
0.03760668
-0.03891285
-0.07127294
0.06359952
-0.00579712
-0.03574302
-0.07539292
-0.05918366
0.02540411
0.01425551
0.07064094
0.01775463
0.08606862
-0.02408696
-0.01116885
-0.01610629
-0.06898793
-0.09501698
0.02116068
-0.09071054
0.04273248
-0.02230468
-0.02051207
0.04662347
-0.08201646
0.03984233
0.05924413
-0.00296767
-0.04675969
0.00151348
-0.05938678
0.00602609
0.08840926
-0.01706341
-0.07713794
0.08173199
-0.06779525
0.00731600
0.00034420
-0.02142774
0.02457785
-0.06025754
-0.05980535
-0.07159708
0.03005055
-0.02757829
0.06008491
-0.08889040
0.09728198
0.04089680
-0.07112786
0.07966410
0.09488592
-0.03766835
-0.03309661
-0.05125596
-0.03380197
-0.09718674
-0.03769032
0.06175760
-0.01763856
-0.07712516
-0.01155468
-0.04003244
-0.09035750
0.07193433
-0.02226989
-0.01843077
-0.00701342
0.07904539
0.05139733
-0.05128120
-0.01962967
-0.03197827
-0.09813046
-0.02820589
-0.07068159
-0.05357945
-0.02452052
-0.00178385
0.07965420
0.07609711
0.00351265
0.06733514
0.07849365
0.00933419
0.07436105
-0.00812302
-0.02372438
0.06780513
0.09469604
0.06797903
-0.04041253
0.07427620
0.00721196
0.00077371
-0.09742446
-0.05091660
-0.08051500
-0.09064454
-0.00942223
0.02001868
-0.04469588
0.03441369
-0.04909648
0.06314945
-0.08329719
-0.06423951
-0.01572560
0.01704237
-0.02501323
-0.09056618
-0.07297503
0.08503829
-0.05149899
-0.00386044
-0.01593611
-0.07215061
-0.07623570
-0.07588848
-0.00162487
-0.07360394
-0.01275069
-0.03424469
0.03848093
0.02795089
0.02028406
0.04762478
0.08371201
0.06950259
-0.01234246
-0.06604746
0.09070472
-0.03715249
-0.02073380
-0.07673669
-0.06992488
0.07604349
-0.01653949
-0.06320869
0.04557418
0.09695614
-0.03815293
0.04316006
0.00244160
0.08130524
0.10238336
-0.05037224
0.05238761
-0.08478047
0.06875752
-0.02968619
0.11040734
0.07282633
0.01503335
-0.08795935
0.03473187
-0.02433521
-0.06977631
-0.01618628
-0.01279023
0.04044335
-0.00933021
0.00726541
-0.00706224
-0.00017322
-0.03702185
0.09171575
0.08679551
-0.04170104
-0.05145529
-0.00732458
-0.04519523
-0.05979091
-0.06826481
0.01215197
-0.04851687
0.02499166
0.00588110
0.09487369
0.02866812
0.04087801
0.01807796
-0.03121505
-0.06094331
-0.01566173
-0.03913226
0.08391462
0.03590494
-0.04138696
0.02091495
-0.07783030
0.07451548
-0.09598113
0.06071946
-0.03195789
0.01642409
0.07039760
-0.06809227
-0.05016880
0.02449690
-0.09895150
0.05069821
-0.07492873
-0.09051185
-0.05354172
0.06442991
-0.00217949
-0.02679013
0.01370840
0.07152554
0.04836148
0.08272176
0.07522604
0.01391578
0.09478330
0.00342423
-0.08240486
-0.01525705
0.06528677
0.05379936
-0.00360560
-0.00676885
0.06682421
-0.02117193
0.02738471
-0.07485155
-0.01947089
0.03115722
-0.08880171
0.01461597
-0.08476756
-0.08187438
0.01302578
-0.04429840
-0.00456241
0.02290963
0.08048714
-0.07132836
-0.07333563
0.00908643
-0.02582050
-0.02278233
-0.03322639
0.10016454
-0.01007118
-0.05357273
-0.03767219
-0.07152101
-0.07573974
-0.04552970
0.05314422
0.08906055
-0.07670713
-0.09883335
0.05529755
0.02280669
-0.01639506
-0.07447295
-0.00560739
0.06238775
-0.00994066
0.09187131
0.07858125
-0.03541462
0.07458993
0.08051950
0.02608035
-0.08393912
-0.00848535
0.05990363
0.02191303
0.00309851
0.06806973
0.08034070
-0.04533454
0.09252516
-0.04268341
0.05434115
0.00624801
-0.04377676
0.06726943
-0.09239631
-0.02234969
-0.03985801
-0.06923260
-0.07037814
0.00229885
-0.08656950
0.03967615
0.08899923
0.08342147
0.09927488
-0.09056753
0.05700798
-0.03314518
0.00947419
-0.04478586
-0.08870947
-0.00092871
0.03702008
-0.02421483
0.09329095
-0.03233397
0.06848180
0.06198434
0.08332221
-0.01186258
0.07094438
-0.08460386
0.02464349
0.08219030
-0.00663695
0.04239830
-0.05324934
-0.00844788
0.05957813
-0.08113535
0.02984034
-0.07671942
0.07808128
0.09881035
-0.03407241
0.01764674
0.03818968
0.05406627
-0.05100304
-0.06834040
0.02301850
-0.01121054
-0.06570661
-0.07170348
-0.02865671
0.05425043
0.09967195
-0.04408607
-0.05050591
-0.00842213
-0.07889479
0.05946710
-0.01993566
0.03350178
-0.03082503
-0.05447958
-0.06633283
-0.06177427
0.06266009
0.09741105
0.03560027
0.06455119
0.01545890
-0.05161029
0.09375621
0.01412106
-0.04981131
-0.04976612
-0.00466330
-0.03506787
-0.04198027
-0.00159855
-0.00642203
-0.08275152
-0.03191825
-0.00960830
0.03262566
0.02049372
-0.04863866
0.06712787
0.08986716
0.04225365
0.01710437
-0.07936467
-0.04346319
-0.04978063
-0.07160822
-0.03712217
-0.09289251
0.07711774
0.07026543
0.05908069
0.08419842
-0.01171187
0.09270903
0.06402013
0.08040794
-0.09746123
0.08240731
-0.02564660
0.05014798
0.03411788
0.06238684
-0.07146260
0.05562706
0.01296253
-0.00992397
-0.01956098
-0.04441844
-0.01799063
-0.03241055
0.04201589
-0.01144453
0.00740955
0.05381949
-0.06603555
0.01475946
0.06010747
-0.09749994
-0.09548099
-0.08986995
0.04408973
-0.06940251
-0.01925102
-0.05768380
-0.08915285
-0.00019053
0.08182813
-0.09137878
0.04629185
-0.08558274
0.00261161
-0.00998677
-0.07321611
0.04498056
-0.07848914
-0.02611697
-0.08632791
0.03852394
0.04216316
0.05504455
0.05616762
0.01886234
-0.08238206
0.10534236
-0.07591670
-0.08183378
0.10003732
0.00130432
0.03429469
-0.08658328
-0.08537725
-0.05029138
0.05895247
-0.04349701
0.01653648
-0.05987099
0.02614678
-0.00044395
0.07672515
-0.03830302
-0.01496666
-0.06089340
0.01673006
-0.06572023
0.09272420
-0.05466762
-0.09759218
-0.09431882
-0.02382254
0.02249355
0.04418831
-0.02922982
-0.07026701
0.00457306
-0.08276426
0.09567075
-0.06955732
-0.03385711
0.05417234
-0.08031622
-0.01622301
-0.00047269
0.01734144
0.09678413
-0.03440180
-0.04962397
0.02193244
0.04235227
0.07719688
0.02526818
0.09070078
0.05573269
-0.00628102
-0.05440612
0.06033405
-0.06917403
-0.03685762
-0.01839347
-0.06671104
0.06034252
0.08290571
-0.07102496
0.09014364
-0.01720350
-0.00045575
-0.05205100
0.03780710
-0.04506865
-0.02280579
0.06803928
-0.02791577
-0.03806257
0.05339036
0.06031446
-0.05168445
-0.04861717
0.02320305
0.04673463
0.05703846
-0.05065922
0.07799916
-0.03035362
-0.07650231
-0.07650588
0.06901285
-0.08787543
0.09205449
0.04285918
0.09709311
-0.02978649
0.00216614
-0.03092975
-0.03447770
-0.05245480
0.02833808
-0.05887299
0.04692406
-0.07996373
0.03728597
0.00687379
0.02358944
-0.01627537
-0.02127128
-0.11022871
-0.06447039
0.04989862
0.08744072
-0.00761030
0.01541967
0.08899504
0.00086926
-0.01853074
-0.09870284
0.09173994
-0.05097511
-0.02507253
-0.02796948
-0.07372960
-0.02302626
-0.09001168
-0.05380694
0.05027391
-0.08016782
0.03645084
0.03183632
-0.05161937
0.05070436
0.00645002
0.09474999
0.05409203
-0.05673866
0.01726671
0.09310707
0.07071113
0.02463548
0.01840159
-0.00568773
0.02241706
-0.09092614
-0.00851668
-0.08484021
-0.09913439
-0.08826851
-0.03611279
-0.06565703
-0.06922760
0.00904900
-0.04845037
0.05971445
-0.08557257
0.00124717
0.06868884
0.09940634
-0.08172528
-0.05638480
-0.07756861
0.07267469
-0.03389256
0.02610984
0.01295211
-0.03946641
0.05583220
0.09075057
0.03531585
-0.05489883
0.00552509
-0.07415788
0.05119911
0.08390193
-0.04953343
0.05680824
0.08560833
0.03572054
0.01702474
0.03467493
0.04397156
0.02857012
-0.00806752
0.00487902
0.03449497
-0.00246595
-0.09928748
-0.00110567
0.02227383
-0.09260286
0.07861766
-0.02661711
0.02249830
-0.03814752
0.06317250
-0.05049370
-0.00984529
-0.07036530
0.08959829
0.04479642
0.00857234
-0.04562729
-0.08800291
-0.03527267
-0.02905456
0.08307825
-0.00691907
-0.00200828
-0.01652683
-0.05534212
-0.01717846
0.07860807
0.05206266
-0.04020094
-0.06198013
-0.04831713
-0.01905147
-0.02223678
0.03861130
-0.08027690
0.04243706
0.06659885
0.01922235
0.04775927
-0.03865432
-0.07930307
-0.05669223
0.07446312
0.00658012
-0.08753221
-0.00618099
-0.02178301
0.06094564
0.07693670
-0.06216016
-0.09392902
0.03804535
-0.02523423
-0.04267131
-0.03751684
-0.07233703
0.02912866
-0.06700875
0.09347288
-0.01795655
0.00127795
0.00779383
0.00694195
-0.01414162
0.03955882
0.08751753
-0.07470708
-0.02983172
0.09351509
0.08499962
-0.02153306
0.09037235
0.04159043
0.00179467
0.04190337
0.01188544
-0.05057695
-0.07136524
-0.09914268
-0.09802418
0.02158570
-0.08933983
-0.02945590
0.02448130
0.00287689
0.00040961
0.02280537
-0.06462701
-0.07880505
-0.01548372
0.04306659
0.05767688
0.05877867
-0.09206620
0.04857792
-0.03053873
-0.01849797
-0.06173444
0.03603009
0.07506030
-0.03358385
0.01793123
-0.05261901
0.09388626
-0.04329405
-0.09942072
0.01315023
-0.00020023
0.02165820
0.01841804
-0.01124869
-0.07289320
-0.00637305
-0.04402007
-0.03511048
-0.04386502
0.06841343
0.06120134
0.03778261
0.07444360
-0.04337550
0.09080268
-0.05809400
-0.01343517
0.06338697
-0.04210177
-0.09646963
0.03347681
0.06159981
0.04221456
0.09842224
-0.00343911
-0.04798394
0.06680960
0.08829126
0.08440017
-0.04839799
-0.01038052
-0.06214781
0.08595046
0.02691411
0.07607531
0.03039697
-0.08554598
-0.04081707
-0.09174879
0.00530215
0.05264586
-0.03094322
0.04817207
0.01624184
0.08826818
-0.05799051
0.07116967
-0.04327860
-0.02156227
-0.01785611
-0.00445269
0.00300662
-0.04795603
-0.09919028
-0.02258565
-0.00057613
0.05634257
0.05800977
-0.00502848
0.02436789
-0.09194170
-0.02894145
-0.02700273
0.02719126
0.03700370
0.09859788
0.03221909
0.00515473
0.03730445
0.04748297
-0.09765271
-0.08094504
0.06086590
-0.08782870
0.05065682
-0.03834466
0.09186900
0.08304236
0.03891275
-0.02239428
0.08628817
0.01018455
-0.07116564
0.05320048
0.01970018
-0.02164411
-0.09432817
-0.08710002
-0.06978697
0.07787077
-0.10035713
-0.09590021
-0.06956903
-0.00863699
0.02536023
-0.05185284
-0.05474462
0.04919481
-0.00592415
-0.00874643
0.01815826
-0.05958715
-0.00541216
-0.05878310
-0.02918249
-0.05638083
0.09283723
-0.05787579
-0.03628777
0.05743531
-0.04381183
-0.06618273
-0.03612018
0.02742073
-0.03143074
0.01743126
-0.00098785
-0.03692251
0.09282035
-0.01644537
-0.06574234
0.09812134
-0.09142789
-0.01313163
0.02041124
-0.01605366
0.00820397
0.00205182
0.05867508
0.07372559
-0.09020666
-0.05220165
0.01321544
0.00344177
0.00368485
-0.07325742
0.05599079
-0.05748831
0.00307018
-0.05286627
-0.00525511
0.04619867
0.06197008
-0.07800544
0.03014280
-0.08221111
0.08195118
-0.05182578
-0.04796412
0.07977518
0.08921230
0.03664126
-0.05044972
-0.06409292
0.04151091
-0.00629334
-0.07514537
-0.01561911
-0.03855897
0.01889806
0.09325624
0.01748992
0.03060909
0.05305902
-0.00832425
0.00728359
0.01591577
0.09190156
0.04637888
0.09198478
0.08611380
0.01072191
-0.05160310
0.01613948
0.09539949
0.09376394
0.05629983
0.02875901
0.03234366
0.03478285
0.04858020
0.07732077
-0.00168596
0.02463738
-0.02984787
-0.03999300
0.01776807
-0.00407726
0.03449049
-0.04607572
0.09073623
-0.03686056
-0.07147640
0.07621118
-0.02196450
-0.04887599
0.03158701
0.01137310
-0.01817963
0.10392564
-0.05412468
0.05548813
0.02213973
-0.04571435
0.01873356
0.02127699
0.01815453
-0.03953904
0.09935281
-0.05006299
-0.01837545
-0.00340783
-0.07164807
0.01505249
0.02527644
-0.07818105
-0.07932235
-0.01993882
-0.09735003
0.09855396
0.00243023
-0.09205140
0.04524206
-0.05560116
0.01493582
0.05347721
-0.02509783
0.03635953
0.00401403
-0.06105392
-0.03363040
-0.08650732
0.02092382
-0.05689847
-0.02618729
0.05945550
-0.07783262
-0.09502704
-0.06906583
0.03762327
-0.06039154
-0.08916875
-0.03503218
0.01373956
-0.04300916
0.02479390
-0.01138176
-0.01873130
0.07957783
-0.02068481
0.06305120
0.02794079
-0.06425320
0.02160561
-0.03791895
0.04689186
0.09354398
-0.02417054
-0.05723383
0.09602647
0.07741259
-0.03363828
-0.02509397
0.02705912
-0.07806743
-0.08999028
-0.09905772
-0.09760597
-0.02861595
0.01989994
-0.01233935
-0.04696104
0.09952641
0.03887961
0.07223695
0.06530316
-0.06437947
0.08741073
0.06697106
0.06697145
0.04998020
-0.03277515
-0.07112446
0.06595722
-0.06699950
0.06308196
-0.03479027
-0.04935829
-0.03617427
0.09675894
0.03569959
-0.04634220
-0.00852981
0.03019523
-0.04639010
0.12494360
0.08787397
-0.01483782
-0.02647706
-0.02912576
0.05833837
-0.08261221
-0.01001002
0.02835902
0.01582317
0.03746747
-0.08141299
-0.08772630
0.05742713
-0.10026571
-0.04675977
-0.16927006
-0.13222537
0.00156242
0.03718916
-0.03808072
-0.02158039
0.06306382
-0.08286122
0.01951844
0.00327883
0.03071820
0.01689426
0.03115054
0.04969616
0.04609870
0.02745258
0.09761863
0.09490885
0.08338296
0.01590005
-0.06326084
0.00088570
0.02798281
0.06111479
-0.03721341
0.06346001
0.08852364
-0.06875825
0.06227628
-0.07182840
-0.05107139
0.06626453
-0.08808760
-0.06322077
0.04879100
0.01038962
0.00619986
-0.09276761
0.01787124
0.00352295
-0.03723412
0.02375570
-0.05849632
-0.02052356
0.09432175
0.08327548
0.05691579
-0.05939288
0.02150089
-0.09914251
0.09860955
-0.03473506
0.09890482
0.07590365
0.02804664
-0.03772647
-0.04244885
-0.07162799
0.00091401
-0.09886260
0.08027132
0.06821487
-0.09338686
0.07315181
-0.02204210
0.01449263
-0.07723832
0.02421416
-0.02287664
0.09309457
0.07933451
-0.06411702
-0.08704803
-0.11120197
0.07242331
-0.05270615
0.05637328
0.05872847
-0.02650165
0.06554432
0.00581842
-0.07498702
-0.05428548
-0.08888866
-0.01778175
-0.05805350
-0.10986828
0.06719226
0.04314801
0.09848967
-0.07009524
0.06484576
0.09840023
0.02554993
0.05618602
0.07390435
0.07264724
0.06216154
-0.09560752
0.05130153
0.06281065
-0.04837231
0.04810517
0.00607581
0.07053895
-0.00239926
-0.05496195
-0.03814795
-0.07804387
0.09844731
0.02520112
-0.07122005
0.04820804
-0.01640288
-0.04326730
0.00920342
0.02259324
0.01626527
0.05314307
-0.00910010
-0.09319877
-0.09885159
-0.05719588
-0.07076941
-0.03577172
0.07989814
0.06386192
0.05760093
0.02582768
-0.08029960
-0.07563338
0.04726529
-0.08557870
0.05860794
-0.08163778
0.02153931
-0.03009183
-0.00973845
-0.07878973
-0.09390931
-0.03242793
-0.02887541
-0.02442523
-0.01825550
0.08357521
-0.07188126
0.00080908
0.04424189
0.03297284
0.01219271
-0.07720235
0.05884813
0.07646811
0.06874302
0.09250828
-0.04944403
-0.05180490
-0.07938565
0.01726262
0.09051699
-0.05102921
0.03652856
-0.01445656
0.05969210
0.08241861
-0.06959130
0.09246886
0.01570844
0.06450474
-0.11264518
0.01186102
0.06042526
-0.09652100
0.02041938
-0.01615268
-0.02025665
0.05326475
-0.09023340
-0.08436943
-0.06393767
0.11537442
0.06381175
0.02162934
0.07167753
-0.10094187
-0.06995893
-0.07663293
-0.04250071
-0.02400063
-0.07541377
-0.04648624
0.02072688
0.02548091
-0.02264377
-0.07804607
-0.00297146
0.06541245
-0.05287954
-0.06892246
-0.01509722
-0.06435942
-0.04642170
0.01556803
0.00270217
-0.02060461
0.05301109
0.02420020
0.07312148
-0.07517301
0.05876667
-0.01188043
0.05561634
-0.07715522
0.08166868
0.09878438
-0.00081019
0.04830761
-0.07161907
0.04733214
-0.03487080
-0.05253464
0.05899717
-0.04487684
0.06142059
0.08572902
0.03661630
0.02616314
-0.05688140
0.05513781
0.03592093
-0.04604994
-0.02777172
-0.09916255
-0.08914638
0.06563965
-0.04867077
0.06865796
-0.04009200
0.08509303
0.04142029
-0.06105978
-0.00848846
0.08582996
0.00778867
0.07611968
-0.08398944
-0.09673105
-0.07067900
-0.09685207
0.06462955
-0.01830267
-0.01299394
-0.04766292
-0.07468440
0.07247188
0.06481274
-0.00112857
-0.06177092
-0.00752145
-0.09743157
-0.04913149
-0.08643508
0.08905487
-0.09624295
0.07332904
0.06396072
0.01149448
-0.08092013
-0.08989902
-0.05425297
-0.05798951
0.05880590
-0.05369187
0.07495757
0.00419397
0.02023696
-0.08707536
-0.04273084
0.07147551
-0.03396729
-0.03872471
-0.00584838
0.08718808
-0.03710503
-0.03441864
-0.08713909
-0.06050591
-0.04873123
0.05510577
0.04160701
0.07356273
-0.00265283
-0.02861528
-0.00972358
-0.10424614
0.02011550
0.02829062
0.02282252
-0.02154760
0.03816545
-0.00455805
0.07018282
-0.06376732
0.04461722
0.03843831
0.04761356
0.02701965
-0.07570315
-0.05875016
0.07852118
0.10559606
0.07325401
-0.06327749
0.11194779
0.03375815
-0.05022910
0.06172900
0.06790829
-0.07108572
-0.00686064
-0.00844482
0.09400886
-0.01548565
-0.06968940
0.02086404
0.07425969
-0.03021857
-0.02897480
0.05339189
-0.07814959
0.05790225
-0.06282509
-0.09871622
0.03836048
-0.07659536
-0.00468359
0.01448062
0.02244473
-0.00430647
0.03592289
0.06760948
-0.07741944
0.08209829
-0.02698318
0.05799317
-0.09690410
0.02217046
-0.05736136
0.05787645
-0.04361039
-0.08569783
-0.06453332
-0.07638384
-0.01181210
0.02821726
-0.02718575
-0.01841286
0.05597325
-0.09856526
-0.11290158
-0.26318650
-0.12172533
-0.01487887
0.06889859
-0.00330597
-0.09276210
-0.10561797
0.02391134
0.08692842
0.01246421
0.01867299
-0.01420167
0.03276691
0.07061172
-0.06802787
-0.01934011
0.04296747
0.05697190
-0.00058722
-0.00119140
-0.03628077
0.02265495
0.01138486
-0.04315457
-0.00080520
0.08367198
-0.04098152
0.01483725
0.03003616
0.08588592
-0.04785505
0.02728902
0.05823952
-0.03333703
0.05424833
-0.04334477
0.05471492
0.01698867
0.10190320
-0.05787909
0.09642647
-0.06197438
0.05744728
0.06989867
-0.06954274
-0.06636419
0.03360990
-0.03119199
-0.01852489
0.13210282
-0.04263019
0.10533245
0.02424087
0.01962566
0.11269381
0.07673620
0.09044893
0.11342306
0.00784745
-0.08910770
0.07325477
0.08454554
0.06309099
0.07418512
0.01888382
0.03260616
-0.05535012
0.02500999
0.06262218
-0.09869292
0.05390214
-0.02727643
0.01549106
-0.05828433
0.00587755
0.09792246
-0.07956040
0.07655444
-0.00654128
0.01507636
-0.02966693
0.08508843
0.00021499
-0.05937838
-0.09298953
0.08825147
-0.07368388
-0.10034286
0.01948209
-0.11142933
0.04078722
0.03059752
-0.05187048
-0.11163946
0.01442814
0.09048683
0.11494816
0.02289865
0.06886870
-0.10739925
0.02259120
-0.03267800
-0.06071511
0.04889443
0.18268928
0.15703160
0.10625602
0.11890529
-0.06485427
0.09271107
0.11217737
-0.03549212
0.05801058
0.08134197
0.11346053
0.03305899
-0.00681325
-0.03748144
0.13008259
-0.03543511
-0.00329004
0.05017139
-0.03411299
0.08822967
0.02130457
-0.02506808
0.10279429
-0.06726115
0.03375923
-0.09501891
0.06559574
-0.00684616
-0.07538294
-0.07148751
0.01688161
0.11783890
0.06832756
0.03781156
0.07756171
-0.06257111
0.03415802
0.12219897
-0.06519622
0.12781020
-0.02475523
-0.03332307
0.10030687
0.00968626
-0.05242065
0.08831857
0.06629580
-0.05663636
-0.00013351
0.04908109
0.02955458
-0.08521832
-0.08783258
-0.07598445
-0.05389464
0.07690372
0.00172410
0.04030632
0.05084535
0.04965883
-0.07850124
-0.01128630
-0.02084357
0.00445599
0.07751702
-0.00560935
-0.11876047
-0.00721205
-0.06840536
-0.14901683
-0.12119970
-0.00500637
-0.11646314
-0.10783611
-0.00398408
-0.08688924
-0.14401956
-0.14126853
-0.01579359
0.01421495
-0.02740155
-0.08091088
-0.02376672
-0.09273069
0.00368734
0.04638110
-0.05731634
-0.00961462
0.01605657
-0.06224389
0.03937951
0.05528324
-0.00455027
-0.07957067
0.01385854
-0.00986625
0.01981587
-0.01079674
0.12378416
-0.00250927
0.07315507
0.01722878
-0.07835518
-0.01092202
-0.03666309
-0.01009295
-0.02345289
-0.04488250
-0.02986402
0.04367924
-0.09999477
-0.03681976
-0.03152806
-0.07934003
0.03152719
0.05209716
-0.03705628
0.00538656
0.04604090
0.06947233
-0.09336414
0.00187432
0.09305137
-0.00594659
0.09840783
-0.05132811
0.09265205
0.09290980
0.05866458
-0.03766585
-0.04439669
-0.05478839
-0.02320605
-0.01801866
0.05222412
0.03048342
-0.03006172
0.09598281
-0.01578847
-0.03620042
-0.06656402
-0.02576138
0.01143689
-0.05128701
-0.05772253
0.05036505
-0.08656031
0.07475705
0.07596686
-0.05224397
0.06903532
0.07908411
-0.04970049
0.07059945
-0.04174023
-0.02667649
-0.06983388
0.08691888
-0.03207911
-0.12024413
-0.00010749
0.02343898
-0.12778914
-0.13396740
-0.14003808
-0.15285135
-0.06728061
-0.09836116
-0.03258418
-0.00917575
-0.05969987
0.01002194
0.00630251
0.02620806
-0.03635892
-0.14677632
-0.12868033
0.05208013
-0.08631638
0.00015611
-0.02805910
-0.02985625
-0.02873266
-0.01482545
-0.08142243
-0.01668917
0.01890430
-0.08220614
0.04941163
-0.12649639
-0.07091208
0.02331963
-0.03891310
0.01237544
-0.06333136
-0.01574967
-0.06826336
0.03126019
-0.07808760
0.00073131
-0.09694043
-0.10849463
-0.02805619
-0.10631848
0.05036302
-0.10922313
-0.10910679
-0.07372282
-0.02913676
-0.07692224
-0.01903314
-0.09078532
0.04317316
-0.04949467
-0.01127799
-0.08952872
0.03222400
-0.01883516
0.09522051
-0.07589487
0.02482903
-0.06986178
0.01717374
-0.05601060
0.08474334
-0.06121267
-0.05001069
0.02046247
0.04275587
0.00653493
-0.04029258
0.02859048
0.03885022
-0.01312796
0.04002175
0.05400384
-0.03345995
0.03505723
0.09691367
0.02873728
0.00266578
0.05225908
-0.05185211
0.01525836
-0.09607645
0.02281703
-0.06150465
-0.01687096
-0.08256494
0.06909976
-0.09258831
-0.02151943
-0.09262000
0.08226165
-0.03484024
0.01110244
-0.01732604
0.07981594
-0.09494132
-0.05713647
-0.06106021
-0.04854636
0.04225708
0.02064224
0.01369628
0.08497189
0.07797484
-0.03536634
0.03030719
-0.04662854
0.06013327
0.05914214
0.02606129
-0.07885938
0.07412486
0.09517904
-0.01837083
-0.06135457
0.06289061
-0.03629211
0.09068812
-0.05200079
-0.01865584
-0.08981914
-0.09300797
0.00874653
0.06460093
0.04368730
0.01315518
0.01903991
0.03570891
0.02198957
-0.01219733
-0.00962423
0.00016839
0.11187840
0.09005734
0.02038789
0.00817087
0.02223422
-0.02860102
0.01017255
-0.05249696
0.00846482
-0.10941694
0.02596323
0.06265518
0.06173942
-0.09017132
0.06711035
-0.07445805
0.11462810
0.03719047
0.02776696
0.05094858
-0.03322373
-0.03226133
0.06717715
-0.02206106
0.09834228
0.03612355
-0.03418312
-0.00534917
0.03522406
0.04523560
-0.00032389
-0.02586850
0.07503457
0.03988217
0.01997407
0.08411786
0.03572020
0.05718535
0.06715262
0.03846397
-0.06366211
0.00814299
0.06912365
0.00559034
-0.01114980
-0.01937931
-0.02056901
0.03362718
0.05901504
0.06417796
0.09420983
-0.09058271
0.00957552
-0.07853917
0.07568443
-0.05806374
-0.05610803
-0.09408249
0.03267666
-0.03792787
-0.03479037
0.01707532
0.01229015
0.04824642
0.02391197
0.06020416
-0.06025715
-0.07469247
0.05315416
0.03282523
0.05672496
-0.02646148
-0.10364431
-0.06866194
-0.04713865
0.00358585
-0.02356452
0.09524991
-0.00121121
0.08878871
0.03042522
0.03963053
-0.05092288
0.08557180
-0.09048400
0.02077809
-0.08330248
0.04925192
0.08867278
-0.04340113
-0.03606306
0.09530672
-0.03041430
0.03426267
-0.02355226
-0.04782148
-0.05876109
-0.05824505
0.11456731
0.05277699
0.00281678
0.03804496
0.08804033
-0.06937622
-0.00568956
0.05347916
0.09881330
0.04008788
-0.00612925
0.03016983
-0.05146035
0.01145874
0.02182096
0.02225974
0.10419927
0.07158159
-0.05839109
-0.02384311
-0.02904680
-0.00384678
0.03666906
-0.00673172
-0.03413468
0.08890188
0.07715659
0.07358167
-0.04312502
-0.06174559
-0.05331497
-0.05539733
0.03381065
-0.06693680
-0.05164171
-0.03143199
-0.01136178
0.02799735
-0.00514251
0.07338958
-0.00742400
-0.02767681
-0.04008671
-0.00366952
-0.04985829
-0.02582542
0.06367301
-0.08673737
-0.08330423
0.07382278
0.05584707
0.04977530
0.05168069
0.06281572
0.05805647
0.07146095
0.04334916
-0.06792788
0.05398778
0.02090802
0.02705122
0.02982936
-0.03571964
-0.02542524
-0.03850762
0.00742431
-0.10970842
-0.01954099
-0.11708044
-0.04578073
-0.06988164
-0.05284099
0.01674013
-0.09299350
0.01549734
0.03970632
0.02159111
-0.07053236
0.07927492
0.01141705
0.09810519
-0.00915699
0.08984125
0.00601596
0.07244436
-0.07672269
-0.04443066
-0.09548169
0.00013308
0.06600632
0.06728015
0.03145077
0.04707244
-0.00783293
-0.02990225
-0.00576113
0.09308169
0.10903682
-0.06102192
-0.00927727
-0.00222426
0.09182358
0.06682166
0.09141957
0.05460474
-0.02784860
-0.03862648
-0.00162358
0.02776741
0.14443835
-0.00305795
-0.00804442
0.09443744
-0.00909361
0.11311000
-0.00372327
0.04276212
0.08675495
0.03116919
-0.08659489
0.07448246
0.05585249
0.06647744
-0.02189731
0.01596393
0.05781771
-0.04870089
-0.03519808
0.07262990
-0.09785184
0.01555655
-0.07572819
-0.06524598
-0.04322602
-0.06442245
0.06621847
-0.07826795
0.06413005
-0.07142969
0.06789587
0.04385028
0.07357653
0.01768840
-0.07794291
-0.01532024
-0.02752282
0.01316493
-0.05450868
0.06111216
0.02224253
0.03919972
0.04833940
0.01292763
-0.09445236
0.05011924
0.08338151
-0.07578643
-0.01216681
0.00029815
0.07838100
-0.07771092
-0.08830452
0.05363744
0.03383121
0.06242884
0.02468866
-0.08429156
0.08809731
0.05741436
-0.03529235
0.04510174
-0.01391441
0.03308635
0.06377623
-0.07996981
0.02226858
-0.04440728
0.05910082
-0.06327962
-0.07700506
0.03594493
-0.03764080
0.06914649
0.01716265
0.00203335
0.07707548
-0.06526518
0.02257759
-0.07040066
-0.05315559
0.02475299
0.00556265
-0.15235535
-0.04953977
-0.02212463
0.09578900
-0.04226910
-0.04496397
-0.04073580
-0.01324964
-0.00772085
0.10195107
-0.07662475
0.06567849
0.05243269
0.00442009
-0.04754310
-0.00257816
0.01392763
-0.03393585
0.09923253
-0.01273345
-0.02339373
-0.06936094
-0.03621688
0.04553865
-0.02578121
0.02375082
0.10013977
-0.01579482
0.09728332
0.11150824
0.03306140
0.01359236
0.05135525
-0.05930658
0.01259184
-0.05923364
0.03009930
0.03989764
-0.00287424
-0.09760488
-0.04796849
0.06439118
0.05011073
0.03474919
0.09439586
-0.05923269
0.07627695
0.01931387
0.03830632
0.07229176
-0.00795614
-0.07609655
-0.09954866
0.03098602
0.09041402
0.01268552
-0.01550094
-0.03483307
-0.02096348
-0.06701353
0.00652530
-0.11025943
-0.09766881
-0.05486320
0.07382057
0.06951757
0.05286797
-0.08660595
-0.06793370
0.01413879
-0.08822452
-0.05834585
0.06081143
0.04317891
0.04330885
0.04769347
0.01660403
-0.05623591
-0.00854548
-0.05462095
0.03413952
0.03610655
0.04439808
-0.00506240
0.03868761
0.01910108
-0.03497822
-0.07944501
-0.00561130
0.01173301
0.02330604
-0.05315527
-0.04059925
0.08172870
0.09880968
-0.01499012
-0.05168479
-0.00475531
-0.09347605
0.02383397
0.07253635
-0.06326044
-0.07968297
-0.03480956
0.09691790
-0.05415181
-0.03172954
0.05784858
0.05646595
-0.03539199
0.00710124
0.07117712
-0.01338681
0.01384959
0.00187135
0.01682512
0.12321760
-0.02874321
0.06708135
-0.02095561
0.05236959
0.05363893
-0.04963512
0.05345027
-0.07722319
0.00646950
0.08695743
0.11880886
0.02053721
0.07811708
0.09944265
0.00391931
0.08051278
0.05773746
0.02109956
-0.01217589
-0.01975735
-0.04148513
0.06934690
0.08366792
0.09877400
-0.09720877
0.08402846
-0.07841348
0.06366489
0.09595853
-0.05510124
0.02552693
-0.00598616
0.06952257
0.02138801
0.07293823
0.04783509
-0.09052653
0.06849712
-0.09346856
0.01693369
-0.03737069
0.11102286
-0.08557787
-0.05986277
-0.09305924
-0.04529536
0.05522907
-0.03413653
0.01553380
0.09487172
-0.06549403
0.05496667
-0.05776686
-0.01902999
0.02943040
-0.00608084
0.07246475
0.08670629
0.09601212
-0.06760897
-0.09014181
-0.09330978
-0.00330442
-0.03314094
-0.01769934
-0.08125121
-0.00330053
0.06430511
-0.03437962
-0.08565904
0.05946785
0.05889932
0.05734689
-0.05956618
0.09225950
0.09753621
-0.07626577
0.04249223
0.08171811
-0.02902740
-0.05500474
-0.05112180
-0.00474246
0.06192212
0.03157550
-0.02535679
-0.08025754
0.08496955
-0.06463869
-0.01973433
0.06674823
0.00900278
-0.03758139
0.02841380
0.05034779
0.06890893
0.09341098
0.04588367
0.11259046
-0.06861002
0.04197712
-0.03501269
-0.06053365
0.01250092
0.00011627
-0.01331432
0.12457204
0.12960882
0.10288360
0.04875396
0.10677374
-0.00986413
0.06625784
0.00248387
0.12634864
0.12783958
-0.02145010
0.07772207
0.08184068
0.11095662
0.03882863
0.06428328
-0.06588592
0.07396042
0.02724837
0.04235799
-0.04296861
-0.02649250
-0.00823064
-0.07839712
-0.08048113
-0.10005125
0.07663049
-0.00289457
-0.07447529
0.07266067
0.02130415
-0.09811851
-0.01193147
-0.00565602
-0.01826750
-0.09100041
-0.04176064
-0.04756868
-0.03367716
0.08715995
0.01447771
-0.05849980
0.03722824
0.03188740
0.05695351
-0.06407562
-0.04809315
-0.07653740
-0.07651770
-0.06021502
-0.06853503
-0.03641842
-0.08105863
0.09100193
0.09016932
0.02444893
0.02594457
-0.01353518
0.01958317
-0.02010969
0.01712223
0.01299068
-0.03781113
0.05435670
0.01072203
0.03183577
0.02070171
0.02939450
0.07245088
0.04667519
0.03342764
0.07228202
-0.01804564
-0.09404361
-0.00254994
-0.01224575
-0.09319548
-0.01121888
-0.04387025
0.01319048
-0.00672134
0.01557519
-0.07350106
-0.03789339
-0.04454120
0.09074026
0.02006838
0.03597384
-0.09100878
-0.02639420
-0.08525989
-0.04833396
-0.01653920
0.07358723
0.06153496
-0.00194306
0.15365270
0.12076289
0.01948999
-0.00689475
0.04442590
0.01444140
-0.00208721
0.05539993
0.05630953
0.00918007
-0.08757861
0.06473232
0.00707640
0.00166403
-0.09255685
0.02474705
0.09599780
0.12405157
-0.17474871
-0.07514394
0.48849744
-0.17804115
-0.25786278
-0.30536236
-0.05391263
