-0.01096005
0.02513836
-0.07700836
0.06455685
0.00122952
-0.07430624
0.02271264
0.04092703
-0.02071543
-0.01575723
-0.09536805
0.05734777
-0.03969285
0.05395223
-0.09469010
0.01555119
-0.05271623
0.02265749
-0.02107020
0.07463448
0.08071014
0.05370832
0.04689409
0.09990789
0.05445797
-0.04006785
0.03839511
-0.04738295
-0.00387351
-0.01933608
-0.01478154
0.05473959
0.05311149
0.07009599
-0.04023880
-0.02306320
-0.09891622
-0.03714993
-0.01333909
0.02178921
0.04575564
-0.11436131
0.02662369
-0.00238388
0.07211509
-0.00112711
-0.03748295
0.04279226
-0.03049834
0.05988953
0.03922074
-0.01371450
0.03170773
0.01364669
0.00371806
-0.00496175
-0.09875488
0.00669962
0.05631344
0.05933115
0.03215089
0.04043511
0.07517800
0.02248202
0.02343175
-0.03357727
0.02809446
-0.00975010
-0.06512724
-0.06819571
0.02929662
0.01098592
0.04333887
0.07189731
0.01067363
0.05041328
-0.07837302
0.03201954
0.05518475
-0.07049898
-0.01046035
0.02985718
-0.07447809
0.08035519
0.08018762
0.04841280
-0.00043073
-0.02606484
0.06890137
0.08931679
-0.06149580
-0.08353311
-0.03161781
0.08901641
0.08401586
0.07562146
0.07689858
0.08118759
0.06995920
-0.05927319
0.06590738
-0.01072306
-0.02741950
0.03884678
0.00059992
-0.04305998
-0.04953714
0.00391343
0.08734881
0.04525483
-0.08474411
0.00557770
-0.01300553
0.07501227
-0.08302854
-0.02441162
0.02438221
0.08057515
-0.05790668
-0.05093405
-0.04090786
-0.08180307
-0.04614488
0.01117595
-0.04515445
-0.07310504
-0.04819345
-0.08149014
0.03077285
0.09280614
0.06418875
-0.03941570
-0.01632141
0.04272964
-0.02361068
0.03829546
-0.09078322
-0.05275227
-0.09157735
-0.00520609
0.01378430
-0.02590416
-0.01739755
-0.06358541
-0.06480656
0.08310465
-0.01555754
0.02628650
0.06141610
0.06820103
0.03973846
-0.06061134
-0.00956842
0.03481690
0.01742155
-0.04673696
0.07083255
-0.06168455
-0.08738340
-0.00985926
0.00262955
-0.08047503
0.03250222
-0.08596075
-0.06913423
-0.01279380
0.08907117
0.05998065
0.09733827
-0.01627001
-0.06969245
0.02828193
0.06974434
0.00922084
0.04389415
-0.00044714
-0.03826121
0.08929932
0.01152554
0.02182104
-0.02227708
-0.00810090
-0.02970104
0.09234511
-0.01796803
0.06540295
-0.02499678
-0.06994927
0.04792521
-0.06824252
-0.08285027
0.05388170
0.08836854
-0.00231691
0.02308139
0.01090877
0.01264762
0.08638942
0.06985006
0.06833057
-0.08273995
0.00384335
-0.01530516
-0.05324346
-0.04650260
-0.02854260
0.07014819
0.08918890
0.01709040
-0.01574742
-0.02639335
0.09426374
0.01416772
0.00777631
0.05317808
-0.04884250
-0.01475808
0.01308620
0.04829311
0.00537571
0.09299957
-0.03944453
0.00011631
-0.02235080
0.02832313
0.05788904
-0.02021475
0.05570585
-0.10948070
0.01658678
-0.07569776
-0.07204444
0.01550538
0.03712494
0.06662398
0.01164183
-0.06929389
-0.04019706
0.08180582
-0.08063556
-0.04987281
0.07484879
0.04695613
0.02696260
0.05065945
0.07445239
-0.06858883
-0.00093256
-0.01855584
-0.09753085
0.04447951
0.03109363
0.06564388
0.04301008
0.06451677
-0.00304735
-0.09788670
-0.00031178
0.01414763
0.04697855
-0.04919621
-0.06202854
-0.05773738
-0.08862528
-0.02120398
0.03592184
0.03505469
0.03342398
-0.05303542
-0.06502322
-0.06632306
0.02849784
-0.03013863
-0.05590558
0.01962582
-0.09232535
-0.09287159
0.06524972
-0.03285749
-0.09098605
-0.09108719
0.07849108
-0.05051864
-0.07700131
0.01395663
0.01088258
0.06741824
-0.03249716
-0.01790011
-0.05543110
0.04035299
0.06805410
-0.01214984
0.03949492
0.03708180
-0.07409444
0.03301192
0.00196937
0.05466787
-0.03859744
0.04185269
0.07527376
0.02386674
-0.05977960
-0.07592738
-0.09343852
0.06671223
0.00093149
-0.00149616
0.03199654
0.07747159
-0.09453181
-0.00346336
0.09224738
0.05678747
-0.04072817
0.08501355
-0.00975903
-0.01965464
0.01540967
-0.08254751
0.02450632
0.09772607
0.00765045
-0.03068955
-0.01902591
0.03018959
-0.01365832
-0.07332574
-0.09557012
0.01592867
-0.01915728
-0.08280631
-0.07018079
-0.03752785
-0.03090839
0.07622571
0.02840761
-0.01930251
-0.04985759
0.08373841
0.02023796
0.04829127
0.07724623
-0.06620310
0.01971849
-0.07987771
0.07529622
-0.09826661
-0.01182800
-0.01767195
-0.05285526
0.02534853
-0.05067846
-0.01743163
-0.05400631
0.09738937
0.01247771
0.06512309
0.02671116
0.01581333
-0.05256107
-0.02146169
0.04925628
0.09451112
-0.02413365
-0.07746610
0.09337366
-0.07659332
-0.08031587
0.05554151
-0.00363202
0.05707828
0.00493827
0.08153563
0.07819656
0.01927184
-0.09392708
-0.05329540
0.09891438
0.00408238
0.06893659
0.09712448
0.09506458
0.09695160
-0.00013710
0.07138775
0.07391277
0.01882336
0.08825108
0.08168057
0.02108849
0.06431959
-0.07872968
0.09965157
-0.08171706
-0.09243072
0.08256845
-0.04246540
-0.02609219
-0.00727049
0.08170441
-0.08765449
0.09533434
0.05954792
0.08059501
0.07243592
0.06227875
-0.02155944
0.04978229
-0.08741694
-0.08942076
0.06751911
0.00739658
0.02993127
-0.08333233
0.04793738
-0.02093846
0.06366352
-0.07799934
-0.09171258
-0.06466075
-0.08213970
-0.02798543
-0.15248399
-0.12355384
-0.07680211
-0.05355518
-0.05066360
-0.03905525
-0.06053233
-0.00385907
0.06115692
-0.05628456
-0.02505701
0.02719837
-0.06830167
-0.07371817
-0.08460515
0.00989583
-0.00735694
0.09768099
-0.02039939
-0.04179314
-0.01271420
-0.05000300
0.06462105
0.00560103
-0.04713968
0.03412758
-0.05501561
0.05571302
0.01553448
0.09864322
0.05364033
-0.09904047
-0.00842876
-0.02986932
-0.00527971
-0.00403963
-0.09810675
0.00235091
0.00375639
0.00568464
0.09625973
0.04203643
0.05214134
0.01480299
-0.07352974
-0.09258700
-0.08456089
-0.07425369
0.03834430
0.01832444
0.02171735
0.06841098
-0.07066003
-0.09152343
0.02207160
0.08467185
-0.03467247
-0.05415955
-0.07009246
-0.04380620
-0.03606466
-0.05461354
-0.04353771
0.03789164
-0.00852822
-0.02207035
0.09776584
-0.06027251
-0.06006221
0.05434044
0.00685866
-0.00315353
-0.08380110
-0.04700991
-0.05927999
-0.03727041
0.01682128
0.01562289
0.03483973
-0.05671213
-0.00007089
-0.02454128
0.03047457
0.01405360
0.07310409
0.03918687
0.03736183
-0.02476064
0.09248817
-0.04725654
0.00952647
-0.03087539
0.06887351
0.04551580
0.04375929
-0.04497555
-0.00684932
0.02254694
0.00330121
0.07768249
0.04021018
0.04136898
-0.03127816
0.06429983
-0.10712683
-0.06443665
0.07744627
0.07874818
0.09735683
-0.09657831
0.06663734
0.08971359
-0.02976906
0.08749619
-0.01083541
0.09833654
-0.03802989
-0.04730438
-0.05959520
-0.08794200
-0.07663018
-0.07904375
0.01103360
0.01842121
-0.03332143
-0.00986487
0.05961097
-0.08310529
0.04019730
-0.01830347
-0.04108995
0.09975407
-0.08986851
-0.01997188
-0.02682291
0.01257042
-0.07744570
-0.07598551
0.06947043
-0.02784894
0.04615881
-0.07740553
0.04702352
-0.02434820
-0.04260440
0.09259154
0.03954203
0.02975301
0.08802097
0.00859284
-0.07776451
0.09360120
0.08282097
-0.00515760
-0.07517431
0.06908277
0.07205900
-0.09479939
-0.03539500
-0.08203465
-0.00447718
-0.00044126
-0.05181847
-0.00817679
0.00273224
-0.08877239
-0.02284803
-0.05475129
0.09975691
0.08254421
0.09488269
-0.03392860
0.00275261
-0.07666704
0.00343785
-0.04719885
0.01449466
-0.01783235
0.04936705
-0.00179358
-0.02278593
-0.05674582
-0.08787998
-0.04375395
0.02015014
-0.05353055
-0.05273856
0.04198697
-0.09348812
0.08362099
-0.02121501
0.03963264
-0.04785263
0.03534345
-0.00632899
-0.04741421
0.08275550
-0.04910587
0.06350701
-0.04032510
0.07495427
0.03006412
0.00760439
0.04084356
0.02873612
-0.09756105
0.00657618
0.06994841
0.02792058
-0.06989077
-0.01827005
0.07057366
0.04995333
0.03000865
-0.04770138
-0.00764963
0.07008548
0.09162113
-0.01184545
0.08874829
-0.09322676
0.07379114
0.03346216
-0.07846903
0.00066055
0.07156615
0.00826427
0.09891303
0.03847340
-0.04768727
0.02014082
-0.05789366
-0.04787121
-0.02897431
0.09582295
-0.02465579
-0.05612445
-0.07788015
0.08114529
-0.01112439
0.07407463
-0.09188114
-0.01208047
0.00902021
-0.03252821
0.04133394
-0.06223649
0.03868480
0.01023350
0.04647091
0.04095558
-0.07302553
0.00815686
0.02432943
0.09156666
-0.03257554
0.07017114
0.02610064
0.08516246
-0.02706014
-0.08550173
-0.03205785
-0.05883860
0.08500960
-0.06442939
-0.04325628
0.08388720
-0.05868782
-0.04270487
-0.04318598
-0.06234793
0.00089903
-0.00388560
-0.08108101
0.09437181
-0.04211995
-0.04845356
-0.00794222
0.05169935
-0.06759305
-0.02320019
0.05369268
0.04252627
-0.08249906
0.10494109
0.03758341
-0.02161918
-0.10358556
-0.04861697
-0.06605058
0.04933752
0.03041457
-0.05390701
0.01293423
0.06021829
-0.09247543
-0.00778276
0.08341707
0.08075592
0.00232973
-0.02214786
0.07847017
-0.03763260
0.06573338
-0.03226254
0.02267350
-0.04616307
0.08240560
0.02534019
-0.04554155
0.04032516
0.04837812
-0.02023162
0.02464817
0.06402738
-0.08579375
0.02524220
0.09808122
0.05987797
0.01699445
0.08555655
0.02798418
0.00081280
-0.01266697
-0.05835195
0.05094975
0.05692075
0.00019986
0.07561333
0.05032674
0.04950164
-0.00079388
-0.05904620
-0.02764686
0.04125382
-0.08658625
0.07792615
0.04137557
0.02629397
0.06480458
0.07682219
0.03417507
-0.00925914
-0.09674292
0.04708568
0.00146050
-0.05057449
0.03366512
-0.02137119
-0.04994438
-0.00166175
-0.05226824
0.09002441
-0.00143228
0.09692937
0.01509622
0.01353340
0.00672085
-0.01758564
-0.05063134
0.08334885
-0.03948808
-0.08237962
-0.07155887
0.00319525
0.02614371
-0.09556886
0.02885271
-0.00366339
0.09241463
-0.07175800
-0.08173849
0.07488931
-0.09619181
-0.05192164
-0.03247644
0.04731967
-0.07815474
0.08494330
-0.04824030
-0.03582510
-0.04413005
-0.07487147
0.02712707
0.08501551
0.04000372
-0.09506607
-0.07032847
-0.13474456
0.01508823
0.02865642
0.02492569
0.04144624
-0.05855680
-0.08881152
0.06819087
0.02585050
0.06189986
0.00191066
0.04816386
-0.08953049
0.02014344
0.09333164
-0.06228919
-0.00746037
-0.08744903
-0.05355916
-0.02906445
0.01795952
0.09674488
0.07311456
-0.09835270
0.09391146
0.04892146
-0.07879474
-0.00015085
0.01270444
0.02930316
-0.01371947
-0.06444805
-0.02830308
0.00600332
0.09242907
-0.00800427
0.05736595
-0.09467477
-0.04617495
0.09892642
0.05565613
-0.01364514
-0.02521507
-0.06532097
-0.05311250
-0.02801326
-0.02974282
-0.03738012
0.07430534
-0.04011272
-0.09696665
0.06913241
0.04989365
-0.03937245
0.09481217
0.00990964
0.02761776
-0.06088691
-0.03801009
0.09236432
0.04463017
0.01762334
0.06735283
-0.06569089
-0.08164328
0.03305413
-0.02036408
0.02998533
0.04952929
0.09094055
-0.06233063
0.06628221
-0.06882699
-0.03150660
-0.09113569
-0.03706410
-0.08397099
-0.00424710
-0.06561215
-0.06556914
-0.03697435
0.00995107
-0.02199367
-0.08512354
-0.04341802
-0.00224629
0.03136446
-0.08911534
-0.06319869
-0.02924061
0.01766525
-0.00608684
-0.02532081
-0.09635585
-0.01690716
-0.06205311
0.02107703
-0.08960652
0.05103902
-0.04083511
-0.01441459
0.01607140
0.07983027
0.05927977
-0.07987942
-0.09005013
-0.02483411
0.22139217
0.18771554
0.06156251
-0.09763643
-0.07922779
0.00190400
0.01124460
-0.00689262
0.04737914
0.07814821
0.01637226
-0.04171759
-0.02030200
-0.02767402
-0.02856485
-0.03386073
-0.03915972
0.02554776
0.09172696
0.05135890
-0.06139652
-0.07171808
0.09202486
-0.02181535
0.06923532
-0.01099406
0.01552264
0.02047548
-0.00094467
-0.00835904
-0.06199098
0.09918294
0.09747760
-0.05166077
-0.03975182
-0.04517084
-0.01338886
0.03302921
0.06040175
-0.05519022
-0.05586596
0.00289036
-0.00464654
-0.04994852
-0.05805143
0.09373669
-0.03934226
-0.01390744
-0.08789832
0.04010971
0.00685447
0.00824554
0.08097742
0.09420854
0.02645834
-0.08995321
-0.01129744
0.08989677
-0.06549113
0.02000391
0.08478816
0.01998319
-0.09503999
0.00215704
0.09643535
0.08049245
0.04258379
-0.02883708
0.06938127
-0.01825241
0.02526801
-0.07241947
0.12574835
0.08489667
-0.03266504
-0.04002783
-0.06594654
0.07210532
-0.08261490
0.01958470
-0.08431637
0.09380972
-0.08385918
-0.07370273
0.01753640
0.12817892
0.03366700
-0.03057999
0.03793136
0.06968746
-0.11209220
0.01668911
-0.07801950
0.03829467
-0.07459948
0.00340907
0.09483095
0.05101461
-0.07839503
0.02111059
-0.08306662
-0.07097811
-0.04841635
-0.02224134
-0.02968465
-0.08204265
-0.06826590
0.00050796
-0.07179970
-0.04585359
0.00266344
-0.03319073
-0.04084707
0.02713985
-0.05963646
-0.06119411
-0.07315526
0.00919282
-0.06334449
-0.05514227
0.06379901
0.00505136
-0.04847610
0.05855550
-0.02114768
0.00752823
-0.02865106
0.04458557
0.03566024
0.09436716
0.08887153
-0.02643897
0.04018499
0.04030153
-0.08897016
0.04714595
-0.05070357
-0.00521209
0.05631420
-0.01593366
-0.01165211
-0.07083001
0.05338882
-0.06654955
0.02656165
-0.01052799
-0.01888280
-0.01622818
0.00430960
-0.08557232
-0.08700279
-0.09536370
-0.05764343
-0.08917699
0.05179297
0.04392840
-0.05690086
0.07587479
0.08205992
-0.04076453
-0.00502261
-0.00950467
-0.00688768
-0.06480021
0.03931030
-0.07974855
-0.01580843
0.06110837
0.02380422
0.00241306
0.05327470
0.04962231
-0.08966934
0.01274251
-0.01736315
0.03511315
0.03701520
-0.09352121
-0.08503446
0.02521103
-0.03687050
0.08807310
-0.00607600
0.05423719
0.09014080
0.05071395
-0.03477481
-0.10365846
-0.02856976
0.06670345
-0.05162156
0.00644932
0.09906191
-0.05444153
-0.02520227
-0.02961677
0.02736504
0.05137196
-0.06486194
0.08650667
-0.03070097
-0.02900461
0.00369748
0.09073636
-0.00159858
0.00482552
0.06141226
0.05475462
-0.03669451
-0.02132698
0.03578593
0.04940045
0.04538917
0.03383687
-0.05945810
0.00635961
0.09838571
0.08121138
0.04477182
0.03855106
0.06569934
0.09782306
-0.00024437
-0.02139634
0.00175061
-0.04012781
0.07549151
-0.08617455
0.05613115
-0.09075453
-0.07378216
-0.09423733
-0.09735582
-0.01965045
0.03927471
-0.03484917
-0.02036687
-0.08631085
0.08190168
-0.00507971
0.01158913
-0.05596354
-0.03382969
-0.01950123
0.00365638
-0.08819895
-0.06941665
-0.07430758
0.00790876
-0.04356891
-0.05961005
0.08340848
-0.00440931
0.00729304
0.07503814
-0.05960579
0.01117145
0.05695529
0.06233240
-0.05545885
-0.05409173
-0.06927979
-0.09630448
-0.02245675
0.03759977
-0.01212447
0.02986895
0.02912931
-0.07406822
0.10425546
0.01480800
-0.03016677
0.07513780
-0.05468383
-0.00385523
0.08264841
-0.01840522
-0.06061370
-0.10365975
-0.04918903
-0.03199001
0.07791345
-0.04771016
-0.05585913
0.02128962
0.04338275
0.09034068
0.02224253
-0.02081086
0.09153334
0.09360210
0.05582157
0.03068492
-0.02159888
-0.08461533
-0.05831281
0.04758517
0.07474031
-0.02362442
-0.00173747
-0.09608075
-0.03337571
0.02678399
-0.00119073
-0.02499541
-0.06413660
-0.07017354
0.01069926
0.03569241
0.01449340
0.05835495
0.07926448
-0.02763561
0.04567509
0.03812505
-0.02315169
-0.04681462
-0.00942163
-0.04989630
-0.07076610
0.06326462
0.06829743
0.04065630
0.00718823
0.03800408
-0.08237906
-0.03670328
0.09780667
0.07617125
0.08696349
0.06319344
-0.03546193
-0.04684085
0.05400895
0.00793230
-0.03608575
-0.02767998
-0.08316052
-0.01524247
-0.00368295
0.08760910
0.01473773
0.06857694
-0.06973257
-0.03861057
-0.08921007
-0.07914964
0.06156337
-0.03886180
0.09342996
0.07226624
0.09746395
0.07705108
0.06499068
0.01995356
-0.06143929
-0.01602893
0.03207747
0.07710658
-0.03939493
-0.05976479
-0.04639053
0.10940857
0.02269947
-0.03207785
-0.01922525
-0.02217175
-0.10499245
-0.09026961
-0.01961845
-0.01235002
-0.04335045
0.04639317
-0.01435645
0.03713442
0.14288639
0.03034182
0.06210182
-0.06845581
-0.05830908
0.00016883
-0.03755039
0.04767554
-0.09004968
-0.06243802
0.00221029
0.00467642
-0.00258965
0.05787739
-0.04944405
-0.11697710
0.05938757
0.04980465
0.05939376
0.03456614
0.06528012
0.01672333
0.04643896
0.06044754
0.02035448
-0.00189089
-0.05487936
0.06633064
-0.03422797
0.01362407
-0.09108587
0.07948478
0.02116497
0.08134386
-0.08837612
0.08286078
-0.10322631
0.00165830
0.05257703
-0.06613187
-0.00032859
0.00149570
0.03585928
-0.00327515
0.01268413
-0.07421316
0.07013259
-0.03404647
-0.00668487
-0.06327965
0.09493357
0.04415994
0.03324933
-0.05692767
-0.01647243
-0.09145382
0.09582981
0.02325054
-0.04847995
-0.08481441
0.07060335
-0.05886783
0.06217278
0.04897769
-0.05516643
-0.09311892
-0.09647810
-0.01317689
-0.06306147
-0.00056530
-0.02661282
-0.03806864
-0.04141124
-0.02862419
0.01669958
0.06100955
0.07359547
0.10133887
0.03493984
0.12235654
-0.03072257
-0.03788787
-0.10064232
0.00086038
-0.00437028
0.05633662
-0.02813546
0.05145330
0.05992606
-0.07627111
-0.04710076
0.04490134
-0.05691419
-0.00241843
-0.05092544
0.03564457
-0.00029136
0.04775971
-0.04888766
0.11644760
0.07583466
0.04178635
0.06607188
-0.02374248
-0.06083363
0.03900184
-0.04172884
-0.08465809
-0.07076683
-0.11425374
0.05002624
-0.10476156
0.04315434
-0.08238291
0.01593817
0.02898159
0.00533643
0.05834748
-0.04659918
-0.02920650
0.05882764
-0.03272449
-0.09653473
-0.02753512
0.06741642
-0.00499272
-0.04456761
-0.06388584
0.04986383
0.01502350
0.05043720
0.00335368
-0.07649311
0.07300233
-0.00776307
-0.10016168
0.04256802
0.06959201
-0.07753741
-0.04207026
-0.02731530
-0.08511058
0.07987803
-0.00959358
-0.06661013
-0.06814467
0.08731944
-0.04197530
-0.06822804
0.06671762
-0.05635575
0.07217346
-0.01467029
-0.06604642
0.07333199
0.09161359
-0.08905336
0.04496229
-0.03729485
0.07842166
0.01917906
-0.07870723
0.09290675
0.01061750
0.00234360
-0.03146545
-0.03657845
-0.10567937
0.06030114
0.04764028
-0.02353226
0.06592219
0.10459025
0.06757585
-0.00894580
-0.03389009
0.00600827
-0.03505622
0.03517605
0.09802357
-0.02082933
-0.07366327
-0.01743330
0.02804142
0.01166010
-0.11124166
0.10114703
0.00833955
0.02741905
0.00896427
-0.14255281
0.00926701
0.06639893
0.07865878
0.01026141
0.00203550
-0.04054722
0.01676878
0.02910699
-0.00847012
-0.06291004
0.06568686
-0.06340421
-0.00708799
0.05846051
-0.03778981
-0.07411629
0.05981120
0.03862163
0.04873173
0.07352345
-0.07727448
-0.02736883
-0.09771699
-0.11221048
-0.07663884
0.05469185
-0.04443345
-0.02369121
-0.08374724
-0.08421335
-0.00801552
0.09182143
0.08326426
-0.10710665
-0.05237077
0.00724693
0.02317477
-0.09303349
-0.05027943
0.01564409
0.07483084
0.05230160
0.00104293
-0.05647651
-0.01405557
-0.05213525
-0.09760832
0.02377033
-0.04769926
0.03256702
-0.00406701
-0.03319298
-0.08979221
0.09485858
-0.06326916
0.05250510
-0.02318158
0.01463751
-0.01039736
0.07963535
-0.03783263
-0.00719514
0.06007926
-0.01544099
-0.04570761
-0.07633739
-0.01559152
-0.06348792
-0.05875289
0.04521256
0.03502561
0.02065898
-0.03321074
-0.03784660
-0.02327200
0.00052161
-0.08431553
0.01326780
-0.01504912
0.03400702
-0.08027141
-0.03816301
-0.02477514
-0.02371650
-0.03321797
-0.02774646
-0.03414474
0.01717948
-0.05558602
0.05857224
0.01380441
0.04327615
-0.00765666
-0.01654280
0.03323256
0.09274161
0.10458606
-0.07537445
-0.06516489
0.05112112
-0.00296860
0.02373369
-0.05054957
-0.04983943
0.06076229
-0.10014606
-0.06200005
-0.03990195
-0.05758471
-0.00736300
-0.08028072
0.08567349
-0.07976510
0.06072392
0.03171546
-0.02631663
-0.08308833
-0.02549389
-0.02643730
-0.06914987
0.03430238
-0.07257341
0.08783332
0.08236634
0.02279665
0.03461387
-0.06468170
-0.03849506
0.06255379
-0.03125208
0.03798815
0.01923106
-0.01926705
-0.04779146
0.03788216
-0.03040667
0.02618870
0.09353414
-0.08653155
0.02006951
0.01761014
-0.07246759
-0.09210987
0.09572671
-0.04750456
0.03441554
0.08599768
0.09059230
0.04930104
-0.09162794
-0.09499187
0.05256139
0.04726634
-0.05655435
0.01794233
0.02107380
-0.09761969
-0.09464556
0.06855260
-0.06688348
0.02291619
-0.03233632
-0.08656362
0.02713691
0.03113489
0.07834226
0.04956132
0.10985771
0.00640723
0.05275576
-0.00266435
0.03060496
-0.02270608
0.01188834
-0.05259253
0.06869441
0.08060145
-0.00324206
0.02510269
0.05472534
-0.01355679
-0.05104263
0.05094745
0.02929148
0.05089947
-0.00833922
0.09139571
-0.04016543
-0.01642795
0.02609673
-0.06615930
-0.02760894
-0.03427956
-0.03093123
-0.08432526
-0.02927652
0.02572373
0.03487430
-0.00937797
-0.08818699
-0.01167294
-0.02869220
-0.08293620
0.07922947
-0.04530087
0.01153268
0.01106234
-0.03216768
0.09748493
-0.07227606
-0.05544997
-0.00777542
0.06923197
-0.00248710
0.03203346
0.02279322
-0.05663256
0.06783491
0.09057763
-0.06253990
-0.02613230
0.03256196
-0.06071815
0.04163250
0.08545569
-0.02259080
-0.00834031
0.03390456
0.03564977
-0.08688380
0.01859735
0.07389915
-0.08264331
0.06723091
0.06005927
0.00027591
-0.09429187
-0.02986727
-0.07591181
0.06322493
0.01032366
0.01944542
-0.00433623
-0.09455846
0.04142789
0.05555061
0.06863658
-0.05415108
0.08662115
-0.04802907
-0.01629894
-0.03613611
-0.04768521
0.06180015
0.03494847
-0.08193302
-0.00921802
-0.01388048
-0.00586817
-0.07215069
0.00712516
0.04734042
0.05400522
0.10869739
0.06169269
0.05499124
0.01861872
-0.00756827
-0.09854949
0.02211948
-0.03598369
-0.06614069
-0.07205408
-0.05907227
0.02610361
-0.05341947
-0.09859762
0.10344631
-0.01077067
0.09663706
-0.06903280
-0.07411133
-0.06293758
-0.08281317
0.01041073
0.00878877
0.09366091
-0.02327996
-0.07072955
-0.00591257
-0.09240343
0.05165923
0.13135728
0.00988689
0.03899178
0.10265154
-0.08855837
0.05175018
0.09422298
-0.00785902
0.03004080
-0.04786366
0.02729848
0.01070666
0.03776161
-0.03898564
0.05893048
0.09122611
0.07980024
0.04587304
-0.04415593
0.09472303
-0.04224264
0.00479642
-0.00798340
-0.08269079
-0.09755302
-0.06515425
-0.03742435
-0.02950874
0.04581693
0.05883237
0.01144581
-0.06128317
-0.06641492
-0.08012540
0.09201682
-0.06794284
-0.05801521
-0.05092283
0.06694351
-0.09712938
-0.00050473
0.03469460
0.00980958
-0.05742062
0.04211774
-0.09838795
-0.03870496
0.01282109
-0.02348048
0.08204217
-0.09514548
-0.05757949
-0.02707117
-0.01344799
0.03424871
0.03233512
-0.06100740
0.08717047
-0.06361037
-0.00013920
-0.00294894
0.07563497
0.01747739
-0.07159327
0.10073868
-0.01710565
0.06089988
0.06821522
0.06854555
0.03104062
-0.01414764
0.09321620
-0.04982724
-0.05572816
0.07765034
-0.05185276
0.06130430
-0.06954798
-0.00801761
-0.04573866
0.00259706
0.09127361
0.02603509
0.06283769
-0.05528577
-0.00354876
0.11723296
-0.03722043
-0.04268779
-0.06300030
0.08458765
-0.01695736
-0.00701378
-0.01858038
0.11616110
0.06263581
-0.12325070
0.04423111
0.05505056
-0.05898005
-0.02507954
-0.06864550
0.01413522
-0.09684785
-0.09444167
0.08401349
-0.07434809
-0.04751246
0.09537277
0.05050399
-0.06881237
-0.04142736
-0.03910166
-0.08061827
0.03002443
0.07417223
-0.02252635
-0.01050626
0.02416334
-0.11910354
0.01631856
0.00064602
0.04368650
0.09935660
0.04640535
-0.01718519
-0.04800810
0.07889511
0.00797020
-0.08869579
-0.09152239
0.07700691
-0.06391634
0.06683473
0.01721357
0.08449762
-0.07460152
0.00396466
0.05938239
0.04826461
0.05904096
0.03939464
-0.06402922
0.05191366
-0.05726692
-0.03434984
0.07788962
0.08974394
0.06696110
-0.06351331
-0.08601250
0.04737182
0.06769221
-0.06947459
-0.00057821
-0.04408650
0.12181582
-0.02957196
-0.05526857
0.11807867
0.01574860
-0.05742663
-0.02469574
-0.05723931
0.09592743
-0.05328264
0.09613411
-0.05642861
0.09962039
-0.05022787
0.05222072
0.07728822
-0.03964746
0.03394740
-0.06412023
0.00109094
-0.07105292
0.06334959
-0.07835053
-0.08631769
-0.07498084
0.06124951
0.00425790
0.02681726
-0.07421375
0.06230085
-0.02592910
0.03668342
0.04763032
-0.04921721
0.03963721
0.10356816
-0.05074443
-0.08665013
0.07958372
-0.05476493
0.06632204
-0.08730136
0.07873089
0.10190904
0.02667621
0.04857676
0.03494755
0.05195578
0.06167345
-0.02139688
0.02306107
0.01756126
0.01882606
-0.09878266
0.00102763
-0.07539687
-0.03670310
-0.02534803
0.00244019
-0.09468811
-0.04371507
-0.04932887
0.01685967
0.08832038
0.08063427
0.06538413
0.12524128
0.08622886
0.11093698
0.03217213
0.05701325
0.01137990
0.07015744
-0.01266286
-0.00379831
0.01230412
0.06092387
0.02742442
0.06017773
0.00882397
0.05212375
0.00206852
0.01228995
0.02714441
-0.04485007
-0.00667134
-0.02903330
0.01619715
0.02108640
0.06676958
-0.09041391
0.08602480
-0.08457260
0.09737828
0.03822277
-0.05290844
0.02276027
0.05554404
0.10594766
-0.07610978
-0.05550222
-0.03972808
0.05357624
-0.08400224
-0.06783983
0.06849225
-0.04667562
0.09027406
-0.00333499
0.02444399
0.02035142
0.05118995
0.09343829
0.09637525
-0.01363142
-0.06720933
0.09413406
0.03579372
0.08559753
0.09806002
0.00485186
-0.02028002
0.01630616
-0.05620744
-0.06988470
0.07207796
-0.04357358
0.03162766
0.02094565
0.03141332
0.07142828
-0.04914197
-0.08013456
0.00494318
0.03991368
-0.07012581
0.04772138
0.07668593
0.04598562
0.05545863
-0.00881716
-0.09600807
-0.04628903
-0.01721032
-0.03855721
-0.08252633
0.04066192
0.03885938
0.08497409
-0.09542132
-0.06235661
0.05527433
0.04004929
-0.02499323
-0.00583023
-0.04107086
0.07766661
0.05385951
-0.07725762
0.01805876
-0.06899167
0.00018437
-0.08843678
-0.07736876
0.05521523
0.05829850
0.00874879
-0.00885543
-0.10157374
-0.10984858
0.05880985
0.07459254
-0.10328031
-0.02143393
-0.03597581
0.09332755
-0.07787746
0.09450533
-0.01249997
-0.06931614
-0.01883610
0.03706270
0.00800671
0.05041855
0.01384805
0.09863155
0.01525385
0.02654859
-0.03769280
0.04036006
-0.07861900
0.07673129
0.10101710
0.05861014
0.05497219
0.03529381
-0.09400650
0.02578590
-0.09716710
0.02505961
-0.09539944
-0.08038690
0.01530006
0.09318782
-0.07095991
0.09585299
0.05187792
-0.02618161
0.06794376
-0.00757595
0.09170157
0.04058416
0.09257256
0.05009480
0.04641921
-0.01705207
-0.02861671
-0.06934151
0.06239493
0.03101104
-0.05144102
0.02012706
-0.07296519
0.04595993
-0.07203714
-0.05143740
-0.01977272
0.09707621
0.02714489
0.00212945
0.01625642
0.09307623
-0.00515356
-0.03356049
-0.01473318
0.00287778
0.02398420
0.03534131
-0.07424640
-0.07925796
0.06049608
-0.03792078
0.09008278
-0.02947805
-0.01778837
0.02574966
0.08880391
0.06262797
-0.04573116
0.05522661
0.00432065
0.08218606
0.00467090
-0.04414454
-0.02801183
-0.08215185
-0.07876745
0.04093938
-0.03060915
-0.08286348
0.02301084
-0.07735967
-0.01564783
-0.01768185
0.04659330
0.04840774
0.03145787
0.02720771
-0.03064111
0.01322934
-0.10782914
-0.00275624
0.04769989
0.00312702
0.09476675
0.00163034
0.09974108
0.06064239
0.07196444
0.08762535
0.08969563
-0.08863798
-0.06719608
-0.08023135
0.00895102
0.05767676
-0.08767132
-0.09382341
0.09407849
-0.08874585
-0.05188491
0.02666685
0.07447656
-0.06295688
-0.05386256
0.07780515
0.07272782
-0.03994652
0.02350886
-0.07849983
-0.09806555
-0.07121659
-0.02149475
-0.02508890
-0.01829541
-0.07896977
-0.09657463
-0.00982503
0.03899916
-0.03964059
-0.09076558
-0.07270836
0.09034579
-0.09724354
0.06485223
0.08626521
0.02789374
0.06980576
0.09218140
-0.04884290
-0.02653185
0.07151167
-0.04123084
0.05600600
0.02992755
-0.04860398
-0.03641022
0.05599565
-0.01498837
-0.09560063
-0.05755921
-0.03253952
-0.06227690
0.05738820
0.06966202
0.06813720
-0.06791937
-0.04352288
-0.04295243
0.03097712
0.01995016
0.01481881
-0.02424722
-0.08120985
0.09476580
0.02784614
-0.09651891
0.06939573
0.03202224
0.06574695
-0.00917833
0.06701380
-0.07408708
-0.07499240
-0.05630426
0.03927657
-0.05207982
0.06257032
-0.05637329
-0.03119729
0.02924687
0.07490057
0.01014461
0.06878384
-0.07907182
-0.09431064
-0.02505079
0.04532080
-0.04694557
-0.05880399
0.06030783
0.07805362
0.06330158
-0.03076348
-0.01068656
0.07576301
-0.06658634
0.00390914
0.00022960
-0.07058235
-0.09530731
0.03711299
0.01810566
-0.08719595
-0.04889046
0.04402762
0.01228657
0.03774387
0.06713510
0.07335113
-0.05801143
0.05052622
-0.03586473
-0.05539016
0.01780469
0.02069147
-0.05608926
0.04853124
-0.02456496
-0.09637930
-0.03324227
0.08736265
0.03545249
0.07720339
-0.08631459
-0.02789198
-0.08622542
-0.01595322
-0.07773216
0.02830456
0.01707584
0.01848127
0.02230392
-0.06335665
0.07154326
-0.05864336
0.04560497
0.06395090
0.09288075
0.07827625
0.08317284
0.03210618
0.05184444
-0.03082620
-0.01938730
0.02873571
-0.04179126
0.07665643
0.09553050
0.06939768
-0.07123379
0.04740506
0.02893233
0.06168029
-0.01455749
-0.07586586
0.08622399
-0.06439408
0.05243732
-0.00104090
0.07530113
-0.09647615
0.05711899
-0.09076100
0.06528642
0.04698058
0.06048758
-0.03520010
0.05355761
0.02121217
-0.04111631
-0.00751266
0.06171582
0.07840839
-0.08434982
-0.00145208
-0.01789159
-0.05719947
0.02963515
-0.00284199
0.09414779
0.01611176
-0.09106656
-0.07221361
0.06828844
-0.03236756
-0.07659458
0.03871153
-0.09664432
-0.01134745
0.07314336
0.06426122
-0.02583616
0.04629899
0.02929658
-0.03328105
-0.04825238
-0.04025367
0.09809301
0.04181519
-0.05962583
0.06682795
-0.02540064
0.01321822
0.08482413
0.00012065
0.00816150
-0.01730427
0.06062002
0.09543361
0.03124896
0.02025936
-0.06956896
0.00465312
-0.08818438
-0.09692458
-0.04194150
-0.00762230
0.08156048
0.06410005
0.06812455
0.06171219
0.02755952
-0.05243999
-0.10671512
-0.03573978
-0.01748756
0.03907239
-0.04961178
-0.06341952
0.00355792
-0.09147029
0.07994733
0.03607074
0.00660657
-0.07281092
0.00340129
0.00871440
-0.00671761
0.06610788
0.08925027
-0.07645643
-0.04686395
-0.02592376
0.05244055
0.03652266
0.07277706
-0.03928924
-0.04848858
-0.06344151
0.01610332
-0.03574377
0.06364015
-0.07503481
-0.06641486
-0.07341978
-0.07018529
0.04342102
0.08807294
-0.03636257
0.03320810
0.01876994
-0.05224423
0.00321463
0.06196110
0.04348963
-0.00217521
-0.04626159
0.01274181
-0.07742405
-0.02140152
0.01504751
0.05801013
-0.08290074
0.08339463
-0.08690052
0.08019619
0.09626187
-0.05206858
0.03144112
-0.05214846
-0.08310922
0.00432731
0.05864730
0.07895359
-0.07141007
-0.00216876
0.01261779
0.03732621
0.01576976
0.03875980
-0.09925286
0.05852098
0.06405931
0.03509783
0.00602121
-0.10037151
-0.04658968
0.04939706
0.06666988
-0.09285622
0.00189406
0.07579537
-0.04045911
-0.01427398
-0.03463724
0.03277639
-0.02701613
0.02985610
0.00868758
-0.06888630
0.01835681
-0.08740968
-0.07542114
0.02371409
0.01896283
0.09570430
0.00987358
-0.00531551
-0.00772846
-0.09813983
-0.03664078
-0.06279404
-0.06141786
-0.01173985
-0.05168031
-0.06136357
0.05366800
-0.03292828
-0.00248928
-0.02068709
0.02700283
0.05646881
0.05243110
0.06056039
0.02927288
-0.09772581
-0.00982521
0.09645910
-0.00472874
0.00078087
0.06787465
0.03595757
0.05944737
-0.05440755
-0.06078613
0.00220689
0.05209389
0.08714014
0.02876221
0.04799158
0.03736094
0.02810978
-0.04476327
0.07664760
-0.05628661
0.09362138
0.00714764
0.03295794
0.02568586
-0.09751075
0.02362593
-0.02274939
0.03202500
-0.07103986
0.06373881
-0.07993323
-0.04325182
-0.02397585
-0.07916616
0.03299080
0.06629716
-0.03350103
0.06850860
0.00201154
-0.09220942
0.03795457
-0.02757009
-0.03286804
0.08909169
0.02165493
0.03840837
0.08151103
0.05410493
0.06648515
0.05999658
-0.09728201
-0.03639985
-0.09978534
-0.03188025
0.07169834
-0.03839612
0.08693273
-0.00514761
-0.00283108
-0.04696231
-0.04259210
0.04770133
-0.09873953
-0.07567242
-0.07714311
0.03469284
-0.06614981
0.07264166
0.06006881
0.07062319
0.09587081
-0.04945446
0.09162227
0.04883369
-0.06670509
0.05914276
0.09278373
-0.05351169
-0.06682057
0.03212408
0.05176463
0.02097544
-0.01413976
0.03404219
0.10333035
0.04190959
0.00217811
-0.02671985
0.02402098
0.02119091
0.05876646
-0.08782142
-0.08502139
-0.08443422
0.05154995
-0.08773883
0.06038262
0.00815943
-0.09979420
-0.05374469
-0.00670015
0.07754556
-0.03575495
-0.02754095
-0.09813314
0.07561609
0.05646160
-0.06947127
-0.09838650
-0.08405160
0.09544259
-0.01518543
0.09199091
-0.01822636
-0.00733597
0.00334028
0.04347165
0.07492673
-0.03776059
-0.08087265
-0.08283505
0.05467190
0.09607542
-0.00005210
-0.03516417
0.00006047
-0.04507342
0.02554883
-0.01645358
0.06633127
0.03822024
-0.08149464
-0.02927148
0.03646723
-0.06697584
-0.07720857
0.08135344
0.08607332
0.04003432
0.01922430
-0.06561171
-0.03547589
0.08282105
-0.07920974
0.03311785
-0.09520266
0.07426377
-0.09687381
0.08819813
0.05917391
-0.08716444
0.05024301
-0.01420109
-0.00316979
-0.04713529
-0.06254414
0.07372113
0.07486900
0.05989480
-0.04695998
0.09075370
0.02920791
-0.10061029
-0.01221598
-0.08061724
-0.04019654
0.05238716
-0.02582590
0.06250825
-0.01691301
-0.07624565
-0.09754736
-0.04767048
-0.04378443
0.00408844
0.07645550
-0.00194533
0.05815877
0.08939675
0.06028745
-0.17474774
-0.14584841
0.01054154
0.05941330
0.05826125
-0.04020338
0.08419741
-0.00837868
-0.08464977
0.09427949
-0.06431396
-0.00812366
-0.07740091
0.08753191
-0.08991813
-0.01195334
0.02079793
-0.00680170
0.01633368
0.05155139
-0.01871281
0.06834119
-0.04519511
0.00543359
-0.00775721
0.05109659
0.02142373
0.03756935
-0.04311792
-0.03454566
0.00193176
0.09572468
0.00666380
0.05522653
-0.06721198
-0.02526350
-0.01129988
-0.01944634
0.00251616
0.01055957
-0.09380106
-0.02493379
0.00840770
0.06264679
0.05452389
-0.04086836
0.05400331
0.08699282
-0.07852828
0.04769695
0.07242657
0.05216232
0.08564988
0.03463416
0.02615854
-0.05133932
-0.07132742
0.00920967
0.02489049
0.01805377
-0.06989560
-0.02100260
-0.06938067
-0.08628670
-0.06487179
-0.06756559
0.01926922
0.06878827
0.00334567
-0.03144764
-0.05764208
0.06739995
0.02374062
-0.02677349
-0.05001473
0.06504229
-0.01592320
0.04270890
0.02014467
-0.09199294
0.07733521
0.00347452
0.05493433
0.06771301
-0.07066417
0.08250112
0.00905193
-0.08317742
-0.08251780
0.02821230
0.07284102
0.03876950
-0.08151638
0.07893703
-0.04283689
-0.00931766
-0.07638174
-0.01344331
-0.07654130
-0.09561021
-0.09274207
-0.01676268
0.05283447
0.03200018
0.06411155
0.02046555
0.04662772
-0.07213361
-0.05498152
0.07711994
0.04256272
0.08510814
-0.05970764
0.01725569
-0.04192060
0.01105451
-0.09954057
0.02405755
0.05234097
0.02770972
-0.05462912
-0.01943354
-0.08938619
0.07419336
0.03551807
0.06990152
-0.04957156
-0.08172120
0.06489439
0.04241161
0.07013439
0.03543352
0.04876161
0.00146972
0.05620295
-0.06009955
0.03904726
-0.01960160
0.05830756
0.01177972
0.06003337
-0.08597848
-0.00680589
0.04861435
0.01664183
0.05491427
0.05167296
-0.07228780
0.03730305
0.08875256
0.08071729
0.02416706
0.04094817
-0.01494700
0.01425140
-0.05698206
-0.03561166
-0.02450908
-0.01495832
-0.08749422
0.02084515
0.05260894
-0.04412585
0.04157639
-0.01038872
0.07131013
0.06192034
0.06383997
0.08318064
-0.01068414
-0.03782753
0.03089676
-0.06801794
-0.07416295
0.04872704
-0.00217099
0.08059796
-0.03943304
-0.01912654
-0.07590933
-0.09423923
-0.05813841
0.06997862
0.09623814
-0.06777015
-0.01902935
-0.06428326
-0.01244791
0.05772347
0.12131367
-0.05734603
0.00904074
0.04422899
0.12067280
-0.06802760
0.01268834
-0.02508303
-0.01904765
0.05712160
-0.04920706
0.05127792
-0.11012452
0.00927078
0.05991007
0.03683450
-0.03976870
-0.00526950
0.09180794
-0.06990704
0.01469450
0.00419622
0.00034752
0.03441793
0.02418387
-0.04830574
-0.09844925
-0.00456287
-0.05483073
-0.01764736
0.06131076
0.00674744
0.07655669
0.06733701
0.03979783
-0.02927475
0.08107494
-0.03351324
-0.09987374
0.09131851
-0.01108692
-0.02437580
0.05010086
0.09749096
0.09757555
-0.03491664
0.07904858
-0.01470953
-0.06278777
0.07774586
-0.09877127
0.04113603
0.02249243
0.03235747
0.07149217
-0.03283166
-0.03155340
0.06007883
0.04431171
0.06330702
-0.09457899
0.00927426
-0.07125566
-0.03878271
-0.02646450
0.02976268
-0.02826940
0.03513375
-0.05767628
-0.00564729
0.06899652
0.04127659
0.07252132
-0.03156679
0.02526405
0.00403115
0.06049028
-0.03902040
-0.09728668
-0.07198030
0.04206543
-0.01277133
-0.02121261
-0.03643203
-0.05968322
-0.02416542
-0.04112135
-0.09016017
-0.01604663
-0.02023173
0.03240312
-0.05682620
0.08171114
-0.00304516
0.09621972
0.00278230
-0.12385174
0.05829393
0.04937230
0.03623180
0.02961727
-0.04259235
-0.07119262
-0.06412120
-0.06326313
-0.05322614
0.02337877
0.05306745
0.05960242
-0.06642462
0.02462917
0.02983229
-0.08305034
-0.02223258
0.04982845
0.03241253
-0.05763621
0.00606129
0.05982522
-0.03860530
0.05198990
0.01377747
-0.04005580
0.03592408
-0.06933822
-0.02295189
-0.06670532
-0.08546905
-0.08015784
0.03789953
0.09457831
0.01776050
-0.00100970
-0.07034471
-0.02490766
-0.05235193
-0.01872026
-0.06406735
0.02790717
-0.09794158
-0.08962908
0.04288045
-0.07394206
0.07933136
0.00802796
0.02176794
0.01379563
-0.02634554
0.06810992
-0.00839473
0.03937737
0.01931145
0.04922346
0.05040509
-0.08933567
0.03793615
0.01552134
0.06343734
0.07843187
0.08326453
0.05361847
-0.06015463
-0.00351105
-0.09093438
-0.00356873
-0.03925353
-0.00901648
-0.07521957
0.02613925
-0.09299756
-0.09211226
-0.08697164
-0.00731658
-0.08546423
-0.02101468
-0.02858281
0.06622375
0.04306844
-0.00364299
0.09825659
0.08159363
0.03211364
0.09004532
-0.06649790
-0.02697636
0.02181995
0.03723833
-0.02939626
-0.07792572
0.08995830
0.07324514
0.13543191
-0.00102330
-0.07197113
0.01739464
0.05716561
-0.05603473
0.02599714
0.02232024
-0.01889281
0.02091586
-0.01159012
0.08599998
-0.05304076
-0.01713532
-0.10814200
0.03106378
-0.06174984
0.01972406
-0.01870715
-0.04111387
-0.07007225
0.01971170
0.09375581
-0.02561572
0.08233905
-0.08704847
-0.09995348
-0.01730118
-0.08548115
0.05996245
-0.09474461
0.05496215
0.03867497
0.09187707
-0.03431232
-0.06653536
-0.00763447
-0.03302226
0.08566175
0.09050680
-0.02100117
-0.03330183
-0.07583276
-0.05895729
0.01840968
0.06997760
0.00649043
-0.07488910
0.08148912
-0.06500084
0.07914552
0.01922785
0.00698252
0.04998236
-0.01868547
0.02108865
-0.08125175
0.09438387
-0.04970575
-0.02268483
0.03150002
-0.06387413
-0.02299341
0.02009381
0.04057059
-0.05740160
0.03318500
0.03602956
-0.03186762
0.06437174
0.06783387
0.00202742
0.09021695
0.00965939
0.00979317
0.03225808
-0.09245392
-0.09334959
0.07795637
0.07394813
0.09360619
-0.06255075
-0.04861895
-0.06750515
-0.03162725
0.08777437
-0.07453197
0.04831932
0.04086630
-0.08350646
0.02118385
-0.00243118
-0.05786133
-0.08457561
0.04130990
-0.06259091
-0.08158788
0.00572808
-0.04752124
-0.04895377
0.01922901
-0.06677308
0.02730066
-0.09502803
0.07338974
0.01494311
-0.04726812
0.02417072
0.07391419
-0.06722371
-0.07186335
-0.06420695
-0.06449181
-0.00366328
0.08191073
0.07436664
0.07130110
0.21724249
0.09330490
0.08733332
0.06930064
0.05685443
0.02453960
-0.02987499
-0.09417544
0.03748302
-0.07874073
0.05317968
-0.04836050
-0.02058526
-0.02846314
-0.08852256
0.05007863
-0.07614275
0.05781265
-0.02240794
-0.09694112
-0.06936546
0.01819491
-0.09314958
0.09171992
-0.04211118
0.00018221
-0.00828791
-0.02157219
-0.01354780
0.03652781
-0.02516569
0.00622870
-0.04007195
0.08246699
0.04221957
-0.00928303
0.04105915
0.08673718
-0.07041248
0.04709566
-0.02548952
-0.01590317
-0.00154975
-0.09863341
0.04347339
-0.07343185
-0.03820346
-0.00718775
0.07192686
0.05162566
0.05629435
0.03169351
-0.04583508
0.02519200
-0.00716748
-0.03608428
-0.04056035
0.07463407
-0.09646724
-0.07371606
-0.06825477
-0.07786752
0.05783585
-0.09448730
-0.02535917
0.00395649
-0.04022145
-0.09934247
-0.05173636
-0.08524703
0.05851995
0.06428999
0.00470624
-0.04050982
-0.05617740
-0.01859133
-0.00128888
0.06729652
0.00206727
0.02896731
-0.05236076
0.04711093
0.15522470
0.12400385
0.06224147
-0.09839751
-0.02814244
-0.10345773
0.03668711
0.06426082
-0.10337558
0.08736076
0.07533762
-0.03484083
0.09261902
0.07133019
0.08352687
0.07450933
-0.03177098
-0.06017512
-0.03299514
0.09048296
-0.00929939
-0.02197629
-0.07616044
0.00617118
-0.06878469
0.00759778
0.03333566
0.03230791
-0.04793820
0.00837878
-0.04115205
-0.02050749
-0.05158665
-0.02748875
0.03793599
0.09266538
-0.06121468
-0.03288626
-0.06889540
0.01104996
0.03972768
-0.00426381
-0.06945595
0.01855404
0.01050940
0.09766167
-0.06735922
-0.09084915
0.05790570
0.01667688
-0.05270230
0.05082955
0.09397248
0.06931301
-0.05840637
0.07173768
0.03184863
0.02886544
-0.02519515
-0.02943122
0.09041207
-0.07510814
-0.09431177
-0.07825461
-0.09974307
0.05479901
0.01295806
0.09112255
0.05572873
0.07118762
-0.04670419
-0.02652071
-0.06394214
0.09651467
0.04999670
-0.06066572
0.05388614
-0.07609193
-0.09235376
-0.02834774
-0.04294439
-0.06510047
-0.02336501
-0.08285438
0.09083362
-0.03041058
0.00131566
0.01631992
-0.05850315
-0.02250369
0.01298243
-0.01779263
-0.05002945
0.03590788
0.07264593
-0.03139370
0.09206107
0.01912594
0.05527448
-0.05579771
-0.02371287
-0.07078686
-0.09771162
-0.02523032
-0.00942535
-0.04623372
0.06533578
0.06260055
0.00229634
0.07012551
0.09432684
-0.10013114
-0.00693931
0.07739866
-0.06585821
-0.01358333
0.07766757
-0.01169099
0.01244288
0.07492054
0.00154558
-0.02864561
0.02463420
-0.07033985
-0.05581918
0.02620924
-0.07706118
-0.05781151
-0.07532400
-0.03483687
-0.04344288
-0.04517923
0.03750658
-0.01141059
-0.05125827
-0.00356868
0.07764259
-0.01905626
-0.03836301
0.06054198
0.09138069
0.04068898
0.05468022
-0.06681739
0.06514649
-0.04248057
0.01210269
0.02199844
0.00956424
0.00378858
-0.04113258
-0.04115907
-0.03721513
0.04231823
-0.00954758
0.09416666
0.04740973
0.08957654
0.09331620
-0.08840009
-0.07839700
-0.09089962
-0.01677337
-0.01859480
-0.00863312
0.00618058
0.00279875
-0.08489584
-0.03839109
0.04290630
0.03487233
0.07436463
0.02747895
-0.08362154
0.08952890
-0.02796654
-0.05092661
0.08340125
0.07951969
0.03816642
0.00821549
0.09286888
0.07623240
-0.02228687
0.13677230
0.02275975
0.06763749
-0.02339623
0.03058823
-0.01515191
0.06103829
-0.07229132
-0.05545119
-0.05347031
0.07169447
-0.05860383
0.00533944
-0.04717467
-0.00689256
0.03339382
0.07235828
0.04852881
0.07033801
-0.05519144
0.03748582
0.00639781
-0.02386420
0.00714588
-0.06454307
0.00164209
0.08337127
-0.05018585
-0.02284460
-0.00919390
-0.02517566
0.02873971
0.00119522
0.08494349
-0.01105968
0.00663114
-0.07863641
0.07541808
0.08259558
-0.08822733
-0.02842503
0.03041837
0.01145825
0.03796073
-0.00732263
-0.07444565
0.03209182
0.08386185
-0.01899315
0.04489165
-0.01291723
0.02836682
0.08265755
-0.05625243
-0.02078492
0.08141598
0.00348094
-0.07595676
-0.00315058
-0.09451159
0.07907092
0.06417727
-0.03904946
0.06026250
0.01473857
-0.00278008
-0.01304145
-0.02437691
0.05136962
-0.01000843
0.08858192
-0.03050101
-0.08502351
-0.03420947
0.04152416
0.07352032
-0.05896668
-0.08473660
0.00083757
-0.03552115
-0.08149482
-0.05373762
0.04755937
-0.05447205
0.06638361
-0.03277816
0.02839068
0.05868996
0.07068166
-0.00510766
-0.00078361
-0.04166863
-0.00340991
-0.02218485
-0.10664124
-0.02332450
0.13425769
0.14779537
-0.01986007
0.01273272
0.05950666
-0.04509584
0.11552328
0.09115285
-0.09300607
-0.11187637
-0.10473423
-0.01739368
0.04608277
0.03641194
-0.07267724
0.06353639
-0.09824148
-0.07145342
-0.07920859
-0.02708812
-0.07064386
0.07346528
-0.07819269
0.08134895
-0.04902197
-0.00057697
-0.10798160
0.05297908
-0.00716995
-0.10649581
0.01579302
0.02557987
-0.10063625
-0.06995272
-0.02778207
0.02907450
-0.04875972
-0.02608141
-0.09160027
0.01987230
0.06904303
-0.04031470
-0.05947320
-0.04049896
-0.08841985
0.02790148
0.00647890
-0.06018845
-0.06464208
-0.07341706
-0.08399763
0.07164544
-0.06756060
0.08119966
-0.05119619
-0.02351162
-0.03180313
-0.01267048
0.04979226
-0.08373672
-0.07221705
0.01742088
0.06490192
0.09030276
0.08555952
0.01679280
0.00456210
0.08053953
0.04063465
0.06632887
-0.00690691
-0.10068544
0.07722210
0.00681230
0.03683289
0.08668813
0.01907473
-0.03854678
0.00481103
-0.00529695
-0.03208696
-0.01283507
0.04925699
0.07011961
-0.01785723
-0.06129628
-0.06715941
0.06423538
-0.05241901
-0.02090133
-0.00832680
-0.00897378
0.03522731
0.12130004
0.07702730
0.01426994
-0.08485401
-0.00709296
0.03570444
0.03732114
-0.02845445
-0.07876527
0.00055729
-0.01314240
0.09504105
0.03781586
0.01997553
-0.03335322
-0.03914531
0.00862607
-0.03390449
-0.01545788
-0.06540614
0.05853965
-0.05134496
-0.04237444
-0.09040058
0.06909440
-0.04293907
0.03586560
-0.04858002
0.00495321
-0.00144926
0.02113227
-0.08348902
-0.06463376
-0.04384056
-0.04793644
-0.00362733
-0.04207967
0.07663300
0.04757364
-0.06914553
0.07211410
-0.09348640
-0.04285037
-0.02331923
-0.00800056
-0.08947328
-0.09876628
0.06525177
0.06339823
-0.06941599
-0.02542199
-0.05558149
-0.07963468
-0.02303084
0.03490799
0.02722530
0.02294473
-0.08054493
-0.09402857
0.01532032
-0.02105753
0.02948164
-0.04762777
-0.03863564
0.04666958
-0.00994739
-0.03977957
-0.00804286
0.09773876
0.08819912
-0.09467763
0.02668997
-0.04045627
0.01846661
0.05318896
0.05429038
-0.04153048
0.07362907
-0.01680778
0.00837912
0.02042153
-0.01508697
-0.07449651
-0.12748240
-0.06178698
-0.04095026
-0.02125311
-0.01225507
-0.00919930
-0.07179609
0.02225146
-0.07882958
0.00513424
-0.03362088
-0.06185338
0.01960863
0.01323187
0.09161121
0.00016576
0.02017027
0.07711917
-0.00466735
-0.12558760
-0.13539445
-0.02874291
-0.04395268
0.02508609
-0.04847772
0.00396922
0.03974860
0.01937683
0.07059760
-0.08391098
-0.07655382
0.03566053
-0.05442225
0.07005081
-0.08849779
-0.06026811
0.06784894
0.03423231
-0.05896980
0.04691035
-0.03224592
0.02854487
-0.08434704
-0.01739633
-0.09705222
-0.02247394
-0.08330007
0.08088695
0.05159802
0.05939860
-0.08791798
0.07482993
0.07577003
0.09072604
-0.09997842
0.06617814
-0.07698902
-0.01824396
-0.03862802
-0.00249603
0.07337445
0.06795644
-0.03277980
-0.01962180
-0.05216897
-0.07549439
0.07617103
0.02718175
-0.07718326
0.06820469
0.03686704
0.03170627
-0.03423284
-0.02315405
-0.01254705
0.02270738
-0.08538984
-0.00549032
-0.06877822
-0.04304563
-0.09591556
-0.07802082
0.05605169
0.08141500
0.02461745
0.00437113
-0.08004468
-0.08798090
-0.00715780
-0.07596283
0.03291962
0.03833912
-0.00585860
-0.06150861
-0.07976151
0.06742415
0.09528660
0.03528757
0.04692676
-0.03944330
-0.08402654
0.01506421
0.00631087
-0.11063673
-0.03300917
-0.07004367
0.05225050
-0.03186914
-0.05168401
-0.05912535
0.04977360
0.06900777
-0.06682260
-0.06068637
0.11405481
-0.02803744
-0.04096692
-0.00813468
-0.03588197
0.01478289
-0.08412870
-0.11549971
-0.04583234
-0.02110352
-0.02897650
-0.01000212
-0.05219992
-0.06674860
0.05441055
-0.03273855
0.05033638
0.06378317
-0.07444105
-0.07165385
-0.06583769
-0.08104035
-0.00918170
-0.01682531
0.05674567
0.05580786
-0.08935061
-0.03473516
0.00326977
-0.00689777
-0.06277753
0.06705532
-0.01110823
-0.07245843
0.08338894
-0.00016311
0.01212071
0.02421157
-0.03642563
0.08230003
0.01045876
0.01521590
-0.06440159
0.08527475
0.04747788
0.03771131
-0.04562219
0.02402216
0.02238406
0.09721371
-0.06699574
-0.02283712
0.04243626
-0.09395359
-0.02170589
-0.05231881
0.05974872
0.09079029
0.03184132
0.05367355
0.07149658
0.07811515
-0.05957325
0.06804791
0.07427002
-0.04016546
0.02561939
0.05615259
-0.02534339
-0.03907426
0.03235061
-0.04185679
0.02128431
-0.00771011
-0.00587883
-0.04110266
-0.04713162
-0.03273327
-0.00316317
-0.00164799
0.10614775
0.04239994
-0.00335487
-0.04607713
0.04779527
0.07612590
-0.05383060
0.01584789
-0.06258627
-0.02047737
-0.03032441
0.03764292
0.01986803
0.00334829
-0.04949108
-0.02133633
0.11073433
0.08602176
-0.06898633
-0.00102707
-0.04535349
0.06704115
-0.01297754
-0.09712309
-0.01023057
-0.00582437
0.00062007
0.00483130
0.00018023
-0.00630589
0.04576848
0.05691569
0.02856076
-0.01407996
0.00136195
-0.08019442
-0.06162267
-0.06008541
0.03491067
0.06794738
-0.01036413
0.01672330
0.01280761
0.07299580
-0.06372160
-0.04615612
0.05512826
-0.04542502
0.04542400
-0.02974047
0.00710848
-0.03926876
0.06330337
-0.06222594
-0.02116921
-0.01369553
-0.07742169
-0.01475885
0.09324977
-0.09718488
0.03452097
0.01285524
0.03454570
0.09185643
0.08277748
0.01882623
0.08503066
-0.09386672
-0.09460088
0.08968760
0.01907317
0.09019781
-0.02143432
0.08808280
-0.01011287
0.02483716
-0.05268828
-0.09207572
0.04377840
-0.04829563
-0.08955497
0.04422656
-0.06736968
-0.07071578
0.02350250
-0.05599239
0.04771459
0.02062182
-0.05835746
-0.02043064
0.04243457
-0.04787133
-0.05869541
0.03927481
0.05452607
0.06577017
0.05782252
0.01421605
0.10112762
-0.02348504
-0.05243489
0.03091435
0.09088775
0.04220082
0.05585605
0.04127225
-0.00785361
0.04786182
-0.06134807
0.05388549
0.00909605
0.01075674
-0.00254153
0.04256661
0.03984390
0.03627097
0.05037267
-0.00989202
0.07980518
0.05449814
-0.03076739
0.03439455
-0.01758444
0.04358058
-0.01897930
0.02824735
-0.00596756
-0.05750576
0.07745288
0.04331488
0.08128959
-0.01079947
-0.02859888
-0.05100595
-0.00097003
-0.05980050
0.06283941
-0.02819035
0.04796901
0.05782617
0.02317882
0.00874242
-0.00554834
-0.06693737
-0.04899278
0.05094153
0.06038048
0.05334512
0.09518295
0.02136388
0.07782775
-0.08452148
-0.08594450
0.06455121
0.03852684
0.08262739
0.03327231
0.00132724
-0.00449085
-0.04640076
0.00718525
0.00886547
-0.01166367
0.01531786
-0.01416276
-0.01897149
-0.06147832
0.00053372
-0.05825406
0.06263748
-0.04543121
-0.04705854
0.03246806
-0.04834606
-0.04129055
-0.06970764
0.08365714
0.04848199
0.08688237
-0.07479947
-0.08251221
-0.05705325
-0.03072363
-0.07074464
-0.04071232
0.11895941
0.06451391
-0.07928000
0.10378580
0.09417349
-0.06696872
0.08198649
0.03385788
-0.03152686
0.08950461
-0.04650913
0.02239487
0.04573576
-0.06195101
-0.02057395
0.01018596
-0.02405525
0.07181101
0.09423810
0.07265702
0.02307449
-0.04064307
0.10068591
0.01477578
-0.04131687
-0.06298449
0.03896999
-0.05101064
-0.04333135
-0.02861022
0.10440365
0.02604437
-0.06155213
-0.06152964
-0.06117121
0.01264632
-0.12051153
-0.07808695
-0.00063656
-0.03469337
-0.04780136
-0.04530627
0.06225752
-0.09714254
0.00810823
0.02507671
0.05153217
0.03993876
-0.06958009
-0.01977629
-0.09181440
-0.00373786
0.02661238
0.00399202
-0.00392830
-0.01689632
-0.03276268
0.05918380
-0.02725149
0.06016880
0.05184973
0.03316767
-0.04473422
0.00355744
0.03734347
-0.00327690
0.05903128
0.02394517
-0.04137109
0.05195392
-0.07606960
0.02691192
-0.03985657
-0.02260311
0.02035105
0.04103621
-0.09705254
-0.09138439
0.05211173
-0.02977225
-0.02547465
-0.07032834
-0.01824859
-0.01623380
-0.04889948
-0.04036490
-0.00480042
0.08397900
0.00058286
0.05683424
0.04710075
-0.02826282
0.06255885
0.00404422
-0.03975698
0.08061196
0.10604563
0.02315234
0.07023261
0.00878463
-0.04735927
0.00748662
0.04779007
-0.07879834
-0.05250202
-0.00520678
0.07312798
-0.01133865
0.08901878
-0.05759392
0.05188076
-0.08599946
0.02283797
-0.04484034
-0.04071692
0.03734182
-0.08860571
-0.04258455
0.05337465
-0.00817632
0.01519052
-0.04268377
-0.08748963
0.08434264
0.08520389
0.00434815
-0.06692644
-0.08247312
-0.02798746
-0.05168723
0.03569189
-0.04431392
-0.11147029
-0.01919758
-0.08319113
0.02551726
0.07718604
-0.09282621
0.06239647
0.02416273
-0.01829613
-0.08438637
-0.02702085
0.03778821
0.07478185
0.07961007
-0.07003744
-0.01256040
-0.06225683
0.05475576
-0.01180650
-0.08553832
0.03581676
0.07251772
0.03720397
-0.08788428
-0.03903264
-0.00816001
0.06335067
0.08290877
-0.02610448
0.03625746
-0.04547155
0.02389465
-0.01409445
0.09053290
-0.06921433
0.00485536
0.04414909
0.03071167
0.06421588
0.01640542
-0.00895827
0.07596978
-0.02664315
-0.08723340
0.03448055
0.02599216
0.08492850
0.07367241
-0.05630712
-0.09378438
0.09426416
0.06794040
0.06518742
0.08229097
0.08758176
0.05714038
-0.04115629
-0.06779913
0.08994193
0.05387800
0.05068191
-0.01565875
0.09177837
0.04300873
-0.04098034
-0.07526466
0.04314198
0.08488760
0.01801559
-0.00826527
-0.09510825
0.01769707
0.09892408
-0.08485648
0.01837458
0.08621351
0.04763002
-0.03436869
0.08163975
-0.01997929
-0.02018321
0.03241441
0.08950673
-0.06009500
-0.05148071
0.05235376
-0.08366364
0.04265717
0.00904126
0.09863113
0.00592711
0.07323315
0.00348378
-0.06516517
-0.08923334
0.04730899
-0.05111149
0.09808297
0.06442540
-0.07790525
-0.07065445
-0.05078276
-0.03788070
0.07882851
0.06127921
0.08907849
0.01500754
0.03787888
0.04879744
0.07380145
0.04455906
0.09434281
-0.01132583
-0.09274500
-0.06950379
0.04330078
0.03619831
-0.09130239
0.01953904
0.00546218
0.07951473
-0.00608670
-0.02369228
-0.08027172
-0.03854603
0.09143007
-0.08824317
0.05091919
0.10886930
-0.07301793
0.05290011
0.09905376
0.02369095
0.06598067
-0.07439139
0.01668926
0.00886979
0.02333809
0.02501681
-0.01763118
0.01985344
-0.01809615
0.07248739
0.09054784
-0.01835724
0.03769375
0.05345388
0.01308788
-0.03062751
0.04035195
0.07091372
-0.03412734
0.00038575
-0.08061865
0.09168087
0.08317548
0.14947796
0.20649874
0.05190030
-0.09834509
0.05243535
-0.01862744
0.04572078
0.09047062
0.00622297
0.01699701
0.07652219
0.04555417
0.07006105
-0.01891147
0.03456913
-0.00034701
-0.06022215
0.09708220
-0.03311299
-0.06415742
0.01217848
0.03650149
0.07470522
0.07881460
0.01696034
-0.08860660
0.04235538
0.07050244
-0.08470067
-0.05706621
-0.08255885
-0.05934237
-0.03946979
-0.05134085
0.02862296
0.09307262
0.05851714
0.09051088
0.00108619
0.05287945
0.01769018
0.04824911
0.03575708
-0.02867639
0.05026510
0.00964768
-0.01974810
0.02652817
-0.06575181
0.09004309
0.03117990
-0.10030446
0.04341860
-0.00390300
0.05710860
0.06528487
0.05686807
0.08024836
-0.03566366
-0.03335028
-0.07455272
0.06797855
-0.06330161
0.01827589
-0.06902180
-0.08026606
0.08117488
-0.08912291
0.06485506
0.05572469
0.06998411
-0.05760063
0.03776893
-0.03875061
-0.07111070
0.06376176
-0.00563488
-0.03558078
-0.07523068
-0.05902142
0.02475235
0.01360375
0.06998917
0.01710287
0.08541686
-0.02473872
-0.01182061
-0.01675805
-0.06963969
-0.09566874
0.02050892
-0.09136230
0.04208071
-0.02295645
-0.02116383
0.04597171
-0.08266822
0.03919056
0.05859237
-0.00361943
-0.04741146
0.00086172
-0.06003855
0.00537433
0.08775750
-0.01771517
-0.07778971
0.08108023
-0.06844701
0.00666423
-0.00030756
-0.02207950
0.02392609
-0.06090930
-0.06045711
-0.07224884
0.02939878
-0.02823005
0.05943314
-0.08954216
0.09663022
0.04024504
-0.07177962
0.07901234
0.09423416
-0.03832012
-0.03374838
-0.05190772
-0.03445373
-0.09783850
-0.03834208
0.06110583
-0.01829032
-0.07777692
-0.01220644
-0.04068420
-0.09100926
0.07128257
-0.02292165
-0.01908253
-0.00766518
0.07839363
0.05074557
-0.05193296
-0.02028143
-0.03263003
-0.09878222
-0.02885765
-0.07133335
-0.05423121
-0.02517229
-0.00243561
0.07900244
0.07544534
0.00286089
0.06668338
0.07784189
0.00868243
0.06862409
-0.01385998
-0.02946134
0.06206817
0.08895908
0.06224207
-0.05002504
0.06466369
-0.00240055
0.00093595
-0.09726221
-0.05075436
-0.08116676
-0.09129630
-0.01007400
0.02018093
-0.04453364
0.03457594
-0.04974824
0.06249769
-0.08394896
-0.06230954
-0.01379563
0.01897234
-0.02308326
-0.08863621
-0.07104506
0.08696826
-0.04956902
-0.00193047
-0.01400614
-0.07022064
-0.07430573
-0.07395851
0.00030510
-0.07167397
-0.01082072
-0.03231472
0.04041090
0.02988086
0.02221403
0.04955475
0.08564198
0.07143256
-0.01041249
-0.06411750
0.09263468
-0.03522252
-0.01880383
-0.07480672
-0.06799492
0.07797346
-0.01460952
-0.06127872
0.04750415
0.09452635
-0.04058273
0.04073027
0.00001180
0.07887545
0.09995357
-0.05280203
0.04995781
-0.08721026
0.06632772
-0.03211599
0.10797755
0.07475630
0.01696332
-0.08602938
0.03666184
-0.02240524
-0.06784634
-0.01425631
-0.01086026
0.04237332
-0.00740025
0.00919538
-0.00513227
0.00175675
-0.03509188
0.09364572
0.08872548
-0.03977107
-0.04952532
-0.00539461
-0.04326526
-0.05786094
-0.06633484
0.01408194
-0.04658690
0.02692162
0.00781107
0.09680366
0.03059809
0.04280797
0.02000793
-0.02928509
-0.05901334
-0.01373176
-0.03720229
0.08584458
0.03783491
-0.03945699
0.02284492
-0.07590033
0.07644544
-0.09405116
0.06264943
-0.03002792
0.01835406
0.07232757
-0.06616230
-0.04823883
0.02642687
-0.09702153
0.05262818
-0.07299876
-0.08858188
-0.05161175
0.06635988
-0.00024952
-0.02486016
0.01563837
0.07345551
0.05029145
0.08465173
0.07715601
0.01584574
0.09671327
0.00535420
-0.08047489
-0.01332708
0.06721674
0.05572933
-0.00167563
-0.00483889
0.06875418
-0.01924197
0.02931468
-0.07292158
-0.01754092
0.03308719
-0.08687174
0.01654594
-0.08283759
-0.07994441
0.01495575
-0.04236843
-0.00263244
0.02483960
0.07805734
-0.07375815
-0.07576543
0.00665663
-0.02825030
-0.02521213
-0.05209582
0.08129510
-0.02894061
-0.05600252
-0.04010198
-0.07395081
-0.07816954
-0.04795949
0.05071442
0.09099052
-0.07477717
-0.09690338
0.05722752
0.02473665
-0.01446509
-0.07254298
-0.00367742
0.06431772
-0.00801069
0.09380128
0.08051122
-0.03348465
0.07651990
0.08244946
0.02801032
-0.08200915
-0.00655539
0.06183360
0.02384300
0.00502848
0.06999970
0.08227067
-0.04340457
0.09445512
-0.04075344
0.05627112
0.00817798
-0.04184679
0.06919940
-0.09046634
-0.02041973
-0.03792804
-0.06730263
-0.06844817
0.00422882
-0.08463954
0.04160612
0.09092919
0.08535144
0.10120485
-0.08863756
0.05893795
-0.03121521
0.01140416
-0.04285589
-0.08677950
0.00100126
0.03895005
-0.02228486
0.09522092
-0.03040401
0.07041177
0.06391431
0.08525218
-0.00993261
0.07287435
-0.08267389
0.02657345
0.08412027
-0.00470698
0.04432827
-0.05131937
-0.00651792
0.06150810
-0.07920538
0.03177031
-0.07478945
0.08001125
0.10074032
-0.03214244
0.01957670
0.04011965
0.05599624
-0.04907307
-0.06641043
0.02494847
-0.00928058
-0.06377664
-0.06977351
-0.02672674
0.03538100
0.08080251
-0.06295551
-0.05272763
-0.01064386
-0.08111651
0.05724537
-0.02215739
0.03128005
-0.03304676
-0.05670131
-0.06855456
-0.05984430
0.06459006
0.09934102
0.03753024
0.06648116
0.01738887
-0.04968032
0.09568618
0.01605103
-0.04788135
-0.04783615
-0.00273333
-0.03313791
-0.04005030
0.00033142
-0.00449206
-0.08082156
-0.02998828
-0.00767833
0.03455563
0.02242369
-0.04670869
0.06905784
0.09179713
0.04418362
0.01903434
-0.07743470
-0.04153322
-0.04785066
-0.06967825
-0.03519220
-0.09096254
0.07904771
0.07219540
0.06101066
0.08612839
-0.00978190
0.09463899
0.06595010
0.08233791
-0.09553126
0.08433728
-0.02371663
0.05207795
0.03604785
0.06431681
-0.06953263
0.05755703
0.01489250
-0.00799400
-0.01763101
-0.04248848
-0.01606066
-0.03048058
0.04394586
-0.00951456
0.00933952
0.05574946
-0.06410558
0.01668943
0.06203744
-0.09556998
-0.09355102
-0.08793998
0.04601970
-0.06747254
-0.01732105
-0.05575384
-0.08722288
0.00173944
0.08375810
-0.08944881
0.04822182
-0.08365277
0.00454158
-0.00805680
-0.07128614
0.04691053
-0.07655917
-0.02418701
-0.08439794
0.04045391
0.04409313
0.05697452
0.05830565
0.02100038
-0.08024402
0.10312063
-0.07813842
-0.08405551
0.09716045
-0.00157255
0.03141782
-0.10536104
-0.10415500
-0.06906914
0.05673074
-0.04571873
0.01431476
-0.05794102
0.02807675
0.00148602
0.07865512
-0.03637305
-0.01303669
-0.05896343
0.01866003
-0.06379026
0.09465417
-0.05273765
-0.09566222
-0.09238885
-0.02189257
0.02442352
0.04611827
-0.02729985
-0.06833704
0.00650303
-0.08083429
0.09760071
-0.06762735
-0.03192714
0.05610231
-0.07838625
-0.01429304
0.00145728
0.01927141
0.09871410
-0.03247183
-0.04769401
0.02386241
0.04428224
0.07912684
0.02719815
0.09263075
0.05766266
-0.00435105
-0.05247615
0.06226402
-0.06724406
-0.03492765
-0.01646350
-0.06478107
0.06227248
0.08483568
-0.06909499
0.09207361
-0.01527353
0.00147422
-0.05012104
0.03973706
-0.04313868
-0.02087582
0.06996924
-0.02598580
-0.03613260
0.05532033
0.06224443
-0.04975448
-0.04668721
0.02513302
0.04866459
0.05896843
-0.04872925
0.07992913
-0.02842365
-0.07457234
-0.07457591
0.07094282
-0.08594546
0.09398446
0.04478915
0.09902308
-0.02785652
0.00409611
-0.02899978
-0.03254773
-0.05052483
0.03026805
-0.05694303
0.03250607
-0.09438172
0.02286797
-0.00754420
0.00917145
-0.03069336
-0.00464543
-0.09360286
-0.04784454
0.04807032
0.08561242
-0.00943860
0.01755771
0.09113308
0.00300730
-0.01660077
-0.09677287
0.09366991
-0.04904514
-0.02314256
-0.02603951
-0.07179963
-0.02109629
-0.08808171
-0.05187697
0.05220388
-0.07823785
0.03838080
0.03376628
-0.04968940
0.05263432
0.00837999
0.09667996
0.05602200
-0.05480870
0.01919668
0.09503704
0.07264110
0.02656545
0.02033155
-0.00375776
0.02434703
-0.08899617
-0.00658671
-0.08291024
-0.09720442
-0.08633854
-0.03418282
-0.06372706
-0.06729763
0.01097897
-0.04652040
0.06164442
-0.08364260
0.00317714
0.07061881
0.10133631
-0.07979531
-0.05445483
-0.07563864
0.07460465
-0.03196259
0.02803981
0.01488208
-0.03753644
0.05776217
0.09268054
0.03724581
-0.05296886
0.00745506
-0.07222792
0.05312908
0.08583189
-0.04760346
0.05873821
0.08753830
0.03765051
0.01895471
0.03660490
0.04590153
0.03050009
-0.00613756
0.00680898
0.03642494
-0.00053598
-0.09735752
0.00082430
0.02420380
-0.09067289
0.08054763
-0.02468714
0.02442827
-0.03621755
0.06510247
-0.04856373
-0.00791532
-0.07219360
0.08776998
0.04296812
0.01028744
-0.04391219
-0.08628781
-0.05389980
-0.04768169
0.06445112
-0.00520397
-0.00029319
-0.01481173
-0.06621671
-0.02805305
0.06773348
0.04963286
-0.04263073
-0.06440992
-0.04638716
-0.01712150
-0.02030681
0.04054127
-0.07834694
0.04436703
0.06852882
0.02115232
0.04968924
-0.03672436
-0.07737310
-0.05476226
0.07639309
0.00851009
-0.08560224
-0.00425103
-0.01985305
0.06287561
0.07886667
-0.06023019
-0.09199905
0.03997532
-0.02330426
-0.04074134
-0.03558688
-0.07040707
0.03105863
-0.06507878
0.09540285
-0.01602658
0.00320792
0.00972380
0.00887192
-0.01221165
0.04148879
0.08944750
-0.07277711
-0.02790175
0.09544506
0.08692959
-0.01960309
0.09230232
0.04352040
0.00372464
0.04383334
0.01381541
-0.04864698
-0.06943527
-0.09721271
-0.09609422
0.02351567
-0.08740986
-0.02752593
0.02641127
0.00480686
0.00233958
0.02473534
-0.06269704
-0.07687508
-0.01355376
0.04499656
0.05960685
0.06070864
-0.09013623
0.05050789
-0.02860877
-0.01656801
-0.05980447
0.03796006
0.07699027
-0.03165388
0.01986120
-0.05068905
0.09581623
-0.04136409
-0.09749075
0.01508020
0.00172973
0.02316523
0.01992507
-0.00974166
-0.07508069
-0.00856055
-0.04620757
-0.03729797
-0.04605252
0.06622593
0.05901384
0.03559512
0.07225610
-0.04166040
0.09251777
-0.05637891
-0.00796180
0.06886034
-0.03662841
-0.09453966
0.03540678
0.06352978
0.04414453
0.10035221
-0.00150914
-0.04605397
0.06873957
0.09022123
0.08633014
-0.04646802
-0.00845055
-0.06021784
0.08788043
0.02884408
0.07800528
0.03232694
-0.08361601
-0.03888710
-0.08981882
0.00723212
0.05457583
-0.02901325
0.05010204
0.01817181
0.09019815
-0.05606055
0.07309964
-0.04134863
-0.01963230
-0.01592614
-0.00252272
0.00493659
-0.04602606
-0.09726031
-0.02065568
0.00135384
0.05827254
0.05993974
-0.00309851
0.02629786
-0.09001173
-0.02701148
-0.02507276
0.02912123
0.03893367
0.10052784
0.03414905
0.00708470
0.03923442
0.04941294
-0.09572274
-0.07901508
0.06279586
-0.08589873
0.05258679
-0.03641469
0.09379897
0.08497233
0.04084272
-0.02046431
0.08821813
0.01211452
-0.06923567
0.05513044
0.02163015
-0.01971414
-0.09239820
-0.08517005
-0.06785700
0.07980073
-0.09842716
-0.09397024
-0.06763906
-0.00670702
0.02729020
-0.04992287
-0.05281465
0.03035961
-0.02475935
-0.02758163
0.00174235
-0.07600307
-0.02182807
-0.06539323
-0.03579262
-0.06299096
0.09232220
-0.05839082
-0.03680280
0.03860011
-0.06264703
-0.08501793
-0.03419021
0.02935069
-0.02950077
0.01936122
0.00094212
-0.03499254
0.09475032
-0.01451540
-0.06381237
0.10005131
-0.08949792
-0.01120166
0.02234120
-0.01412369
0.01013394
0.00398179
0.06060505
0.07565556
-0.08827669
-0.05027168
0.01514540
0.00537174
0.00561482
-0.07132745
0.05792076
-0.05555834
0.00500015
-0.05093630
-0.00332514
0.04812864
0.06390005
-0.07607547
0.03207277
-0.08028115
0.08388115
-0.04989581
-0.04603415
0.08170515
0.09114227
0.03857123
-0.04851975
-0.06216295
0.04344088
-0.00436337
-0.07321540
-0.01368914
-0.03662901
0.02082802
0.09518621
0.01941989
0.03253906
0.05498899
-0.00639428
0.00921356
0.01784574
0.09383153
0.04830885
0.09391475
0.08804377
0.01265188
-0.04967313
0.01806944
0.09732946
0.09569391
0.05822980
0.03068898
0.03427362
0.03671282
0.05051017
0.07925073
0.00024401
0.02656735
-0.02791790
-0.03806303
0.01969804
-0.00214729
0.03642046
-0.04414575
0.09266620
-0.03493059
-0.06954643
0.08261368
-0.01556200
-0.04247349
0.05101841
0.03080450
0.00125177
0.11879045
-0.03925987
0.07035294
-0.02168783
-0.08954191
-0.02509400
0.03539030
0.03226785
-0.02542572
0.07749200
-0.07192380
-0.04023626
-0.00147787
-0.06971810
0.01698246
0.02720641
-0.07625108
-0.07739238
-0.01800885
-0.09542006
0.10048393
0.00436020
-0.09012143
0.04717203
-0.05367119
0.01686579
0.05540718
-0.02316786
0.03828950
0.00594400
-0.05912395
-0.03170043
-0.08457736
0.02285379
-0.05496850
-0.02425732
0.06138547
-0.07590265
-0.09309707
-0.06713587
0.03955324
-0.05846157
-0.08723878
-0.03310221
0.01566953
-0.04107919
0.02672387
-0.00945179
-0.01680133
0.08150780
-0.01875484
0.06498117
0.02987076
-0.06232323
0.02353558
-0.03598898
0.04882183
0.09547395
-0.02224057
-0.05530386
0.09795644
0.07934256
-0.03170832
-0.02316400
0.02898909
-0.07613746
-0.08806032
-0.09712775
-0.09567600
-0.02668598
0.02182991
-0.01040938
-0.04503107
0.10145638
0.04080958
0.07416691
0.06723313
-0.06244950
0.08934070
0.06890103
0.06890142
0.05191017
-0.03084518
-0.06919449
0.06788719
-0.06506953
0.06501193
-0.03286030
-0.04742832
-0.03424430
0.08504849
0.02398913
-0.05805265
-0.02504240
0.01368264
-0.06290268
0.11197441
0.07490478
-0.02780701
-0.03423086
-0.03687957
0.05058457
-0.09648557
-0.02388338
0.01448566
0.00871150
0.03035581
-0.08852465
-0.08579634
0.05935710
-0.09833574
-0.05958643
-0.18209671
-0.14505203
0.00349239
0.03911913
-0.03615076
-0.01965042
0.06499379
-0.08093125
0.02144841
0.00520880
0.03264817
0.01882423
0.03308051
0.05162613
0.04802867
0.02938255
0.09954860
0.09683882
0.08531293
0.01783002
-0.06133087
0.00281567
0.02991278
0.06304476
-0.03528344
0.06538998
0.09045361
-0.06682828
0.06420625
-0.06989843
-0.04914142
0.06819450
-0.08615763
-0.06129080
0.05072096
0.01231959
0.00812983
-0.09083764
0.01980121
0.00545292
-0.03530415
0.02568566
-0.05656635
-0.01859359
0.09625172
0.08520545
0.05884576
-0.05746291
0.02343085
-0.09721254
0.10053952
-0.03280509
0.10083479
0.07783361
0.02997661
-0.03579651
-0.04051888
-0.06969802
0.00284398
-0.09693263
0.08220129
0.07014484
-0.09145689
0.07508178
-0.02011214
0.01642260
-0.07530836
0.02614413
-0.02094667
0.09502454
0.08126448
-0.09456090
-0.11749191
-0.14164584
0.07625295
-0.04887651
0.06020292
0.06255811
-0.02267201
0.06937397
0.02790452
-0.05290092
-0.03219938
-0.09501351
-0.02390660
-0.06417835
-0.11789791
0.05916263
0.03511838
0.08707887
-0.08150604
0.05343496
0.10033020
0.02747989
0.05811599
0.07583432
0.07457721
0.06409151
-0.09367756
0.05323150
0.06474062
-0.03633310
0.06014437
0.01811501
0.07246892
-0.00046929
-0.05303198
-0.03621798
-0.07611390
0.10037728
0.02713109
-0.06929008
0.05013801
-0.01447291
-0.04133733
0.01113338
0.02452321
0.01819523
0.05507304
-0.00717013
-0.09126880
-0.09692162
-0.05526591
-0.06883944
-0.03384175
0.08182811
0.06579189
0.05953090
0.02775765
-0.07836963
-0.07370341
0.04919526
-0.08364873
0.06053791
-0.07970781
0.02346928
-0.02816186
-0.00780848
-0.07685976
-0.09197934
-0.03049796
-0.02694545
-0.02249526
-0.01632553
0.08550518
-0.06995129
0.00273905
0.04617186
0.03490281
0.01412268
-0.07527238
0.06077809
0.07839808
0.07067298
0.09443825
-0.04751406
-0.04987493
-0.07745568
0.01919258
0.09244696
-0.04909924
0.03845853
-0.01252659
0.06162207
0.08434858
-0.06766133
0.09439883
-0.04127195
0.00752434
-0.16962557
-0.00262950
0.04593473
-0.11101153
0.05237334
0.01580128
0.01169731
0.01021145
-0.13328670
-0.12742274
-0.07192276
0.10738933
0.05582666
0.02065521
0.07070340
-0.10191600
-0.05833539
-0.06500939
-0.03087717
-0.02207066
-0.07348380
-0.04455628
0.02265685
0.02741088
-0.02071380
-0.07611610
-0.00104149
0.06734242
-0.05094957
-0.06699249
-0.01316725
-0.06242945
-0.04449173
0.01749800
0.00463214
-0.01867464
0.05494106
0.02613017
0.07505145
-0.07324304
0.06069664
-0.00995046
0.05754631
-0.07522526
0.08359865
0.10071435
0.00111978
0.05023758
-0.06968910
0.04926210
-0.03294083
-0.05060467
0.06092714
-0.04294687
0.06335056
0.08765899
0.03854627
0.02809310
-0.05495143
0.05706778
0.03785090
-0.04411997
-0.02584175
-0.09723258
-0.08721641
0.06756962
-0.04674080
0.07058793
-0.03816203
0.08702300
0.04335025
-0.05912981
-0.00655850
0.08775992
0.00971864
0.07804965
-0.08205947
-0.09480108
-0.06874903
-0.09492210
0.06655951
-0.01637270
-0.01106397
-0.04573295
-0.07275443
0.07440185
0.06674271
0.00080140
-0.05984095
-0.00559148
-0.09550160
-0.04720152
-0.08450511
0.09098484
-0.09431298
0.07525901
0.06589069
0.03785229
-0.05456232
-0.06354122
-0.11022841
-0.11396495
0.00283046
-0.04946538
0.07918406
0.00842046
-0.00147360
-0.10878592
-0.06444140
0.06414268
-0.04130012
-0.04605755
-0.00193921
0.09109725
-0.03319585
-0.12195137
-0.17467183
-0.14803865
-0.04366914
0.06016786
0.04666910
0.06138945
-0.01482611
-0.04078857
-0.02717594
-0.12169850
0.00266314
0.02946005
0.02399195
-0.02037817
0.03933488
-0.00338862
0.07135225
-0.06611632
0.04226823
0.03608931
0.03686121
0.01626730
-0.08645549
-0.06439561
0.07287573
0.09995061
0.06077230
-0.07575920
0.09946609
0.02967980
-0.05430745
0.05765065
0.06382994
-0.07516407
-0.01093899
-0.00651485
0.09593883
-0.01355568
-0.06775943
0.02279401
0.07618966
-0.02828860
-0.02704483
0.05532186
-0.07621962
0.05983222
-0.06089512
-0.09678625
0.04029045
-0.07466539
-0.00275362
0.01641059
0.02437469
-0.00237650
0.03785285
0.06953945
-0.07548947
0.08402826
-0.02505321
0.05992314
-0.09497413
0.02410043
-0.05543139
0.05980642
-0.04168042
-0.08376786
-0.06260335
-0.07445388
-0.00988213
0.03014723
-0.02525578
-0.01648289
0.05790322
-0.09663530
-0.19828071
-0.34856563
-0.20710445
-0.02383915
0.05993830
-0.01226625
-0.14358851
-0.15644438
-0.02691507
0.14642151
0.07195730
0.07816608
-0.05658811
-0.00961954
0.02822527
-0.07650042
-0.02781266
0.03449492
0.05920118
0.00164206
0.00103788
-0.02806112
0.03087460
0.01960450
-0.05160273
-0.00925336
0.07522381
-0.03591943
0.01989934
0.03509825
0.07805900
-0.05568197
0.01946210
0.03568026
-0.05589629
0.03168907
-0.04217534
0.05588435
0.01815810
0.10390057
-0.05588172
0.09842384
-0.07272673
0.04669493
0.05914632
-0.07518819
-0.07200964
0.02796445
-0.04284576
-0.03017867
0.12044904
-0.05511190
0.09285074
0.01175916
0.01554731
0.10861546
0.07265785
0.08637057
0.10934471
0.00376909
-0.08717773
0.07518474
0.08647551
0.06502096
0.07611509
0.02081379
0.03453612
-0.05342015
0.02693996
0.06455215
-0.09676295
0.05583211
-0.02534646
0.01742103
-0.05635436
0.00780752
0.09985243
-0.07763044
0.07848441
-0.00461131
0.01700633
-0.02773696
0.08701840
0.00214496
-0.05744841
-0.09105956
0.09018144
-0.07175392
-0.09841289
0.02141205
-0.12635774
0.02585880
0.01566911
-0.06679890
-0.12656787
-0.00050028
0.12920204
0.15366337
0.06161386
0.06420754
-0.11206041
0.01793004
-0.09670937
-0.12474647
-0.01513693
0.23138868
0.20573100
0.15495543
0.12674573
-0.05701382
0.10055151
0.08083670
-0.06683279
0.02666991
0.09772444
0.12984301
0.04944146
0.00651330
-0.02415490
0.14340914
-0.03037302
0.00177205
0.05523348
-0.04628627
0.07605638
0.00913129
-0.03289500
0.09496737
-0.07508807
0.01119997
-0.11757817
0.04303648
-0.01746918
-0.08600596
-0.08211052
0.01887898
0.11983627
0.07032493
0.02705921
0.06680936
-0.07332346
0.02851257
0.11655352
-0.07084167
0.11615643
-0.03640901
-0.04497685
0.09622851
0.00560790
-0.05649900
0.08424021
0.06221745
-0.06071472
-0.00421186
0.04500274
0.02547623
-0.08328835
-0.08590261
-0.07405449
-0.05196467
0.07883369
0.00365407
0.04223629
0.05277532
0.05158880
-0.07657127
-0.00935633
-0.01891361
0.00638596
0.07944699
-0.00367938
-0.12207874
-0.01053032
-0.07172362
-0.13572830
-0.10791117
0.00828216
-0.09792638
-0.08929934
0.01455269
-0.08344894
-0.14057926
-0.13782823
0.00360131
0.03360985
-0.00800666
-0.07837437
-0.02123020
-0.09019418
0.00442756
0.04712132
-0.05657611
-0.03607230
-0.01040112
-0.08870157
0.04713591
0.06303964
0.00320613
-0.07709371
0.01633549
-0.00738930
0.02800433
-0.00260828
0.13197263
0.07997899
0.15564334
0.09971705
-0.07286183
-0.00542867
-0.03116974
-0.02887176
-0.04223170
-0.06366131
-0.02793405
0.04560921
-0.09806480
-0.03488979
-0.02959809
-0.07741006
0.00972846
0.03029844
-0.05885500
0.00731652
0.04797087
0.07140230
-0.09143417
0.00380429
0.09498134
0.00032973
0.10468416
-0.04505178
0.09458202
0.09483977
0.06059455
-0.04331130
-0.05004214
-0.06043384
-0.02967944
-0.02449204
0.04575073
0.03241339
-0.02813175
0.09791278
-0.01986682
-0.04027877
-0.07064238
-0.02983973
0.00735853
-0.05536537
-0.05579256
0.05229502
-0.08463034
0.07668702
0.07789682
-0.05031400
0.07096529
0.08101408
-0.04777053
0.07252942
-0.03981026
-0.02474652
-0.06790391
0.08884885
-0.03014915
-0.12356239
-0.00342576
0.02012071
-0.11450061
-0.12067887
-0.12674955
-0.13956282
-0.05399208
-0.08507263
-0.01253708
0.01087135
-0.03965277
-0.00003162
-0.00375105
0.01615449
-0.02894756
-0.13936496
-0.12126897
0.07147503
-0.06692148
0.01955100
-0.02552259
-0.02731973
-0.02619615
0.00346620
-0.06313078
0.00160247
0.04270152
-0.05840893
0.07320884
-0.16160954
-0.10602523
-0.01179352
-0.06747479
-0.01618624
-0.09189305
-0.03557842
-0.08809211
0.01143144
-0.08673437
-0.00791547
-0.10558721
-0.13300613
-0.05256769
-0.13082998
0.05576234
-0.10382381
-0.10370747
-0.06895780
-0.02437173
-0.07215721
-0.01710317
-0.08885535
0.04510313
-0.04756470
-0.00934802
-0.08759875
0.03415397
-0.01690519
0.09715048
-0.07396490
0.02675900
-0.06793181
0.01910371
-0.05408063
0.08667331
-0.05928270
-0.04808072
0.02239244
0.04468584
0.00846490
-0.03836261
0.03052045
0.04078019
-0.01119799
0.04195172
0.05593381
-0.03152998
0.03698720
0.09884364
0.03066725
0.00459575
0.05418905
-0.04992214
0.01718833
-0.09414648
0.02474700
-0.05957468
-0.01494100
-0.08063497
0.07102973
-0.09065834
-0.01958946
-0.09069003
0.08419162
-0.03291028
0.01303241
-0.01539607
0.08174591
-0.09301135
-0.05520650
-0.05913024
-0.04661639
0.04418705
0.02257221
0.01562625
0.08690186
0.07990481
-0.04541990
0.02025362
-0.05668211
0.04856936
0.04757824
0.01449739
-0.07692941
0.07605482
0.09710901
-0.01644086
-0.05942460
0.06482058
-0.03436214
0.09261809
-0.05007083
-0.02953774
-0.10070103
-0.10388986
0.01027662
0.06613103
0.04521740
0.01462294
0.02050767
0.03717667
-0.00787327
-0.04206017
-0.03948707
0.04815721
0.15986723
0.13804616
0.03490600
0.02268898
0.03675233
-0.03222685
0.00654671
-0.05612280
0.01669920
-0.10118256
0.03419761
0.07088956
0.06997380
-0.08193695
0.07187538
-0.06969302
0.11939313
0.03883380
0.02941029
0.05259190
-0.03129376
-0.03033136
0.06910712
-0.02013109
0.10027225
0.03805352
-0.03225315
-0.00341920
0.03715403
0.04716557
0.00160608
-0.02393853
0.07696454
0.04181214
0.02190404
0.08604782
0.03765016
0.05911532
0.06908259
0.04039394
-0.06173214
0.01007296
0.07105362
0.00752031
-0.00921983
-0.01744934
-0.01863904
0.03555715
0.06094501
0.06610793
0.09613980
-0.08865274
0.01150549
-0.07660920
0.07761439
-0.05613377
-0.05417806
-0.09215252
0.03460663
-0.03599790
-0.03286040
0.01900529
0.01422012
0.05017639
0.02584194
0.05034167
-0.07011963
-0.08455495
0.04329168
0.02296275
0.04686247
-0.03802538
-0.11520821
-0.08022584
-0.04520868
0.00551582
-0.02163455
0.09717988
0.00071876
0.09071868
0.03235518
0.04156050
-0.04899291
0.07493103
-0.10112477
0.01013732
-0.09394325
0.03861115
0.07803201
-0.07000311
-0.06266504
0.06870474
-0.03514339
0.02953358
-0.02828135
-0.03558791
-0.04652752
-0.04601148
0.14140146
0.07961114
0.02965092
-0.00171234
0.04828302
-0.10913353
-0.01000832
0.04916040
0.09449454
0.04216921
-0.00404792
0.03225116
-0.04498490
0.01793419
0.02829641
0.01322311
0.09516264
0.06254496
-0.05574057
-0.02119258
-0.02639627
-0.00090962
0.03960622
-0.00379456
-0.03220471
0.09083185
0.07908656
0.07551164
-0.04119505
-0.05981562
-0.05138500
-0.05346736
0.03574062
-0.06500683
-0.04971174
-0.02950202
-0.00943181
0.02992732
-0.00321254
0.07531955
-0.00549403
-0.02574684
-0.03815674
-0.00173955
-0.04792832
-0.02389545
0.06560298
-0.08480740
-0.08137426
0.07575275
0.05777704
0.05170527
0.05361066
0.06474569
0.05998644
0.07339092
0.04527913
-0.06599791
0.05591775
0.02283799
0.01776028
0.02053842
-0.04501058
-0.03528772
-0.04837010
-0.00243817
-0.11957090
-0.02940347
-0.12694292
-0.04385076
-0.06795167
-0.05091102
0.01867010
-0.09106353
0.01742731
0.04163629
0.02352108
-0.06860239
0.08144601
0.01358814
0.10027628
-0.02347493
0.07552331
-0.00830198
0.06198238
-0.08718467
-0.05489264
-0.10594367
-0.01032891
0.05554433
0.04990766
0.01407828
0.02969994
-0.03570260
-0.05777192
-0.03363080
0.07571243
0.09166756
-0.07839118
-0.02189750
-0.01484448
0.07920335
0.05966784
0.08426575
0.04745092
-0.02576727
-0.03654515
0.00045775
0.01569943
0.13237036
-0.01512593
-0.01508400
0.08739786
-0.01613319
0.10454306
-0.01229022
0.03419517
0.09211400
0.03652823
-0.08123585
0.09080810
0.07217813
0.08280309
-0.01996735
0.01789390
0.05974768
-0.04677092
-0.03326811
0.07455986
-0.09592187
0.01748652
-0.07379822
-0.06331601
-0.04129605
-0.06249248
0.06814844
-0.07633798
0.06606002
-0.06949972
0.06982584
0.04578025
0.07550650
0.01961836
-0.07601294
-0.01339027
-0.02559285
0.01509490
-0.05257871
0.06304213
0.02417250
0.04112969
0.05026937
0.01485759
-0.10374330
0.04082830
0.07409057
-0.08507737
-0.02145775
-0.00899279
0.06909006
-0.08700186
-0.09759546
0.05556741
0.03576118
0.06435881
0.02661863
-0.08236159
0.09002728
0.05934433
-0.03336238
0.04703171
-0.01198444
0.03501632
0.06570619
-0.07779872
0.02443967
-0.04223619
0.06145070
-0.06092974
-0.07465518
0.03829480
-0.03529092
0.07149637
0.01951253
0.00438323
0.07942535
-0.06291531
0.02492747
-0.06805078
-0.07480395
0.00310463
-0.01608571
-0.21671624
-0.11390066
-0.08648552
0.09131888
-0.04673922
-0.04943410
-0.05335602
-0.02586987
-0.02034107
0.09772799
-0.08084783
0.06145541
0.04567975
-0.00233285
-0.05429604
-0.00961774
0.00688806
-0.04097542
0.09066559
-0.02130039
-0.03196068
-0.06371526
-0.03057120
0.05118433
-0.03221496
0.01731707
0.09370602
-0.02323577
0.08984237
0.10406730
0.01223197
-0.00723706
0.03052583
-0.05737661
0.01452181
-0.05730367
0.03202927
0.04182761
-0.00094427
-0.09567491
-0.04603852
0.06632115
0.05204070
0.03667916
0.09632583
-0.05730272
0.07820692
0.02124384
0.04023629
0.07422173
-0.00602617
-0.07416658
-0.09761869
0.03291599
0.09234399
0.01461548
-0.01357097
-0.04412401
-0.03025442
-0.07630447
-0.00276564
-0.11955037
-0.10695975
-0.05293323
0.07575054
0.07144754
0.05479794
-0.08467598
-0.06600373
0.01606876
-0.08629455
-0.05641589
0.06274140
0.04510888
0.04523881
0.04962344
0.01853400
-0.05430594
-0.00661552
-0.05269098
0.03606949
0.03845643
0.04674796
-0.00271252
0.04103749
0.02145096
-0.03262834
-0.07709513
-0.00326142
0.01408289
0.02541480
-0.05104651
-0.03849050
0.08383746
0.10091844
-0.01288137
-0.04975482
-0.00282534
-0.09154608
0.02576394
0.07446632
-0.06133047
-0.07775300
-0.03287959
0.09884787
-0.05222184
-0.02979957
0.05977855
0.05839592
-0.03346203
0.00903121
0.06242712
-0.02213680
0.00509959
-0.00687864
0.00807513
0.11446761
-0.04585692
0.04996764
-0.03806932
0.04492865
0.04619798
-0.05707606
0.04600933
-0.08466414
-0.00097145
0.08032970
0.11218114
0.01390948
0.05756337
0.07888894
-0.01663440
0.08271845
0.05994313
0.02330524
-0.00997022
-0.01755167
-0.03927945
0.07127687
0.08559788
0.10070397
-0.09527880
0.08595843
-0.07648351
0.06559486
0.09788850
-0.05317128
0.02745690
-0.00405619
0.07145254
0.02331798
0.07486820
0.04976506
-0.08859656
0.07042709
-0.09153859
0.03630042
-0.01800396
0.13038959
-0.08364790
-0.05793280
-0.09112927
-0.04336539
0.05715904
-0.03220656
0.01746377
0.09680169
-0.06356406
0.05689664
-0.05583689
-0.01710002
0.03136037
-0.00415088
0.07439472
0.08863626
0.09794209
-0.06567900
-0.08821184
-0.09137981
-0.00137445
-0.03103218
-0.01559059
-0.07914245
-0.00119177
0.06641386
-0.03227087
-0.08372907
0.06139782
0.06082929
0.05927686
-0.05763621
0.09418947
0.09946618
-0.07433580
0.04442220
0.08364808
-0.02709743
-0.05307478
-0.04919184
-0.00281250
0.06385208
0.03350547
-0.02342682
-0.07832757
0.08689952
-0.06270872
-0.01780436
0.06867820
0.01093274
-0.03565142
0.03034377
0.05227776
0.07083890
0.09480344
0.04727613
0.11398292
-0.07605096
0.03453617
-0.04245363
-0.06797459
0.00505998
-0.00732467
-0.00960793
0.12827842
0.13331520
0.10508928
0.05095964
0.10897941
-0.00765845
0.06846352
0.00468955
0.12855432
0.13004526
-0.01924442
0.07992775
0.08404636
0.11316230
0.04075860
0.06621325
-0.06395595
0.07589039
0.02917834
0.04428796
-0.04103864
-0.02456253
-0.00630067
-0.07646715
-0.07855116
-0.09812128
0.07856046
-0.00096460
-0.07254532
0.07459064
0.02323412
-0.09618854
-0.01000150
-0.00372605
-0.01633753
-0.08907044
-0.03983067
-0.04563871
-0.03174719
0.08908992
0.01640767
-0.05656983
0.03915821
0.03381737
0.05888348
-0.06214565
-0.04616318
-0.07460743
-0.07458773
-0.05828505
-0.06660506
-0.03448846
-0.07912866
0.09293190
0.09209929
0.02637890
0.02787454
-0.01160521
0.02151314
-0.01817973
0.01905220
0.01492065
-0.03588116
0.05628667
0.01265200
0.03376574
0.02263168
0.03132447
0.07438084
0.04860516
0.03535761
0.07421199
-0.01611567
-0.09211364
-0.00061997
-0.01031578
-0.09126551
-0.00928891
-0.04194028
0.01512045
-0.00479137
0.01750516
-0.07157109
-0.03596342
-0.04261123
0.09267023
0.02199835
0.03790381
-0.08907881
-0.02446423
-0.08332992
-0.04640399
-0.01283281
0.07729362
0.06524135
0.00176333
0.15735909
0.12446927
0.04595577
0.01957103
0.07089168
0.01664708
0.00011847
0.05760560
0.05823950
0.01111003
-0.08564864
0.06693800
0.00928208
0.00386971
-0.09062688
0.02667702
0.09792777
0.11015916
-0.19871671
-0.05507035
0.47126088
-0.25997482
-0.29216714
-0.39338899
-0.10616318
