-0.01631801
0.01187142
-0.09236501
0.05746548
-0.01296681
-0.08962135
0.01435923
0.02634936
-0.03458664
-0.03077926
-0.10090771
0.05378241
-0.04367492
0.04300889
-0.10583076
0.00772861
-0.06858978
0.00470176
-0.04013638
0.06001233
0.06935752
0.03832282
0.03592036
0.08545455
0.03980420
-0.04653680
0.02798153
-0.06129749
-0.01262550
-0.03065019
-0.02730501
0.04909995
0.04073005
0.06206278
-0.03183009
-0.00779378
-0.08491955
-0.02166391
0.00335007
0.04042933
0.06391943
-0.08871993
0.05458132
0.01713495
0.09188538
0.02066743
-0.03926565
0.04198719
-0.03445511
0.05945963
0.04069461
-0.01423942
0.02397663
0.01422834
0.00428996
-0.00182020
-0.09833392
0.01285498
0.06128896
0.06470998
0.03595061
0.04467425
0.07879790
0.03106792
0.01985535
-0.03861103
0.02235773
-0.00990121
-0.06555445
-0.06973322
0.02984416
0.00937210
0.04219728
0.07217582
0.00726286
0.04818174
-0.07918764
0.02989390
0.05182736
-0.06910382
-0.00886494
0.03307200
-0.06888512
0.08268527
0.08366735
0.04350337
-0.00645184
-0.03287386
0.06459382
0.08437297
-0.06549242
-0.08757409
-0.03479317
0.08790659
0.08096864
0.07360152
0.07497959
0.06861013
0.04921409
-0.07725073
0.05719933
-0.02046711
-0.03778393
0.03193812
-0.01246430
-0.05012298
-0.04922426
0.00055269
0.08212769
0.03727317
-0.09927567
-0.00846827
-0.02409865
0.06182711
-0.09608626
-0.03481206
0.01372317
0.07400267
-0.05462172
-0.05699005
-0.04116514
-0.08786115
-0.05197087
0.00600937
-0.05220386
-0.08153620
-0.05694814
-0.08379540
0.03027188
0.09242118
0.07530009
-0.02417189
0.00345891
0.06290343
-0.00600309
0.05663921
-0.06229023
-0.02269812
-0.05954766
0.00465294
0.02524857
-0.01084598
-0.00241938
-0.05111453
-0.04903078
0.08446652
-0.01315717
0.03464529
0.05481639
0.06230606
0.03461921
-0.05969082
-0.01591997
0.02421526
0.02088336
-0.04312086
0.07399496
-0.06249667
-0.09177730
-0.01400024
-0.00259783
-0.08609098
0.02551925
-0.08862587
-0.07386162
-0.01810844
0.08634343
0.05576480
0.09464133
-0.02096815
-0.07548773
0.02338232
0.06771560
0.00907749
0.04398076
0.00760178
-0.02978496
0.10057668
0.01151756
0.02408227
-0.02039058
-0.01431490
-0.03817521
0.08362264
-0.02784777
0.05645387
-0.03415504
-0.07640508
0.04421479
-0.06996597
-0.08140527
0.05448869
0.08941710
-0.01253564
0.01576649
0.00411729
0.00788283
0.08028506
0.06306238
0.06377296
-0.08589954
-0.00219102
-0.01226336
-0.05472572
-0.04366621
-0.03469830
0.06100465
0.08468544
0.01084064
-0.02220575
-0.03449711
0.07863592
0.00446618
-0.00172017
0.05239434
-0.05494058
-0.01834871
0.00920208
0.04160161
0.00187040
0.08179757
-0.04844953
-0.00466320
-0.01198014
0.03571925
0.06779314
0.00405750
0.08110253
-0.08105386
0.03254610
-0.05998082
-0.05849781
0.03158507
0.05171475
0.08329213
0.02745197
-0.05515420
-0.02584508
0.08546438
-0.07855754
-0.05076495
0.07365713
0.04022497
0.01771702
0.04585965
0.06798870
-0.07478806
-0.00717049
-0.02375637
-0.10139574
0.04517573
0.03288693
0.06290577
0.03811662
0.06038283
-0.00889655
-0.09867458
-0.00297080
0.01403348
0.04233975
-0.05370094
-0.06760416
-0.05704909
-0.08535986
-0.01942080
0.03564287
0.03607087
0.03374149
-0.05251570
-0.06508815
-0.06958220
0.02440593
-0.03441427
-0.05993453
0.02313593
-0.09771013
-0.09329526
0.05351028
-0.04371524
-0.10307998
-0.10221915
0.06765377
-0.05907229
-0.07882389
0.00958689
0.01091218
0.06199267
-0.03608701
-0.02224934
-0.05412488
0.04098505
0.06971981
-0.01620597
0.03404283
0.02630746
-0.06852119
0.03781731
0.00989594
0.04895747
-0.04380798
0.04372544
0.06190924
0.01195010
-0.06652049
-0.08185284
-0.09818773
0.06142391
-0.01194920
-0.01302400
0.02738529
0.07283311
-0.10120132
-0.00679634
0.08818971
0.04775678
-0.05200763
0.08362193
-0.01433685
-0.02123149
0.02065640
-0.07969121
0.02556204
0.09538552
0.00658394
-0.03198524
0.00061744
0.04315902
-0.00037441
-0.08676957
-0.10035156
0.00670442
-0.00658169
-0.07013408
-0.05550051
-0.01623030
-0.00642306
0.10227547
0.03068971
-0.01437462
-0.04392657
0.08405940
0.02257271
0.04792460
0.06704595
-0.06657586
0.01679640
-0.07966491
0.08505417
-0.08699741
-0.01085024
-0.01056227
-0.05115269
0.02372336
-0.05455487
-0.01885945
-0.05912462
0.09401695
0.01047481
0.06990130
0.03148083
0.02070165
-0.05040022
-0.02090970
0.05191866
0.09069187
-0.02791349
-0.07904704
0.09001363
-0.08373337
-0.08554507
0.05808775
-0.01004873
0.05093160
-0.00409883
0.06976456
0.06589281
0.01436647
-0.09785767
-0.05706244
0.10634058
0.00937492
0.07385413
0.09283336
0.09015873
0.09189815
0.00123455
0.07065971
0.07361544
0.01370185
0.08309402
0.07643641
0.02237936
0.06334716
-0.07914382
0.09563556
-0.08940490
-0.10233260
0.06734895
-0.05003350
-0.03248967
-0.01623232
0.08110617
-0.08693246
0.09458254
0.06294928
0.08173424
0.07330742
0.06854887
-0.01435815
0.04460170
-0.09297980
-0.09439532
0.06966152
0.01144067
0.03376337
-0.08097754
0.05330037
-0.02108266
0.07338676
-0.06813838
-0.08594315
-0.05444885
-0.07101221
-0.01699648
-0.09845609
-0.06989441
-0.02336431
-0.05256529
-0.05071684
-0.03962221
-0.06151536
-0.00103090
0.06189119
-0.05565475
-0.02089696
0.03306524
-0.06728894
-0.07039833
-0.08147092
0.00499246
-0.01227724
0.09391169
-0.02439102
-0.04634272
-0.01883020
-0.04876871
0.06609642
0.00309626
-0.05443568
0.03039685
-0.06122235
0.05654887
0.01431976
0.10025414
0.05246152
-0.10128094
-0.01095585
-0.03420066
-0.01234329
-0.00789535
-0.10083322
-0.00105522
-0.00125458
0.01168049
0.10503487
0.04954101
0.05859454
0.02487419
-0.06220476
-0.09137396
-0.08512635
-0.07504233
0.03727267
0.01473804
0.01896602
0.07277471
-0.06477614
-0.08769767
0.02152760
0.08240540
-0.03873680
-0.04591743
-0.06059479
-0.02912249
-0.02812747
-0.04283652
-0.03491119
0.05525042
0.01042620
-0.00296478
0.10095268
-0.05252847
-0.05693451
0.05921326
0.01834745
0.00793982
-0.07775917
-0.04554680
-0.05646823
-0.02574525
0.02905928
0.02780588
0.04021739
-0.05694141
0.00157223
-0.03098099
0.01695953
0.00129141
0.07431495
0.03887286
0.03688962
-0.02707728
0.09469969
-0.04722754
0.00767049
-0.04008520
0.06585385
0.04978169
0.05081682
-0.04101287
-0.02448638
0.00325738
-0.01443797
0.08649599
0.04733451
0.05210296
-0.01706599
0.08190754
-0.08808623
-0.05154514
0.08628708
0.09468524
0.09525866
-0.09262304
0.06813543
0.09590950
-0.02369083
0.09314832
-0.01821292
0.09561721
-0.04286834
-0.04464466
-0.05748722
-0.08619186
-0.07820423
-0.07992467
0.01138446
0.01852233
-0.03489004
-0.01288762
0.06432502
-0.07873454
0.04420840
-0.01596965
-0.03575894
0.10320231
-0.07716507
-0.00772033
-0.01411240
0.03344196
-0.05260855
-0.05390399
0.09055342
-0.01052443
0.06216770
-0.06713787
0.05514305
-0.01753703
-0.04000640
0.09604174
0.04581135
0.03986213
0.09974173
0.02078430
-0.07558143
0.09340466
0.08298275
0.00103211
-0.07005029
0.07877958
0.08779678
-0.07829070
-0.01855038
-0.06731500
0.01002619
0.01521538
-0.03734544
0.00192036
0.01485545
-0.08879506
-0.02498715
-0.05861447
0.10536452
0.08724794
0.09958340
-0.02908832
-0.00052571
-0.07708575
-0.00541870
-0.05665849
0.00513054
-0.03140583
0.04168971
-0.00988239
-0.02393803
-0.06139245
-0.08733708
-0.04675295
0.01285498
-0.06251849
-0.04912350
0.04602687
-0.08832977
0.05733727
-0.04370111
0.01092853
-0.07456074
0.01685899
-0.03054802
-0.06441587
0.06962664
-0.06322013
0.07304695
-0.02408555
0.08904690
0.05325927
0.03340869
0.06346385
0.03403112
-0.09276223
0.01324156
0.08076226
0.04062790
-0.05860264
-0.01694134
0.06923090
0.04912618
0.02999627
-0.04589743
-0.00458700
0.07763861
0.10086897
-0.00105058
0.08683928
-0.09235217
0.07183284
0.04186733
-0.06887823
0.00597369
0.07941776
0.02093849
0.10097030
0.04599126
-0.03738506
0.03093168
-0.05049273
-0.03469304
-0.01755484
0.09839047
-0.01908488
-0.04931555
-0.07846535
0.08228215
-0.00950282
0.07450674
-0.08976303
-0.01192776
0.01501745
-0.02726379
0.04365847
-0.05733917
0.04255522
0.01403673
0.05265861
0.04431893
-0.06753508
0.00859293
0.02904344
0.09635554
-0.02358906
0.07281102
0.03221659
0.08437100
-0.03402178
-0.08618709
-0.03080616
-0.05754547
0.08768213
-0.06133121
-0.04027893
0.09095991
-0.06510557
-0.05087141
-0.04628057
-0.06315050
0.00315534
-0.00155217
-0.08531837
0.09257234
-0.04282314
-0.05125689
-0.00444441
0.04933630
-0.06204854
-0.02318731
0.04931335
0.02731242
-0.09445466
0.08868247
0.05432733
-0.00171928
-0.08672348
-0.06949089
-0.08569442
0.03089011
0.04174314
-0.04407328
0.02427326
0.05964879
-0.09344871
-0.00826190
0.08642035
0.08446370
0.01013879
-0.01556428
0.08631450
-0.02878028
0.08068018
-0.01838817
0.03786828
-0.03187297
0.09309556
0.03785950
-0.03320934
0.05014220
0.06401507
-0.01192114
0.03521618
0.07309638
-0.08775889
0.03078607
0.09756479
0.06483263
0.02034337
0.09108810
0.02991841
0.00353136
-0.01153670
-0.05061135
0.05295338
0.05957841
-0.00529853
0.07195383
0.04276191
0.05311820
0.00521214
-0.05167043
-0.02617364
0.04513365
-0.08482852
0.07958340
0.03957742
0.02666968
0.07985984
0.09274760
0.05155894
-0.00782456
-0.09609439
0.04832777
0.00070416
-0.05609370
0.03014399
-0.02285853
-0.04979454
-0.00228657
-0.05169978
0.08789890
0.00207770
0.09856647
0.01205121
0.01572763
0.00027682
-0.02375620
-0.05010795
0.09225176
-0.02845199
-0.06820261
-0.05326808
0.01766160
0.04253610
-0.08502494
0.03491105
0.00445586
0.11813307
-0.05177697
-0.05717313
0.07309968
-0.09698733
-0.05341177
-0.03216661
0.04847924
-0.08205173
0.03852196
-0.09904477
-0.08918286
-0.05875265
-0.09283136
0.00742740
0.10601254
0.05485830
-0.07517583
-0.01462542
-0.07477387
0.07519567
0.03354040
0.02489554
0.04131796
-0.03937805
-0.06785702
0.08971815
0.02676178
0.06464991
0.00684214
0.06583016
-0.07450752
0.03604544
0.11783438
-0.03826504
0.01758567
-0.07402032
-0.03903810
-0.01656812
0.01382942
0.09426799
0.07309115
-0.08912188
0.09284862
0.05393145
-0.07176464
0.00779494
0.02181625
0.02990671
-0.01399221
-0.06403327
-0.03437603
-0.00139358
0.08448679
-0.01629429
0.04457351
-0.11033223
-0.04555610
0.09570222
0.05541893
0.00309894
-0.01121131
-0.05246639
-0.02970740
-0.00226164
-0.00196434
-0.01639727
0.09484939
-0.02358563
-0.10273038
0.06373251
0.04605262
-0.05020393
0.07776998
-0.00343527
0.01545010
-0.07295472
-0.05069779
0.08504838
0.03754658
0.01065076
0.06311682
-0.06826103
-0.08465537
0.03432275
-0.02099143
0.03532210
0.05028086
0.09525556
-0.05747521
0.08583069
-0.05156781
-0.01089091
-0.07261153
-0.02540140
-0.06995269
-0.00369777
-0.06303535
-0.06458375
-0.05659809
-0.01321090
-0.04680493
-0.08657670
-0.05238563
-0.01068338
0.04386877
-0.08483593
-0.05810594
-0.04216600
0.00242040
-0.01842652
-0.00465357
-0.08064151
0.00243673
-0.03410985
0.05188145
-0.05812580
0.08783004
-0.00628965
0.01893502
0.04013757
0.09229109
0.07610748
-0.07689140
-0.08365398
-0.01161437
0.11213873
0.07897703
-0.04930774
-0.07203872
-0.04969085
0.03073680
0.02513998
0.01032235
0.06652702
0.08590190
0.01916874
-0.03440529
-0.01640271
-0.02121092
-0.02122929
-0.02810755
-0.03511890
0.03223060
0.08828787
0.04797603
-0.06530419
-0.07390364
0.09258840
-0.02099784
0.06840908
-0.01297754
0.01653744
0.01844810
-0.00153524
-0.00727129
-0.06891518
0.09571745
0.09429654
-0.05818972
-0.04397543
-0.05092291
0.00304606
0.04391618
0.07327848
-0.05700616
-0.06061785
-0.00092356
-0.02401551
-0.06533907
-0.07519035
0.09011683
-0.04197372
-0.01862548
-0.09619543
0.03440573
-0.00530692
0.00106265
0.07527039
0.08988693
0.02533940
-0.09240560
-0.01167455
0.08380660
-0.06779762
0.01656518
0.08213527
0.01415413
-0.10205219
-0.00093239
0.09435581
0.08194328
0.03809472
-0.03491273
0.06431180
-0.02059137
0.02252519
-0.07601954
0.08491118
0.04269498
-0.07544592
-0.04039235
-0.06461674
0.07005919
-0.06151494
0.04002598
-0.06672122
0.06491531
-0.11428486
-0.10321381
-0.04452732
0.07344625
-0.02266559
0.00543996
0.07437883
0.10786601
-0.09227389
0.03889141
-0.05015310
0.04019222
-0.07529135
0.01011471
0.09562337
0.05017478
-0.08008842
0.04235931
-0.05815833
-0.04381163
-0.08883211
-0.06086568
-0.05749447
-0.05898562
-0.04533729
0.01641145
-0.08106663
-0.05332393
-0.00276294
-0.02417774
-0.03443398
0.03541852
-0.05915107
-0.06627986
-0.07673013
-0.00007927
-0.07159497
-0.06188507
0.05848989
-0.00084388
-0.05521231
0.05793777
-0.02008390
0.01198177
-0.03159294
0.04048734
0.03201491
0.09228360
0.08538227
-0.02922211
0.05779693
0.06432343
-0.06730719
0.05055379
-0.04975244
0.00009187
0.05153602
-0.02386949
-0.01941816
-0.06324661
0.06197890
-0.06110360
0.01802737
-0.02052767
-0.02831008
-0.01692956
-0.00119630
-0.09134507
-0.08299960
-0.09131487
-0.05354536
-0.10024572
0.03898676
0.03493635
-0.06137496
0.06729931
0.07599298
-0.04790434
-0.01194559
-0.01632833
-0.01546303
-0.07228461
0.03317438
-0.07429641
-0.01537056
0.06408294
-0.01100882
-0.03602492
0.01547064
0.05080962
-0.08953594
0.01403144
-0.06704805
-0.01183907
-0.01341849
-0.08092359
-0.06886339
0.04411659
-0.06373907
0.05934575
-0.03426944
0.05630067
0.09648373
0.05487100
0.00139793
-0.07461165
0.00100284
0.07856880
-0.04022833
0.01921977
0.09104735
-0.06359584
-0.02900130
-0.02300228
0.03566071
0.05339184
-0.04782688
0.09858942
-0.01516180
-0.01721346
0.01401342
0.10067741
-0.00146743
-0.00111686
0.05646400
0.06189976
-0.02831987
-0.01028515
0.03054750
0.04539728
0.03983527
0.02787130
-0.06474991
-0.00068934
0.09454794
0.07404706
0.03672389
0.03086298
0.05349033
0.08724946
-0.00798475
-0.03135016
-0.00592432
-0.04168939
0.07457343
-0.08827110
0.09020180
-0.06592980
-0.04271128
-0.09110777
-0.09303502
-0.01115369
0.04385885
-0.03207106
-0.01475184
-0.09417837
0.07466418
-0.01465664
0.01278998
-0.05767471
-0.03626469
-0.01106218
0.00635567
-0.08174473
-0.07065831
-0.08068723
0.00078703
-0.03910476
-0.06146801
0.08422165
-0.01409841
0.00374804
0.07138367
-0.06334319
0.00302701
0.04503273
0.05422370
-0.06094046
-0.05583366
-0.06877605
-0.09814531
-0.02418203
0.03962269
-0.00906368
0.03428856
0.00885731
-0.09854737
0.08029608
-0.00161612
-0.04371273
0.06179468
-0.08646731
-0.03423691
0.04861706
0.01694162
-0.03285178
-0.07430569
-0.08758138
-0.07751183
0.03180490
-0.05394106
-0.06206466
0.01452494
0.04232184
0.09363031
0.02598839
-0.02490828
0.09213994
0.09205795
0.08550104
0.06139994
0.00610627
-0.07760669
-0.04832838
0.05441203
0.09762873
-0.00017528
0.02504843
-0.07941777
-0.01918216
0.04279185
0.00146082
-0.02844468
-0.06542592
-0.07443474
-0.00013111
0.02651405
0.01406696
0.05206573
0.07232055
-0.01357534
0.05536188
0.04763933
-0.01611083
-0.04766108
-0.00467014
-0.05112516
-0.07673147
0.05624617
0.07198707
0.03935880
0.00655371
0.07599709
-0.04610577
-0.00660673
0.08964298
0.06859659
0.08002469
0.06217001
-0.04298883
-0.04992132
0.05757326
0.00716557
-0.03876427
-0.01336280
-0.06897442
0.00676914
-0.00467381
0.08510738
0.01501223
0.06500316
-0.07384644
-0.04255737
-0.08030156
-0.06332032
0.07166390
-0.03540409
0.09695633
0.08253551
0.08781291
0.06225200
0.05339779
0.01743022
-0.06395124
-0.01725130
0.00835742
0.05269179
-0.06279273
-0.11226861
-0.09249548
0.06655814
-0.01743967
-0.07279159
-0.05805130
0.00969377
-0.07077764
-0.05778718
-0.00354127
-0.00412902
-0.03088122
0.07390600
0.01106963
0.06527541
0.05460623
-0.06226647
-0.02989881
-0.06811725
-0.05620136
0.00174785
0.00529299
0.09212824
-0.04565366
-0.04833992
0.02558925
0.02345302
0.01550020
0.08005869
-0.02974885
-0.07997161
0.10229656
0.09172826
0.07210586
0.05488650
0.08471090
0.03457930
0.05937052
0.07682671
0.04170492
0.01984761
-0.02818240
0.07504992
-0.03116904
0.01506543
-0.10148903
0.06595962
0.01158634
0.07611628
-0.09487000
0.07653005
-0.09937318
0.00125172
0.05639217
-0.07014532
-0.00925740
-0.00616441
0.04062966
-0.00300699
0.01246069
-0.03641391
0.10278532
-0.00404434
-0.00207903
-0.06098292
0.09802196
0.05027725
0.03386221
-0.05237975
-0.02764799
-0.09709395
0.08981220
0.01854223
-0.05508842
-0.09373255
0.05075048
-0.08379714
0.03493032
0.05173560
-0.05495738
-0.09331362
-0.09024996
-0.00944158
-0.06567712
-0.01937919
-0.03941938
-0.05123259
-0.04525636
-0.03076230
0.01371907
0.02200218
0.03219127
0.06233967
-0.03103066
0.05761826
-0.09755542
-0.06137530
-0.12459656
-0.02225917
0.01645269
0.07061721
-0.01242227
0.09241076
0.08754720
-0.04730935
-0.01150287
0.06481342
-0.03143582
-0.05197484
-0.10837451
-0.02218936
-0.00321748
0.04790597
-0.05002465
0.07745628
0.03460411
-0.00406882
0.08850883
0.00201711
-0.03514265
0.04480378
-0.02984826
-0.07446726
-0.04996489
-0.08753162
0.07894761
-0.06796626
0.08649506
-0.03979646
0.02406037
0.03935500
0.01418544
0.05516082
-0.05325993
-0.03537982
0.08256219
-0.01400091
-0.07439564
-0.01184523
0.07302106
0.00431211
-0.04014306
-0.06307321
0.05019524
0.02256807
0.04859179
-0.00197569
-0.07591946
0.06742491
-0.00784478
-0.09771025
0.04005427
0.06957275
-0.06691181
-0.03880743
-0.02022655
-0.04452217
0.11350347
0.01873128
-0.06793164
-0.06961093
0.09007062
-0.04016667
-0.06817940
0.07199754
-0.06277779
0.06287232
-0.01940149
-0.07173383
0.06926617
0.08741660
-0.10146085
0.03265997
-0.04674249
0.06675991
0.01369354
-0.07840341
0.10844691
0.02550150
0.02281046
-0.00125443
-0.01288723
-0.08028435
0.06466248
0.05805173
-0.01725299
0.03561415
0.07143168
0.02967043
-0.05648925
-0.08430954
-0.03910297
-0.07450948
-0.01002554
0.05675889
0.01552467
-0.05174721
0.00325441
0.08333733
0.05343760
-0.06558317
0.10791496
0.00522631
0.03168560
0.06551198
-0.08791482
0.06683754
0.01791976
0.02924504
-0.03898892
0.04670172
-0.00883424
0.05487901
0.01439047
-0.02010513
-0.07181847
0.07451794
-0.05539719
0.00215936
0.05426906
-0.04300581
-0.07577740
0.07589797
0.05044943
0.06439355
0.06868385
-0.08164938
-0.02903622
-0.10205655
-0.11685482
-0.08086285
0.05601623
-0.04598201
-0.02906243
-0.08383850
-0.08277827
-0.01150034
0.09848063
0.08864769
-0.10255260
-0.04536526
0.00472208
0.02316684
-0.08851877
-0.04677244
0.01865849
0.08202908
0.05875185
0.00581762
-0.04838586
-0.00868036
-0.04554269
-0.05823886
0.05954923
-0.01307644
0.03495235
-0.00471709
-0.02990113
-0.10101440
0.07564323
-0.08517904
0.05760927
-0.02141388
0.01578521
-0.03573425
0.05184975
-0.06929711
-0.01737075
0.04819370
-0.02893467
-0.03860129
-0.06226829
-0.00502543
-0.03097835
-0.02125471
0.07688507
-0.00195183
-0.01706515
-0.06529810
-0.02334305
-0.01365004
0.02179079
-0.04888151
0.04107382
0.01332910
0.02839605
-0.08703174
-0.04387593
-0.06017858
-0.05881137
-0.07365783
-0.03942492
-0.05107680
-0.00362311
-0.11151991
-0.00047307
-0.04483879
0.08157007
0.02131540
0.01031240
0.02519571
0.08011995
0.09222261
-0.10680948
-0.09850659
0.01454593
0.02029603
0.05261903
-0.02275255
-0.05483070
0.05623967
-0.10518341
-0.06004613
-0.03863378
-0.05388984
-0.00845074
-0.08327124
0.08244937
-0.07816192
0.06508405
0.03221418
-0.02314884
-0.07692971
-0.02212540
-0.03181547
-0.07925185
0.02731396
-0.08303519
0.08226144
0.07469196
0.02103356
0.02489679
-0.07034583
-0.02706262
0.06891077
-0.02373803
0.04513079
0.01773098
-0.01869898
-0.04861155
0.03951119
-0.02789130
0.02486541
0.09197626
-0.08460658
0.01942101
0.01529792
-0.07248378
-0.04697663
0.14173125
-0.00880957
0.03878754
0.09150048
0.09523349
0.04656728
-0.09275733
-0.10163962
0.04502337
0.03543984
-0.07305013
-0.00077138
-0.00046896
-0.12888330
-0.07762312
0.08735919
-0.05122630
0.01414118
-0.04235306
-0.10094200
0.02900345
0.03595102
0.07810659
0.01602039
0.07804077
-0.02499444
0.01097203
-0.04440636
-0.00598656
-0.01539862
0.00560611
-0.05674550
0.07364773
0.08584629
0.00079344
0.02018495
0.04969632
-0.02074407
-0.07873025
0.02347029
0.00111393
0.02687264
-0.02647768
0.06643289
-0.06113413
-0.03016375
0.00578463
-0.08826682
-0.06089784
-0.06689171
0.02705853
-0.02803460
0.03057243
0.00060061
0.01601299
-0.02361491
-0.07255136
0.00740967
-0.00772932
-0.07431516
0.08808856
-0.03356753
0.00605675
-0.00037186
-0.04337883
0.09083461
-0.08338424
-0.06551975
-0.00282014
0.07047002
-0.00128727
0.02464952
0.01434795
-0.06623569
0.06132786
0.08558259
-0.06747281
-0.01368790
0.03627579
-0.05460852
0.03267602
0.07554919
-0.03360531
-0.01101633
0.02838664
0.02915827
-0.08428584
0.01345430
0.07261463
-0.08419933
0.06817300
0.06164348
0.00305816
-0.09124312
-0.02467205
-0.04243446
0.09476692
0.03858681
0.02116209
-0.00060814
-0.09167047
0.04016551
0.04897471
0.06514825
-0.05677880
0.07821139
-0.05482767
-0.01377634
-0.02528358
-0.03190366
0.04751357
0.01100338
-0.10347278
-0.01013124
-0.02539029
-0.01620289
-0.10281078
-0.02003529
0.01993834
0.02576631
0.07733570
0.03338536
0.01978653
-0.02622498
-0.04361944
-0.10499805
0.01606067
-0.03419705
-0.03285720
-0.04640244
-0.03036481
0.02661046
-0.05165331
-0.10435676
0.05998889
-0.05241406
0.05464141
-0.10279474
-0.10431592
-0.09818570
-0.06953043
0.02211021
0.01979687
0.08182652
-0.03549345
-0.08381269
0.02081193
-0.06785370
0.07724792
0.08750268
-0.03529429
-0.00590569
0.09577610
-0.10191557
0.03457552
0.08427244
-0.02778291
0.01308799
-0.07319630
0.00031447
-0.01769868
0.01375429
-0.06969671
0.03005065
0.09603164
0.08237807
0.04821174
-0.04276493
0.09205577
-0.04364900
0.00063285
-0.01090646
-0.08917013
-0.09072917
-0.05651461
-0.03134074
-0.02903347
0.04529734
0.05733565
0.01507406
-0.06370288
-0.06361471
-0.07283640
0.09270911
-0.06422163
-0.07563492
-0.07090132
0.05351902
-0.09685139
-0.00428943
0.03512687
0.03777368
-0.03419644
0.06118699
-0.08187648
-0.02129219
0.03408940
-0.02929158
0.07681524
-0.10104744
-0.04070288
-0.01275422
0.00622885
0.02420611
0.02424697
-0.06853422
0.08726964
-0.06926832
-0.00351310
-0.03549696
0.04039861
-0.02044275
-0.09352387
0.07921061
-0.03534068
0.04097938
0.04888380
0.05000273
0.03239352
-0.01148239
0.09640492
-0.05196356
-0.05930602
0.07756224
-0.05106340
0.06493860
-0.06757369
-0.00519912
-0.04036921
0.00568326
0.07539097
0.01311527
0.04992487
-0.07072960
-0.01758304
0.10117291
-0.06341902
-0.06877983
-0.08803296
0.04667307
-0.05733201
-0.04402891
-0.04016042
0.08360096
0.03425287
-0.08910088
0.07161298
0.08524232
-0.05260928
-0.03236784
-0.07379019
0.02569240
-0.09357808
-0.08637549
0.06667515
-0.08925698
-0.05998789
0.07374387
0.02762001
-0.09241169
-0.02548041
-0.02926710
-0.06875553
0.05118884
0.09486186
-0.00295836
0.02372318
0.04969541
-0.09022932
0.03629120
0.01329425
0.05674881
0.11498938
0.06086095
-0.00104030
-0.02065931
0.10274457
0.03874554
-0.04810198
-0.05597409
0.12378998
-0.07107360
0.05950278
0.00392840
0.05940921
-0.09589757
-0.02221884
0.10353815
0.08969942
0.09291493
0.03588672
-0.07309215
0.04477792
-0.05974566
-0.03841611
0.06739800
0.08584975
0.06842981
-0.06353199
-0.09056626
0.04279948
0.06304771
-0.10189290
-0.02919145
-0.06772840
0.09666133
-0.05054819
-0.07271500
0.07814565
-0.01999485
-0.09137020
-0.02181038
-0.05523198
0.09873498
-0.04891778
0.10032818
-0.04860127
0.09932587
-0.05322165
0.05043387
0.08689729
-0.03240461
0.04368714
-0.05388644
0.01056737
-0.05755126
0.05725543
-0.08234598
-0.08781233
-0.08434505
0.05374351
-0.00288841
0.02155099
-0.07918543
0.05808884
-0.02950127
0.02961965
0.04756735
-0.06733838
0.01198498
0.07674439
-0.05312002
-0.09166471
0.07675063
-0.04632079
0.06508628
-0.08171822
0.07813514
0.09664851
0.02454483
0.03875816
0.02419604
0.03966068
0.06459818
-0.02469149
0.02537979
0.02392057
0.02469531
-0.09372199
0.01336942
-0.05736494
-0.02090027
-0.00617011
0.02418007
-0.07230367
-0.06034169
-0.06928256
-0.00460584
0.08566144
0.07177118
0.05925649
0.09770688
0.05861121
0.08410134
0.03538261
0.06241872
0.01636172
0.04505110
-0.03864658
-0.03624928
0.00281729
0.05014551
0.01595831
0.08688617
0.03686973
0.08782670
-0.00441723
0.00325607
0.02149378
-0.03906969
-0.00362694
-0.01908699
0.01548392
0.02739443
0.07769733
-0.08555469
0.09022049
-0.07788353
0.07355518
0.01469810
-0.07026201
-0.00596741
0.03005707
0.08521401
-0.07647570
-0.05002499
-0.02746543
0.07260884
-0.06978091
-0.05340973
0.07729433
-0.03664178
0.09838478
0.00129139
0.03181553
0.02840897
0.06092848
0.09744156
0.09743936
-0.00567241
-0.06158789
0.10134616
0.02027449
0.06834415
0.07860578
-0.01111509
-0.04127858
-0.00395521
-0.06675134
-0.08637063
0.05612577
-0.04901136
0.02216232
0.01351441
0.02606912
0.06655704
-0.05752298
-0.08852487
-0.00488801
0.03344439
-0.06941801
0.04534084
0.07274325
0.05123012
0.05522134
-0.00716517
-0.09388008
-0.04580441
-0.01433444
-0.03180913
-0.08302656
0.04084261
0.04490847
0.08460460
-0.09348724
-0.05323412
0.06157174
0.05090068
-0.04174814
-0.02073817
-0.05607516
0.07132633
0.04167993
-0.08608319
0.01173992
-0.08066219
-0.00826878
-0.09251256
-0.08338983
0.04782087
0.02756335
-0.02280143
-0.04018006
-0.09709221
-0.10419365
0.06459876
0.06269990
-0.12668503
-0.04090691
-0.03700922
0.08740459
-0.08256190
0.10125799
-0.00086645
-0.06903505
-0.03814379
0.01019056
-0.01799177
0.07147520
0.00659336
0.08430848
-0.00200603
0.00715619
-0.05719861
0.01936024
-0.10646395
0.05274158
-0.00858174
-0.05755943
-0.05551177
0.02658593
-0.10225052
0.02069092
-0.10918571
0.02306720
-0.10070058
-0.08111671
0.02045619
0.10051268
-0.07118421
0.10139034
0.06148270
-0.02640033
0.07455651
-0.00333905
0.09339295
0.04481339
0.09889874
0.04091237
0.04269746
-0.01917238
-0.03855590
-0.07532356
0.06064830
0.02154520
-0.06265063
0.01014677
-0.08069610
0.03992433
-0.07482242
-0.06625317
-0.02866288
0.08938280
0.01170686
-0.01256917
0.00693694
0.08815521
-0.01331611
-0.03945390
-0.00759152
0.00594779
0.02808297
0.04610018
-0.07094080
-0.07487823
0.06968006
-0.03460442
0.09437261
-0.02030481
-0.01581790
0.02858797
0.09541470
0.06605894
-0.04180488
0.07272543
0.01734124
0.09625085
0.00196581
-0.05588952
-0.03817456
-0.08581924
-0.08522189
0.03637550
-0.02788351
-0.08287454
0.01959923
-0.06802974
-0.00657323
-0.01008176
0.04688837
0.04689751
0.03300681
0.02124253
-0.04952565
-0.00049745
-0.07225938
0.02987314
0.08192626
-0.00118573
0.08486085
-0.00477148
0.06404875
0.02710301
0.04004145
0.07290851
0.08130370
-0.09536438
-0.07936890
-0.09392949
-0.01117852
0.04718349
-0.09572327
-0.10294671
0.07593519
-0.10748777
-0.06468107
0.02750413
0.08201500
-0.05749795
-0.06092900
0.06759022
0.06713979
-0.02881520
0.03086435
-0.07013570
-0.08778707
-0.07111363
-0.01486271
-0.02345042
-0.01700097
-0.08325790
-0.09602107
-0.01442325
0.03826562
-0.05067023
-0.10438600
-0.08512765
0.08162847
-0.10432212
0.05660078
0.08434586
0.02240221
0.06431746
0.08441050
-0.05927367
-0.03980350
0.06750317
-0.04755369
0.05190333
0.03195738
-0.05046973
-0.04480548
0.05409533
-0.01907530
-0.10378398
-0.04498774
-0.03422923
-0.06611568
0.05391020
0.06332881
0.06444358
-0.06348138
-0.04781675
-0.04052267
0.03871493
0.02416047
0.02401796
-0.00997490
-0.06778371
0.10470275
0.03253007
-0.09161625
0.07115341
0.04140595
0.07528357
-0.00091958
0.06476373
-0.07027290
-0.07278898
-0.05708785
0.04270792
-0.04700579
0.08517833
-0.03037397
-0.00026828
0.03920737
0.07888064
0.02374911
0.05603127
-0.10195428
-0.10493151
0.01177391
0.07680428
-0.02198712
-0.05076773
0.06732071
0.08683115
0.07100208
-0.02168263
0.00171947
0.08600101
-0.06056436
0.01359494
0.00537032
-0.06438999
-0.08770236
0.04132712
0.01867295
-0.08713216
-0.04819628
0.05777997
0.02831510
0.05092228
0.08218892
0.09208133
-0.03868099
0.05950989
-0.02531177
-0.04288012
0.02748664
0.03506108
-0.04299764
0.05777509
-0.01406225
-0.08659997
-0.02544957
0.09361818
0.04183110
0.08030954
-0.08311720
-0.02404909
-0.05890046
-0.00079119
-0.05869537
0.03908538
0.01876651
0.01914093
0.03887874
-0.05529575
0.07966586
-0.04486457
0.05591273
0.07555567
0.10271874
0.08356868
0.09199632
0.04095242
0.06095070
-0.02087341
-0.00731094
0.03847208
-0.03082016
0.08528653
0.10487437
0.07666965
-0.06317958
0.05235304
0.03211658
0.06585449
-0.00863304
-0.07189147
0.09825508
-0.04958279
0.06613952
0.01218464
0.08922352
-0.08295764
0.06591320
-0.08013025
0.07443843
0.06074210
0.07402001
-0.02245315
0.05750030
0.02892380
-0.03541858
-0.00023770
0.06738253
0.08095822
-0.08772323
-0.00100360
-0.02097300
-0.04042700
0.04763679
0.01478528
0.10312244
0.02514607
-0.08541707
-0.07450262
0.06617699
-0.03959324
-0.07358218
0.04231527
-0.09554836
-0.00911350
0.08215736
0.06959518
-0.02711235
0.04879144
0.02884769
-0.02477389
-0.03987586
-0.03254889
0.10597940
0.05316032
-0.04808785
0.07669246
-0.01131758
0.02694095
0.09738059
0.01702847
0.02397388
0.00259195
0.07867983
0.11798447
0.03255996
0.02521150
-0.06449365
0.01298887
-0.07970960
-0.08898542
-0.03187025
0.00053764
0.09201816
0.06146727
0.05871793
0.05265648
0.05076653
-0.03598840
-0.08947041
-0.02374866
-0.00417383
0.05271350
-0.01924442
-0.03849827
0.02437661
-0.07434586
0.08808752
0.04683793
0.02214361
-0.05839292
0.01631079
0.01100359
-0.00506144
0.06356627
0.09397764
-0.06880720
-0.04066047
-0.03060756
0.05301854
0.04353898
0.07764638
-0.03251795
-0.04410073
-0.05626819
0.02431290
-0.02493520
0.07819087
-0.06156510
-0.04946884
-0.06244672
-0.05832990
0.05443325
0.10100149
-0.02546738
0.04300857
0.03181051
-0.03984930
0.01482581
0.06740569
0.04607879
0.00214928
-0.04582100
0.01158220
-0.08162889
-0.02061675
0.01371574
0.05520597
-0.06749519
0.10136039
-0.07141101
0.09064771
0.10298516
-0.04503535
0.03367593
-0.05472117
-0.08974832
-0.00734521
0.04567984
0.06335555
-0.06262522
0.00320594
0.01758623
0.04102537
0.02387224
0.04530663
-0.08970323
0.06606979
0.07721211
0.04343649
0.01402268
-0.09300313
-0.02792238
0.06601960
0.08639765
-0.07854384
0.01368992
0.08667506
-0.01855209
0.00283500
-0.01822039
0.03865728
-0.01984598
0.03649890
0.01193499
-0.06565647
0.02012517
-0.08843118
-0.08095191
0.01696741
-0.00111127
0.07496909
-0.01149302
0.01234129
-0.00129509
-0.08915886
-0.03535603
-0.07567627
-0.06637122
-0.00255517
-0.05507634
-0.06112519
0.06617055
-0.03101383
0.00208622
-0.03021318
0.01589238
0.04725480
0.05276592
0.06262344
0.03333774
-0.09691775
-0.00968180
0.09936015
-0.00345640
0.00148354
0.06970278
0.04093308
0.06629440
-0.04577225
-0.05025135
0.01107348
0.06503430
0.09891654
0.03952869
0.05991754
0.05082077
0.03718030
-0.03263082
0.08701076
-0.05025066
0.09999100
0.01836521
0.04003376
0.03357944
-0.08052828
0.03939676
-0.00676591
0.04749569
-0.05857339
0.07440211
-0.08141979
-0.04416604
-0.02924420
-0.06114936
0.04769936
0.08400277
-0.02404344
0.07762437
0.00745630
-0.08778727
0.04212842
-0.02924920
-0.02891563
0.09078888
0.02254015
0.03591249
0.07711912
0.04709728
0.06709231
0.06325795
-0.09414444
-0.04001229
-0.10139468
-0.03562336
0.07800216
-0.03380034
0.08541658
0.00271707
-0.00019059
-0.04895388
-0.03512182
0.05205033
-0.10045855
-0.06900728
-0.07226738
0.02987366
-0.06847263
0.06803377
0.05233413
0.07005374
0.09366754
-0.04965868
0.08642568
0.03844823
-0.07795627
0.04510691
0.07971493
-0.06713039
-0.06788768
0.02375102
0.04044748
0.04153849
-0.00244047
0.04625263
0.09518343
0.01116200
-0.02162796
0.00410178
0.04409041
0.04624431
0.06688755
-0.08358235
-0.08045022
-0.08525944
0.04980210
-0.08905832
0.05566072
0.00485932
-0.10169486
-0.05589548
-0.01464175
0.07011402
-0.01406836
-0.01522606
-0.08385437
0.09130690
0.06448220
-0.05745408
-0.09212414
-0.08063859
0.09716100
-0.00474302
0.10007794
-0.01069350
-0.00164245
0.00530419
0.04624050
0.08624528
-0.02937532
-0.07266532
-0.07146439
0.06454010
0.10307251
0.01322885
-0.02359337
0.00897994
-0.04760321
0.02310794
-0.01928905
0.07712387
0.05104993
-0.07215884
-0.03724068
0.02477742
-0.08062587
-0.09244003
0.06447975
0.06599484
0.03994795
0.01724464
-0.06818335
-0.02665353
0.08892489
-0.07322898
0.05078987
-0.07876848
0.08555328
-0.09241622
0.09427543
0.06056075
-0.08305215
0.05367314
-0.01320532
-0.00123153
-0.04785646
-0.07309950
0.07903929
0.06928314
0.05209564
-0.05298123
0.07671267
0.01359830
-0.11335094
-0.03243187
-0.10643775
-0.05037449
0.03800313
-0.04487251
0.04899659
-0.03504760
-0.09855343
-0.10265240
-0.05895539
-0.05470536
-0.00179464
0.06018327
-0.01630677
0.05557465
0.07560452
0.04356872
-0.09047926
-0.07225127
0.08418671
0.04937985
0.04024333
-0.05787832
0.09470727
-0.00716194
-0.07857281
0.10588219
-0.05597959
-0.00051785
-0.06232988
0.09602214
-0.08220731
0.01388356
0.03926669
0.00712212
0.03770107
0.07192553
-0.00292049
0.07602341
-0.03897730
0.01274798
0.00814625
0.05979765
0.03306755
0.04380766
-0.03711200
-0.03028860
0.00512567
0.09927706
0.00899257
0.06765939
-0.05626588
-0.01542744
-0.00020571
-0.00924051
0.01393451
0.01751070
-0.09462378
-0.02706837
0.01242781
0.05897546
0.05082681
-0.04130480
0.05437353
0.08737864
-0.07293925
0.05276677
0.07530863
0.03543058
0.06468601
0.01252188
0.01357127
-0.06147770
-0.08314778
0.00041749
0.02023718
0.01025510
-0.07537670
-0.02346206
-0.07264360
-0.08677412
-0.06695983
-0.07057688
0.03122729
0.07913933
0.01497298
-0.02314326
-0.05075458
0.07524657
0.03336031
-0.01478831
-0.03985404
0.05090979
-0.03707751
0.02047122
0.01753417
-0.09923617
0.07070694
0.00654354
0.05670798
0.06698293
-0.06343478
0.08419148
0.01170213
-0.08372317
-0.08803281
0.02401844
0.05325621
0.01361957
-0.11013268
0.08669046
-0.04899895
-0.01400436
-0.08544195
-0.03167667
-0.09358913
-0.08320213
-0.09039616
-0.01518627
0.08297078
0.05320151
0.08086167
0.04879820
0.07152027
-0.05760789
-0.05601509
0.06723077
0.03292547
0.08252466
-0.06837463
0.00770509
-0.02619248
0.02241401
-0.08699204
0.03324955
0.05849475
0.03288802
-0.04847746
-0.01440263
-0.08703355
0.07518142
0.03656289
0.06812383
-0.05163642
-0.08612010
0.06004044
0.04090928
0.06650732
0.03325901
0.03927217
-0.01265985
0.03582582
-0.09497630
0.00221955
-0.04964050
0.02136959
-0.02021732
0.03231462
-0.08866474
-0.01361222
0.04084822
0.00415857
0.04163497
0.03377794
-0.08798262
0.01820248
0.06771441
0.07483660
0.01858962
0.03268557
-0.01733590
0.01293773
-0.06133183
-0.03636202
-0.02677384
-0.01759062
-0.08883150
0.01914278
0.05146216
-0.05074501
0.03366792
-0.02042200
0.07499763
0.06114659
0.06363294
0.08756800
-0.00693113
-0.03514030
0.03127689
-0.05705421
-0.06620842
0.04876456
-0.00095749
0.08220949
-0.03813979
-0.01906050
-0.08260668
-0.09350760
-0.05680194
0.06861934
0.09675781
-0.06518573
-0.01898290
-0.04265223
0.00216035
0.07205321
0.10483428
-0.08767854
-0.01364482
0.01294924
0.07423272
-0.10937962
-0.01834175
-0.06733435
-0.05641184
0.08411127
-0.03348300
0.06592534
-0.09398266
0.02319228
0.06860992
0.05131902
-0.03065034
0.00006432
0.08141808
-0.08517397
-0.00157747
0.00941401
0.00426823
0.03978206
0.02916827
-0.04666371
-0.09474497
-0.01309525
-0.06710775
-0.03488024
0.06510610
0.00714876
0.07772266
0.06058133
0.03004953
-0.03766431
0.08072250
-0.03534809
-0.09912814
0.09295381
-0.01004849
-0.02210891
0.03177064
0.07886651
0.08035076
-0.04253234
0.07222525
-0.02194692
-0.07286228
0.06581300
-0.11187684
0.02571891
0.00491738
0.01553069
0.06501926
-0.04108160
-0.04079446
0.05413047
0.03561094
0.05405092
-0.08859721
0.01621326
-0.06372226
-0.02963108
-0.01929607
0.03651965
-0.03263760
0.03411045
-0.06243106
-0.00745741
0.07045215
0.03854180
0.06859404
-0.03801099
0.01892929
0.00180531
0.05538843
-0.04955905
-0.09418920
-0.06957331
0.04011323
-0.00678199
-0.01551873
-0.03058963
-0.06784909
-0.03687388
-0.05361162
-0.09395944
-0.02429058
-0.02879417
0.01664603
-0.06525191
0.07387388
-0.02274810
0.07026263
-0.02093631
-0.09023012
0.08014346
0.07449358
-0.04023374
-0.05302371
-0.12113565
-0.09037149
-0.09210719
-0.09039882
-0.06182611
0.00991017
0.03841080
0.06548293
-0.06421768
0.02103211
0.04150964
-0.07839003
-0.02488881
0.03563508
0.01990452
-0.07372711
0.00187631
0.05329451
-0.04421365
0.04269583
0.00888691
-0.05128501
0.03218781
-0.07603981
-0.02819278
-0.06399518
-0.08640528
-0.07692930
0.03498561
0.09285904
0.01461514
-0.01143894
-0.07994873
-0.03654217
-0.05083410
-0.01645793
-0.06159025
0.03239444
-0.09442593
-0.08357760
0.02870675
-0.09172386
0.06262679
0.00261080
0.01490338
0.00681028
-0.03028990
0.06367104
-0.01162556
0.01961495
-0.00246485
0.02616865
0.04759793
-0.09257492
0.03371771
0.01495747
0.06652315
0.07992418
0.07232145
0.04279832
-0.07216820
-0.01738186
-0.10432260
-0.02051916
-0.04172002
-0.00695301
-0.07737287
0.03380485
-0.08566098
-0.08486882
-0.09071859
-0.01198238
-0.09147990
-0.02054274
-0.02520876
0.06805553
0.03798515
-0.00602424
0.09529454
0.05989270
0.01284958
0.06822554
-0.06916622
-0.03077488
0.01736398
0.02769586
-0.03935478
-0.08540298
0.00474951
-0.01518192
0.04847029
-0.02028562
-0.09197417
0.00225454
0.04283768
-0.07712672
0.00712566
0.03038209
-0.01647195
0.02244438
-0.04227352
0.05619383
-0.08590101
0.02411959
-0.07191730
0.05955482
-0.06410798
0.01364176
-0.02637632
-0.05462302
-0.07937327
0.00718305
0.08436690
-0.03354781
0.07310306
-0.09471132
-0.11031986
-0.02936119
-0.07975759
0.06629932
-0.09160015
0.05009157
0.03769348
0.08959197
-0.04763938
-0.07920921
-0.01837081
-0.02838863
0.09085373
0.09680174
-0.00650581
-0.02211862
-0.06250088
-0.06610816
0.01179392
0.06608777
-0.00945453
-0.09265981
0.06188978
-0.07140317
0.07425014
0.01461709
0.00271987
0.04104471
-0.02830449
0.01564282
-0.09019076
0.08823080
-0.04487228
-0.02153612
0.03139485
-0.06685341
-0.02077102
0.01709120
0.03530717
-0.06259596
0.02885705
0.03723617
-0.02876805
0.06685807
0.05660275
-0.01035424
0.07826162
-0.00005523
-0.00055759
0.01833023
-0.09261846
-0.09538499
0.07378887
0.05629953
0.07801177
-0.07605265
-0.06407002
-0.07623326
-0.04047659
0.08602981
-0.08077726
0.04313293
0.05303458
-0.06837708
0.03542262
-0.01247167
-0.05818184
-0.08373492
0.07385189
-0.02582432
-0.04334343
0.00508492
-0.05248299
-0.05674586
0.01863157
-0.06985606
0.02592648
-0.11442065
0.04873640
-0.01040204
-0.02693105
0.04326845
0.08991132
-0.05102573
-0.05509852
-0.05357732
-0.06568451
-0.00962117
0.07167612
-0.07066510
-0.07273998
0.07603759
0.08388600
0.07237181
0.05594567
0.04704784
0.00918940
-0.04731026
-0.09903556
0.03446006
-0.08585518
0.03505122
-0.07028881
-0.04360916
-0.04122358
-0.10033169
0.03600749
-0.07895984
0.05493035
-0.02342745
-0.09016044
-0.06705774
0.01984177
-0.10242274
0.08152554
-0.05184365
-0.00733001
-0.01568564
-0.02993793
-0.00862330
0.04112258
-0.02340764
0.00908088
-0.03758033
0.08444899
0.03547339
-0.01484085
0.03398587
0.08921319
-0.06380192
0.05170426
-0.01894123
-0.01336405
-0.00018871
-0.10942754
0.03265578
-0.08337019
-0.04296539
-0.01152959
0.07129813
0.03869942
0.03907058
0.01471503
-0.06005929
0.01282398
-0.02134104
-0.03931341
-0.04440499
0.06976404
-0.09543723
-0.06934224
-0.06196068
-0.08122630
0.05501850
-0.09753534
-0.02343397
0.00970658
-0.03494319
-0.08939467
-0.03637362
-0.06849853
0.04451004
0.05520101
-0.00146583
-0.01949044
-0.03229781
0.00861145
0.00484835
0.07395344
0.01251002
0.02398364
-0.05557930
0.04061461
0.06245043
0.02538574
-0.03510560
-0.08194739
-0.01599523
-0.09378249
0.06074779
0.08088464
-0.08953823
0.09747008
0.08338770
-0.03495313
0.08251460
0.06147170
0.07038889
0.06660987
-0.04106405
-0.07033997
-0.07365072
0.04731129
-0.05549670
-0.04469064
-0.09527375
-0.01102464
-0.06522487
0.00873741
0.03636278
0.01181785
-0.06744467
-0.00963896
-0.04575773
-0.02153482
-0.05313421
-0.00720038
0.05857655
0.11377640
-0.06743329
-0.03568501
-0.07082558
0.00199796
0.03063349
-0.01755316
-0.07745451
0.01116016
0.00275745
0.10328624
-0.06183819
-0.08477866
0.04133626
-0.00600630
-0.07498367
0.04324214
0.08684368
0.05763409
-0.06385774
0.06796029
0.02221825
0.01870955
-0.03837589
-0.03871943
0.10091360
-0.06494192
-0.08385517
-0.08712857
-0.10698778
0.04680560
-0.00532150
0.07179171
0.03356157
0.07268051
-0.04520153
-0.02931594
-0.07929351
0.08663825
0.04155088
-0.07289707
0.03988518
-0.08708191
-0.09405642
-0.02591728
-0.04015996
-0.06575498
-0.01790697
-0.07797487
0.08102756
-0.03386182
-0.00059243
0.05348321
-0.02334845
0.01220590
-0.03521185
-0.07151532
-0.10173312
0.04276364
0.07617495
-0.02984664
0.04727123
-0.02509127
0.01250540
-0.03170558
-0.00432950
-0.05121748
-0.05243676
0.02033616
0.03425391
-0.05772616
0.05128943
0.04302482
0.00472641
0.06994038
0.09011009
-0.10411788
-0.01365605
0.07554267
-0.08144034
-0.02877228
0.06375754
-0.02015488
0.00050191
0.06413208
-0.00531080
-0.03484554
0.02210918
-0.08286397
-0.07102968
0.01136846
-0.08164079
-0.06613739
-0.08257306
-0.03557650
-0.04679781
-0.04883197
0.04435202
-0.00260977
-0.04288331
-0.00504043
0.07906820
-0.01766934
-0.02659496
0.07401069
0.10317466
0.03334807
0.04642400
-0.07562801
0.04232379
-0.06252028
-0.01283202
0.02301425
0.00732491
-0.00000294
-0.04587942
-0.04621806
-0.04549618
0.04587636
-0.00654738
0.09783921
0.04612107
0.08588218
0.09334586
-0.08798421
-0.07907042
-0.09141912
-0.00137891
-0.00281166
0.00421204
0.01081141
0.00804309
-0.08307791
-0.03731380
0.03975636
0.03265936
0.05914223
0.01328368
-0.09402707
0.07679267
-0.03982620
-0.06435278
0.07275839
0.07102939
0.03315604
-0.01733361
0.06931745
0.05342320
-0.07838095
0.07503568
-0.03421284
0.04574286
-0.04738750
0.00743349
-0.04790395
0.02606383
-0.10215265
-0.06269894
-0.05865594
0.06755673
-0.08158758
-0.01833463
-0.06971399
-0.01334857
0.02114403
0.06211916
0.05883909
0.07542363
-0.04784430
0.05124954
0.01705397
-0.01854353
0.01604307
-0.05702351
0.01141485
0.08853700
-0.04727795
-0.01809591
-0.00309925
-0.02079354
0.03111581
0.00389197
0.08767271
-0.00937358
-0.00757943
-0.09062227
0.06195445
0.09361859
-0.07301816
-0.01528596
0.03619898
0.01566494
0.04328107
-0.00889850
-0.07886868
0.02798674
0.09147015
-0.00837972
0.05470102
-0.01010862
0.03247025
0.08850178
-0.05687807
-0.02028875
0.08215117
-0.01225422
-0.09151458
-0.01707914
-0.07415713
0.09902263
0.08451106
-0.04018896
0.05969687
0.00624237
-0.01640189
-0.02428775
-0.03408626
0.04013156
-0.02334428
0.07349477
-0.03454720
-0.09121315
-0.04351727
0.03750261
0.06790453
-0.06716503
-0.10761734
-0.02890775
-0.06443759
-0.10983479
-0.08370607
0.01161662
-0.05827270
0.06194135
-0.03897253
0.01886959
0.04793435
0.05705667
0.00862027
0.01120405
-0.02725002
0.02193108
0.00222188
-0.08623750
-0.08691284
0.07066047
0.08557330
-0.02489459
0.00861571
0.05594375
-0.10035405
0.06806187
0.04098332
-0.08290531
-0.08908129
-0.08326654
-0.06428690
0.00494549
-0.00390693
-0.05912144
0.06994854
-0.09275173
-0.06079270
-0.07285141
-0.02044011
-0.05560007
0.08314469
-0.06572845
0.07141108
-0.06226718
-0.01521214
-0.07967919
0.07484787
0.01523702
-0.09500171
0.02025393
0.02622113
-0.08937077
-0.06194884
-0.02220291
0.02990578
-0.04905775
-0.03147745
-0.07757734
0.03342517
0.08648905
-0.00811473
-0.03590042
-0.01750050
-0.06378650
0.04525313
0.02301280
-0.03902520
-0.04108369
-0.05297177
-0.06021721
0.09877379
-0.04259750
0.09341213
-0.04011077
-0.01166584
-0.05405634
-0.03308325
0.03296391
-0.08827032
-0.07568935
0.01286155
0.05912759
0.08301406
0.07511244
0.01074085
-0.00198354
0.07559532
0.04517785
0.07322509
0.00400419
-0.07975651
0.09901434
0.02898574
0.03210913
0.08237954
0.01315781
-0.04631865
-0.00791606
-0.01523839
-0.03152367
-0.02178325
0.03800099
0.04890668
-0.04260044
-0.08612801
-0.08404280
0.04775748
-0.07266771
-0.02353769
-0.01213334
-0.01519830
0.01940971
0.10133718
0.05691935
-0.00178855
-0.09454113
-0.01721989
0.05826933
0.08194031
0.01186608
-0.07502068
0.02278210
0.00432945
0.06775723
0.02559804
0.00769145
-0.04189784
-0.04718270
-0.00050087
-0.02830691
-0.01533266
-0.06356003
0.08940745
-0.03290322
-0.02402116
-0.06605768
0.09115135
-0.02040908
0.06733796
-0.01859992
0.03077755
0.03173839
0.04860122
-0.05569883
-0.04672093
-0.03069412
-0.03315697
0.00145148
-0.03474817
0.08632858
0.05223365
-0.06382936
0.07770044
-0.09375913
-0.04019412
-0.02304964
-0.00354309
-0.09361152
-0.09707302
0.07185547
0.06970593
-0.06172420
-0.01445168
-0.03980561
-0.07025535
-0.01963959
0.04221224
0.02974107
0.02075930
-0.07802815
-0.09295085
0.00977715
-0.02559649
0.02517255
-0.04099891
-0.03055743
0.05213607
-0.01002595
-0.04053075
-0.01136265
0.09010169
0.07977900
-0.10129713
0.03045322
-0.04145928
0.02181770
0.06069115
0.05731944
-0.03864120
0.08464888
-0.01695031
0.00672548
-0.00608317
-0.04371714
-0.10433550
-0.09156402
-0.02943543
-0.01172741
-0.00626818
0.00251976
0.00704725
-0.06986597
0.03171708
-0.06581003
-0.03075358
-0.06777139
-0.09778494
0.01592110
0.01594114
0.09458333
0.00135424
0.03640425
0.09479208
0.06186291
-0.04122889
-0.05520200
-0.04210351
-0.04302294
0.01975840
-0.03447474
0.03226322
0.05790520
0.04064908
0.09266621
-0.05989386
-0.07084383
0.04678912
-0.04432604
0.07941069
-0.08278502
-0.05533305
0.07590274
0.05144490
-0.04255147
0.04564814
-0.03423860
0.02616448
-0.09024490
-0.02055969
-0.10424279
-0.01439104
-0.07656846
0.08817762
0.07583212
0.08819011
-0.05474078
0.06302248
0.07065183
0.09487990
-0.08980078
0.07091933
-0.07171053
-0.02546661
-0.05010696
-0.01368056
0.06130219
0.05746066
-0.04154016
-0.01432902
-0.04536690
-0.06757971
0.08076516
0.03369847
-0.07069131
0.06729738
0.03614638
0.03180287
-0.03810581
-0.02710112
-0.01817625
0.02471293
-0.07839243
-0.00331200
-0.06327425
-0.03565899
-0.09112804
-0.07903144
0.05346466
0.08359731
0.05525526
0.03406838
-0.04476797
-0.07396668
0.00455315
-0.05904828
0.02182514
0.01467407
-0.02606751
-0.03926443
-0.06469863
0.08602407
0.08927129
0.02251725
0.03330049
-0.06353850
-0.10660920
-0.01558353
0.00282310
-0.10751807
-0.02928255
-0.07715851
0.04661525
-0.03948502
-0.06835129
-0.07395456
0.03649482
0.05377340
-0.07444263
-0.06409466
0.08222411
-0.05169719
-0.06383300
0.02681874
0.01875734
0.06900567
-0.08401045
-0.10588084
-0.03949044
-0.00733135
0.00275499
0.02377342
-0.04170270
-0.05483815
0.07165142
-0.02421275
0.06387303
0.08147497
-0.10936857
-0.10234229
-0.09446726
-0.08778180
-0.00972059
-0.01526533
0.05508429
0.05530776
-0.08274385
-0.02924435
0.00701788
0.00056063
-0.05525674
0.08359433
0.00062175
-0.05726735
0.09932267
0.01658371
0.01002996
0.02095748
-0.04123337
0.07735560
0.00330873
0.00810539
-0.07589922
0.07452595
0.03624889
0.03334535
-0.05416745
0.01347127
0.02999871
0.10516268
-0.06381436
-0.03465239
0.03315383
-0.10181193
-0.05073843
-0.07959361
0.03899523
0.09057479
0.02428031
0.04639795
0.06660507
0.07014740
-0.06752816
0.07726235
0.08446647
-0.02710859
0.03888925
0.07041457
-0.00610285
-0.02869253
0.04113549
-0.03024055
0.03777261
0.00957733
0.01440692
-0.03611741
-0.04247072
-0.02409770
-0.01882547
-0.01749171
0.09053933
-0.00727824
-0.05577099
-0.09840361
0.04103408
0.08004832
-0.04939456
0.02337782
-0.05646114
-0.01140657
-0.02151873
0.04725358
0.03093336
-0.00255951
-0.05761585
-0.02540635
0.08243799
0.05118453
-0.09745035
-0.03187619
-0.07940420
0.04105190
-0.02112033
-0.08871921
-0.00332639
0.02586479
0.05642791
0.05080940
-0.02685852
-0.03254495
0.02119171
0.08860701
0.05936607
0.01858498
-0.00476872
-0.08663788
-0.06727140
-0.07037219
0.02864365
0.06137113
-0.03902134
-0.00642444
-0.01233185
0.08277670
-0.05157632
-0.03120804
0.06351911
-0.03852053
0.05708093
-0.01622696
0.01890528
-0.02493012
0.06972983
-0.05393954
-0.00775323
-0.00550183
-0.06812709
-0.00641879
0.09628967
-0.09567060
0.03689032
0.01179040
0.03649155
0.09051950
0.08357040
0.01623283
0.07955949
-0.09596504
-0.10005428
0.08272290
0.01234637
0.08350216
-0.03266362
0.09679962
-0.00346730
0.03093284
-0.04986112
-0.08949993
0.04348477
-0.04457557
-0.08351239
0.04807170
-0.06191951
-0.06878608
0.02476906
-0.05482893
0.05437569
0.02725675
-0.05896210
-0.01374125
0.05127604
-0.06507287
-0.06892819
0.03223687
0.03855282
0.05790380
0.05440974
-0.05570354
0.04005875
-0.08385548
-0.04514970
0.03841593
0.09522979
0.04035359
0.05788015
0.04374181
-0.00376043
0.05129997
-0.05410704
0.03792674
-0.01002801
-0.00685110
-0.03225070
0.00541399
0.00648887
0.04527559
0.05321087
-0.00561719
0.08403578
0.05693049
-0.02451365
0.02486735
-0.03108864
0.03114453
-0.05811866
-0.01277920
-0.04618118
-0.05315706
0.07934185
0.04824350
0.06046484
-0.02506506
-0.04878475
-0.06648833
-0.01810408
-0.07419494
0.05056530
-0.03726645
0.03911529
0.07579398
0.03582024
0.02630107
0.00058941
-0.06308241
-0.04468501
0.04326354
0.05401659
0.04901711
0.10297269
0.02895610
0.08651965
-0.07707042
-0.08262120
0.06642835
0.03861391
0.08385963
0.03278343
0.00184319
-0.00083688
-0.04810981
0.01524324
0.01664387
-0.00938811
0.02660213
-0.00124978
-0.01076901
-0.05998080
0.00205401
-0.05703096
0.04054220
-0.06884274
-0.07310217
0.03537775
-0.04825337
-0.04164739
-0.08159807
0.07011530
0.03345737
0.08518556
-0.07752699
-0.08257210
-0.05856693
-0.02461903
-0.06129905
-0.06518542
0.10048933
0.04915354
-0.09744551
0.09164653
0.07992445
-0.08075135
0.07520993
0.02553443
-0.02160876
0.09942093
-0.03651087
0.01950147
0.04506268
-0.06478825
-0.01447830
0.01030007
-0.01776973
0.05669884
0.07634957
0.05580224
0.00076863
-0.06867357
0.07913097
-0.00110565
-0.06094921
-0.07910923
0.03354178
-0.06326341
-0.05509411
-0.05838467
0.07259520
-0.00623045
-0.08246384
-0.08011919
-0.08541237
0.03399733
-0.10025155
-0.05806333
-0.00635706
-0.03972751
-0.05411120
-0.04074610
0.06391300
-0.09742476
-0.01037487
0.00500553
0.02637872
0.00713666
-0.10656316
-0.05471471
-0.09025832
-0.00368568
0.02657828
0.01464689
0.00479080
-0.00664439
0.00134638
0.09826952
0.00893757
0.09543084
0.09398402
0.07916929
-0.04043863
0.01682569
0.04672567
-0.01190939
0.05145404
0.01174071
-0.05458879
0.04510377
-0.08732052
0.03998515
-0.02987787
-0.00874663
0.03528966
0.05085580
-0.08345256
-0.10454761
0.03837054
-0.04211301
-0.02182371
-0.06405026
-0.01461923
-0.01865008
-0.05171041
-0.04463330
-0.00464964
0.08235857
0.00058113
0.04608182
0.03836936
-0.03309754
0.03697168
-0.01218875
-0.05855762
0.04521556
0.07667814
-0.00607299
0.04204908
-0.01542451
-0.07341475
0.00285309
0.04895552
-0.07251689
-0.06289356
-0.01586452
0.06314368
-0.02017049
0.08287080
-0.06226697
0.03974551
-0.10301147
0.00203816
-0.05576841
-0.05622691
0.01958057
-0.09615313
-0.05506739
0.04383077
0.00610261
0.02906500
-0.02211871
-0.08304903
0.09348204
0.09238462
0.00192319
-0.06824457
-0.08501933
-0.05400478
-0.07271077
0.01481921
-0.00159058
-0.07048342
0.02081665
-0.06289568
0.04151288
0.08935396
-0.08519346
0.06953854
0.02880303
-0.02285510
-0.09103542
-0.03461723
0.03685578
0.07473730
0.07568490
-0.05411476
-0.00542090
-0.05460188
0.06644354
-0.00638159
-0.08185640
0.06732397
0.10732431
0.07138096
-0.07753793
-0.01776798
0.01311644
0.06777774
0.09851734
-0.01489827
0.02091385
-0.05280949
0.01737500
-0.01699626
0.08694939
-0.07304438
0.01266035
0.05378815
0.04212896
0.07618239
0.02636019
0.00371694
0.06760877
-0.03651324
-0.10172920
0.03202275
0.02334421
0.08067493
0.07162929
-0.05608387
-0.09395312
0.09832696
0.06688812
0.06268464
0.07443938
0.08020042
0.05185176
-0.07467162
-0.09730046
0.06291429
0.00961955
0.01222995
-0.05402076
0.07969238
0.02611792
-0.05941873
-0.09855537
0.02115006
0.06657935
0.00087349
-0.02516915
-0.10730330
0.00870995
0.08447276
-0.09588778
0.00248716
0.06996601
0.03624588
-0.04573965
0.06886269
-0.03229989
-0.01733147
0.03283167
0.09458435
-0.05606356
-0.04362914
0.06224653
-0.08249717
0.04467053
0.01265417
0.10051179
0.01326931
0.08175350
0.00799374
-0.06292301
-0.08443044
0.05675712
-0.04081250
0.10777437
0.06038099
-0.07564409
-0.06179027
-0.06130956
-0.04016900
0.07699039
0.05443161
0.08785560
0.01261802
0.02798304
0.04545145
0.07164411
0.04821190
0.09670926
-0.01100712
-0.09750927
-0.07199565
0.03802079
0.03101329
-0.09495173
0.01918551
0.00685641
0.09731670
0.00638355
-0.02644837
-0.06894523
-0.03317202
0.09128443
-0.07483596
0.06109480
0.09222450
-0.08643788
0.03814293
0.09188760
0.01973560
0.05912312
-0.05935818
0.04063179
0.02997440
0.02879451
0.03375402
-0.00659995
0.00673494
-0.03068694
0.06950456
0.09171722
-0.00944443
0.04744423
0.02554194
0.00979320
-0.02714995
0.04663056
0.07759469
-0.02220044
0.00770191
-0.06792301
0.10551428
-0.03246954
0.03823444
0.09502458
0.04623669
-0.10600883
0.04371190
-0.02385442
0.03257177
0.08092652
0.00094762
0.00593746
0.06501260
0.03571753
0.05224363
-0.03680893
0.02088697
-0.01576146
-0.07470767
0.09328928
-0.04352685
-0.07348276
0.01293090
0.02899857
0.06517889
0.08115969
0.01566658
-0.09383882
0.03422838
0.06287993
-0.09268582
-0.05797162
-0.08986179
-0.06696859
-0.03155356
-0.05108262
0.02341250
0.09307636
0.05838281
0.08628507
-0.00211582
0.04860166
0.01370225
0.03879243
0.02683578
-0.03863354
0.04115256
-0.00464248
-0.03155760
0.01781719
-0.07089232
0.08471626
0.02535788
-0.10441020
0.04190875
-0.00751522
0.05477868
0.06605223
0.05113042
0.08116427
-0.03414304
-0.03948509
-0.06347720
0.07690921
-0.06341036
0.03240273
-0.05985892
-0.08661957
0.08427917
-0.08862084
0.07411529
0.06908958
0.08391811
-0.03776290
0.06062880
-0.02425988
-0.05763784
0.08390940
0.00688604
-0.03526954
-0.06686918
-0.05625095
0.03207762
0.02569874
0.07569858
0.03863833
0.09968246
-0.01456985
0.00211369
-0.00993613
-0.06429631
-0.09368072
0.02288113
-0.08323537
0.04619537
-0.02135486
-0.01777319
0.05143386
-0.07844127
0.04071710
0.04540351
-0.02175825
-0.06003509
-0.01366620
-0.07361204
-0.00806758
0.06224312
-0.03950003
-0.09966209
0.04417061
-0.10067590
-0.02767437
-0.02116484
-0.04271138
0.00685899
-0.06643811
-0.07346038
-0.09236213
0.04445051
-0.02200193
0.06338199
-0.06749953
0.10456857
0.04850441
-0.07073783
0.08126709
0.09099310
-0.02554180
-0.03084984
-0.05272059
-0.03840382
-0.10641592
-0.05161197
0.06326100
-0.01302270
-0.07012215
-0.00847806
-0.03850792
-0.08953000
0.06112945
-0.02764006
-0.02205771
-0.01239482
0.07350514
0.04469364
-0.04086308
-0.00557767
-0.01871174
-0.10779137
-0.03405752
-0.07564559
-0.06941296
-0.04650256
-0.02518439
0.07689062
0.06528397
0.00012213
0.05922394
0.06722329
0.00008227
0.06367597
-0.01882359
-0.03521067
0.05331519
0.07841787
0.04728885
-0.03159348
0.08087854
0.01219802
0.01309789
-0.07849670
-0.03486503
-0.07674586
-0.07942408
-0.00296424
0.01058916
-0.04846287
0.03480560
-0.05760025
0.05650419
-0.09243621
-0.07635405
-0.00109610
0.02296305
-0.01290871
-0.08925582
-0.07223267
0.09169190
-0.04701412
0.00350583
-0.00906486
-0.06644943
-0.06309871
-0.06000656
0.00648565
-0.06268709
0.00439252
-0.04438857
0.03534385
0.02888582
0.00718432
0.03801724
0.07553630
0.08022451
-0.00499472
-0.05788195
0.08543115
-0.03677915
-0.02490667
-0.06415749
-0.06223316
0.07762976
0.01087942
-0.03728554
0.06659054
0.11431993
-0.02342699
0.05855778
0.02278776
0.08117471
0.10463022
-0.04411427
0.04539622
-0.08870706
0.06994492
-0.04656157
0.09650676
0.07991913
0.02081088
-0.08458024
0.04462705
-0.00936651
-0.06062186
-0.00841408
-0.00090325
0.05362335
0.00286090
0.01556363
0.00678952
0.01758627
-0.02286681
0.10863298
0.09274340
-0.04215329
-0.04459205
-0.00810902
-0.04597573
-0.06237573
-0.07798171
0.00637592
-0.05452891
0.01787552
0.00908151
0.09919058
0.04556725
0.05143888
0.03484526
-0.02824884
-0.05975415
-0.01617943
-0.03217379
0.09107328
0.04692728
-0.03766731
0.02331250
-0.07431385
0.07489791
-0.09644419
0.05924380
-0.02561453
0.01586964
0.07471523
-0.06514480
-0.04673310
0.02989962
-0.09096076
0.05519827
-0.07125501
-0.08435334
-0.05044995
0.06994928
-0.01210324
-0.03381541
0.00474975
0.06661081
0.04260819
0.07679419
0.07488336
0.01147323
0.09464920
0.00279187
-0.08721528
-0.01805168
0.06741504
0.05184784
-0.00685455
-0.01458280
0.06574867
-0.02734180
0.05032814
-0.05484601
0.00243256
0.05532841
-0.07172466
0.03279825
-0.06914141
-0.06382897
0.02799177
-0.03475454
0.00473963
0.03134010
0.10326781
-0.06266458
-0.06335932
0.04008603
-0.01010390
-0.00201658
-0.01338680
0.09741382
-0.00296152
-0.04331553
-0.04433858
-0.07045257
-0.07489788
-0.06186862
0.04113479
0.08993233
-0.07859771
-0.09705460
0.05380186
0.01933982
-0.01961922
-0.06847845
-0.00940157
0.05707417
0.01012499
0.11062431
0.09328689
-0.02754575
0.08034648
0.08869536
0.03347105
-0.07301722
0.00333091
0.06158480
0.02334833
-0.00053545
0.07137900
0.08377924
-0.04196332
0.10215851
-0.03375599
0.06783056
0.01818191
-0.02608144
0.08317083
-0.06246382
0.01097297
-0.00514083
-0.07919095
-0.07714015
-0.00478212
-0.08272302
0.04259889
0.09321925
0.08877398
0.09979030
-0.09143666
0.04122930
-0.05583319
-0.01358819
-0.05426935
-0.10286246
-0.01512446
0.03931772
-0.02007322
0.09731942
-0.04398087
0.05283511
0.04319342
0.06755190
-0.02746155
0.05219590
-0.08945571
0.02003637
0.08065276
-0.01643472
0.03281186
-0.06448665
-0.01781174
0.04522705
-0.10082473
0.00671322
-0.09824317
0.05016033
0.10425706
-0.03430417
0.01889118
0.03971451
0.05245638
-0.05363515
-0.06157503
0.03126383
-0.00511707
-0.05801424
-0.06475704
-0.02503506
0.05589223
0.08536734
-0.05571493
-0.05209399
-0.03122648
-0.09109301
0.06033750
-0.03354916
0.02957595
-0.01788055
-0.06015595
-0.06707072
-0.04954753
0.07357450
0.10274678
0.04682824
0.07302628
0.02258239
-0.03802826
0.10659739
0.02754031
-0.04386089
-0.04327628
0.00063909
-0.01518952
-0.02792141
0.01208708
-0.00475710
-0.08142959
-0.03288208
0.00511460
0.04094708
0.03316879
-0.04741690
0.06598121
0.08840917
0.04496077
0.02092903
-0.08196147
-0.03122215
-0.04372456
-0.06076086
-0.03382641
-0.08713848
0.07928266
0.05705844
0.04146179
0.06763389
-0.02456865
0.07095300
0.04166985
0.06305847
-0.12226966
0.05890151
-0.02738210
0.04424596
0.02442060
0.04720446
-0.09141450
0.03375903
-0.00270629
-0.02749364
-0.03755020
-0.02291195
0.00391280
-0.00922468
0.04958867
-0.00478519
0.00992107
0.06114262
-0.06127474
0.01836932
0.06174814
-0.09761908
-0.09313794
-0.09748504
0.03866905
-0.07610963
-0.02367317
-0.06577720
-0.09678072
-0.02377118
0.05571816
-0.11513571
0.04205731
-0.08732785
0.00674231
-0.01412890
-0.08212496
0.03778548
-0.06736177
-0.00894617
-0.06755767
0.05061096
0.05644741
0.06976965
0.07113875
0.02934417
-0.07333911
0.11883516
-0.09209949
-0.08978841
0.08763546
-0.02685199
0.01410605
-0.06601073
-0.08381898
-0.04537182
0.03863297
-0.06036150
0.00370640
-0.07224413
0.02207996
-0.00243133
0.07752593
-0.03501000
-0.00956394
-0.04596117
0.03003725
-0.04928255
0.11088253
-0.02901091
-0.06170720
-0.09587506
-0.01456646
0.00701263
0.03052937
-0.04965374
-0.09004981
-0.01989497
-0.11109127
0.06952695
-0.07437892
-0.04222006
0.04301036
-0.07247004
-0.01294278
0.00608706
0.00648215
0.08413786
-0.04465125
-0.06367484
0.00148639
0.02105839
0.06091942
0.00509249
0.06884619
0.05554033
-0.01204154
-0.05404383
0.07268550
-0.06214658
-0.02829025
-0.02755738
-0.08376599
0.04250356
0.07419976
-0.08743231
0.07508775
-0.01849032
0.00071938
-0.05286853
0.03028827
-0.05170109
-0.02836500
0.06759445
-0.02740244
-0.03876079
0.04646930
0.04993486
-0.06172058
-0.06954801
0.00075392
0.02317453
0.04025057
-0.06239827
0.06226221
-0.04187022
-0.08788034
-0.09164859
0.05510863
-0.10596463
0.07149009
0.03513141
0.08602244
-0.04456624
0.01215568
-0.02438341
-0.02550390
-0.05377265
0.02924776
-0.06169109
0.06303866
-0.07430297
0.04703064
0.02280514
0.03110770
-0.00090350
-0.00176152
-0.10173961
-0.05320298
0.06865390
0.09713426
0.00629803
0.01301699
0.08509582
-0.00079741
-0.02171991
-0.09943920
0.08758927
-0.04807678
-0.01634102
-0.01719127
-0.07477497
-0.03049538
-0.09626678
-0.04144180
0.06133926
-0.07016283
0.03610041
0.02352290
-0.06261924
0.04089145
-0.00289494
0.08288137
0.05803113
-0.05568341
0.02030027
0.07977729
0.05247314
0.00550517
0.00701021
-0.02014947
0.01064859
-0.08352464
-0.00189129
-0.07805001
-0.09450448
-0.08422067
-0.03191706
-0.08412630
-0.08346408
-0.00762581
-0.03822055
0.06243504
-0.08115143
-0.00044429
0.06310180
0.09640476
-0.10485766
-0.08088050
-0.10148890
0.05371096
-0.05859094
-0.00304462
0.01140673
-0.03552754
0.05888679
0.08610637
0.02940508
-0.06519557
0.00225910
-0.07505088
0.04915571
0.08077603
-0.04903943
0.05596954
0.07551503
0.02462245
0.00386943
0.02250777
0.02418394
0.00276578
-0.03185047
-0.01414447
0.00802971
-0.02024631
-0.12201319
-0.02584038
0.02035292
-0.09738690
0.07331265
-0.03424843
0.01226460
-0.05071641
0.05983709
-0.04945465
-0.01010311
-0.05088874
0.09134592
0.05452247
0.00676450
-0.05639508
-0.09700632
-0.01181073
-0.01118677
0.10641237
-0.02355999
-0.01980809
-0.03168213
-0.08516953
-0.04087160
0.05500786
0.04392892
-0.05087579
-0.07229637
-0.05985400
-0.02692977
-0.02485373
0.07163729
-0.05704506
0.06634804
0.07744743
0.02565998
0.05582538
-0.03037890
-0.06934323
-0.04749675
0.07180818
0.00166667
-0.09495776
-0.00289659
-0.02487182
0.05819724
0.07135600
-0.07347853
-0.10464354
0.03202336
-0.03343349
-0.05285845
-0.03298674
-0.06652591
0.03912157
-0.06605136
0.09086909
-0.02674926
0.01139686
0.01203097
0.00554098
-0.00060698
0.04261937
0.09275588
-0.06292155
-0.02416831
0.09421590
0.06461398
-0.04377414
0.06947052
0.03500336
-0.01904186
0.02469903
0.01990747
-0.04119278
-0.05752615
-0.08934310
-0.08475604
0.03538680
-0.07725714
-0.01290232
0.03948645
0.01478993
0.01753929
0.03898669
-0.06745865
-0.08180352
-0.01818670
0.03727155
0.05178852
0.05075355
-0.10299124
0.03060151
-0.04518523
-0.03074377
-0.08061170
0.01398846
0.05723357
-0.04827414
0.00554009
-0.04196002
0.10342207
-0.02811548
-0.09109342
0.01493036
0.00247551
0.02104882
0.02188295
-0.00728472
-0.05016301
0.00915936
-0.03530622
-0.02687593
-0.03326884
0.07165485
0.07963952
0.06167547
0.10212804
-0.05125162
0.08277411
-0.06699924
-0.01519893
0.06076486
-0.04274689
-0.09234595
0.03649883
0.06561805
0.04580899
0.09825817
-0.00416976
-0.04796460
0.06037530
0.08432852
0.06445003
-0.07424768
-0.03795361
-0.07143377
0.07878553
0.01880508
0.06095498
0.01426135
-0.10656827
-0.05302911
-0.10996925
-0.01865314
0.04654056
-0.03450261
0.03500434
0.02499579
0.09787756
-0.04887215
0.07727506
-0.03425167
-0.01895616
-0.02686075
-0.01709245
-0.01046247
-0.05348816
-0.11138873
-0.03284012
-0.00504310
0.05298885
0.05196750
-0.00711785
0.01467957
-0.09976619
-0.02736788
-0.03390528
0.02291527
0.04522263
0.11073019
0.05066565
0.00569434
0.03776690
0.04750295
-0.09281690
-0.07497627
0.06537157
-0.09285334
0.04274216
-0.04235485
0.08386663
0.07175311
0.03083077
-0.02831607
0.08083488
0.00780526
-0.09561120
0.02395777
-0.00918253
-0.02753419
-0.09603474
-0.09135808
-0.08360890
0.06135271
-0.11587039
-0.09960895
-0.06806415
-0.01136443
0.03966999
-0.03692827
-0.04161960
0.07393957
0.02553063
0.01986651
0.00650795
-0.06866854
-0.01800237
-0.05634515
-0.01430499
-0.04271507
0.06649958
-0.07105764
-0.04720833
0.06538562
-0.03168215
-0.05307345
-0.03887189
0.02536556
-0.03056909
0.01760431
0.00235302
-0.03055829
0.11095007
-0.01136928
-0.05453395
0.10513249
-0.10184599
-0.01562121
0.02702789
-0.01405659
0.01581019
0.01026409
0.06804584
0.08506993
-0.09532315
-0.05386822
0.01389877
0.00421698
-0.00087817
-0.07401521
0.05279334
-0.06866674
-0.00478055
-0.04361793
-0.00146160
0.04795811
0.06885491
-0.07354458
0.03193123
-0.07947108
0.07895516
-0.05179383
-0.05339062
0.07509980
0.07681334
0.05017438
-0.04702257
-0.06160348
0.03374360
-0.01568716
-0.07995498
-0.02246646
-0.05199225
0.00215158
0.07799804
0.00313089
0.01705945
0.04427689
-0.01406639
0.00180505
0.02443412
0.09991034
0.05847804
0.07811406
0.06938296
-0.00679991
-0.07721781
-0.01195991
0.07124758
0.08015151
0.04336062
0.01737807
0.01815421
0.01636701
0.03017307
0.08053565
0.00100732
0.02455803
-0.01123897
-0.02155731
0.04052712
-0.00963872
0.03684810
-0.04459005
0.09554770
-0.02719107
-0.06433351
0.08845075
-0.00023935
-0.03436011
0.01605876
0.00471192
-0.02948253
0.09767556
-0.04529683
0.06288438
0.03150536
-0.00717382
0.05106315
-0.04794170
-0.07482640
-0.11304637
0.11974035
-0.03726099
-0.00386028
-0.01236021
-0.08170775
0.00225136
0.05412632
-0.05438210
-0.06315464
0.01656698
-0.06868937
0.12510478
0.01341432
-0.08600581
0.05112669
-0.06788769
0.00412330
0.04518950
-0.02102282
0.03453582
0.00657817
-0.06269013
-0.03677981
-0.09073117
0.01920467
-0.06330991
-0.03336893
0.08037563
-0.05810288
-0.07856434
-0.07126254
0.03099251
-0.07358978
-0.10138878
-0.04609882
0.00216444
-0.02421356
0.02831456
-0.01274825
-0.00542227
0.09482724
-0.00215557
0.06449723
0.02686110
-0.06917438
0.01195843
-0.05071554
0.03692633
0.08159672
-0.03408537
-0.06859883
0.08160304
0.06480728
-0.04443023
-0.02820777
0.02556414
-0.07765939
-0.09543471
-0.10853490
-0.10513850
-0.03248191
0.01356967
-0.01476635
-0.05296944
0.09559668
0.03675598
0.06487346
0.05808058
-0.07177979
0.07500873
0.04910630
0.04744616
0.04075066
-0.03899697
-0.08237409
0.04120632
-0.08384099
0.04622731
-0.04291320
-0.05978614
-0.05090242
0.05623248
-0.00251298
-0.08852734
-0.02877830
0.01686930
-0.05682085
0.08284577
0.06299954
-0.04101899
-0.05794936
-0.03489697
0.04628623
-0.07796945
-0.00525947
0.03436293
0.04114741
0.03423528
-0.07003729
-0.07013525
0.07622143
-0.07457644
0.06971969
-0.05583384
-0.02342586
0.02898053
0.06780849
-0.00460038
-0.00626796
0.07321396
-0.07284319
0.01051060
-0.01230524
0.01987890
0.02565060
0.04069435
0.05769688
0.04390421
0.01704870
0.09300984
0.08139180
0.07081330
0.00162659
-0.05312666
0.01142445
0.04071548
0.05652943
-0.04273011
0.06619677
0.07480930
-0.08162999
0.05021956
-0.09191867
-0.06121996
0.05196001
-0.07564251
-0.04781619
0.05925692
0.00880779
0.00662752
-0.09590977
0.02114557
0.00205773
-0.03905117
0.01361032
-0.07280473
-0.03598702
0.08239899
0.06909791
0.04523683
-0.06368688
0.02259896
-0.10530110
0.09411418
-0.03920484
0.09862880
0.06034457
0.01113461
-0.04785358
-0.05315633
-0.07796255
-0.00393450
-0.10387980
0.07384099
0.05935397
-0.11266168
0.04980593
-0.04287286
-0.00242533
-0.09986833
0.00520617
-0.03360468
0.07921231
0.06474156
-0.03823629
-0.05715333
-0.08170437
0.02006084
-0.09845130
0.00827594
0.03255827
-0.03540726
0.05029153
-0.03604492
-0.10064041
-0.08036893
-0.02680663
0.08423173
0.03053130
-0.08624174
0.07820719
0.05376195
0.07752007
-0.09457412
0.04604467
0.10844229
0.02330246
0.06430338
0.08440643
0.07619036
0.06738258
-0.06661297
0.07899993
0.09491077
-0.02240665
0.07246890
0.04418432
0.10162614
0.03070318
-0.03726326
-0.04745695
-0.09098550
0.08692110
0.00121116
-0.10129109
0.02664215
-0.02930608
-0.05584193
-0.00129188
0.02735284
0.02508472
0.06642228
-0.00716553
-0.08833210
-0.08907761
-0.07298200
-0.08733160
-0.04903908
0.06326667
0.05135326
0.04586186
0.03092775
-0.07377264
-0.06982065
0.04824749
-0.08319822
0.06552710
-0.07316549
0.01893891
-0.02751581
-0.00485941
-0.07843743
-0.09283114
-0.02416207
-0.02164949
-0.01554963
-0.00899748
0.09470129
-0.05821698
-0.00174641
0.04322358
0.03529142
0.00582642
-0.08061689
0.05680404
0.06600995
0.05782486
0.08720939
-0.05487828
-0.06354862
-0.09261946
-0.00875138
0.05883994
-0.08125327
0.00388138
-0.05322354
0.02514951
0.06258907
-0.08890600
0.07307894
0.04217690
0.08805513
-0.08371524
0.00827457
0.05685910
-0.10026791
0.01516000
-0.00219802
-0.01803437
0.04251545
-0.08649992
-0.07907982
-0.10176235
0.08091179
0.03527092
0.06611202
0.11203053
-0.06739849
-0.06853864
-0.08667928
-0.05676948
0.00125602
-0.06202469
-0.03290302
0.00630850
0.00324793
-0.03876702
-0.09419493
-0.02261649
0.03865629
-0.04993685
-0.06681518
-0.01082985
-0.07399464
-0.04889944
0.01467095
-0.00037972
-0.02322242
0.05092379
0.00678026
0.05819701
-0.08531532
0.04334522
-0.02314014
0.04958569
-0.08051546
0.07860996
0.09973265
-0.00317678
0.05053397
-0.06996559
0.05658087
-0.03576303
-0.05481456
0.05966770
-0.05100945
0.06104425
0.10263681
0.05329506
0.04022179
-0.06012779
0.04287828
0.02779573
-0.05783952
-0.03785974
-0.10880983
-0.08256640
0.06993880
-0.04541993
0.07061055
-0.03642284
0.09105979
0.04942422
-0.04988454
0.00413720
0.08763654
0.00618882
0.08036197
-0.08253466
-0.09690991
-0.06876185
-0.06870259
0.08829174
0.01088249
-0.00380122
-0.04404257
-0.06936071
0.07257309
0.06054401
-0.00956739
-0.06805893
-0.01668835
-0.10710175
-0.05198005
-0.09263477
0.07977863
-0.10957090
0.06182241
0.04938927
0.04743345
-0.04749446
-0.05950564
-0.03642628
-0.01746751
0.09508330
-0.06298828
0.08404849
0.00681728
0.02093101
-0.09590755
-0.04499429
0.05508893
-0.06420433
-0.06620621
-0.04219287
0.04583061
-0.08094081
0.03030957
-0.02548464
-0.00037150
-0.04943765
0.04806320
0.03899298
0.09193582
0.00785152
-0.01814768
-0.00393448
-0.10729966
0.01970583
0.00990012
0.00531240
-0.03828965
0.05532162
0.00489176
0.08218281
-0.08773477
0.01901891
0.01894615
0.01470756
-0.01642522
-0.11253100
-0.07208974
0.05299477
0.08300292
0.04405969
-0.09990855
0.07986185
0.02233870
-0.07458968
0.04145412
0.04310115
-0.09471497
-0.03876074
0.02823914
0.12059017
0.00994330
-0.01879917
0.06304228
0.10610983
-0.04525833
-0.04593403
0.03833235
-0.07189585
0.06549284
-0.04711954
-0.09488009
0.04592596
-0.06735766
0.01553794
0.03632958
0.04913148
-0.00132492
0.03926328
0.07388970
-0.06847353
0.08896831
-0.01865734
0.06777973
-0.08526250
0.03542946
-0.04356211
0.06412579
-0.03396571
-0.07957105
-0.06381481
-0.07208709
0.00428707
0.03508036
-0.01686541
-0.00418898
0.06584514
-0.09505514
0.07454937
-0.07651938
0.06439817
0.01575189
0.09950978
0.02227361
-0.03553867
-0.02748858
0.09397341
-0.02751861
-0.07851297
-0.07887197
-0.01158404
0.04052390
0.07554956
-0.02436962
0.02200164
0.08503813
0.05831949
-0.00947927
-0.01156849
-0.04229848
0.00180343
-0.00825410
-0.01509189
0.02070788
0.10229823
-0.00596725
0.03650667
0.05113602
0.06773734
-0.07411179
-0.00007962
0.07079925
-0.03595467
0.05581316
-0.04914086
0.04127363
0.00230540
0.07061455
-0.09501759
0.05992918
-0.06998151
0.03408010
0.04563417
-0.08896355
-0.09486430
0.01153444
-0.08387714
-0.07127427
0.07825000
-0.08709486
0.06132567
-0.01697003
-0.00636189
0.09115332
0.05301224
0.08325316
0.09496159
-0.00636135
-0.08043170
0.07134062
0.08295285
0.05899215
0.07072849
0.01553482
0.03294625
-0.06361837
0.01954696
0.06283474
-0.09327933
0.06444153
-0.00917342
0.03783175
-0.03683049
-0.00686727
0.08226321
-0.09776260
0.07320622
-0.01113250
0.01067340
-0.01438167
0.09919964
0.00997826
-0.05450847
-0.09455600
0.08940513
-0.05395804
-0.08012949
0.03375124
-0.08203489
0.06927270
0.05828574
-0.00999317
-0.06599727
0.05505799
0.06570425
0.09724981
0.00199834
0.07590467
-0.08742979
0.03261739
-0.02472203
-0.03978976
0.06964692
0.08421235
0.08084898
0.02681628
0.09193328
-0.08506540
0.06103908
0.10242094
-0.04600532
0.04568967
0.07967135
0.10066353
0.01647475
-0.05531089
-0.09403695
0.07267793
-0.00241687
0.01953916
0.07036094
-0.01454487
0.09119462
0.02556641
-0.02887200
0.09092550
-0.08823647
0.04712391
-0.09384247
0.05839722
0.02834622
-0.04978744
-0.05270610
0.00579864
0.09471521
0.04669122
0.04338304
0.06328107
-0.07521021
0.01991462
0.09398548
-0.09442737
0.08719192
-0.08443607
-0.09472038
0.08381846
-0.01469178
-0.07600096
0.07578488
0.05044929
-0.07080039
-0.01860371
0.03288223
0.00835248
-0.07311842
-0.08292301
-0.07045405
-0.05022793
0.08024811
0.01577489
0.03505771
0.04723026
0.05679159
-0.06696001
-0.00188341
-0.00483572
0.01406501
0.08543960
0.00440587
-0.06665384
0.04413681
-0.01204636
-0.08495455
-0.06100944
0.06350681
-0.07553955
-0.07531276
0.03488678
-0.01312180
-0.07248253
-0.06657368
0.00310927
0.04689570
0.00286244
-0.02964325
0.02564737
-0.05192980
0.01951304
0.06437037
-0.04281388
0.06417599
0.09357086
0.02059883
-0.02962567
-0.00666972
-0.06711780
-0.00829308
0.09707382
0.07297680
-0.06068285
-0.08283467
0.05217151
-0.07210226
0.01714282
-0.04190344
-0.01821238
0.05007404
0.02185320
-0.01563344
-0.03782728
-0.06224543
-0.02978063
0.04021624
-0.10587132
-0.01444494
-0.02506301
-0.07459328
0.08102854
0.09139960
-0.00348367
0.05534707
0.07535085
0.10776590
-0.08659383
-0.00428564
0.08852419
-0.01793410
0.08347095
-0.06923380
0.09124819
0.08911978
0.05163212
-0.06296292
-0.06742411
-0.07865926
-0.03811900
-0.03160361
0.04019819
0.03188317
-0.04145603
0.09312043
-0.03274341
-0.05913449
-0.08281846
-0.04521553
-0.00684809
-0.06681919
-0.05888718
0.05187704
-0.09013795
0.07935702
0.08610307
-0.04082392
0.07901122
0.08039670
-0.03643346
0.06353930
-0.05452276
-0.02872167
-0.04384090
0.10842983
-0.01140715
-0.08159197
0.03487337
0.06126692
-0.07288722
-0.10337803
-0.09988038
-0.07511786
-0.00229920
-0.03507815
0.03364430
0.04628386
-0.00097391
0.07854306
0.07032275
0.10200943
0.05108369
-0.05503588
-0.01826315
0.08056562
-0.05414857
0.03489426
0.04344931
0.04668579
0.04420825
-0.03167598
-0.08920069
-0.02502619
0.03805131
-0.05560585
0.07380585
-0.07924897
-0.00483099
0.08861908
0.01789135
0.07338780
-0.00715092
0.02838527
-0.01796716
0.08638631
-0.10188435
-0.01759685
-0.11693820
-0.09859904
-0.01657498
-0.09434789
0.09642511
-0.06763731
-0.06755770
-0.08818671
-0.05243942
-0.09918151
-0.01540531
-0.09357954
0.03829435
-0.05711873
-0.02328036
-0.10820704
0.02828229
-0.02691309
0.08042559
-0.08381740
0.00598340
-0.08729097
0.00562854
-0.07315257
0.06953358
-0.06768721
-0.05715924
0.01265197
0.03778090
0.00452712
-0.04645333
0.02612484
0.02858712
-0.02764037
0.03621318
0.04584365
-0.03740037
0.05763336
0.10749928
0.04270106
0.01542750
0.06529315
-0.04144893
0.04156420
-0.07376228
0.03550036
-0.05357765
-0.01008511
-0.07140331
0.07103567
-0.08796778
-0.02001836
-0.08670813
0.08865934
-0.04029180
0.01591494
-0.00870842
0.08754675
-0.08578750
-0.04853413
-0.04964777
-0.04228467
0.04701888
0.02343681
0.00447069
0.07389838
0.06427434
0.02530689
0.08598540
0.01403229
0.07309337
0.07312495
0.04661586
-0.07586582
0.06586762
0.08887669
-0.01761746
-0.04908091
0.06746790
-0.04211632
0.09921297
-0.04616505
-0.01245394
-0.05532711
-0.06216082
-0.08151614
0.01022368
-0.01149978
-0.09813057
-0.06468928
-0.04803447
0.06729533
0.03427623
0.04203947
-0.01022123
0.08922496
0.08111244
0.01325761
0.00538558
0.02647716
-0.01396006
0.03397454
-0.02459906
0.04776780
-0.06618921
0.07135809
0.08910721
0.08867642
-0.06681457
0.05570580
-0.09226467
0.10112796
0.06144993
0.04747983
0.06931495
-0.03079096
-0.03925066
0.05896100
-0.02620146
0.09268458
0.02982498
-0.03792795
-0.01707278
0.02184744
0.04273956
-0.01337932
-0.03382288
0.06423723
0.02298025
0.00031772
0.08528717
0.02349876
0.04248780
0.07147002
0.04010428
-0.06299970
0.02348316
0.07773520
0.01774409
-0.00518793
-0.01539641
-0.01676359
0.03320893
0.06170424
0.06997458
0.09109472
-0.10058402
0.00383822
-0.06902898
0.07545091
-0.05859924
-0.05832512
-0.09579984
0.03576726
-0.05225983
-0.04994108
0.00178549
0.01414592
0.05147301
0.02918658
0.07550209
-0.03948020
-0.05043034
0.06818757
0.05372751
0.08124750
-0.01233157
-0.08829799
-0.04490500
-0.06231590
-0.00362710
-0.02147131
0.11621816
0.01067638
0.10268850
0.02268901
0.04067555
-0.05477865
0.08757396
-0.06697368
0.03703483
-0.09890234
0.05509163
0.08801182
-0.07840034
-0.05151730
0.06987726
-0.04027030
0.04765057
-0.01289793
-0.01675149
-0.02012799
-0.01292064
0.05614055
0.00494812
-0.04754295
0.02057398
0.07095559
-0.08951046
-0.01034596
0.04216036
0.09095841
0.04077421
-0.00130637
0.03253455
-0.07152434
-0.02176419
-0.00791318
0.01771192
0.09285581
0.06142328
-0.02627950
-0.00221852
-0.00183406
0.00398021
0.03493769
-0.00482935
-0.04187333
0.07451018
0.05956497
0.07434387
-0.05386988
-0.06785990
-0.03629317
-0.04977622
0.04368419
-0.04373562
-0.04012977
-0.01460074
-0.01274830
0.02555648
-0.00382756
0.08316878
-0.00405974
-0.02449730
-0.02823748
0.00377507
-0.04390202
-0.03149779
0.05846098
-0.08531183
-0.09133943
0.05780369
0.04083121
0.06980770
0.06604096
0.07981060
0.04311271
0.05302086
0.02873503
-0.07674678
0.03879882
0.01136261
0.03711040
0.03857481
-0.02677254
-0.00552245
-0.01190480
0.03852442
-0.06911143
0.02609589
-0.06322941
-0.03156343
-0.04756486
-0.03114524
0.00978171
-0.09827583
0.01155783
0.04418362
0.02789016
-0.06849049
0.06739279
0.01632646
0.10696398
-0.06200005
0.06973438
-0.01813480
0.06264411
-0.05137281
-0.02697815
-0.11118825
0.01191359
0.07420688
0.08589794
0.06204192
0.07667600
-0.02879823
-0.05522026
-0.02801919
0.09183331
0.11143201
-0.06150269
-0.01897999
-0.01901739
0.07209627
0.08915028
0.11611568
0.07460338
-0.00557584
-0.02223272
0.01534393
-0.03441120
0.07968558
-0.07044419
-0.02377629
0.06594597
-0.04057192
0.09743007
-0.02714674
0.01912537
0.07681132
0.00527675
-0.10692594
0.07271419
0.03872503
0.05258003
-0.01367745
0.00719084
0.04784405
-0.03651871
-0.02878092
0.07970588
-0.07879904
0.02609663
-0.06311174
-0.04378274
-0.03344840
-0.05712406
0.07871377
-0.07225783
0.06994948
-0.05804110
0.08661446
0.05658945
0.07524569
0.01104693
-0.07466475
-0.02092076
-0.03944372
0.00238847
-0.04841906
0.06649919
0.02860784
0.03201696
0.03966416
0.00862866
-0.08777440
0.05930797
0.09519502
-0.06866970
-0.00137149
0.01247192
0.08819314
-0.06153617
-0.06612679
0.05470207
0.04780991
0.07864913
0.02876885
-0.07370443
0.10144710
0.03825260
-0.05185416
0.02527120
0.00349285
0.04941181
0.07604035
-0.06798456
0.03914405
-0.02262242
0.05876483
-0.03468460
-0.05172998
0.02999246
-0.02420709
0.08334503
0.00138305
0.00709043
0.08225136
-0.08046997
0.01748346
-0.06875960
-0.06572689
0.01698416
0.00372810
-0.07758885
0.02415638
0.05741053
0.08490350
-0.04820930
-0.05310348
-0.03670667
-0.00428323
-0.00149764
0.11196857
-0.07789736
0.06481346
0.01758845
-0.04221984
-0.08879189
-0.02076129
-0.01981014
-0.06639015
0.08539847
-0.03261415
-0.04492804
-0.10365960
-0.07994033
0.00790670
-0.02855201
0.00268111
0.08013449
-0.01511578
0.08020310
0.09665934
0.02819089
-0.00050060
0.03962009
-0.04231577
0.02034006
-0.04604550
0.04154570
0.04392968
0.00030573
-0.08497165
-0.03504999
0.07205975
0.05053347
0.03234624
0.09983515
-0.05411896
0.08833646
0.02646076
0.04453806
0.07216018
-0.00094430
-0.07550127
-0.09663182
0.03489880
0.07613395
-0.00230430
-0.02704745
-0.03852442
-0.02300468
-0.06276459
0.00857709
-0.10549219
-0.08868004
-0.05485549
0.07890626
0.07762559
0.05150978
-0.08677680
-0.06453506
0.01356857
-0.07805687
-0.05011241
0.04477067
0.03571292
0.02306658
0.08506300
0.04355406
-0.02802469
0.01675609
-0.03413205
0.05689364
0.01947324
0.04711972
-0.01202115
0.03017077
0.02407321
-0.03325871
-0.09685625
-0.01706731
-0.00593982
0.03885142
-0.04532220
-0.03114433
0.08614665
0.09758101
-0.02064638
-0.04040619
0.01104949
-0.07800093
0.04484061
0.08823681
-0.05503562
-0.06090276
-0.01788436
0.11561284
-0.03829511
-0.01726798
0.07468471
0.06756539
-0.03363535
0.01369455
0.05767665
-0.03641002
-0.00563450
-0.00599399
-0.00252808
0.11065881
-0.05187442
0.03701511
-0.05658741
0.04490022
0.03330725
-0.06680140
0.06471266
-0.09790241
-0.00179478
0.05731772
0.07972315
-0.02033169
0.01254458
0.02830858
-0.07001059
0.04781859
0.01744902
-0.01810213
-0.05730382
-0.07371790
-0.09776775
0.06405235
0.07660501
0.09691283
-0.09189240
0.09557198
-0.07924502
0.05779951
0.08247050
-0.07077495
0.01774135
-0.02387880
0.04979470
0.00887816
0.06018820
0.04044538
-0.10142999
0.05476116
-0.09959266
-0.01862785
-0.07147362
0.08171586
-0.08973362
-0.05580802
-0.08199618
-0.05631605
0.05363261
-0.03079602
0.00712734
0.09675167
-0.06189141
0.04851056
-0.05628193
-0.01356069
0.02719240
-0.00996923
0.05652632
0.09526397
0.10273353
-0.04857119
-0.07751239
-0.08186049
0.00928682
-0.05411987
-0.03098301
-0.09350140
-0.01565639
0.04755068
-0.04318423
-0.07850621
0.06994942
0.06827771
0.06816433
-0.04987874
0.09541840
0.10770346
-0.06557042
0.05261348
0.09807911
-0.02287490
-0.05005628
-0.03329484
0.01096869
0.07458399
0.04279630
-0.01504871
-0.07224334
0.09123657
-0.06164699
-0.01355805
0.07224377
0.01119499
-0.03771761
0.03089202
0.05720291
0.07555495
0.07862380
0.02996528
0.09918495
-0.07673607
0.02024669
-0.05154726
-0.06035662
-0.00785446
-0.01486099
-0.07114944
0.05135683
0.05367281
0.06010548
0.00038797
0.05756447
-0.04564407
0.03047463
-0.03279073
0.07324436
0.06502581
-0.08206289
0.03708633
0.04001723
0.07042405
0.04785597
0.07463434
-0.05465370
0.07295250
0.01630862
0.03049332
-0.05972207
-0.04183076
-0.02066823
-0.07232665
-0.06899355
-0.07903525
0.08150951
0.00392476
-0.06447999
0.06133820
0.02150227
-0.09464270
-0.00375969
0.01960482
0.01001456
-0.08284740
-0.02734995
-0.02227386
-0.03347111
0.09064512
0.02050484
-0.03021363
0.05492350
0.06261762
0.07721681
-0.05146236
-0.04712755
-0.05510678
-0.06702125
-0.04952743
-0.05751203
-0.02649628
-0.07013025
0.10002557
0.08930955
0.02436816
0.03854177
-0.01738150
0.01871030
-0.02017824
0.00960404
-0.00126300
-0.03380401
0.05434276
0.01373877
0.04896046
0.03166339
0.03669569
0.08698576
0.05489165
0.04468906
0.08354772
-0.01953821
-0.09873118
-0.00210565
-0.00770589
-0.08713198
-0.02557148
-0.06360340
-0.00076448
0.01050655
0.01616984
-0.07665792
-0.00996065
-0.01750156
0.11055838
0.02829528
0.04635988
-0.08992074
-0.01126816
-0.06605072
-0.03633613
-0.07322617
0.00869471
-0.00523987
-0.05183503
0.09187093
0.06313776
-0.03485656
-0.06555975
-0.01338962
-0.01666759
-0.04054494
0.02082704
0.08197957
0.02691028
-0.06183098
0.02789971
-0.03175738
-0.03856221
-0.07027482
0.04947128
0.12113286
0.16498014
0.26359957
-0.28365794
0.20283487
0.20814827
-0.07982619
0.14666346
0.22806104
